svm_type c_svc
kernel_type rbf
gamma 0.0277778
nr_class 2
total_sv 804
rho 0.875221
label 0 1
nr_sv 213 591
SV
1 1:-0.089499 2:-0.284483 3:0.069475 4:-0.638198 5:-0.014074 6:-0.159901 7:0.797992 8:-1.114193 9:-0.78714 10:1.020392 11:-0.090792 12:-0.276306 13:-0.366633 14:-0.204249 15:-0.01449 16:-0.15997 17:0.810697 18:-0.293177 19:-0.796931 20:1.030127 21:-0.173167 22:-0.11336 23:7.767119 24:-0.215313 25:-0.246521 26:-0.121846 27:-0.124626 28:0.621262 29:-0.186002 30:-0.192771 31:-0.403275 32:-0.028156 33:-0.148267 34:-0.0369 35:-0.074045 36:-0.085936 
1 1:-0.089452 2:-0.279805 3:3.474075 4:1.202936 5:0.883447 6:-0.157691 7:2.325462 8:0.889039 9:0.970286 10:0.17731 11:-0.090705 12:-0.262626 13:2.868704 14:1.296284 15:0.969849 16:-0.157759 17:2.363871 18:0.67114 19:0.94823 20:0.191948 21:-0.172218 22:0.04098 23:5.384127 24:0.361561 25:0.203174 26:-0.121187 27:-0.0276 28:9.266604 29:0.18553 30:0.193995 31:-0.403275 32:-0.028156 33:-0.14081 34:12.806116 35:-0.06196 36:-0.06365 
1 1:-0.089502 2:-0.284924 3:1.424477 4:-0.638198 5:-0.014074 6:-0.152961 7:1.170827 8:1.360379 9:-0.81669 10:1.016071 11:-0.090792 12:-0.275462 13:1.719575 14:-0.658887 15:-0.013043 16:-0.153028 17:1.190826 18:1.10745 19:-0.824419 20:1.02808 21:-0.173144 22:-0.109633 23:3.744163 24:-0.260021 25:-0.227122 26:-0.12183 27:-0.121855 28:0.331394 29:-0.221907 30:-0.196341 31:-0.403275 32:-0.028156 33:-0.147928 34:-0.086203 35:-0.074168 36:-0.085949 
1 1:-0.089495 2:-0.284083 3:1.243024 4:-0.638198 5:-0.014074 6:-0.152382 7:0.559771 8:1.453339 9:-0.81669 10:1.013897 11:-0.09078 12:-0.274589 13:1.536179 14:-0.658887 15:-0.001765 16:-0.152448 17:0.569355 18:1.471703 19:-0.824419 20:1.025635 21:-0.172781 22:-0.050558 23:0.43345 24:-0.260021 25:-0.231131 26:-0.121607 27:-0.089303 28:0.423705 29:-0.221907 30:-0.167567 31:-0.403275 32:-0.028156 33:-0.145818 34:-0.036688 35:-0.074168 36:-0.086015 
1 1:-0.089498 2:-0.283845 3:1.938843 4:-0.638198 5:-0.014074 6:-0.152622 7:0.812913 8:0.680519 9:-0.81669 10:1.024264 11:-0.090775 12:-0.274557 13:2.467754 14:-0.658887 15:-0.038039 16:-0.152687 17:0.824927 18:0.830801 19:-0.824419 20:1.031555 21:-0.172961 22:-0.079796 23:4.141801 24:-0.260021 25:-0.198143 26:-0.121687 27:-0.101603 28:8.025746 29:-0.221907 30:-0.162143 31:-0.403275 32:-0.028156 33:-0.14677 34:12.780328 35:-0.074168 36:-0.085575 
1 1:-0.089462 2:-0.280794 3:1.413872 4:-0.638198 5:-0.014074 6:-0.152147 7:0.312087 8:1.361134 9:-0.81669 10:1.012508 11:-0.090765 12:-0.272426 13:1.993785 14:-0.658887 15:-0.022603 16:-0.152212 17:0.315952 18:1.28966 19:-0.824419 20:1.002391 21:-0.172433 22:0.005907 23:1.172503 24:-0.260021 25:-0.048899 26:-0.121336 27:-0.049184 28:-0.033153 29:-0.221907 30:-0.084207 31:-0.403275 32:-0.028156 33:-0.143151 34:-0.146998 35:-0.074168 36:-0.084276 
1 1:-0.089495 2:-0.284097 3:-0.070917 4:-0.152097 5:-0.014074 6:-0.159775 7:0.664478 8:-1.114061 9:-0.759649 10:1.0166 11:-0.090791 12:-0.276153 13:-0.359905 14:-0.047764 15:0.03458 16:-0.159845 17:0.676415 18:0.062827 19:-0.771663 20:1.018524 21:-0.173135 22:-0.10826 23:8.455452 24:-0.226665 25:-0.193679 26:-0.121837 27:-0.123381 28:10.946875 29:-0.197996 30:-0.165115 31:-0.403275 32:-0.028156 33:-0.14809 34:15.657964 35:-0.074168 36:-0.085531 
1 1:-0.089495 2:-0.284128 3:0.905241 4:0.018752 5:-0.014074 6:-0.159604 7:0.484562 8:-1.114193 9:-0.740911 10:0.999018 11:-0.090789 12:-0.275909 13:-0.366633 14:0.011567 15:0.100283 16:-0.159674 17:0.492896 18:-0.392346 19:-0.748261 20:1.003492 21:-0.173083 22:-0.099789 23:6.873785 24:-0.174902 25:-0.248014 26:-0.121818 27:-0.120632 28:1.777502 29:-0.166239 30:-0.207155 31:-0.403275 32:-0.028156 33:-0.147888 34:0.48937 35:-0.073978 36:-0.086088 
1 1:-0.089509 2:-0.285441 3:0.715602 4:-0.638198 5:-0.014074 6:-0.160268 7:1.184585 8:0.605179 9:-0.810048 10:1.003023 11:-0.090792 12:-0.276264 13:1.689373 14:-0.433252 15:0.037906 16:-0.160338 17:1.205211 18:-0.041029 19:-0.819144 20:1.013779 21:-0.173228 22:-0.123402 23:8.192491 24:-0.243493 25:-0.19479 26:-0.12189 27:-0.131225 28:12.280931 29:-0.219481 30:-0.154203 31:-0.403275 32:-0.028156 33:-0.1485 34:22.105238 35:-0.074168 36:-0.08549 
1 1:-0.089506 2:-0.285191 3:0.299455 4:-0.638198 5:-0.014074 6:-0.160714 7:1.654464 8:1.643463 9:-0.81669 10:1.017751 11:-0.09079 12:-0.276086 13:0.033287 14:-0.658887 15:-0.038081 16:-0.160785 17:1.683922 18:0.909594 19:-0.824419 20:1.022748 21:-0.173209 22:-0.120303 23:7.843604 24:-0.260021 25:-0.2292 26:-0.121875 27:-0.12901 28:14.262637 29:-0.221907 30:-0.18059 31:-0.403275 32:-0.028156 33:-0.148211 34:27.023418 35:-0.074168 36:-0.086015 
1 1:-0.089496 2:-0.284202 3:0.178628 4:0.084913 5:0.16543 6:-0.159464 7:0.33652 8:-0.305389 9:-0.677598 10:0.958655 11:-0.090786 12:-0.275559 13:1.231332 14:0.300946 15:0.205342 16:-0.159533 17:0.341959 18:0.216411 19:-0.688669 20:0.969381 21:-0.173012 22:-0.088142 23:9.049659 24:-0.116563 25:-0.166806 26:-0.12173 27:-0.107634 28:12.888308 29:-0.12099 30:-0.136176 31:-0.403275 32:-0.028156 33:-0.147281 34:29.661997 35:-0.073315 36:-0.085288 
1 1:-0.089496 2:-0.284236 3:-0.204137 4:-0.638198 5:-0.014074 6:-0.156824 7:1.411114 8:1.720528 9:-0.81669 10:1.0251 11:-0.090795 12:-0.276625 13:-0.338157 14:-0.658887 15:-0.038669 16:-0.156892 17:1.434417 18:1.614491 19:-0.824419 20:1.023536 21:-0.173216 22:-0.121371 23:1.183447 24:-0.260021 25:-0.233667 26:-0.121878 27:-0.129395 28:-0.31638 29:-0.221907 30:-0.192096 31:-0.403275 32:-0.028156 33:-0.148252 34:-0.162844 35:-0.074168 36:-0.086039 
1 1:-0.089496 2:-0.284148 3:-0.079521 4:-0.638198 5:-0.014074 6:-0.156514 7:1.083784 8:1.720437 9:-0.806443 10:1.013204 11:-0.090795 12:-0.27664 13:-0.330859 14:-0.378178 15:0.006419 16:-0.156581 17:1.101113 18:1.673014 19:-0.811506 20:1.019036 21:-0.17316 22:-0.112308 23:0.54809 24:-0.213885 25:-0.23745 26:-0.121821 27:-0.121043 28:-0.343375 29:-0.186492 30:-0.173168 31:-0.403275 32:-0.028156 33:-0.147973 34:-0.163017 35:-0.07405 36:-0.085681 
1 1:-0.089498 2:-0.283648 3:1.746299 4:0.064962 5:0.16543 6:-0.154054 7:2.322995 8:1.371591 9:-0.676347 10:0.918314 11:-0.090787 12:-0.275784 13:2.541428 14:0.172756 15:0.283897 16:-0.15412 17:2.361168 18:1.370749 19:-0.680357 20:0.913194 21:-0.173019 22:-0.089438 23:-0.154231 24:-0.072974 25:-0.059185 26:-0.121748 27:-0.110081 28:-0.136661 29:-0.12558 30:-0.04603 31:-0.403275 32:-0.028156 33:-0.147454 34:-0.153731 35:-0.073542 36:-0.082796 
1 1:-0.089501 2:-0.284639 3:2.630489 4:-0.638198 5:-0.014074 6:-0.153708 7:1.957538 8:1.364695 9:-0.793911 10:1.001601 11:-0.090795 12:-0.275255 13:2.625961 14:-0.232656 15:0.023321 16:-0.153774 17:1.99086 18:1.36413 19:-0.809034 20:1.003786 21:-0.17321 22:-0.120264 23:-0.163704 24:-0.234244 25:-0.195513 26:-0.121862 27:-0.127087 28:-0.120727 29:-0.18852 30:-0.120783 31:-0.403275 32:-0.028156 33:-0.148275 34:-0.15579 35:-0.07415 36:-0.084771 
1 1:-0.089502 2:-0.284812 3:0.298661 4:-0.638198 5:-0.014074 6:-0.160307 7:1.225322 8:0.723421 9:-0.812176 10:0.996145 11:-0.090793 12:-0.276405 13:1.636388 14:-0.475115 15:0.065112 16:-0.160376 17:1.246034 18:0.472747 19:-0.818433 20:1.005431 21:-0.173233 22:-0.124205 23:8.079902 24:-0.242353 25:-0.192027 26:-0.121875 27:-0.12891 28:12.489619 29:-0.207143 30:-0.169851 31:-0.403275 32:-0.028156 33:-0.148369 34:30.040266 35:-0.074162 36:-0.085561 
1 1:-0.089504 2:-0.284599 3:2.693498 4:-0.608271 5:0.16543 6:-0.153923 7:2.184712 8:1.349131 9:-0.782858 10:0.985428 11:-0.090793 12:-0.275169 13:3.724154 14:-0.187592 15:0.091185 16:-0.153989 17:2.221215 18:1.360226 19:-0.787432 20:0.989317 21:-0.173144 22:-0.10968 23:-0.168814 24:-0.163474 25:-0.128302 26:-0.121835 27:-0.123527 28:-0.184992 29:-0.12841 30:-0.092912 31:-0.403275 32:-0.028156 33:-0.14811 34:-0.159435 35:-0.073372 36:-0.083929 
1 1:-0.089506 2:-0.285159 3:1.624254 4:-0.638198 5:0.075678 6:-0.160887 7:1.837289 8:-1.114193 9:-0.81669 10:1.00954 11:-0.090792 12:-0.276224 13:-0.366633 14:-0.658887 15:-0.001825 16:-0.160957 17:1.868113 18:0.339328 19:-0.824419 20:1.012976 21:-0.173179 22:-0.115283 23:8.155392 24:-0.260021 25:-0.235084 26:-0.121863 27:-0.127194 28:3.995362 29:-0.221907 30:-0.195123 31:-0.403275 32:-0.028156 33:-0.148149 34:0.310496 35:-0.074168 36:-0.086001 
1 1:-0.089514 2:-0.285972 3:0.290526 4:-0.638198 5:-0.014074 6:-0.160633 7:1.569028 8:-1.114193 9:-0.81669 10:1.016725 11:-0.090794 12:-0.276607 13:-0.366633 14:-0.658887 15:-0.010313 16:-0.160704 17:1.59688 18:0.672393 19:-0.824419 20:1.02215 21:-0.173239 22:-0.125179 23:8.246743 24:-0.260021 25:-0.215898 26:-0.121909 27:-0.133974 28:6.678988 29:-0.221907 30:-0.205118 31:-0.403275 32:-0.028156 33:-0.148388 34:5.769355 35:-0.074168 36:-0.086073 
1 1:-0.089504 2:-0.285014 3:0.959907 4:-0.638198 5:-0.014074 6:-0.157285 7:1.897333 8:1.720576 9:-0.809966 10:1.001262 11:-0.090793 12:-0.276455 13:-0.339091 14:-0.433479 15:0.030598 16:-0.157354 17:1.930119 18:1.006114 19:-0.818386 20:1.004511 21:-0.173207 22:-0.119869 23:7.085227 24:-0.246624 25:-0.200093 26:-0.121858 27:-0.126489 28:-0.335204 29:-0.220746 30:-0.145121 31:-0.403275 32:-0.028156 33:-0.148197 34:-0.162967 35:-0.074168 36:-0.085041 
1 1:-0.089441 2:-0.278531 3:0.973407 4:-0.638198 5:-0.014074 6:-0.1523 7:0.473556 8:1.298375 9:-0.81669 10:0.996748 11:-0.090768 12:-0.272993 13:1.989861 14:-0.658887 15:0.029858 16:-0.152365 17:0.480505 18:1.187813 19:-0.824419 20:0.988297 21:-0.172502 22:-0.005244 23:1.997197 24:-0.260021 25:0.002054 26:-0.121409 27:-0.060443 28:0.942048 29:-0.221907 30:-0.091496 31:-0.403275 32:-0.028156 33:-0.144065 34:0.179344 35:-0.074168 36:-0.08371 
0.6872135499856796 1:-0.089343 2:-0.277731 3:-0.066896 4:-0.638198 5:-0.73209 6:-0.160855 7:1.055919 8:1.648368 9:-0.81669 10:-1.363088 11:-0.090742 12:-0.285575 13:-0.296409 14:-0.658887 15:-0.712298 16:-0.161148 17:1.531707 18:1.61094 19:-0.824419 20:-0.925956 21:-0.125196 22:3.59427 23:0.605143 24:-0.260021 25:5.77393 26:-0.106233 27:1.090539 28:0.359771 29:-0.221907 30:2.526663 31:-0.403275 32:-0.028149 33:0.080839 34:-0.083285 35:-0.074168 36:0.464886 
1 1:-0.089502 2:-0.284306 3:4.862757 4:-0.638198 5:-0.014074 6:-0.161315 7:2.288687 8:1.097353 9:-0.81669 10:0.969079 11:-0.090779 12:-0.274557 13:3.472126 14:-0.658887 15:0.137106 16:-0.161385 17:2.327562 18:1.352875 19:-0.824419 20:0.965396 21:-0.172862 22:-0.06398 23:1.736725 24:-0.260021 25:-0.122425 26:-0.121633 27:-0.093527 28:2.654605 29:-0.221907 30:-0.07394 31:-0.403275 32:-0.028156 33:-0.146257 34:-0.008084 35:-0.074168 36:-0.083977 
1 1:-0.083298 2:0.053694 3:0.45824 4:-0.638198 5:-0.373082 6:-0.148907 7:1.047358 8:1.627611 9:-0.81669 10:-1.336177 11:-0.090726 12:0.007204 13:0.37169 14:-0.658887 15:-0.403275 16:-0.149299 17:0.9174 18:1.587435 19:-0.824419 20:-1.130182 21:-0.152917 22:1.31846 23:0.313935 24:-0.260021 25:3.202165 26:-0.112216 27:0.28906 28:-0.025102 29:-0.221907 30:0.954573 31:-0.403275 32:-0.028153 33:-0.110076 34:-0.144661 35:-0.074168 36:0.029838 
1 1:-0.089313 2:-0.275554 3:-0.190909 4:-0.638198 5:-0.552586 6:-0.160881 7:1.055919 8:1.647853 9:-0.81669 10:-1.361539 11:-0.090743 12:-0.285573 13:-0.255137 14:-0.658887 15:-0.679223 16:-0.161183 17:1.562063 18:1.611143 19:-0.824419 20:-0.900294 21:-0.124665 22:3.629415 23:0.634208 24:-0.260021 25:5.885498 26:-0.094338 27:2.065314 28:0.889722 29:-0.221907 30:3.547262 31:-0.403275 32:-0.028135 33:0.535754 34:0.051284 35:-0.074168 36:0.916017 
1 1:-0.089444 2:-0.27903 3:3.353394 4:1.293884 5:1.421959 6:-0.158691 7:-0.477836 8:-1.114193 9:-0.055311 10:0.198335 11:-0.090685 12:-0.261625 13:-0.366633 14:0.942112 15:0.926112 16:-0.158759 17:-0.48775 18:-0.183171 19:0.06942 20:0.195553 21:-0.171729 22:0.120558 23:7.651899 24:1.894463 25:0.037474 26:-0.120839 27:0.023687 28:-0.113314 29:0.944637 30:0.014592 31:-0.403275 32:-0.028156 33:-0.132552 34:-0.154867 35:0.043338 36:-0.081024 
1 1:-0.089497 2:-0.28426 3:-0.429861 4:-0.638198 5:-0.014074 6:-0.156629 7:1.205003 8:1.720609 9:-0.806211 10:0.988693 11:-0.090795 12:-0.276664 13:-0.366633 14:-0.375868 15:0.066484 16:-0.156697 17:1.225492 18:1.740853 19:-0.813116 20:1.000841 21:-0.17318 22:-0.11549 23:-0.432834 24:-0.215867 25:-0.193854 26:-0.121851 27:-0.125487 28:-0.3557 29:-0.201987 30:-0.167797 31:-0.403275 32:-0.028156 33:-0.14807 34:-0.163037 35:-0.074145 36:-0.085852 
1 1:-0.085099 2:-0.011686 3:0.582155 4:-0.638198 5:-0.552586 6:-0.148934 7:1.041521 8:1.620526 9:-0.81669 10:-1.326293 11:-0.090724 12:0.102682 13:0.47272 14:-0.658887 15:-0.340187 16:-0.149361 17:0.904354 18:1.576726 19:-0.824419 20:-1.106032 21:-0.151238 22:1.460904 23:0.395753 24:-0.260021 25:3.454651 26:-0.110144 27:0.410503 28:0.020563 29:-0.221907 30:1.219494 31:-0.403275 32:-0.028152 33:-0.090005 34:-0.13857 35:-0.074168 36:0.087433 
0.487658568241126 1:-0.089313 2:-0.275554 3:-0.190909 4:-0.638198 5:-0.552586 6:-0.160903 7:1.055919 8:1.647115 9:-0.81669 10:-1.358154 11:-0.09074 12:-0.285429 13:-0.215125 14:-0.658887 15:-0.631784 16:-0.161219 17:1.594752 18:1.612155 19:-0.824419 20:-0.877111 21:-0.124144 22:3.67094 23:0.656525 24:-0.260021 25:5.970838 26:-0.086198 27:2.727432 28:1.459549 29:-0.221907 30:4.484832 31:-0.403275 32:-0.028126 33:0.860227 34:0.259612 35:-0.074168 36:1.45168 
1 1:-0.089511 2:-0.285666 3:0.106873 4:-0.638198 5:-0.014074 6:-0.160709 7:1.649277 8:-1.114193 9:-0.81669 10:1.008414 11:-0.090795 12:-0.276732 13:-0.366633 14:-0.658887 15:0.016592 16:-0.160779 17:1.677539 18:0.665283 19:-0.824419 20:1.008196 21:-0.17325 22:-0.12695 23:8.304968 24:-0.260021 25:-0.186009 26:-0.121913 27:-0.134549 28:3.153057 29:-0.221907 30:-0.193961 31:-0.403275 32:-0.028156 33:-0.148352 34:-0.132284 35:-0.074168 36:-0.085955 
1 1:-0.085099 2:-0.011686 3:0.582155 4:-0.638198 5:-0.552586 6:-0.148966 7:1.036952 8:1.611995 9:-0.81669 10:-1.317657 11:-0.090725 12:0.172482 13:0.582874 14:-0.658887 15:-0.29214 16:-0.149422 17:0.892129 18:1.564613 19:-0.824419 20:-1.082105 21:-0.149656 22:1.591676 23:0.512367 24:-0.260021 25:3.700985 26:-0.108043 27:0.536027 28:0.086957 29:-0.221907 30:1.479227 31:-0.403275 32:-0.028151 33:-0.064328 34:-0.130312 35:-0.074168 36:0.156825 
1 1:-0.0895 2:-0.284636 3:-0.429861 4:-0.618247 5:-0.014074 6:-0.160287 7:1.204982 8:1.720611 9:-0.798971 10:0.995968 11:-0.090796 12:-0.276818 13:-0.366633 14:-0.29557 15:0.047231 16:-0.160357 17:1.225113 18:1.740866 19:-0.807956 20:1.007094 21:-0.173234 22:-0.124351 23:-0.432988 24:-0.239563 25:-0.158418 26:-0.121885 27:-0.130372 28:-0.355699 29:-0.193101 30:-0.141629 31:-0.403275 32:-0.028156 33:-0.148378 34:-0.163037 35:-0.074129 36:-0.085472 
1 1:-0.087863 2:-0.097972 3:0.993853 4:-0.375756 5:-0.193578 6:-0.152505 7:1.064862 8:1.605108 9:-0.728771 10:-1.31762 11:-0.090726 12:0.180245 13:0.668469 14:-0.011815 15:-0.342813 16:-0.15299 17:1.418279 18:1.477917 19:-0.643605 20:-1.16195 21:-0.14898 22:3.911687 23:1.124238 24:1.136857 25:2.435331 26:-0.105608 27:2.697275 28:0.889158 29:0.613678 30:1.099488 31:-0.403275 32:-0.028146 33:0.816259 34:0.069678 35:-0.016087 36:0.071446 
1 1:-0.085077 2:-0.004425 3:0.929926 4:-0.638198 5:-0.373082 6:-0.148994 7:1.029203 8:1.608132 9:-0.81669 10:-1.304239 11:-0.090724 12:0.268985 13:0.624738 14:-0.658887 15:-0.226005 16:-0.149481 17:0.882096 18:1.552863 19:-0.824419 20:-1.057769 21:-0.148912 22:1.679863 23:0.601358 24:-0.260021 25:3.928288 26:-0.110449 27:0.604144 28:0.111232 29:-0.221907 30:1.665723 31:-0.403275 32:-0.028152 33:-0.043805 34:-0.12527 35:-0.074168 36:0.216983 
0.5970557492515036 1:-0.089311 2:-0.274459 3:-0.229172 4:-0.638198 5:-0.462834 6:-0.160956 7:1.055926 8:1.644587 9:-0.81669 10:-1.3419 11:-0.090748 12:-0.27822 13:-0.122972 14:-0.658887 15:-0.502395 16:-0.161284 17:1.64994 18:1.61346 19:-0.824419 20:-0.837771 21:-0.124002 22:3.684942 23:0.760017 24:-0.260021 25:6.113062 26:-0.071989 27:3.891177 28:2.007663 29:-0.221907 30:6.17926 31:-0.403275 32:-0.028097 33:1.842841 34:0.534951 35:-0.074168 36:2.786378 
1 1:-0.087863 2:-0.097972 3:0.993853 4:-0.375756 5:-0.193578 6:-0.152533 7:1.07845 8:1.591624 9:-0.716958 10:-1.303417 11:-0.090722 12:0.432997 13:0.800891 14:0.032004 15:-0.284863 16:-0.153041 17:1.446617 18:1.46938 19:-0.627643 20:-1.144089 21:-0.148404 22:4.041458 23:1.142485 24:1.234292 25:2.580437 26:-0.100214 27:3.390198 28:1.176278 29:0.731185 30:1.365451 31:-0.403275 32:-0.028141 33:1.301874 34:0.182847 35:0.00218 36:0.133617 
1 1:-0.089449 2:-0.279334 3:1.255808 4:-0.638198 5:0.16543 6:-0.152404 7:0.583737 8:1.213107 9:-0.81669 10:0.940665 11:-0.090779 12:-0.274084 13:2.226524 14:-0.658887 15:0.188235 16:-0.152468 17:0.59095 18:1.078032 19:-0.824419 20:0.934562 21:-0.172531 22:-0.00994 23:1.818969 24:-0.260021 25:0.246511 26:-0.121383 27:-0.056371 28:1.534096 29:-0.221907 30:0.071228 31:-0.403275 32:-0.028156 33:-0.143971 34:0.44042 35:-0.074168 36:-0.075351 
0.3294635870409783 1:-0.089319 2:-0.274668 3:-0.11463 4:-0.638198 5:-0.373082 6:-0.160979 7:1.055996 8:1.643046 9:-0.81669 10:-1.329402 11:-0.090756 12:-0.262601 13:-0.081101 14:-0.658887 15:-0.435833 16:-0.161314 17:1.674492 18:1.614602 19:-0.824419 20:-0.822262 21:-0.123564 22:3.735638 23:0.838045 24:-0.260021 25:6.18473 26:-0.061921 27:4.718756 28:2.205541 29:-0.221907 30:6.961051 31:-0.403275 32:-0.028073 33:2.656002 34:0.663563 35:-0.074168 36:3.549653 
1 1:-0.08948 2:-0.282664 3:-0.429861 4:1.231548 5:0.793695 6:-0.155938 7:0.477371 8:1.720611 9:0.678047 10:0.539045 11:-0.090775 12:-0.274089 13:-0.366633 14:1.306787 15:0.835851 16:-0.156005 17:0.4842 18:1.740866 19:0.636665 20:0.56629 21:-0.172749 22:-0.045357 23:-0.432989 24:1.655967 25:0.507421 26:-0.121549 27:-0.080929 28:-0.355697 29:1.022284 30:0.453705 31:-0.403275 32:-0.028156 33:-0.145685 34:-0.163037 35:0.074074 36:-0.041423 
1 1:-0.086496 2:0.064673 3:0.993853 4:-0.292506 5:0.075678 6:-0.152561 7:1.091299 8:1.590044 9:-0.702387 10:-1.297907 11:-0.09072 12:0.592964 13:0.824457 14:0.07777 15:-0.269249 16:-0.153091 17:1.474783 18:1.463382 19:-0.613424 20:-1.128864 21:-0.147599 22:4.179147 23:1.145195 24:1.306892 25:2.684938 26:-0.095472 27:3.967369 28:1.361118 29:0.869969 30:1.493177 31:-0.403275 32:-0.028134 33:1.82591 34:0.269349 35:0.026887 36:0.16803 
1 1:-0.089504 2:-0.285216 3:1.69844 4:-0.638198 5:-0.014074 6:-0.153535 7:1.776355 8:1.28745 9:-0.81669 10:0.97752 11:-0.090792 12:-0.276073 13:2.037211 14:-0.658887 15:0.145249 16:-0.153602 17:1.805801 18:1.095685 19:-0.824419 20:0.981472 21:-0.173262 22:-0.128815 23:2.47328 24:-0.260021 25:-0.166278 26:-0.121911 27:-0.133642 28:-0.169058 29:-0.221907 30:-0.013804 31:-0.403275 32:-0.028156 33:-0.148278 34:-0.161085 35:-0.074168 36:-0.080778 
1 1:-0.085121 2:-0.003886 3:1.07135 4:-0.638198 5:-0.193578 6:-0.149052 7:1.012294 8:1.599643 9:-0.81669 10:-1.282197 11:-0.090724 12:0.429117 13:0.705837 14:-0.658887 15:-0.13346 16:-0.149594 17:0.863836 18:1.531807 19:-0.824419 20:-1.016697 21:-0.146831 22:1.87736 23:0.790804 24:-0.260021 25:4.297299 26:-0.106976 27:0.767726 28:0.161418 29:-0.221907 30:2.017447 31:-0.403275 32:-0.028149 33:0.012544 34:-0.114673 35:-0.074168 36:0.358703 
1 1:-0.089445 2:-0.279586 3:1.067139 4:-0.638198 5:-0.014074 6:-0.152691 7:0.885624 8:1.325528 9:-0.81669 10:0.98044 11:-0.090778 12:-0.274218 13:1.797964 14:-0.658887 15:0.103766 16:-0.152756 17:0.899028 18:1.3423 19:-0.824419 20:0.985248 21:-0.172854 22:-0.062464 23:-0.357143 24:-0.260021 25:-0.148857 26:-0.121629 27:-0.092359 28:-0.313047 29:-0.221907 30:-0.154294 31:-0.403275 32:-0.028156 33:-0.146273 34:-0.162764 35:-0.074168 36:-0.085297 
0.6537735540226973 1:-0.089419 2:-0.290814 3:-0.429861 4:-0.53098 5:-0.552586 6:-0.157525 7:1.055919 8:1.64869 9:-0.789185 10:-1.363743 11:-0.090744 12:-0.285575 13:-0.366528 14:-0.335994 15:-0.729694 16:-0.157749 17:0.792732 18:1.38794 19:-0.711271 20:-1.180732 21:-0.149181 22:4.219754 23:4.368004 24:0.900625 25:3.440834 26:-0.121542 27:-0.286472 28:-0.355687 29:0.087193 30:-0.189339 31:-0.403275 32:-0.028156 33:-0.152574 34:-0.163037 35:-0.066956 36:-0.085903 
1 1:-0.08949 2:-0.28354 3:0.991933 4:-0.638198 5:0.075678 6:-0.153107 7:1.324035 8:1.310769 9:-0.81669 10:0.989789 11:-0.090794 12:-0.276188 13:1.700644 14:-0.658887 15:0.065715 16:-0.153173 17:1.34591 18:1.267688 19:-0.824419 20:1.001839 21:-0.17314 22:-0.109168 23:0.456635 24:-0.260021 25:-0.213899 26:-0.121823 27:-0.121898 28:-0.300278 29:-0.221907 30:-0.114109 31:-0.403275 32:-0.028156 33:-0.147776 34:-0.162547 35:-0.074168 36:-0.084893 
1 1:-0.089487 2:-0.283212 3:6.686549 4:-0.638198 5:0.16543 6:-0.161467 7:2.448776 8:1.189083 9:-0.81669 10:0.893702 11:-0.090782 12:-0.274989 13:2.668958 14:-0.658887 15:0.335732 16:-0.161537 17:2.489871 18:0.426812 19:-0.824419 20:0.90269 21:-0.172888 22:-0.068104 23:7.547666 24:-0.260021 25:-0.089713 26:-0.121661 27:-0.097423 28:9.041441 29:-0.221907 30:-0.11919 31:-0.403275 32:-0.028156 33:-0.146501 34:11.507499 35:-0.074168 36:-0.085611 
1 1:-0.089514 2:-0.285946 3:1.147248 4:-0.638198 5:-0.014074 6:-0.160531 7:1.461631 8:-1.114192 9:-0.812434 10:0.965902 11:-0.090796 12:-0.276822 13:-0.365467 14:-0.477115 15:0.161821 16:-0.160601 17:1.486967 18:0.643007 19:-0.820774 20:0.970095 21:-0.173266 22:-0.129516 23:8.272759 24:-0.241068 25:-0.228655 26:-0.121913 27:-0.134536 28:10.188833 29:-0.205671 30:-0.136896 31:-0.403275 32:-0.028156 33:-0.148419 34:13.852896 35:-0.074148 36:-0.085024 
1 1:-0.08648 2:0.068225 3:0.885622 4:-0.194817 5:0.075678 6:-0.152644 7:1.133342 8:1.562183 9:-0.663721 10:-1.277363 11:-0.090729 12:0.939275 13:1.083289 14:0.171992 15:-0.203263 16:-0.153229 17:1.545422 18:1.453973 19:-0.575493 20:-1.109789 21:-0.146345 22:4.44289 23:1.154468 24:1.482278 25:2.776911 26:-0.092448 27:4.882447 28:1.794565 29:1.214003 30:1.833219 31:-0.403275 32:-0.028127 33:2.925084 34:0.523828 35:0.098872 36:0.283431 
1 1:-0.085136 2:-0.008922 3:1.07135 4:-0.638198 5:0.075679 6:-0.149458 7:0.982601 8:1.60398 9:-0.81669 10:-1.252913 11:-0.073804 12:0.666597 13:0.662031 14:-0.658887 15:-0.030937 16:-0.149743 17:0.845304 18:1.517541 19:-0.824419 20:-0.977946 21:-0.143742 22:2.173231 23:1.069102 24:-0.260021 25:4.649093 26:-0.10645 27:0.853896 28:0.107647 29:-0.221907 30:2.35773 31:-0.403275 32:-0.028148 33:0.052435 34:-0.122155 35:-0.074168 36:0.506872 
1 1:-0.089362 2:-0.278793 3:0.306982 4:-0.638198 5:-0.193578 6:-0.161079 7:1.055919 8:1.648036 9:-0.81669 10:-1.333713 11:-0.090775 12:-0.284694 13:-0.278798 14:-0.658887 15:-0.495031 16:-0.161427 17:1.758314 18:1.260359 19:-0.824419 20:-0.789617 21:-0.121812 22:3.970065 23:5.353657 24:-0.260021 25:6.331389 26:-0.03993 27:6.569139 28:2.087572 29:-0.221907 30:8.908532 31:-0.403275 32:-0.028004 33:5.112121 34:0.610445 35:-0.074168 36:5.682446 
1 1:-0.089455 2:-0.280055 3:5.573922 4:-0.638198 5:1.062951 6:-0.161694 7:2.687775 8:1.72061 9:-0.81669 10:0.191562 11:-0.090739 12:-0.268927 13:-0.366633 14:-0.658887 15:0.807414 16:-0.161764 17:2.733561 18:0.818666 19:-0.824419 20:0.209738 21:-0.171893 22:0.093929 23:7.682801 24:-0.260021 25:0.363986 26:-0.120992 27:0.001125 28:-0.355706 29:-0.221907 30:0.141524 31:-0.403275 32:-0.028156 33:-0.138802 34:-0.163037 35:-0.074168 36:-0.071555 
1 1:-0.089492 2:-0.283839 3:6.686549 4:-0.638198 5:0.434686 6:-0.161485 7:2.467839 8:-0.783253 9:-0.81669 10:0.89819 11:-0.090782 12:-0.275003 13:1.517171 14:-0.658887 15:0.319936 16:-0.161555 17:2.509936 18:0.398847 19:-0.824419 20:0.89407 21:-0.172894 22:-0.069039 23:7.434358 24:-0.260021 25:-0.066872 26:-0.121661 27:-0.09739 28:12.375497 29:-0.221907 30:-0.110445 31:-0.403275 32:-0.028156 33:-0.146439 34:21.000813 35:-0.074168 36:-0.084705 
0.437477465048514 1:-0.089362 2:-0.278793 3:0.306982 4:-0.638198 5:-0.193578 6:-0.161102 7:1.055919 8:1.648542 9:-0.81669 10:-1.339608 11:-0.090776 12:-0.285434 13:-0.327067 14:-0.658887 15:-0.530632 16:-0.161452 17:1.77319 18:1.199426 19:-0.824419 20:-0.786944 21:-0.12159 22:4.015647 23:5.693226 24:-0.260021 25:6.347997 26:-0.037986 27:6.741354 28:3.45486 29:-0.221907 30:9.267035 31:-0.403275 32:-0.027997 33:5.381335 34:1.951478 35:-0.074168 36:6.112092 
1 1:-0.089504 2:-0.285028 3:-0.429861 4:-0.352676 5:0.255182 6:-0.160099 7:1.006457 8:1.720609 9:-0.76809 10:0.919937 11:-0.090792 12:-0.276274 13:-0.366633 14:-0.077244 15:0.239725 16:-0.160169 17:1.023434 18:1.740865 19:-0.777984 20:0.93936 21:-0.173175 22:-0.114732 23:-0.432989 24:-0.216146 25:-0.178907 26:-0.121839 27:-0.123712 28:-0.355704 29:-0.192781 30:-0.087285 31:-0.403275 32:-0.028156 33:-0.148024 34:-0.163037 35:-0.074129 36:-0.083851 
1 1:-0.08951 2:-0.285781 3:1.023103 4:-0.638198 5:-0.014074 6:-0.153485 7:1.722691 8:1.287136 9:-0.81669 10:0.992091 11:-0.0908 12:-0.275975 13:1.916414 14:-0.658887 15:0.085871 16:-0.153552 17:1.752331 18:1.305144 19:-0.824419 20:0.99405 21:-0.173259 22:-0.128334 23:0.146761 24:-0.260021 25:-0.220863 26:-0.121909 27:-0.134304 28:-0.219499 29:-0.221907 30:-0.13792 31:-0.403275 32:-0.028156 33:-0.148276 34:-0.159234 35:-0.074168 36:-0.08518 
1 1:-0.085098 2:-0.005071 3:0.951207 4:-0.638198 5:0.075679 6:-0.149198 7:0.991412 8:1.598496 9:-0.81669 10:-1.254364 11:-0.090726 12:0.619383 13:0.704521 14:-0.658887 15:-0.043031 16:-0.149813 17:0.846291 18:1.523924 19:-0.824419 20:-0.972521 21:-0.14341 22:2.228086 23:1.125672 24:-0.260021 25:4.688875 26:-0.106725 27:0.864814 28:-0.068808 29:-0.221907 30:2.374346 31:-0.403275 32:-0.028149 33:0.060626 34:-0.146851 35:-0.074168 36:0.516834 
0.4257960285814337 1:-0.089367 2:-0.278391 3:1.45483 4:-0.638198 5:-0.193578 6:-0.161128 7:1.055919 8:1.648675 9:-0.81669 10:-1.342076 11:-0.090773 12:-0.285557 13:-0.353163 14:-0.658887 15:-0.554252 16:-0.161477 17:1.788127 18:1.170806 19:-0.824419 20:-0.785089 21:-0.121386 22:4.062219 23:5.881036 24:-0.260021 25:6.348537 26:-0.038199 27:6.766503 28:6.4255 29:-0.221907 30:9.302426 31:-0.403275 32:-0.027997 33:5.4189 34:6.190003 35:-0.074168 36:6.137793 
0.4511266854648399 1:-0.089367 2:-0.278391 3:1.45483 4:-0.638198 5:-0.193578 6:-0.161152 7:1.055919 8:1.648686 9:-0.81669 10:-1.344847 11:-0.090773 12:-0.285575 13:-0.362172 14:-0.658887 15:-0.568422 16:-0.161499 17:1.79418 18:1.156998 19:-0.824419 20:-0.789115 21:-0.121584 22:4.062948 23:5.926991 24:-0.260021 25:6.291281 26:-0.038535 27:6.809753 28:9.999067 29:-0.221907 30:9.567827 31:-0.403275 32:-0.027999 33:5.478741 34:13.560523 35:-0.074168 36:6.482515 
1 1:-0.085441 2:0.218908 3:0.716547 4:0.208084 5:0.075678 6:-0.152938 7:1.185184 8:1.600815 9:-0.647535 10:-1.287912 11:-0.080368 12:1.247583 13:0.718772 14:0.205963 15:-0.244244 16:-0.153371 17:1.604129 18:1.475289 19:-0.566343 20:-1.124519 21:-0.145887 22:4.603787 23:1.033314 24:1.466795 25:2.518584 26:-0.087856 27:5.4421 28:1.741576 29:1.330728 30:1.765843 31:-0.403275 32:-0.028118 33:3.681531 34:0.443438 35:0.128907 36:0.261493 
1 1:-0.089371 2:-0.278127 3:1.45483 4:-0.638198 5:-0.193578 6:-0.161177 7:1.055919 8:1.648687 9:-0.81669 10:-1.341244 11:-0.090771 12:-0.285572 13:-0.365829 14:-0.658887 15:-0.551523 16:-0.16152 17:1.797899 18:1.182886 19:-0.824419 20:-0.793671 21:-0.121926 22:4.054573 23:5.884784 24:-0.260021 25:6.231607 26:-0.038844 27:6.848472 28:11.210998 29:-0.221907 30:9.688902 31:-0.403275 32:-0.028 33:5.533767 34:16.375788 35:-0.074168 36:6.662066 
1 1:-0.089509 2:-0.285531 3:-0.429861 4:-0.638198 5:0.16543 6:-0.160472 7:1.399978 8:1.72061 9:-0.802345 10:0.956579 11:-0.090796 12:-0.276818 13:-0.366633 14:-0.330344 15:0.159258 16:-0.160542 17:1.423711 18:1.740866 19:-0.812839 20:0.961118 21:-0.173259 22:-0.128344 23:-0.432988 24:-0.228798 25:-0.179134 26:-0.12191 27:-0.134045 28:-0.355697 29:-0.193809 30:-0.143817 31:-0.403275 32:-0.028156 33:-0.148405 34:-0.163037 35:-0.074138 36:-0.086014 
1 1:-0.089483 2:-0.28294 3:-0.132415 4:1.24024 5:1.152703 6:-0.159423 7:0.29355 8:1.720609 9:1.080252 10:0.326579 11:-0.090774 12:-0.27392 13:-0.366633 14:1.341675 15:0.87147 16:-0.159491 17:0.297182 18:1.590814 19:1.079667 20:0.329712 21:-0.172785 22:-0.051224 23:2.437571 24:-0.032052 25:0.026878 26:-0.121548 27:-0.080731 28:-0.3557 29:0.05773 30:0.066547 31:-0.403275 32:-0.028156 33:-0.145828 34:-0.163037 35:-0.069052 36:-0.078343 
1 1:-0.089493 2:-0.283869 3:-0.429861 4:1.314903 5:1.062951 6:-0.1592 7:0.058827 8:1.72061 9:1.323262 10:0.204632 11:-0.090762 12:-0.27247 13:-0.366633 14:1.454993 15:0.876643 16:-0.159269 17:0.059447 18:1.740866 19:1.286555 20:0.191541 21:-0.172523 22:-0.008621 23:-0.432991 24:0.354035 25:0.089666 26:-0.121386 27:-0.056943 28:-0.355699 29:0.214749 30:0.064759 31:-0.403275 32:-0.028156 33:-0.143521 34:-0.163037 35:-0.059614 36:-0.07897 
1 1:-0.089509 2:-0.285495 3:0.784537 4:-0.061381 5:0.434687 6:-0.156501 7:1.07056 8:1.571331 9:-0.76554 10:0.971497 11:-0.09079 12:-0.276072 13:0.761014 14:-0.069166 15:0.0896 16:-0.15657 17:1.09001 18:1.457662 19:-0.770258 20:0.964347 21:-0.173071 22:-0.097795 23:1.924098 24:-0.201104 25:-0.117709 26:-0.121763 27:-0.112476 28:1.250289 29:-0.187448 30:-0.147267 31:-0.403275 32:-0.028156 33:-0.147456 34:0.293666 35:-0.074121 36:-0.085654 
1 1:-0.08561 2:0.214322 3:1.113344 4:0.208084 5:-0.014074 6:-0.152876 7:1.182148 8:1.602841 9:-0.642571 10:-1.275906 11:-0.082944 12:1.210118 13:0.702567 14:0.216208 15:-0.201844 16:-0.153394 17:1.612539 18:1.48663 19:-0.567757 20:-1.127822 21:-0.145893 22:4.611315 23:0.966856 24:1.454157 25:2.450888 26:-0.088551 27:5.411258 28:1.60424 29:1.277868 30:1.722855 31:-0.403275 32:-0.028118 33:3.684825 34:0.363834 35:0.117062 36:0.249533 
1 1:-0.089503 2:-0.284081 3:2.286518 4:-0.638198 5:0.075678 6:-0.153385 7:1.617441 8:1.294623 9:-0.81669 10:0.953293 11:-0.090801 12:-0.277021 13:1.910098 14:-0.658887 15:0.187968 16:-0.153451 17:1.644631 18:0.812552 19:-0.824419 20:0.962906 21:-0.173227 22:-0.12314 23:4.323509 24:-0.260021 25:-0.178262 26:-0.121883 27:-0.130748 28:2.453107 29:-0.221907 30:-0.165962 31:-0.403275 32:-0.028156 33:-0.148127 34:1.033251 35:-0.074168 36:-0.085782 
0.3835981258092255 1:-0.089371 2:-0.278127 3:1.45483 4:-0.638198 5:-0.193578 6:-0.161202 7:1.055919 8:1.648687 9:-0.81669 10:-1.334149 11:-0.090765 12:-0.285549 13:-0.36642 14:-0.658887 15:-0.514082 16:-0.161541 17:1.801477 18:1.261891 19:-0.824419 20:-0.799403 21:-0.12229 22:4.048875 23:5.412405 24:-0.260021 25:6.166428 26:-0.042993 27:6.527448 28:9.978929 29:-0.221907 30:9.516623 31:-0.403275 32:-0.028015 33:5.04698 34:13.575275 35:-0.074168 36:6.469808 
0.7589279479472497 1:-0.089374 2:-0.277715 3:1.109089 4:-0.638198 5:-0.193578 6:-0.161228 7:1.055919 8:1.648647 9:-0.81669 10:-1.325158 11:-0.090763 12:-0.285361 13:-0.335004 14:-0.658887 15:-0.461981 16:-0.16156 17:1.802524 18:1.391615 19:-0.824419 20:-0.808655 21:-0.12275 22:4.034197 23:4.276996 24:-0.260021 25:6.068544 26:-0.047157 27:6.209812 28:6.864397 29:-0.221907 30:9.253109 31:-0.403275 32:-0.028029 33:4.573259 34:6.978504 35:-0.074168 36:6.155532 
1 1:-0.089505 2:-0.285081 3:-0.429861 4:-0.638198 5:0.255183 6:-0.157474 7:2.096116 8:1.720486 9:-0.812565 10:0.906677 11:-0.090797 12:-0.276881 13:-0.322395 14:-0.476528 15:0.303438 16:-0.157542 17:2.131705 18:1.739333 19:-0.822375 20:0.923183 21:-0.173286 22:-0.13271 23:-0.3964 24:-0.245758 25:-0.13842 26:-0.121927 27:-0.136656 28:-0.353594 29:-0.195864 30:-0.084362 31:-0.403275 32:-0.028156 33:-0.148316 34:-0.163036 35:-0.074129 36:-0.084441 
1 1:-0.089483 2:-0.282858 3:0.242504 4:1.446139 5:0.883447 6:-0.156127 7:0.675986 8:1.720582 9:0.834344 10:0.509806 11:-0.090777 12:-0.274318 13:-0.354465 14:1.347596 15:0.821317 16:-0.156194 17:0.686651 18:1.645743 19:0.714752 20:0.513466 21:-0.172752 22:-0.045911 23:1.162237 24:1.805364 25:0.252793 26:-0.121551 27:-0.081274 28:-0.350523 29:1.191311 30:0.126395 31:-0.403275 32:-0.028156 33:-0.145839 34:-0.163033 35:0.088631 36:-0.071403 
0.06343298735063743 1:-0.089374 2:-0.277715 3:1.109089 4:-0.638198 5:-0.193578 6:-0.161252 7:1.05592 8:1.648183 9:-0.81669 10:-1.324087 11:-0.090762 12:-0.283813 13:-0.252215 14:-0.658887 15:-0.443527 16:-0.161579 17:1.801028 18:1.49853 19:-0.824419 20:-0.820451 21:-0.12329 22:4.01069 23:3.121931 24:-0.260021 25:5.944466 26:-0.051354 27:5.896661 28:4.396327 29:-0.221907 30:8.657335 31:-0.403275 32:-0.028043 33:4.116186 34:2.785015 35:-0.074168 36:5.418269 
1 1:-0.089507 2:-0.28533 3:3.864865 4:-0.638198 5:0.255182 6:-0.160677 7:1.615545 8:-0.578353 9:-0.808343 10:0.942912 11:-0.090798 12:-0.277013 13:1.250252 14:-0.399468 15:0.233344 16:-0.160748 17:1.64401 18:-0.102338 19:-0.818159 20:0.947393 21:-0.17329 22:-0.133375 23:8.221443 24:-0.248566 25:-0.189503 26:-0.121924 27:-0.136124 28:10.576225 29:-0.210309 30:-0.14323 31:-0.403275 32:-0.028156 33:-0.148458 34:15.587257 35:-0.074163 36:-0.085392 
1 1:-0.089508 2:-0.285371 3:2.521782 4:-0.530981 5:0.703943 6:-0.160389 7:1.311721 8:-1.114193 9:-0.787601 10:0.929881 11:-0.090795 12:-0.276671 13:-0.366631 14:-0.188989 15:0.182393 16:-0.160459 17:1.334686 18:0.664632 19:-0.795974 20:0.931392 21:-0.173235 22:-0.124513 23:8.149363 24:-0.235276 25:-0.118874 26:-0.121883 27:-0.130188 28:6.531141 29:-0.204892 30:-0.102483 31:-0.403275 32:-0.028156 33:-0.148229 34:5.265569 35:-0.074164 36:-0.085015 
1 1:-0.086614 2:0.073274 3:0.925014 4:0.060231 5:0.434687 6:-0.152984 7:1.207695 8:1.615303 9:-0.66964 10:-1.26701 11:-0.08335 12:1.296789 13:0.591156 14:0.144288 15:-0.166942 16:-0.153488 17:1.635699 18:1.535733 19:-0.590703 20:-1.136357 21:-0.146444 22:4.638164 23:0.620289 24:1.327323 25:2.295705 26:-0.090848 27:5.007071 28:1.000132 29:1.118449 30:1.736544 31:-0.403275 32:-0.028124 33:3.258436 34:0.087045 35:0.078569 36:0.267049 
1 1:-0.088935 2:-0.225606 3:0.984323 4:-0.638198 5:-0.014074 6:-0.149552 7:1.006477 8:1.633662 9:-0.81669 10:-1.274325 11:-0.079208 12:0.561002 13:0.255682 14:-0.658887 15:-0.136126 16:-0.149978 17:0.88102 18:1.584435 19:-0.824419 20:-1.014513 21:-0.144078 22:2.285519 23:0.682179 24:-0.260021 25:4.326 26:-0.108335 27:0.880079 28:-0.152733 29:-0.221907 30:1.997449 31:-0.403275 32:-0.028149 33:0.056364 34:-0.156086 35:-0.074168 36:0.355177 
1 1:-0.08951 2:-0.285763 3:1.673735 4:0.279397 5:0.883447 6:-0.154422 7:2.711047 8:0.955332 9:-0.727933 10:0.77736 11:-0.090791 12:-0.275585 13:3.748475 14:0.097723 15:0.53646 16:-0.154489 17:2.757184 18:1.360259 19:-0.74255 20:0.74944 21:-0.173135 22:-0.108216 23:0.917524 24:-0.160734 25:0.337303 26:-0.121799 27:-0.117141 28:1.572234 29:-0.143483 30:0.2077 31:-0.403275 32:-0.028156 33:-0.14784 34:-0.052512 35:-0.073862 36:-0.069922 
1 1:-0.0895 2:-0.284557 3:2.504561 4:-0.598295 5:0.434687 6:-0.156792 7:1.376809 8:-0.269481 9:-0.790993 10:0.909423 11:-0.090793 12:-0.276465 13:2.062429 14:-0.216315 15:0.24223 16:-0.156859 17:1.399161 18:0.053004 19:-0.797868 20:0.893965 21:-0.173163 22:-0.112678 23:4.923973 24:-0.215217 25:0.05104 26:-0.121846 27:-0.124752 28:7.285662 29:-0.198422 30:0.045585 31:-0.403275 32:-0.028156 33:-0.147881 34:10.214562 35:-0.074124 36:-0.07876 
1 1:-0.087159 2:-0.127884 3:0.794751 4:-0.638198 5:-0.014074 6:-0.14946 7:1.027575 8:1.631789 9:-0.81669 10:-1.29518 11:-0.090729 12:0.365254 13:0.244142 14:-0.658887 15:-0.217372 16:-0.149976 17:0.908295 18:1.609104 19:-0.824419 20:-1.046291 21:-0.146589 22:2.092752 23:0.398487 24:-0.260021 25:4.026182 26:-0.106033 27:0.810977 28:-0.122143 29:-0.221907 30:1.766615 31:-0.403275 32:-0.02815 33:0.017754 34:-0.154519 35:-0.074168 36:0.256497 
1 1:-0.087159 2:-0.127884 3:0.794751 4:-0.638198 5:-0.014074 6:-0.149487 7:1.037674 8:1.640643 9:-0.81669 10:-1.311147 11:-0.090732 12:0.236425 13:0.073395 14:-0.658887 15:-0.289778 16:-0.149974 17:0.923108 18:1.618698 19:-0.824419 20:-1.064152 21:-0.148164 22:1.965352 23:0.271237 24:-0.260021 25:3.872591 26:-0.108632 27:0.722738 28:-0.193636 29:-0.221907 30:1.61257 31:-0.403275 32:-0.028151 33:-0.017921 34:-0.158877 35:-0.074168 36:0.197012 
1 1:-0.08945 2:-0.292341 3:-0.429861 4:-0.638198 5:-0.73209 6:-0.15719 7:1.055919 8:1.648686 9:-0.813041 10:-1.363517 11:-0.090769 12:-0.285575 13:-0.363778 14:-0.547594 15:-0.71952 16:-0.157259 17:1.07409 18:1.668097 19:-0.818206 20:-1.370699 21:-0.172728 22:-0.373825 23:-0.432977 24:-0.200505 25:-0.277448 26:-0.121559 27:-0.286474 28:-0.355687 29:-0.190532 30:-0.231352 31:-0.403275 32:-0.028156 33:-0.152574 34:-0.163037 35:-0.074073 36:-0.086095 
1 1:-0.087159 2:-0.127884 3:0.415798 4:-0.638198 5:-0.28333 6:-0.149517 7:1.044418 8:1.645804 9:-0.81669 10:-1.322012 11:-0.090736 12:0.130528 13:-0.08945 14:-0.658887 15:-0.342211 16:-0.149963 17:0.938967 18:1.623439 19:-0.824419 20:-1.085605 21:-0.149756 22:1.823754 23:0.213318 24:-0.260021 25:3.678064 26:-0.108661 27:0.646944 28:-0.205288 29:-0.221907 30:1.394995 31:-0.403275 32:-0.028151 33:-0.041526 34:-0.158623 35:-0.074168 36:0.132209 
0.04676399599036785 1:-0.089321 2:-0.273296 3:-0.352527 4:-0.638198 5:-0.373082 6:-0.1614 7:1.055919 8:1.648566 9:-0.81669 10:-1.357483 11:-0.090759 12:-0.285494 13:-0.305694 14:-0.658887 15:-0.622344 16:-0.161673 17:1.71589 18:1.578881 19:-0.824419 20:-0.93854 21:-0.126453 22:3.936821 23:1.218566 24:-0.260021 25:5.210222 26:-0.093581 27:2.385923 28:-0.202418 29:-0.221907 30:3.599021 31:-0.403275 32:-0.028136 33:0.693751 34:-0.159672 35:-0.074168 36:0.941221 
1 1:-0.08945 2:-0.292341 3:-0.429861 4:-0.638198 5:-0.73209 6:-0.157216 7:1.055919 8:1.648685 9:-0.813231 10:-1.363562 11:-0.090765 12:-0.285575 13:-0.361945 14:-0.550948 15:-0.72097 16:-0.157285 17:1.07409 18:1.668096 19:-0.818338 20:-1.370719 21:-0.172724 22:-0.373825 23:-0.432976 24:-0.201901 25:-0.27828 26:-0.121566 27:-0.286472 28:-0.355689 29:-0.190627 30:-0.23099 31:-0.403275 32:-0.028156 33:-0.152574 34:-0.163037 35:-0.074076 36:-0.086094 
1 1:-0.089384 2:-0.272162 3:2.805213 4:0.895516 5:1.062951 6:-0.158314 7:2.982282 8:0.234104 9:0.925629 10:-0.292405 11:-0.090691 12:-0.262606 13:3.104186 14:1.202278 15:0.958018 16:-0.158378 17:3.02824 18:0.985755 19:0.735594 20:-0.295919 21:-0.170975 22:0.243301 23:4.868695 24:3.796125 25:0.397744 26:-0.120468 27:0.078361 28:5.903642 29:3.378441 30:0.266136 31:-0.403275 32:-0.028156 33:-0.127184 34:1.871553 35:1.072083 36:-0.05681 
1 1:-0.087747 2:-0.085087 3:0.170119 4:-0.113172 5:-0.014074 6:-0.153032 7:1.158514 8:1.634365 9:-0.703689 10:-1.292976 11:-0.090736 12:0.944871 13:0.328475 14:0.065841 15:-0.234219 16:-0.153555 17:1.605484 18:1.536797 19:-0.629876 20:-1.176023 21:-0.148652 22:4.399827 23:0.921861 24:1.14348 25:1.952781 26:-0.096258 27:4.336909 28:0.191094 29:0.7499 30:1.217183 31:-0.403275 32:-0.028134 33:2.358987 34:-0.114187 35:0.005945 36:0.103147 
0.7080721744367529 1:-0.087159 2:-0.127884 3:0.415798 4:-0.638198 5:-0.28333 6:-0.149546 7:1.047735 8:1.646886 9:-0.81669 10:-1.330342 11:-0.090736 12:0.076765 13:-0.13604 14:-0.658887 15:-0.392382 16:-0.14995 17:0.95422 18:1.62802 19:-0.824419 20:-1.107129 21:-0.151555 22:1.666734 23:0.141098 24:-0.260021 25:3.463493 26:-0.110753 27:0.538944 28:-0.272776 29:-0.221907 30:1.179587 31:-0.403275 32:-0.028153 33:-0.068714 34:-0.161915 35:-0.074168 36:0.074284 
1 1:-0.089424 2:-0.277006 3:8.826085 4:-0.638198 5:0.793695 6:-0.161955 7:2.962589 8:-1.114111 9:-0.81669 10:0.012619 11:-0.090716 12:-0.265113 13:-0.33187 14:-0.658887 15:0.832933 16:-0.162024 17:3.012457 18:0.786231 19:-0.824419 20:0.038622 21:-0.171773 22:0.11336 23:7.201732 24:-0.260021 25:0.0014 26:-0.120908 27:0.013526 28:11.122765 29:-0.221907 30:0.069941 31:-0.403275 32:-0.028156 33:-0.137542 34:-0.057021 35:-0.074168 36:-0.080933 
1 1:-0.089516 2:-0.286169 3:-0.429861 4:-0.638198 5:0.255182 6:-0.157338 7:1.952453 8:1.720595 9:-0.81669 10:0.908463 11:-0.090799 12:-0.27722 13:-0.361599 14:-0.658887 15:0.267703 16:-0.157406 17:1.985916 18:1.740705 19:-0.824419 20:0.908329 21:-0.17331 22:-0.136692 23:-0.431963 24:-0.260021 25:0.08223 26:-0.121942 27:-0.13878 28:-0.355504 29:-0.221907 30:0.031392 31:-0.403275 32:-0.028156 33:-0.148292 34:-0.163037 35:-0.074168 36:-0.078746 
1 1:-0.086696 2:0.042772 3:-0.048182 4:-0.192619 5:-0.014074 6:-0.15306 7:1.126094 8:1.63826 9:-0.714376 10:-1.301068 11:-0.090733 12:0.733316 13:0.218461 14:0.033564 15:-0.264081 16:-0.153563 17:1.590404 18:1.525744 19:-0.640206 20:-1.188404 21:-0.149033 22:4.346794 23:1.161416 24:1.092124 25:1.841513 26:-0.096227 27:4.160891 28:-0.083154 29:0.654064 30:1.054254 31:-0.403275 32:-0.028136 33:2.053848 34:-0.150392 35:-0.00852 36:0.063741 
1 1:-0.086696 2:0.042772 3:-0.048182 4:-0.192619 5:-0.014074 6:-0.153088 7:1.0907 8:1.643032 9:-0.72772 10:-1.314306 11:-0.090735 12:0.436971 13:0.069891 14:-0.013725 15:-0.319257 16:-0.153567 17:1.569797 18:1.512171 19:-0.651104 20:-1.202522 21:-0.149767 22:4.250472 23:1.372559 24:1.035539 25:1.71176 26:-0.101557 27:3.676782 28:-0.210602 29:0.581731 30:0.92413 31:-0.403275 32:-0.028143 33:1.529699 34:-0.159235 35:-0.019905 36:0.03294 
1 1:-0.089508 2:-0.285188 3:1.294681 4:-0.638198 5:0.524439 6:-0.153407 7:1.640338 8:1.42105 9:-0.81669 10:0.838837 11:-0.090776 12:-0.274821 13:1.545959 14:-0.658887 15:0.363185 16:-0.153472 17:1.667251 18:1.483862 19:-0.824419 20:0.832442 21:-0.173168 22:-0.113568 23:0.263456 24:-0.260021 25:0.482385 26:-0.121859 27:-0.126519 28:0.179236 29:-0.221907 30:0.154046 31:-0.403275 32:-0.028156 33:-0.147722 34:-0.120741 35:-0.074168 36:-0.071003 
0.005629184199444233 1:-0.085657 2:0.181156 3:-0.07435 4:-0.183418 5:-0.28333 6:-0.153114 7:1.069349 8:1.646119 9:-0.72927 10:-1.318785 11:-0.090737 12:0.165009 13:-0.074826 14:-0.014637 15:-0.338949 16:-0.153564 17:1.544547 18:1.499883 19:-0.662314 20:-1.215023 21:-0.150443 22:4.14944 23:1.593778 24:0.974868 25:1.594732 26:-0.105486 27:3.143701 28:-0.307135 29:0.490009 30:0.759695 31:-0.403275 32:-0.028147 33:1.082101 34:-0.162688 35:-0.031575 36:0.000138 
1 1:-0.089526 2:-0.287225 3:-0.429861 4:-0.638198 5:0.793695 6:-0.161146 7:2.109746 8:1.72061 9:-0.81669 10:0.872049 11:-0.090799 12:-0.277169 13:-0.366633 14:-0.658887 15:0.357201 16:-0.161215 17:2.145297 18:1.740866 19:-0.824419 20:0.861281 21:-0.173332 22:-0.14023 23:-0.432987 24:-0.260021 25:0.230017 26:-0.12195 27:-0.140066 28:-0.355702 29:-0.221907 30:0.082827 31:-0.403275 32:-0.028156 33:-0.148231 34:-0.163037 35:-0.074168 36:-0.077299 
1 1:-0.089505 2:-0.285147 3:1.294681 4:-0.638198 5:0.524439 6:-0.153439 7:1.67422 8:1.374731 9:-0.81669 10:0.745539 11:-0.09079 12:-0.27544 13:1.654533 14:-0.658887 15:0.489977 16:-0.153505 17:1.702478 18:1.419584 19:-0.824419 20:0.745452 21:-0.173171 22:-0.11397 23:0.000686 24:-0.260021 25:0.763366 26:-0.121849 27:-0.12522 28:-0.22371 29:-0.221907 30:0.735671 31:-0.403275 32:-0.028156 33:-0.14765 34:-0.159603 35:-0.074168 36:0.019201 
1 1:-0.089493 2:-0.283729 3:2.236142 4:-0.638198 5:0.883447 6:-0.153252 7:1.477587 8:0.720096 9:-0.81669 10:0.710144 11:-0.090771 12:-0.273541 13:2.507878 14:-0.658887 15:0.535723 16:-0.153318 17:1.502016 18:0.824439 19:-0.824419 20:0.68654 21:-0.17304 22:-0.092704 23:4.273452 24:-0.260021 25:0.602786 26:-0.121741 27:-0.10912 28:3.442537 29:-0.221907 30:0.535736 31:-0.403275 32:-0.028156 33:-0.147044 34:2.530198 35:-0.074168 36:-0.02233 
1 1:-0.089499 2:-0.284487 3:2.256505 4:1.305515 5:0.614191 6:-0.159879 7:0.774555 8:1.72061 9:0.53039 10:0.314064 11:-0.090783 12:-0.275088 13:-0.366633 14:1.355172 15:0.809698 16:-0.159949 17:0.7883 18:1.170672 19:0.42314 20:0.300326 21:-0.172931 22:-0.074975 23:6.680263 24:2.9923 25:-0.026744 26:-0.121637 27:-0.093918 28:-0.3557 29:2.241007 30:0.078843 31:-0.403275 32:-0.028156 33:-0.146616 34:-0.163037 35:0.482649 36:-0.07469 
1 1:-0.089518 2:-0.286434 3:-0.429861 4:-0.638198 5:0.883447 6:-0.161181 7:2.146658 8:1.72061 9:-0.81669 10:0.795536 11:-0.090798 12:-0.277115 13:-0.366633 14:-0.658887 15:0.482663 16:-0.161251 17:2.183348 18:1.740866 19:-0.824419 20:0.791777 21:-0.173338 22:-0.141273 23:-0.43299 24:-0.260021 25:0.559351 26:-0.12198 27:-0.144361 28:-0.355702 29:-0.221907 30:0.401546 31:-0.403275 32:-0.028156 33:-0.148451 34:-0.163037 35:-0.074168 36:-0.04645 
1 1:-0.08951 2:-0.28556 3:3.698782 4:-0.139498 5:0.973199 6:-0.160276 7:1.192666 8:-1.114193 9:-0.74466 10:0.439379 11:-0.090794 12:-0.276526 13:-0.366633 14:0.000366 15:0.971755 16:-0.160346 17:1.21348 18:-0.445436 19:-0.752321 20:0.463444 21:-0.173128 22:-0.10712 23:7.135285 24:-0.198205 25:0.360784 26:-0.121778 27:-0.11462 28:0.918985 29:-0.146588 30:0.147181 31:-0.403275 32:-0.028156 33:-0.147684 34:0.086491 35:-0.073674 36:-0.074039 
1 1:-0.089505 2:-0.285144 3:-0.004305 4:-0.638198 5:0.703943 6:-0.157441 7:2.061795 8:1.718351 9:-0.81669 10:0.745709 11:-0.090799 12:-0.27722 13:-0.197285 14:-0.658887 15:0.518172 16:-0.157509 17:2.09609 18:1.625385 19:-0.824082 20:0.736364 21:-0.173327 22:-0.139423 23:1.113796 24:-0.25432 25:0.514174 26:-0.121966 27:-0.142416 28:-0.175027 29:-0.221907 30:0.327319 31:-0.403275 32:-0.028156 33:-0.148363 34:-0.157538 35:-0.074168 36:-0.051031 
1 1:-0.089505 2:-0.285294 3:1.239593 4:-0.638198 5:0.703943 6:-0.153812 7:2.068001 8:1.315015 9:-0.81669 10:0.756144 11:-0.0908 12:-0.277265 13:1.833716 14:-0.658887 15:0.431928 16:-0.153879 17:2.10308 18:1.327965 19:-0.824419 20:0.748218 21:-0.173313 22:-0.13719 23:-0.234662 24:-0.260021 25:0.792802 26:-0.121947 27:-0.139757 28:-0.249248 29:-0.221907 30:0.506373 31:-0.403275 32:-0.028156 33:-0.14818 34:-0.160832 35:-0.074168 36:-0.030628 
1 1:-0.089497 2:-0.284344 3:1.978636 4:0.299349 5:1.242455 6:-0.156603 7:1.178188 8:1.343011 9:-0.703748 10:0.35724 11:-0.090782 12:-0.274957 13:1.237839 14:0.086876 15:0.804738 16:-0.156671 17:1.197846 18:1.067643 19:-0.701004 20:0.363921 21:-0.172925 22:-0.074019 23:5.235273 24:0.095994 25:0.155529 26:-0.121665 27:-0.097952 28:2.3895 29:-0.013083 30:0.006381 31:-0.403275 32:-0.028156 33:-0.146705 34:1.163439 35:-0.070526 36:-0.080185 
1 1:-0.08936 2:-0.270707 3:2.685651 4:1.316706 5:0.793695 6:-0.155808 7:0.340199 8:0.562865 9:0.622799 10:0.028694 11:-0.090596 12:-0.248694 13:2.557221 14:1.299309 15:1.002275 16:-0.155871 17:0.340611 18:0.478501 19:0.519804 20:0.041273 21:-0.170885 22:0.257945 23:1.673332 24:3.488899 25:0.110272 26:-0.120452 27:0.080804 28:4.436334 29:3.109519 30:0.019902 31:-0.403275 32:-0.028156 33:-0.126568 34:3.084491 35:0.882369 36:-0.077447 
1 1:-0.089476 2:-0.281379 3:2.301752 4:1.580838 5:0.614191 6:-0.154818 7:3.128314 8:0.647506 9:1.284525 10:-0.348204 11:-0.090755 12:-0.27037 13:2.967385 14:1.417721 15:0.924311 16:-0.154884 17:3.180043 18:0.871794 19:1.274102 20:-0.35632 21:-0.172479 22:-0.001639 23:2.765518 24:0.124068 25:0.022354 26:-0.121364 27:-0.054249 28:3.282455 29:-0.085544 30:0.032578 31:-0.403275 32:-0.028156 33:-0.143322 34:2.013324 35:-0.072718 36:-0.079151 
1 1:-0.089512 2:-0.285755 3:1.818316 4:0.299349 5:0.703942 6:-0.160137 7:1.046657 8:-1.114193 9:-0.674865 10:0.325855 11:-0.090791 12:-0.27614 13:-0.366633 14:0.234337 15:0.859411 16:-0.160206 17:1.063464 18:-0.245165 19:-0.677471 20:0.332971 21:-0.173037 22:-0.092253 23:7.570644 24:-0.057607 25:0.090372 26:-0.121728 27:-0.107367 28:-0.355655 29:-0.152594 30:-0.054262 31:-0.403275 32:-0.028156 33:-0.147358 34:-0.163037 35:-0.073723 36:-0.081702 
1 1:-0.089514 2:-0.285963 3:2.15374 4:-0.638198 5:0.883447 6:-0.157507 7:2.131332 8:0.867042 9:-0.81669 10:0.555567 11:-0.0908 12:-0.277299 13:2.480991 14:-0.658887 15:0.669459 16:-0.157576 17:2.167985 18:0.995464 19:-0.823829 20:0.539803 21:-0.173336 22:-0.140911 23:3.594576 24:-0.253045 25:0.84118 26:-0.121959 27:-0.141374 28:2.840594 29:-0.221907 30:0.601067 31:-0.403275 32:-0.028156 33:-0.148196 34:1.494403 35:-0.074168 36:-0.023398 
1 1:-0.089499 2:-0.284531 3:1.586226 4:-0.638198 5:0.703942 6:-0.157373 7:1.989854 8:1.719538 9:-0.81026 10:0.507169 11:-0.0908 12:-0.277346 13:-0.264459 14:-0.434112 15:0.684595 16:-0.157442 17:2.024656 18:1.474149 19:-0.819134 20:0.506625 21:-0.173302 22:-0.135436 23:3.607952 24:-0.248231 25:0.754321 26:-0.12195 27:-0.139935 28:-0.321547 29:-0.208706 30:0.521273 31:-0.403275 32:-0.028156 33:-0.148168 34:-0.162853 35:-0.074158 36:-0.02234 
1 1:-0.089499 2:-0.284507 3:-0.429861 4:-0.638198 5:0.973199 6:-0.157215 7:1.823661 8:1.720562 9:-0.804862 10:0.41975 11:-0.090797 12:-0.276966 13:-0.346967 14:-0.363413 15:0.773358 16:-0.157283 17:1.854059 18:1.740751 19:-0.814266 20:0.437778 21:-0.173242 22:-0.125588 23:-0.430587 24:-0.241605 25:0.459246 26:-0.121912 27:-0.134448 28:-0.355161 29:-0.200563 30:0.381577 31:-0.403275 32:-0.028156 33:-0.14811 34:-0.163037 35:-0.074135 36:-0.04414 
1 1:-0.08949 2:-0.283639 3:-0.427738 4:0.289373 5:0.973199 6:-0.156864 7:1.453584 8:1.720607 9:-0.776696 10:0.336126 11:-0.090786 12:-0.275464 13:-0.362687 14:-0.137752 15:0.871248 16:-0.156933 17:1.478889 18:1.681206 19:-0.784242 20:0.337159 21:-0.173051 22:-0.0946 23:1.634605 24:-0.225121 25:0.120284 26:-0.121744 27:-0.109688 28:-0.354938 29:-0.197704 30:0.100194 31:-0.403275 32:-0.028156 33:-0.147205 34:-0.163037 35:-0.074143 36:-0.077102 
1 1:-0.089505 2:-0.285113 3:-0.429861 4:-0.638198 5:1.242455 6:-0.161578 7:2.565214 8:1.720609 9:-0.81669 10:0.254753 11:-0.090796 12:-0.276746 13:-0.366633 14:-0.658887 15:0.796328 16:-0.161647 17:2.608029 18:1.656696 19:-0.824419 20:0.273177 21:-0.173272 22:-0.130566 23:2.404909 24:-0.260021 25:0.577588 26:-0.121913 27:-0.134593 28:-0.3557 29:-0.221907 30:0.383058 31:-0.403275 32:-0.028156 33:-0.147822 34:-0.163037 35:-0.074168 36:-0.047549 
0.9680596618804107 1:-0.089401 2:-0.290236 3:-0.423418 4:0.062312 5:-0.73209 6:-0.153444 7:1.055926 8:1.647769 9:-0.795563 10:-1.357423 11:-0.090737 12:-0.275511 13:-0.233226 14:-0.336669 15:-0.601491 16:-0.15356 17:1.145633 18:1.640393 19:-0.532696 20:-1.346266 21:-0.166716 22:1.173214 23:0.083642 24:4.388687 25:0.136964 26:-0.12156 27:-0.28639 28:-0.347887 29:-0.002539 30:-0.168315 31:-0.403275 32:-0.028156 33:-0.152574 34:-0.163027 35:-0.070268 36:-0.085575 
1 1:-0.089515 2:-0.286069 3:5.130208 4:-0.638198 5:1.062951 6:-0.161214 7:2.181573 8:-1.114193 9:-0.814623 10:0.274062 11:-0.090801 12:-0.277388 13:-0.366632 14:-0.529802 15:0.817432 16:-0.161284 17:2.219052 18:0.363857 19:-0.822107 20:0.291562 21:-0.173358 22:-0.144429 23:8.45803 24:-0.250386 25:0.468155 26:-0.121978 27:-0.144141 28:6.672551 29:-0.21177 30:0.212799 31:-0.403275 32:-0.028156 33:-0.148282 34:1.263619 35:-0.074163 36:-0.06803 
1 1:-0.089401 2:-0.290236 3:-0.423418 4:0.062312 5:-0.73209 6:-0.153473 7:1.055925 8:1.647725 9:-0.792257 10:-1.358834 11:-0.090736 12:-0.276083 13:-0.229766 14:-0.319981 15:-0.620764 16:-0.153574 17:1.123708 18:1.648163 19:-0.317809 20:-1.35206 21:-0.168028 22:0.861064 23:-0.030514 24:6.368093 25:0.048048 26:-0.121557 27:-0.286434 28:-0.349585 29:1.004202 30:-0.180186 31:-0.403275 32:-0.028156 33:-0.152574 34:-0.16303 35:0.063683 36:-0.085751 
1 1:-0.089478 2:-0.292341 3:-0.429861 4:1.006422 5:-0.73209 6:-0.158349 7:1.055919 8:1.648685 9:-0.811948 10:-1.363757 11:-0.090714 12:-0.285575 13:-0.366278 14:-0.527407 15:-0.728059 16:-0.158418 17:1.07409 18:1.668098 19:-0.172499 20:-1.370246 21:-0.172745 22:-0.373825 23:-0.432978 24:9.369666 25:-0.268527 26:-0.121567 27:-0.286474 28:-0.355693 29:0.11172 30:-0.229159 31:-0.403275 32:-0.028156 33:-0.152574 34:-0.163037 35:-0.066286 36:-0.086092 
1 1:-0.089423 2:-0.292341 3:-0.429861 4:0.990389 5:-0.73209 6:-0.153499 7:1.055924 8:1.647829 9:-0.738522 10:-1.359698 11:-0.090735 12:-0.276736 13:-0.237595 14:-0.104001 15:-0.633689 16:-0.153587 17:1.105014 18:1.654834 19:-0.024831 20:-1.357077 21:-0.169261 22:0.541098 23:-0.144222 24:8.143483 25:-0.047334 26:-0.121567 27:-0.286443 28:-0.350496 29:4.889943 30:-0.190265 31:-0.403275 32:-0.028156 33:-0.152574 34:-0.163032 35:2.038247 36:-0.08586 
1 1:-0.089516 2:-0.286048 3:3.652269 4:-0.638198 5:0.793695 6:-0.154371 7:2.656613 8:1.061107 9:-0.810557 10:0.156599 11:-0.090794 12:-0.277084 13:2.711665 14:-0.436527 15:0.824765 16:-0.154438 17:2.702197 18:0.802152 19:-0.819017 20:0.174882 21:-0.17333 22:-0.140017 23:5.126971 24:-0.247508 25:0.229563 26:-0.121952 27:-0.1406 28:1.347459 29:-0.20916 30:0.119576 31:-0.403275 32:-0.028156 33:-0.148232 34:0.288419 35:-0.074159 36:-0.075592 
1 1:-0.089478 2:-0.292341 3:-0.429861 4:1.006422 5:-0.73209 6:-0.158375 7:1.055919 8:1.648688 9:-0.812508 10:-1.36383 11:-0.090703 12:-0.285575 13:-0.366373 14:-0.537189 15:-0.732272 16:-0.158444 17:1.07409 18:1.668099 19:0.186513 20:-1.370499 21:-0.172745 22:-0.373825 23:-0.43298 24:11.140696 25:-0.273431 26:-0.121564 27:-0.286474 28:-0.355687 29:6.791604 30:-0.230208 31:-0.403275 32:-0.028156 33:-0.152574 34:-0.163037 35:3.855472 36:-0.086094 
1 1:-0.089501 2:-0.284719 3:0.953206 4:-0.162535 5:0.883447 6:-0.158281 7:2.947135 8:1.300632 9:-0.784094 10:-0.004831 11:-0.090791 12:-0.276133 13:2.197877 14:-0.163761 15:0.769534 16:-0.15835 17:2.997409 18:1.242381 19:-0.795836 20:-0.010745 21:-0.173137 22:-0.108505 23:2.999466 24:-0.221441 25:-0.042299 26:-0.121835 27:-0.123062 28:3.495193 29:-0.204388 30:0.058324 31:-0.403275 32:-0.028156 33:-0.147681 34:2.641896 35:-0.074168 36:-0.080686 
1 1:-0.08913 2:-0.248594 3:4.212013 4:1.726287 5:1.332207 6:-0.159478 7:0.351466 8:1.720605 9:-0.292052 10:-0.494373 11:-0.090507 12:-0.23773 13:-0.358346 14:0.776152 15:1.091725 16:-0.159443 17:0.458605 18:1.297501 19:0.115404 20:-0.567058 21:-0.151713 22:3.68188 23:4.048351 24:6.640246 25:2.477694 26:-0.119646 27:0.199551 28:0.252313 29:1.571597 30:0.962679 31:-0.403275 32:-0.028155 33:-0.098694 34:-0.111914 35:0.114942 36:0.047395 
1 1:-0.089466 2:-0.292341 3:-0.429861 4:2.602987 5:-0.73209 6:-0.158526 7:1.055919 8:1.648689 9:-0.469688 10:-1.364197 11:-0.090713 12:-0.285575 13:-0.366633 14:-0.65678 15:-0.774068 16:-0.158596 17:1.07409 18:1.6681 19:1.737492 20:-1.371433 21:-0.172752 22:-0.373825 23:-0.432983 24:10.700873 25:-0.286342 26:-0.121556 27:-0.286476 28:-0.355697 29:15.235822 30:-0.236365 31:-0.403275 32:-0.028156 33:-0.152574 34:-0.163037 35:10.874892 36:-0.086101 
1 1:-0.089124 2:-0.248733 3:1.925596 4:0.816437 5:0.255182 6:-0.157784 7:1.335485 8:1.624533 9:-0.672346 10:-1.139907 11:-0.078468 12:1.505787 13:0.533944 14:0.095508 15:0.202797 16:-0.158203 17:2.135302 18:1.312463 19:-0.652961 20:-1.037924 21:-0.136601 22:5.345555 23:3.526936 24:0.706432 25:2.828517 26:-0.057976 27:9.453792 28:0.219905 29:0.717252 30:3.3932 31:-0.403275 32:-0.028029 33:11.198973 34:-0.101814 35:0.00312 36:1.160396 
1 1:-0.089494 2:-0.284011 3:4.402461 4:-0.638198 5:0.793695 6:-0.157407 7:2.025767 8:-1.114192 9:-0.799298 10:0.159903 11:-0.090795 12:-0.276694 13:-0.362991 14:-0.291979 15:0.676344 16:-0.157476 17:2.060387 18:-0.020712 19:-0.805269 20:0.145404 21:-0.17322 22:-0.122012 23:4.946036 24:-0.242514 25:0.033636 26:-0.121866 27:-0.12766 28:4.635396 29:-0.189934 30:-0.020988 31:-0.403275 32:-0.028156 33:-0.147655 34:0.826507 35:-0.07412 36:-0.083128 
1 1:-0.089507 2:-0.284884 3:1.611017 4:-0.638198 5:0.793695 6:-0.154351 7:2.635963 8:1.279485 9:-0.81669 10:0.036861 11:-0.090807 12:-0.277472 13:2.096923 14:-0.658887 15:0.718529 16:-0.154419 17:2.681723 18:1.290803 19:-0.824207 20:0.057852 21:-0.173371 22:-0.146515 23:-0.136545 24:-0.255328 25:0.025502 26:-0.121979 27:-0.143913 28:-0.212985 29:-0.221907 30:0.000227 31:-0.403275 32:-0.028156 33:-0.148074 34:-0.158625 35:-0.074168 36:-0.082054 
1 1:-0.089131 2:-0.24978 3:0.570063 4:0.381001 5:-0.193578 6:-0.157689 7:1.056796 8:1.628124 9:-0.702268 10:-1.237841 11:-0.090722 12:-0.18237 13:0.345213 14:0.024745 15:-0.030127 16:-0.158169 17:2.015436 18:1.336513 19:-0.672384 20:-1.084094 21:-0.137603 22:5.280609 23:3.463923 24:0.649352 25:2.683308 26:-0.068751 27:8.046548 28:0.383751 29:0.571633 30:2.655971 31:-0.403275 32:-0.028068 33:8.142386 34:-0.088212 35:-0.018357 36:0.725399 
0.04404023047480734 1:-0.089478 2:-0.292341 3:-0.429861 4:0.238438 5:-0.73209 6:-0.153889 7:1.055919 8:1.648691 9:-0.816239 10:-1.364197 11:-0.090775 12:-0.285575 13:-0.366633 14:-0.622681 15:-0.774068 16:-0.153956 17:1.07409 18:1.668101 19:-0.475999 20:-1.371868 21:-0.172751 22:-0.373828 23:-0.43299 24:5.765664 25:-0.293516 26:-0.121569 27:-0.286479 28:-0.355705 29:-0.012362 30:-0.2389 31:-0.403275 32:-0.028156 33:-0.152574 34:-0.163037 35:-0.070878 36:-0.086101 
1 1:-0.089505 2:-0.285058 3:1.630881 4:-0.638198 5:0.703943 6:-0.153927 7:2.189352 8:1.480063 9:-0.81669 10:0.098739 11:-0.090791 12:-0.275712 13:1.351603 14:-0.658887 15:0.593975 16:-0.153994 17:2.226398 18:1.439729 19:-0.824419 20:0.098757 21:-0.173233 22:-0.124244 23:0.5833 24:-0.260021 25:-0.034458 26:-0.121886 27:-0.130831 28:0.717606 29:-0.221907 30:-0.0038 31:-0.403275 32:-0.028156 33:-0.147595 34:0.006217 35:-0.074168 36:-0.082485 
1 1:-0.089509 2:-0.285469 3:4.679492 4:-0.638198 5:0.524439 6:-0.161089 7:2.050106 8:0.684401 9:-0.810285 10:0.05078 11:-0.090799 12:-0.277241 13:2.168577 14:-0.434569 15:0.708338 16:-0.16116 17:2.085632 18:0.610735 19:-0.815804 20:0.051464 21:-0.173274 22:-0.130769 23:8.405044 24:-0.232239 25:-0.004117 26:-0.121897 27:-0.132157 28:14.142327 29:-0.203511 30:-0.074918 31:-0.403275 32:-0.028156 33:-0.147916 34:29.30541 35:-0.074146 36:-0.083676 
0.9004261837056793 1:-0.089131 2:-0.24978 3:0.570063 4:0.381001 5:-0.193578 6:-0.157713 7:1.055962 8:1.641992 9:-0.722065 10:-1.286935 11:-0.090728 12:-0.262272 13:0.031261 14:-0.030805 15:-0.184971 16:-0.158134 17:1.888021 18:1.377736 19:-0.692371 20:-1.129063 21:-0.139222 22:5.110214 23:3.190574 24:0.593901 25:2.493982 26:-0.085 27:5.693252 28:0.458228 29:0.417748 30:1.777774 31:-0.403275 32:-0.028114 33:4.08484 34:-0.063388 35:-0.037346 36:0.322163 
1 1:-0.089509 2:-0.286134 3:1.647218 4:-0.638198 5:0.883447 6:-0.154505 7:2.798301 8:1.445685 9:-0.814602 10:-0.02379 11:-0.090802 12:-0.277459 13:1.743025 14:-0.529135 15:0.699323 16:-0.154573 17:2.846709 18:1.369398 19:-0.821512 20:-0.002514 21:-0.173328 22:-0.139738 23:2.783165 24:-0.250252 25:0.111737 26:-0.121952 27:-0.140095 28:0.252389 29:-0.221647 30:0.110021 31:-0.403275 32:-0.028156 33:-0.148142 34:-0.105018 35:-0.074168 36:-0.076173 
1 1:-0.0894 2:-0.274238 3:1.521784 4:-0.638198 5:0.614191 6:-0.153074 7:1.289755 8:0.973232 9:-0.81669 10:0.175248 11:-0.090328 12:-0.205453 13:2.816054 14:-0.658887 15:0.841072 16:-0.153138 17:1.30872 18:0.963062 19:-0.824419 20:0.184299 21:-0.171918 22:0.089856 23:2.254425 24:-0.260021 25:-0.000776 26:-0.120909 27:0.013378 28:2.311505 29:-0.221907 30:0.056791 31:-0.403275 32:-0.028156 33:-0.13863 34:1.135196 35:-0.074168 36:-0.077697 
1 1:-0.089475 2:-0.292341 3:-0.429861 4:1.400358 5:-0.73209 6:-0.15843 7:1.055919 8:1.648691 9:-0.816674 10:-1.364197 11:-0.090776 12:-0.285575 13:-0.366633 14:-0.657126 15:-0.774068 16:-0.1585 17:1.07409 18:1.668101 19:-0.185975 20:-1.371868 21:-0.17276 22:-0.373828 23:-0.43299 24:9.669243 25:-0.293516 26:-0.121568 27:-0.286479 28:-0.355705 29:-0.078483 30:-0.2389 31:-0.403275 32:-0.028156 33:-0.152574 34:-0.163037 35:-0.072803 36:-0.086101 
1 1:-0.089073 2:-0.24484 3:1.766813 4:-0.175759 5:0.344934 6:-0.154717 7:1.01993 8:1.635305 9:-0.675023 10:-1.168967 11:-0.082559 12:0.93909 13:0.193126 14:0.152614 15:0.121553 16:-0.155309 17:0.879525 18:1.590806 19:-0.66259 20:-0.920461 21:-0.137738 22:5.222795 23:1.076437 24:0.60557 25:4.502899 26:-0.068217 27:8.060284 28:2.106936 29:0.530948 30:4.684869 31:-0.403275 32:-0.02806 33:8.794286 34:0.680295 35:-0.02414 36:2.212725 
1 1:-0.089477 2:-0.292341 3:-0.429861 4:1.214318 5:-0.73209 6:-0.153943 7:1.055919 8:1.648691 9:-0.7739 10:-1.364197 11:-0.090776 12:-0.285575 13:-0.366633 14:-0.317212 15:-0.774068 16:-0.15401 17:1.07409 18:1.668101 19:-0.005371 20:-1.371868 21:-0.172755 22:-0.373828 23:-0.43299 24:8.641916 25:-0.293516 26:-0.121555 27:-0.286479 28:-0.355705 29:4.85967 30:-0.2389 31:-0.403275 32:-0.028156 33:-0.152574 34:-0.163037 35:2.065529 36:-0.086101 
1 1:-0.089475 2:-0.292341 3:-0.429861 4:1.400358 5:-0.73209 6:-0.158457 7:1.055919 8:1.648691 9:-0.816501 10:-1.364197 11:-0.090775 12:-0.285575 13:-0.366633 14:-0.646404 15:-0.774068 16:-0.158525 17:1.07409 18:1.668101 19:0.090558 20:-1.371868 21:-0.172759 22:-0.373828 23:-0.43299 24:10.976897 25:-0.293516 26:-0.121581 27:-0.286479 28:-0.355705 29:4.074052 30:-0.2389 31:-0.403275 32:-0.028156 33:-0.152574 34:-0.163037 35:1.210061 36:-0.086101 
1 1:-0.089504 2:-0.28495 3:1.018484 4:-0.638198 5:0.524439 6:-0.157629 7:2.259635 8:1.693366 9:-0.808077 10:0.035598 11:-0.090799 12:-0.277172 13:0.143439 14:-0.401726 15:0.618469 16:-0.157697 17:2.298138 18:1.502575 19:-0.818286 20:0.038648 21:-0.173285 22:-0.132533 23:1.899952 24:-0.225175 25:0.028352 26:-0.121924 27:-0.136252 28:0.694012 29:-0.19472 30:0.001736 31:-0.403275 32:-0.028156 33:-0.14779 34:0.050163 35:-0.074116 36:-0.080326 
1 1:-0.089073 2:-0.24484 3:1.766813 4:-0.175759 5:0.344934 6:-0.15466 7:1.055413 8:1.643114 9:-0.705111 10:-1.272261 11:-0.090726 12:-0.147378 13:-0.045875 14:0.063606 15:-0.145698 16:-0.15525 17:0.909441 18:1.594068 19:-0.682108 20:-0.991973 21:-0.139151 22:5.096726 23:1.009309 24:0.554968 25:4.166386 26:-0.083693 27:5.832053 28:1.913165 29:0.433436 30:3.213002 31:-0.403275 32:-0.028106 33:4.729705 34:0.525532 35:-0.035888 36:1.082699 
1 1:-0.089477 2:-0.292341 3:-0.429861 4:2.767751 5:-0.73209 6:-0.158482 7:1.055919 8:1.648691 9:-0.785987 10:-1.364197 11:-0.090776 12:-0.285575 13:-0.366633 14:-0.416069 15:-0.774068 16:-0.15855 17:1.07409 18:1.668101 19:0.438078 20:-1.371868 21:-0.172754 22:-0.373828 23:-0.43299 24:12.120257 25:-0.293516 26:-0.121554 27:-0.286479 28:-0.355705 29:12.845786 30:-0.2389 31:-0.403275 32:-0.028156 33:-0.152574 34:-0.163037 35:12.414559 36:-0.086101 
1 1:-0.089425 2:-0.277088 3:0.096624 4:-0.638198 5:0.434686 6:-0.162358 7:3.387636 8:1.72061 9:-0.81669 10:-0.196049 11:-0.090655 12:-0.257334 13:-0.366633 14:-0.658887 15:0.80454 16:-0.162428 17:3.44547 18:1.486029 19:-0.824419 20:-0.203888 21:-0.171827 22:0.104684 23:4.0593 24:-0.260021 25:-0.013648 26:-0.120893 27:0.015811 28:-0.355702 29:-0.221907 30:-0.002307 31:-0.403275 32:-0.028156 33:-0.13828 34:-0.163037 35:-0.074168 36:-0.081195 
1 1:-0.089507 2:-0.285299 3:2.825478 4:-0.638198 5:0.524439 6:-0.161307 7:2.27987 8:1.720609 9:-0.808314 10:0.035443 11:-0.090801 12:-0.277411 13:-0.366633 14:-0.399018 15:0.65384 16:-0.161378 17:2.319887 18:0.857072 19:-0.817074 20:0.017593 21:-0.173313 22:-0.137174 23:7.965831 24:-0.245612 25:-0.006466 26:-0.121936 27:-0.137978 28:2.743209 29:-0.205914 30:-0.067083 31:-0.403275 32:-0.028156 33:-0.147959 34:1.361744 35:-0.074149 36:-0.08467 
1 1:-0.089469 2:-0.281533 3:-0.352216 4:0.195656 5:0.61419 6:-0.156725 7:1.306413 8:1.72018 9:-0.65818 10:-0.079004 11:-0.090763 12:-0.272487 13:-0.313937 14:0.220635 15:0.878745 16:-0.156793 17:1.328812 18:1.701537 19:-0.653331 20:-0.088124 21:-0.17236 22:0.017869 23:1.211351 24:0.024273 25:0.201311 26:-0.121259 27:-0.038152 28:-0.354466 29:-0.019386 30:0.022469 31:-0.403275 32:-0.028156 33:-0.142746 34:-0.163037 35:-0.071122 36:-0.07895 
1 1:-0.088972 2:-0.234729 3:2.268352 4:-0.638198 5:0.344934 6:-0.162003 7:1.058792 8:1.577066 9:-0.81669 10:-1.193323 11:-0.090739 12:-0.162862 13:0.812176 14:-0.658887 15:-0.02816 16:-0.162275 17:2.093735 18:1.589182 19:-0.824419 20:-0.921979 21:-0.12787 22:4.418668 23:1.63387 24:-0.260021 25:4.43196 26:-0.055775 27:6.633751 28:1.249155 29:-0.221907 30:5.72923 31:-0.403275 32:-0.02804 33:6.61508 34:-0.024147 35:-0.074168 36:3.12417 
1 1:-0.089472 2:-0.292341 3:-0.429861 4:0.949126 5:-0.73209 6:-0.15873 7:1.055919 8:1.648691 9:3.042494 10:-1.364197 11:-0.090739 12:-0.285575 13:-0.366633 14:-0.029858 15:-0.774068 16:-0.158799 17:1.07409 18:1.668101 19:2.722299 20:-1.371857 21:-0.172766 22:-0.373826 23:-0.432988 24:7.472377 25:-0.293034 26:-0.12158 27:-0.286478 28:-0.355705 29:14.280353 30:-0.2389 31:-0.403275 32:-0.028156 33:-0.152574 34:-0.163037 35:11.56355 36:-0.086101 
1 1:-0.089371 2:-0.272164 3:1.605032 4:-0.638198 5:0.793695 6:-0.153122 7:1.339869 8:1.332808 9:-0.81669 10:0.062806 11:-0.090343 12:-0.205477 13:2.262968 14:-0.658887 15:0.835486 16:-0.153183 17:1.356723 18:1.125532 19:-0.824419 20:0.072492 21:-0.171453 22:0.165495 23:1.196913 24:-0.260021 25:0.170452 26:-0.120677 27:0.047658 28:0.113724 29:-0.221907 30:0.013305 31:-0.403275 32:-0.028156 33:-0.135021 34:-0.133008 35:-0.074168 36:-0.079932 
1 1:-0.088972 2:-0.234729 3:0.775742 4:-0.638198 5:0.16543 6:-0.162027 7:1.057428 8:1.635127 9:-0.81669 10:-1.321928 11:-0.090743 12:-0.182432 13:0.158685 14:-0.658887 15:-0.399863 16:-0.162264 17:1.927954 18:1.615592 19:-0.824419 20:-1.002475 21:-0.129987 22:4.29496 23:0.551946 24:-0.260021 25:4.17614 26:-0.077456 27:4.510031 28:0.853212 29:-0.221907 30:3.645205 31:-0.403275 32:-0.02811 33:2.684116 34:0.055988 35:-0.074168 36:1.378365 
1 1:-0.089361 2:-0.270802 3:-0.429861 4:0.553687 5:0.883447 6:-0.159932 7:0.830728 8:1.720609 9:-0.511784 10:-0.4571 11:-0.090707 12:-0.263791 13:-0.366632 14:0.527998 15:1.072275 16:-0.159999 17:0.841822 18:1.544139 19:-0.506932 20:-0.46761 21:-0.171594 22:0.142484 23:3.004869 24:-0.088588 25:0.500523 26:-0.120766 27:0.034431 28:-0.355704 29:-0.074899 30:0.202199 31:-0.403275 32:-0.028156 33:-0.133392 34:-0.163037 35:-0.072703 36:-0.062287 
1 1:-0.089476 2:-0.282249 3:2.39337 4:-0.638198 5:0.883447 6:-0.162331 7:3.359445 8:-0.730006 9:-0.81669 10:-0.189697 11:-0.090753 12:-0.271234 13:1.412286 14:-0.658887 15:0.684235 16:-0.162402 17:3.416955 18:0.983268 19:-0.824419 20:-0.184256 21:-0.172397 22:0.01187 23:7.13027 24:-0.260021 25:-0.052918 26:-0.1213 27:-0.044224 28:12.482701 29:-0.221907 30:-0.066505 31:-0.403275 32:-0.028156 33:-0.143147 34:19.87719 35:-0.074168 36:-0.083579 
1 1:-0.089488 2:-0.292341 3:-0.429861 4:0.805264 5:-0.73209 6:-0.158829 7:1.055919 8:1.648691 9:0.780693 10:-1.364197 11:-0.090728 12:-0.285575 13:-0.366633 14:0.536276 15:-0.774068 16:-0.158899 17:1.07409 18:1.668101 19:2.342452 20:-1.371868 21:-0.172767 22:-0.373828 23:-0.43299 24:9.193779 25:-0.293516 26:-0.121585 27:-0.286479 28:-0.355706 29:14.405879 30:-0.2389 31:-0.403275 32:-0.028156 33:-0.152574 34:-0.163037 35:9.966088 36:-0.086101 
1 1:-0.089456 2:-0.292341 3:-0.429861 4:-0.638198 5:-0.73209 6:-0.157969 7:1.055919 8:1.648517 9:-0.811603 10:-1.362302 11:-0.090742 12:-0.285575 13:-0.3118 14:-0.50493 15:-0.676242 16:-0.158039 17:1.074105 18:1.666939 19:-0.81146 20:-1.366585 21:-0.172766 22:-0.37328 23:-0.404673 24:-0.126495 25:-0.175609 26:-0.121587 27:-0.286474 28:-0.353671 29:-0.166383 30:-0.224528 31:-0.403275 32:-0.028156 33:-0.152574 34:-0.163036 35:-0.073876 36:-0.086078 
1 1:-0.089487 2:-0.283344 3:-0.429861 4:-0.638198 5:0.524439 6:-0.162245 7:3.268784 8:1.720609 9:-0.81669 10:-0.195601 11:-0.09077 12:-0.273449 13:-0.366633 14:-0.658887 15:0.64321 16:-0.162315 17:3.324439 18:1.740866 19:-0.824419 20:-0.177622 21:-0.172736 22:-0.043219 23:-0.43299 24:-0.260021 25:-0.174469 26:-0.121524 27:-0.077178 28:-0.355697 29:-0.221907 30:-0.081913 31:-0.403275 32:-0.028156 33:-0.145192 34:-0.163037 35:-0.074168 36:-0.085961 
0.8087184971682068 1:-0.089482 2:-0.292341 3:-0.429861 4:-0.638198 5:-0.73209 6:-0.158021 7:1.055919 8:1.648579 9:-0.814977 10:-1.363305 11:-0.090741 12:-0.285575 13:-0.322211 14:-0.567702 15:-0.705867 16:-0.15809 17:1.07409 18:1.667814 19:-0.817474 20:-1.369922 21:-0.172771 22:-0.373824 23:-0.429272 24:-0.183458 25:-0.260147 26:-0.121571 27:-0.286472 28:-0.354332 29:-0.193879 30:-0.229855 31:-0.403275 32:-0.028156 33:-0.152574 34:-0.163037 35:-0.074099 36:-0.086092 
1 1:-0.08949 2:-0.292341 3:-0.429861 4:-0.638198 5:-0.73209 6:-0.154952 7:1.055919 8:1.648688 9:-0.810205 10:-1.363516 11:-0.090752 12:-0.285575 13:-0.365874 14:-0.482548 15:-0.719737 16:-0.15502 17:1.07409 18:1.66803 19:-0.81248 20:-1.369945 21:-0.172768 22:-0.373824 23:-0.430405 24:-0.142626 25:-0.250216 26:-0.121597 27:-0.286475 28:-0.35569 29:-0.175575 30:-0.231553 31:-0.403275 32:-0.028156 33:-0.152574 34:-0.163037 35:-0.07396 36:-0.086095 
1 1:-0.08949 2:-0.292341 3:-0.429861 4:-0.638198 5:-0.73209 6:-0.154978 7:1.055919 8:1.648687 9:-0.812019 10:-1.363694 11:-0.090749 12:-0.285575 13:-0.366633 14:-0.50731 15:-0.72679 16:-0.155047 17:1.07409 18:1.668084 19:-0.816041 20:-1.370743 21:-0.172769 22:-0.373824 23:-0.43279 24:-0.174002 25:-0.273985 26:-0.121587 27:-0.286476 28:-0.355695 29:-0.186267 30:-0.23286 31:-0.403275 32:-0.028156 33:-0.152574 34:-0.163037 35:-0.074046 36:-0.086097 
1 1:-0.089491 2:-0.283532 3:1.865532 4:-0.638198 5:0.883446 6:-0.153938 7:2.200179 8:1.419652 9:-0.81669 10:-0.092479 11:-0.090764 12:-0.272443 13:1.600295 14:-0.658887 15:0.772017 16:-0.154004 17:2.237143 18:1.23149 19:-0.824419 20:-0.0825 21:-0.172892 22:-0.068671 23:2.984251 24:-0.260021 25:-0.064027 26:-0.121642 27:-0.094657 28:-0.052452 29:-0.221907 30:-0.080518 31:-0.403275 32:-0.028156 33:-0.145987 34:-0.15751 35:-0.074168 36:-0.085717 
1 1:-0.088014 2:-0.086175 3:2.50814 4:0.630977 5:0.255182 6:-0.155207 7:3.537791 8:0.901053 9:-0.465074 10:-0.814443 11:-0.090235 12:-0.177374 13:3.70309 14:0.569885 15:0.762688 16:-0.155244 17:3.544339 18:1.080598 19:-0.466296 20:-0.844447 21:-0.167581 22:0.641961 23:0.944765 24:0.10443 25:0.588681 26:-0.120281 27:0.105767 28:1.066343 29:-0.059278 30:0.240467 31:-0.403275 32:-0.028156 33:-0.121791 34:0.177034 35:-0.072029 36:-0.062325 
1 1:-0.089496 2:-0.292341 3:-0.429861 4:0.38827 5:-0.73209 6:-0.154519 7:1.055919 8:1.648691 9:-0.804191 10:-1.364197 11:-0.090774 12:-0.285575 13:-0.366633 14:-0.48074 15:-0.774068 16:-0.154585 17:1.07409 18:1.668101 19:0.02925 20:-1.371868 21:-0.172775 22:-0.373828 23:-0.43299 24:8.572142 25:-0.293516 26:-0.121589 27:-0.286479 28:-0.355705 29:5.126237 30:-0.2389 31:-0.403275 32:-0.028156 33:-0.152574 34:-0.163037 35:1.928531 36:-0.086101 
1 1:-0.089495 2:-0.292341 3:-0.429861 4:0.699088 5:-0.73209 6:-0.154544 7:1.055919 8:1.648691 9:-0.720523 10:-1.364197 11:-0.090774 12:-0.285575 13:-0.366633 14:-0.174999 15:-0.774068 16:-0.154611 17:1.07409 18:1.668101 19:0.229621 20:-1.371868 21:-0.172777 22:-0.373828 23:-0.43299 24:9.247309 25:-0.293516 26:-0.121607 27:-0.286479 28:-0.355705 29:8.871417 30:-0.2389 31:-0.403275 32:-0.028156 33:-0.152574 34:-0.163037 35:6.625556 36:-0.086101 
1 1:-0.089496 2:-0.292341 3:-0.429861 4:0.606928 5:-0.73209 6:-0.154374 7:1.055919 8:1.648691 9:2.039621 10:-1.364197 11:-0.090774 12:-0.285575 13:-0.366633 14:0.652051 15:-0.774068 16:-0.15444 17:1.07409 18:1.668101 19:2.209592 20:-1.371868 21:-0.172777 22:-0.373828 23:-0.43299 24:4.001056 25:-0.293516 26:-0.121582 27:-0.286479 28:-0.355705 29:8.185376 30:-0.2389 31:-0.403275 32:-0.028156 33:-0.152574 34:-0.163037 35:6.371088 36:-0.086101 
0.01593308357991035 1:-0.089498 2:-0.292341 3:-0.429861 4:-0.264653 5:-0.73209 6:-0.158689 7:1.055919 8:1.648691 9:-0.816384 10:-1.364197 11:-0.090777 12:-0.285575 13:-0.366633 14:-0.63394 15:-0.774068 16:-0.158757 17:1.07409 18:1.668101 19:-0.043372 20:-1.371868 21:-0.172778 22:-0.373828 23:-0.43299 24:9.959061 25:-0.293516 26:-0.121588 27:-0.286479 28:-0.355705 29:0.822723 30:-0.2389 31:-0.403275 32:-0.028156 33:-0.152574 34:-0.163037 35:0.00497 36:-0.086101 
1 1:-0.08949 2:-0.292341 3:-0.429861 4:0.257684 5:-0.73209 6:-0.158712 7:1.055919 8:1.648691 9:-0.813837 10:-1.364197 11:-0.090776 12:-0.285575 13:-0.366633 14:-0.585238 15:-0.774068 16:-0.158782 17:1.07409 18:1.668101 19:0.221437 20:-1.371868 21:-0.172776 22:-0.373828 23:-0.43299 24:11.356992 25:-0.293516 26:-0.121593 27:-0.286479 28:-0.355705 29:5.695232 30:-0.2389 31:-0.403275 32:-0.028156 33:-0.152574 34:-0.163037 35:2.531701 36:-0.086101 
1 1:-0.088841 2:-0.225517 3:2.598058 4:0.17218 5:0.16543 6:-0.158027 7:1.059303 8:1.640892 9:-0.747499 10:-1.299807 11:-0.090737 12:-0.107079 13:0.062365 14:-0.076177 15:-0.27401 16:-0.158409 17:1.949872 18:1.578096 19:-0.74265 20:-1.168597 21:-0.141956 22:4.943978 23:1.108265 24:0.178419 25:2.072121 26:-0.088866 27:5.326645 28:1.744374 29:0.136512 30:1.374435 31:-0.403275 32:-0.028119 33:4.177963 34:0.538667 35:-0.060799 36:0.186923 
1 1:-0.08949 2:-0.292341 3:-0.429861 4:0.257684 5:-0.73209 6:-0.158738 7:1.055919 8:1.648691 9:-0.798842 10:-1.364197 11:-0.090776 12:-0.285575 13:-0.366633 14:-0.501881 15:-0.774068 16:-0.158807 17:1.07409 18:1.668101 19:0.506726 20:-1.371868 21:-0.172779 22:-0.373828 23:-0.43299 24:12.420407 25:-0.293516 26:-0.121582 27:-0.286479 28:-0.355705 29:11.858166 30:-0.2389 31:-0.403275 32:-0.028156 33:-0.152574 34:-0.163037 35:10.990194 36:-0.086101 
1 1:-0.088907 2:-0.227647 3:5.71401 4:-0.115002 5:0.344934 6:-0.15531 7:1.055912 8:1.639141 9:-0.742364 10:-1.272606 11:-0.090762 12:-0.207924 13:0.021108 14:-0.084059 15:-0.169175 16:-0.155864 17:1.10704 18:1.174688 19:-0.742298 20:-1.111891 21:-0.140804 22:5.119171 23:3.992899 24:0.145171 25:2.641263 26:-0.077348 27:7.18032 28:5.907866 29:0.073788 30:2.14881 31:-0.403275 32:-0.028092 33:7.201877 34:4.441858 35:-0.064996 36:0.481514 
1 1:-0.081594 2:0.388948 3:2.589073 4:-0.638198 5:0.614191 6:-0.151803 7:1.157708 8:1.329202 9:-0.81669 10:-0.931671 11:-0.07389 12:1.466243 13:2.655806 14:-0.658887 15:0.367686 16:-0.152174 17:1.230842 18:1.370887 19:-0.824419 20:-0.845658 21:-0.135822 22:3.729954 23:1.090879 24:-0.260021 25:4.122581 26:-0.08017 27:4.01811 28:1.151375 29:-0.221907 30:4.289795 31:-0.403275 32:-0.028092 33:3.807316 34:0.281438 35:-0.074168 36:2.112147 
0.1012911408896348 1:-0.088907 2:-0.227912 3:3.188622 4:-0.491078 5:-0.014074 6:-0.155335 7:1.055921 8:1.647711 9:-0.762519 10:-1.329775 11:-0.090762 12:-0.261211 13:-0.249061 14:-0.168455 15:-0.401527 16:-0.155764 17:1.101161 18:1.318473 19:-0.756461 20:-1.179489 21:-0.143553 22:4.753122 23:3.305384 24:0.110266 25:2.301419 26:-0.100382 27:3.501299 28:3.210425 29:0.013994 30:1.096303 31:-0.403275 32:-0.028139 33:1.974673 34:1.695869 35:-0.068581 36:0.096167 
1 1:-0.088849 2:-0.225671 3:2.777048 4:-0.638198 5:0.793695 6:-0.162214 7:1.07886 8:1.648735 9:-0.81669 10:-1.156953 11:-0.090699 12:0.13938 13:-0.091375 14:-0.658887 15:-0.031076 16:-0.162464 17:2.159196 18:1.227067 19:-0.824419 20:-0.97819 21:-0.130698 22:4.453412 23:5.045773 24:-0.260021 25:3.734205 26:-0.055963 27:7.001005 28:7.621274 29:-0.221907 30:4.903945 31:-0.403275 32:-0.028053 33:7.218008 34:9.372476 35:-0.074168 36:2.388876 
1 1:-0.089498 2:-0.28444 3:3.006196 4:-0.638198 5:0.883447 6:-0.16217 7:3.189538 8:1.72061 9:-0.81669 10:-0.201767 11:-0.090782 12:-0.274932 13:-0.366633 14:-0.658887 15:0.565249 16:-0.16224 17:3.244305 18:1.537364 19:-0.824419 20:-0.230149 21:-0.172926 22:-0.074112 23:3.889158 24:-0.260021 25:-0.040681 26:-0.121674 27:-0.099399 28:-0.3557 29:-0.221907 30:0.118449 31:-0.403275 32:-0.028156 33:-0.146096 34:-0.163037 35:-0.074168 36:-0.082025 
1 1:-0.08949 2:-0.283655 3:5.768467 4:-0.638198 5:0.614191 6:-0.161897 7:2.901592 8:1.706409 9:-0.81669 10:-0.208641 11:-0.090794 12:-0.27659 13:-0.088076 14:-0.658887 15:0.692276 16:-0.161967 17:2.951131 18:0.73878 19:-0.824419 20:-0.202108 21:-0.173132 22:-0.107701 23:8.28002 24:-0.260021 25:-0.060978 26:-0.121822 27:-0.121079 28:10.256238 29:-0.221907 30:-0.132765 31:-0.403275 32:-0.028156 33:-0.146965 34:15.535684 35:-0.074168 36:-0.085182 
0.2553560687280824 1:-0.088907 2:-0.227912 3:3.188622 4:-0.491078 5:-0.014074 6:-0.15536 7:1.055919 8:1.648473 9:-0.774843 10:-1.350781 11:-0.090757 12:-0.285533 13:-0.310889 14:-0.232507 15:-0.543468 16:-0.155682 17:1.094881 18:1.419151 19:-0.769818 20:-1.237035 21:-0.147311 22:4.213623 23:2.848969 24:0.071714 25:1.893721 26:-0.11913 27:0.298963 28:-0.237609 29:-0.045498 30:0.309329 31:-0.403275 32:-0.028156 33:-0.108374 34:-0.16095 35:-0.071171 36:-0.054821 
1 1:-0.088914 2:-0.227507 3:2.777048 4:-0.638198 5:0.434686 6:-0.162237 7:1.056497 8:1.646731 9:-0.81669 10:-1.328998 11:-0.09071 12:-0.210393 13:-0.155768 14:-0.658887 15:-0.468589 16:-0.162441 17:1.886927 18:1.288381 19:-0.824419 20:-1.076291 21:-0.133934 22:4.175784 23:4.639759 24:-0.260021 25:3.451197 26:-0.089714 27:3.453554 28:2.822763 29:-0.221907 30:3.004974 31:-0.403275 32:-0.028127 33:2.086387 34:1.293331 35:-0.074168 36:0.878357 
1 1:-0.089281 2:-0.262845 3:3.337964 4:0.259446 5:0.703943 6:-0.156905 7:1.496605 8:0.92997 9:-0.651708 10:-0.479912 11:-0.09064 12:-0.254727 13:2.516529 14:0.208519 15:0.717848 16:-0.156967 17:1.515188 18:0.918461 19:-0.651012 20:-0.516687 21:-0.170981 22:0.242275 23:3.530545 24:-0.118248 25:0.352067 26:-0.12042 27:0.085472 28:1.466367 29:0.008623 30:0.212757 31:-0.403275 32:-0.028156 33:-0.128713 34:0.407138 35:-0.069943 36:-0.069262 
1 1:-0.082779 2:0.309861 3:1.110729 4:-0.638198 5:-0.103826 6:-0.15128 7:1.061337 8:1.587537 9:-0.81669 10:-1.312946 11:-0.090739 12:0.242336 13:1.045222 14:-0.658887 15:-0.345833 16:-0.151713 17:1.142367 18:1.527585 19:-0.824419 20:-1.150672 21:-0.146204 22:2.806251 23:0.726686 24:-0.260021 25:2.871938 26:-0.10843 27:1.007125 28:0.364161 29:-0.221907 30:1.153988 31:-0.403275 32:-0.028151 33:0.13703 34:-0.067842 35:-0.074168 36:0.111844 
1 1:-0.088914 2:-0.227507 3:2.777048 4:-0.638198 5:0.434686 6:-0.162262 7:1.055919 8:1.647905 9:-0.81669 10:-1.356458 11:-0.09071 12:-0.282642 13:-0.240234 14:-0.658887 15:-0.630909 16:-0.162425 17:1.650167 18:1.358159 19:-0.824419 20:-1.161988 21:-0.138642 22:3.733076 23:4.220626 24:-0.260021 25:3.013081 26:-0.116237 27:0.498365 28:-0.26622 29:-0.221907 30:0.94684 31:-0.403275 32:-0.028155 33:-0.06348 34:-0.161752 35:-0.074168 36:0.054137 
1 1:-0.089454 2:-0.279979 3:1.779702 4:0.257279 5:0.434687 6:-0.160619 7:1.554079 8:-1.114193 9:-0.677669 10:-0.484302 11:-0.090612 12:-0.250373 13:-0.366633 14:0.178835 15:0.741198 16:-0.160688 17:1.580087 18:-0.019879 19:-0.680083 20:-0.505377 21:-0.172248 22:0.03616 23:8.165027 24:-0.155315 25:0.291232 26:-0.12117 27:-0.024998 28:3.721281 29:-0.150716 30:0.219123 31:-0.403275 32:-0.028156 33:-0.141207 34:2.067475 35:-0.074017 36:-0.06661 
1 1:-0.089473 2:-0.292341 3:-0.429861 4:-0.455711 5:-0.73209 6:-0.159206 7:1.055919 8:1.648691 9:3.259814 10:-1.364197 11:-0.090773 12:-0.285575 13:-0.366633 14:-0.658887 15:-0.774068 16:-0.159275 17:1.07409 18:1.668101 19:3.112464 20:-1.371868 21:-0.172782 22:-0.373828 23:-0.43299 24:4.253596 25:-0.293516 26:-0.121601 27:-0.286479 28:-0.355705 29:-0.221902 30:-0.2389 31:-0.403275 32:-0.028156 33:-0.152574 34:-0.163037 35:-0.074168 36:-0.086101 
1 1:-0.089475 2:-0.292341 3:-0.429861 4:-0.638198 5:-0.73209 6:-0.158204 7:1.055919 8:1.648687 9:-0.807187 10:-1.362972 11:-0.090716 12:-0.285575 13:-0.365464 14:-0.443753 15:-0.706694 16:-0.158273 17:1.074121 18:1.66802 19:-0.811642 20:-1.367965 21:-0.172782 22:-0.372759 23:-0.429836 24:-0.143828 25:-0.194948 26:-0.121607 27:-0.286474 28:-0.355679 29:-0.160216 30:-0.228794 31:-0.403275 32:-0.028156 33:-0.152574 34:-0.163037 35:-0.073807 36:-0.086089 
1 1:-0.089494 2:-0.283864 3:1.307923 4:0.102645 5:0.16543 6:-0.155157 7:3.485663 8:1.307967 9:-0.773334 10:-0.402419 11:-0.09078 12:-0.273799 13:1.940133 14:-0.094818 15:0.665309 16:-0.155224 17:3.544884 18:1.322261 19:-0.783833 20:-0.420612 21:-0.172886 22:-0.06762 23:-0.140508 24:-0.204748 25:0.073079 26:-0.12162 27:-0.091125 28:-0.167545 29:-0.162137 30:0.146915 31:-0.403275 32:-0.028156 33:-0.146086 34:-0.156419 35:-0.073893 36:-0.072538 
1 1:-0.089457 2:-0.292341 3:-0.429861 4:-0.638198 5:-0.73209 6:-0.155521 7:1.055919 8:1.648676 9:-0.811884 10:-1.363138 11:-0.090749 12:-0.285575 13:-0.352855 14:-0.523331 15:-0.709581 16:-0.155587 17:1.07409 18:1.66803 19:-0.815817 20:-1.369455 21:-0.172783 22:-0.373714 23:-0.43048 24:-0.175786 25:-0.238324 26:-0.121593 27:-0.286474 28:-0.355625 29:-0.175886 30:-0.230169 31:-0.403275 32:-0.028156 33:-0.152574 34:-0.163037 35:-0.07397 36:-0.086092 
1 1:-0.089472 2:-0.282305 3:2.206816 4:-0.638198 5:0.703943 6:-0.154609 7:2.907645 8:1.465365 9:-0.81669 10:-0.263182 11:-0.090771 12:-0.274603 13:1.756233 14:-0.658887 15:0.665978 16:-0.154676 17:2.957754 18:1.416311 19:-0.824419 20:-0.273327 21:-0.172944 22:-0.077047 23:1.644472 24:-0.260021 25:-0.000286 26:-0.121667 27:-0.098512 28:0.020847 29:-0.221907 30:-0.011662 31:-0.403275 32:-0.028156 33:-0.145976 34:-0.149381 35:-0.074168 36:-0.081454 
1 1:-0.089358 2:-0.270442 3:2.475011 4:0.201862 5:0.614191 6:-0.157238 7:1.847696 8:1.720609 9:-0.726739 10:-0.544382 11:-0.090694 12:-0.262671 13:-0.363921 14:-0.025186 15:0.622853 16:-0.157303 17:1.875809 18:1.344303 19:-0.73017 20:-0.558361 21:-0.17146 22:0.164338 23:5.057534 24:-0.160066 25:0.047813 26:-0.120702 27:0.043929 28:3.875291 29:-0.154958 30:-0.085957 31:-0.403275 32:-0.028156 33:-0.133901 34:2.52118 35:-0.073855 36:-0.084233 
1 1:-0.088717 2:-0.20956 3:2.89098 4:-0.638198 5:0.255182 6:-0.162328 7:1.059571 8:1.625341 9:-0.81669 10:-1.325744 11:-0.090693 12:-0.097887 13:0.382777 14:-0.658887 15:-0.448345 16:-0.162527 17:1.936097 18:1.610188 19:-0.824419 20:-1.123968 21:-0.135359 22:4.237696 23:0.624314 24:-0.260021 25:2.886642 26:-0.088862 27:3.723363 28:1.443781 29:-0.221907 30:2.25595 31:-0.403275 32:-0.028121 33:3.023654 34:0.279317 35:-0.074168 36:0.493535 
1 1:-0.082492 2:0.238269 3:2.165316 4:-0.638198 5:0.16543 6:-0.151752 7:1.060889 8:1.616487 9:-0.81669 10:-1.332286 11:-0.090722 12:0.120321 13:0.696468 14:-0.658887 15:-0.417942 16:-0.152187 17:1.22004 18:1.548946 19:-0.824419 20:-1.1673 21:-0.144568 22:3.146515 23:0.709277 24:-0.260021 25:2.710899 26:-0.113153 27:0.818458 28:0.109098 29:-0.221907 30:1.017131 31:-0.403275 32:-0.028153 33:0.097656 34:-0.121513 35:-0.074168 36:0.073542 
1 1:-0.089433 2:-0.277889 3:1.870051 4:0.26002 5:0.703943 6:-0.158975 7:3.678461 8:1.719892 9:-0.757949 10:-0.63711 11:-0.090621 12:-0.252054 13:-0.282751 14:-0.122397 15:0.665115 16:-0.159042 17:3.739398 18:1.385151 19:-0.75632 20:-0.634535 21:-0.171758 22:0.115896 23:4.495893 24:-0.165176 25:0.088476 26:-0.120932 27:0.009983 28:0.317118 29:-0.161344 30:0.026288 31:-0.403275 32:-0.028156 33:-0.137295 34:-0.102726 35:-0.074054 36:-0.080003 
1 1:-0.089484 2:-0.28297 3:4.042531 4:-0.638198 5:0.255182 6:-0.158091 7:2.746386 8:0.755349 9:-0.810063 10:-0.331369 11:-0.090774 12:-0.274019 13:2.142977 14:-0.433483 15:0.65344 16:-0.15816 17:2.793652 18:0.529367 19:-0.818748 20:-0.344902 21:-0.172724 22:-0.041378 23:5.240374 24:-0.244606 25:-0.146011 26:-0.121512 27:-0.07548 28:1.938935 29:-0.204836 30:-0.139161 31:-0.403275 32:-0.028156 33:-0.144708 34:0.643497 35:-0.074149 36:-0.085888 
1 1:-0.089482 2:-0.281956 3:1.789826 4:-0.638198 5:0.793695 6:-0.154938 7:3.254538 8:1.246737 9:-0.81669 10:-0.370039 11:-0.090784 12:-0.274202 13:2.235343 14:-0.658887 15:0.565725 16:-0.155004 17:3.309406 18:0.837653 19:-0.824069 20:-0.39006 21:-0.172831 22:-0.058803 23:4.993364 24:-0.254231 25:0.069928 26:-0.121591 27:-0.086792 28:0.018988 29:-0.221907 30:0.10234 31:-0.403275 32:-0.028156 33:-0.145456 34:-0.147709 35:-0.074168 36:-0.075442 
1 1:-0.088896 2:-0.224787 3:3.28652 4:0.44163 5:0.344934 6:-0.160783 7:1.727484 8:1.720607 9:-0.669674 10:-0.857097 11:-0.090489 12:-0.235163 13:-0.360642 14:0.154192 15:0.511205 16:-0.160796 17:1.686524 18:1.438421 19:-0.282322 20:-0.901598 21:-0.154904 22:3.063235 23:3.62101 24:7.913941 25:1.259201 26:-0.119686 27:0.193703 28:3.513071 29:0.165409 30:0.260017 31:-0.403275 32:-0.028155 33:-0.103095 34:2.365475 35:-0.065816 36:-0.057923 
1 1:-0.088882 2:-0.223931 3:2.262358 4:0.624214 5:0.614191 6:-0.157239 7:1.848886 8:0.624948 9:-0.729416 10:-0.730166 11:-0.09058 12:-0.246392 13:3.87195 14:-0.101076 15:0.601355 16:-0.157102 17:1.73172 18:1.403115 19:-0.383071 20:-0.850675 21:-0.147685 22:3.83106 23:3.192327 24:6.327857 25:2.218543 26:-0.118805 27:0.323476 28:6.652525 29:0.73913 30:1.593411 31:-0.403275 32:-0.028155 33:-0.076504 34:0.919675 35:-0.071246 36:0.268861 
1 1:-0.088635 2:-0.198557 3:9.337586 4:-0.638198 5:0.883447 6:-0.16267 7:3.717253 8:1.617126 9:-0.81669 10:-0.638712 11:-0.090343 12:-0.212301 13:0.724835 14:-0.658887 15:0.536773 16:-0.162661 17:3.172153 18:1.17889 19:-0.824419 20:-0.768785 21:-0.139717 22:3.592894 23:5.41603 24:-0.260021 25:2.670067 26:-0.115495 27:0.436175 28:5.217803 29:-0.221907 30:1.115677 31:-0.403275 32:-0.028154 33:-0.108709 34:3.170896 35:-0.074168 36:0.145258 
1 1:-0.089486 2:-0.292341 3:-0.429861 4:0.783908 5:-0.73209 6:-0.155124 7:1.055919 8:1.648691 9:2.881136 10:-1.364197 11:-0.090779 12:-0.285575 13:-0.366633 14:0.349697 15:-0.774068 16:-0.155192 17:1.07409 18:1.668101 19:2.445756 20:-1.371868 21:-0.172798 22:-0.373828 23:-0.43299 24:4.188497 25:-0.293516 26:-0.121585 27:-0.286479 28:-0.355705 29:0.291214 30:-0.2389 31:-0.403275 32:-0.028156 33:-0.152574 34:-0.163037 35:-0.055602 36:-0.086101 
1 1:-0.088635 2:-0.198557 3:6.971213 4:-0.638198 5:0.793695 6:-0.162347 7:1.065917 8:1.643989 9:-0.81669 10:-1.293043 11:-0.090713 12:0.007625 13:-0.037506 14:-0.658887 15:-0.334698 16:-0.16256 17:2.075045 18:1.478595 19:-0.824419 20:-1.105999 21:-0.135739 22:4.303557 23:2.495683 24:-0.260021 25:2.768559 26:-0.07464 27:5.532124 28:1.635153 29:-0.221907 30:2.855146 31:-0.403275 32:-0.028097 33:5.784724 34:0.361639 35:-0.074168 36:0.80213 
1 1:-0.089478 2:-0.292341 3:-0.429861 4:0.89443 5:-0.73209 6:-0.156054 7:1.055919 8:1.64869 9:1.949777 10:-1.364197 11:-0.090758 12:-0.285575 13:-0.366633 14:0.734287 15:-0.774068 16:-0.156122 17:1.07409 18:1.668099 19:2.196661 20:-1.371495 21:-0.172802 22:-0.373824 23:-0.432978 24:7.591411 25:-0.287041 26:-0.121617 27:-0.286473 28:-0.355687 29:7.932459 30:-0.237826 31:-0.403275 32:-0.028156 33:-0.152574 34:-0.163037 35:3.630069 36:-0.086101 
1 1:-0.089425 2:-0.277195 3:3.310581 4:-0.638198 5:1.062951 6:-0.154331 7:2.614635 8:0.376646 9:-0.81669 10:-0.453654 11:-0.090448 12:-0.218676 13:3.727949 14:-0.658887 15:0.712478 16:-0.154396 17:2.656785 18:0.925111 19:-0.824419 20:-0.466328 21:-0.171791 22:0.110498 23:3.568023 24:-0.260021 25:0.00525 26:-0.120879 27:0.018288 28:5.794911 29:-0.221907 30:-0.027228 31:-0.403275 32:-0.028156 33:-0.137684 34:4.67001 35:-0.074168 36:-0.08338 
1 1:-0.08946 2:-0.280189 3:1.658977 4:-0.373884 5:0.255182 6:-0.155307 7:3.643398 8:-0.806344 9:-0.788076 10:-0.664836 11:-0.090674 12:-0.242907 13:1.705584 14:-0.27649 15:0.582144 16:-0.155372 17:3.703539 18:0.851113 19:-0.798256 20:-0.676464 21:-0.171998 22:0.076711 23:4.220424 24:-0.213807 25:0.186297 26:-0.121019 27:-0.002952 28:8.112418 29:-0.198033 30:0.12469 31:-0.403275 32:-0.028156 33:-0.139086 34:0.276756 35:-0.074139 36:-0.074003 
1 1:-0.089284 2:-0.263143 3:2.1889 4:-0.246715 5:0.703943 6:-0.161326 7:2.299507 8:-1.039379 9:-0.783588 10:-0.733559 11:-0.090618 12:-0.252962 13:0.195868 14:-0.297204 15:0.60581 16:-0.161392 17:2.334826 18:0.630938 19:-0.788391 20:-0.776903 21:-0.170629 22:0.299548 23:8.126813 24:-0.189181 25:0.429456 26:-0.120248 27:0.110856 28:14.03877 29:-0.143507 30:0.094602 31:-0.403275 32:-0.028156 33:-0.123298 34:26.046415 35:-0.073817 36:-0.076115 
1 1:-0.088957 2:-0.235819 3:4.262229 4:-0.638198 5:-0.373082 6:-0.162342 7:1.056314 8:1.648684 9:-0.81669 10:-1.327865 11:-0.090711 12:-0.227832 13:-0.36266 14:-0.658887 15:-0.459213 16:-0.162527 17:1.89434 18:1.368062 19:-0.824419 20:-1.170836 21:-0.139213 22:4.062662 23:4.599105 24:-0.260021 25:2.25402 26:-0.097553 27:2.944833 28:-0.233532 29:-0.221907 30:1.421957 31:-0.403275 32:-0.028139 33:1.851175 34:-0.160814 35:-0.074168 36:0.196139 
1 1:-0.089424 2:-0.277076 3:1.815333 4:-0.638198 5:0.434687 6:-0.158668 7:3.354933 8:0.99213 9:-0.81669 10:-0.582496 11:-0.090706 12:-0.261403 13:2.236591 14:-0.658887 15:0.569592 16:-0.158736 17:3.411034 18:0.740207 19:-0.82394 20:-0.593286 21:-0.172085 22:0.062668 23:5.210146 24:-0.254137 25:0.056362 26:-0.121129 27:-0.018982 28:1.752865 29:-0.213475 30:-0.00726 31:-0.403275 32:-0.028156 33:-0.14024 34:0.456439 35:-0.074165 36:-0.080715 
1 1:-0.089433 2:-0.277573 3:1.510991 4:-0.638198 5:0.793695 6:-0.155233 7:3.565405 8:1.377729 9:-0.803928 10:-0.712704 11:-0.090592 12:-0.217189 13:1.876886 14:-0.430152 15:0.59202 16:-0.155298 17:3.624083 18:0.926442 19:-0.811091 20:-0.704098 21:-0.171967 22:0.08175 23:5.135732 24:-0.230637 25:0.126574 26:-0.120992 27:0.001444 28:2.239929 29:-0.195118 30:0.031127 31:-0.403275 32:-0.028156 33:-0.138867 34:0.642596 35:-0.074128 36:-0.079282 
1 1:-0.088957 2:-0.235819 3:4.262229 4:-0.638198 5:-0.373082 6:-0.162367 7:1.055919 8:1.648688 9:-0.81669 10:-1.357465 11:-0.090713 12:-0.285575 13:-0.364719 14:-0.658887 15:-0.637524 16:-0.162501 17:1.549344 18:1.496011 19:-0.824419 20:-1.254339 21:-0.145823 22:3.330649 23:3.557902 24:-0.260021 25:1.697972 26:-0.121584 27:-0.278652 28:-0.354894 29:-0.221907 30:0.128763 31:-0.403275 32:-0.028156 33:-0.152562 34:-0.163037 35:-0.074168 36:-0.072947 
1 1:-0.089423 2:-0.276942 3:8.333792 4:-0.638198 5:0.434687 6:-0.162329 7:3.356927 8:-1.114193 9:-0.81669 10:-0.61349 11:-0.090703 12:-0.259457 13:-0.366632 14:-0.658887 15:0.437131 16:-0.162399 17:3.414308 18:0.52008 19:-0.824419 20:-0.61145 21:-0.171758 22:0.11578 23:8.371594 24:-0.260021 25:0.141764 26:-0.120855 27:0.021419 28:8.698461 29:-0.221907 30:0.106473 31:-0.403275 32:-0.028156 33:-0.136793 34:3.271052 35:-0.074168 36:-0.075478 
1 1:-0.089453 2:-0.279896 3:2.076685 4:-0.638198 5:0.434687 6:-0.158537 7:3.216861 8:0.817836 9:-0.81669 10:-0.610982 11:-0.090744 12:-0.270065 13:2.494897 14:-0.658887 15:0.536216 16:-0.158605 17:3.270609 18:0.866095 19:-0.824419 20:-0.619046 21:-0.172055 22:0.067592 23:2.857485 24:-0.260021 25:0.115015 26:-0.121106 27:-0.015613 28:1.604715 29:-0.221907 30:0.047244 31:-0.403275 32:-0.028156 33:-0.139442 34:0.635333 35:-0.074168 36:-0.078675 
1 1:-0.089407 2:-0.276544 3:0.960416 4:-0.638198 5:0.344934 6:-0.155136 7:3.463367 8:1.424217 9:-0.816336 10:-0.661766 11:-0.090662 12:-0.238122 13:1.955633 14:-0.649974 15:0.611953 16:-0.155201 17:3.519904 18:1.354056 19:-0.823876 20:-0.671249 21:-0.171904 22:0.092203 23:0.948458 24:-0.255668 25:0.115698 26:-0.120946 27:0.008212 28:-0.091284 29:-0.221758 30:0.060025 31:-0.403275 32:-0.028156 33:-0.13815 34:-0.14969 35:-0.074168 36:-0.077699 
1 1:-0.089451 2:-0.279703 3:1.025885 4:-0.638198 5:0.614191 6:-0.162064 7:3.077446 8:-0.472163 9:-0.81669 10:-0.613195 11:-0.090741 12:-0.269356 13:1.81354 14:-0.658887 15:0.520197 16:-0.162134 17:3.129651 18:1.149293 19:-0.823823 20:-0.626012 21:-0.171811 22:0.107235 23:6.292321 24:-0.252975 25:0.127975 26:-0.120919 27:0.011859 28:12.121083 29:-0.221907 30:0.088308 31:-0.403275 32:-0.028156 33:-0.13758 34:11.525529 35:-0.074168 36:-0.075466 
1 1:-0.089384 2:-0.272786 3:2.41064 4:-0.638198 5:0.344934 6:-0.154711 7:3.015918 8:1.219883 9:-0.81669 10:-0.621073 11:-0.090363 12:-0.209865 13:2.451843 14:-0.658251 15:0.590409 16:-0.154774 17:3.062912 18:0.98203 19:-0.824418 20:-0.633772 21:-0.171327 22:0.185987 23:3.452029 24:-0.260011 25:0.021909 26:-0.120578 27:0.062348 28:7.309581 29:-0.221898 30:0.006142 31:-0.403275 32:-0.028156 33:-0.132144 34:8.569923 35:-0.074168 36:-0.0793 
1 1:-0.089035 2:-0.239035 3:0.585734 4:-0.638198 5:0.075678 6:-0.162311 7:1.37756 8:1.297483 9:-0.81669 10:-1.222954 11:-0.078241 12:1.190397 13:1.684744 14:-0.658887 15:-0.166948 16:-0.162506 17:2.253531 18:1.430727 19:-0.824419 20:-1.090054 21:-0.136302 22:4.387301 23:3.29143 24:-0.260021 25:2.520569 26:-0.059364 27:7.606917 28:7.044561 29:-0.221907 30:3.013125 31:-0.403275 32:-0.028058 33:11.803685 34:3.186976 35:-0.074168 36:0.889815 
1 1:-0.08949 2:-0.292341 3:-0.429861 4:-0.318332 5:-0.73209 6:-0.156507 7:1.055919 8:1.648691 9:3.25775 10:-1.364197 11:-0.090766 12:-0.285575 13:-0.366633 14:-0.609207 15:-0.774068 16:-0.156575 17:1.07409 18:1.668101 19:2.967735 20:-1.37183 21:-0.172816 22:-0.373827 23:-0.43298 24:3.887504 25:-0.292169 26:-0.12161 27:-0.286479 28:-0.355704 29:-0.004884 30:-0.2389 31:-0.403275 32:-0.028156 33:-0.152574 34:-0.163037 35:-0.070266 36:-0.086101 
1 1:-0.088644 2:-0.210751 3:1.211306 4:-0.638198 5:0.16543 6:-0.152869 7:1.163303 8:1.569652 9:-0.81669 10:-1.229484 11:-0.080312 12:1.06758 13:1.261706 14:-0.658887 15:-0.152354 16:-0.153432 17:1.651366 18:1.462303 19:-0.824419 20:-1.081393 21:-0.139202 22:4.07121 23:1.483797 24:-0.260021 25:2.692989 26:-0.086071 27:4.159223 28:0.825299 29:-0.221907 30:2.930217 31:-0.403275 32:-0.028115 33:4.836506 34:0.070285 35:-0.074168 36:0.876741 
0.9511200092773282 1:-0.089035 2:-0.239035 3:0.585734 4:-0.638198 5:0.075678 6:-0.162289 7:1.05592 8:1.647563 9:-0.81669 10:-1.343108 11:-0.090719 12:-0.282641 13:-0.246446 14:-0.658887 15:-0.537017 16:-0.162474 17:1.879689 18:1.4405 19:-0.824419 20:-1.18665 21:-0.139959 22:4.070448 23:3.202784 24:-0.260021 25:2.140187 26:-0.103273 27:2.248167 28:3.674384 29:-0.221907 30:0.971763 31:-0.403275 32:-0.028146 33:1.221237 34:2.319204 35:-0.074168 36:0.059059 
1 1:-0.08948 2:-0.292341 3:-0.429861 4:0.511624 5:-0.73209 6:-0.156827 7:1.055919 8:1.648691 9:2.644201 10:-1.364197 11:-0.090762 12:-0.285575 13:-0.366633 14:0.233612 15:-0.774068 16:-0.156897 17:1.07409 18:1.668101 19:2.574116 20:-1.371855 21:-0.17282 22:-0.373825 23:-0.432987 24:4.816232 25:-0.292979 26:-0.121602 27:-0.286479 28:-0.355705 29:5.38708 30:-0.2389 31:-0.403275 32:-0.028156 33:-0.152574 34:-0.163037 35:2.955129 36:-0.086101 
1 1:-0.08934 2:-0.268268 3:1.60909 4:-0.638198 5:0.614191 6:-0.158536 7:3.216075 8:0.510687 9:-0.81669 10:-0.939284 11:-0.090578 12:-0.245128 13:2.631209 14:-0.658834 15:0.357819 16:-0.158341 17:2.513806 18:1.347773 19:0.542366 20:-1.008448 21:-0.145983 22:3.532717 23:2.75557 24:12.822787 25:2.00773 26:-0.098051 27:2.454708 28:5.749673 29:10.574952 30:1.78669 31:-0.403275 32:-0.028137 33:1.568326 34:-0.075633 35:6.677058 36:0.351913 
1 1:-0.089425 2:-0.292341 3:-0.429861 4:1.854029 5:-0.73209 6:-0.161294 7:1.055919 8:1.648691 9:3.243722 10:-1.363155 11:-0.090752 12:-0.285575 13:-0.366625 14:-0.508423 15:-0.713006 16:-0.161366 17:1.07409 18:1.668099 19:2.255377 20:-1.368448 21:-0.172824 22:-0.373822 23:-0.432979 24:10.705667 25:-0.238891 26:-0.121615 27:-0.286468 28:-0.355681 29:15.28382 30:-0.221398 31:-0.403275 32:-0.028156 33:-0.152574 34:-0.163037 35:16.122427 36:-0.086069 
1 1:-0.089507 2:-0.292341 3:-0.429861 4:0.605213 5:-0.73209 6:-0.155774 7:1.055919 8:1.648691 9:2.72879 10:-1.364197 11:-0.090779 12:-0.285575 13:-0.366633 14:0.433055 15:-0.774068 16:-0.155842 17:1.07409 18:1.668101 19:2.293278 20:-1.371868 21:-0.172827 22:-0.373828 23:-0.43299 24:3.18751 25:-0.293516 26:-0.121606 27:-0.286479 28:-0.355705 29:5.34792 30:-0.2389 31:-0.403275 32:-0.028156 33:-0.152574 34:-0.163037 35:2.175291 36:-0.086101 
1 1:-0.08946 2:-0.292341 3:-0.429861 4:0.905618 5:-0.73209 6:-0.162379 7:1.055919 8:1.648691 9:-0.78659 10:-1.364197 11:-0.090749 12:-0.285575 13:-0.366633 14:-0.418737 15:-0.774068 16:-0.16245 17:1.07409 18:1.6681 19:0.717735 20:-1.371797 21:-0.172826 22:-0.373824 23:-0.43298 24:13.233667 25:-0.291829 26:-0.121621 27:-0.286479 28:-0.355704 29:21.107954 30:-0.2389 31:-0.403275 32:-0.028156 33:-0.152574 34:-0.163037 35:27.002419 36:-0.086101 
1 1:-0.08946 2:-0.292341 3:-0.429861 4:0.905618 5:-0.73209 6:-0.162403 7:1.055919 8:1.648691 9:-0.80973 10:-1.364197 11:-0.090757 12:-0.285575 13:-0.366633 14:-0.539478 15:-0.774068 16:-0.162474 17:1.07409 18:1.668101 19:0.642588 20:-1.371859 21:-0.172823 22:-0.373825 23:-0.432984 24:13.166322 25:-0.293153 26:-0.121618 27:-0.286479 28:-0.355705 29:17.499708 30:-0.2389 31:-0.403275 32:-0.028156 33:-0.152574 34:-0.163037 35:18.739506 36:-0.086101 
1 1:-0.089466 2:-0.292341 3:-0.429861 4:0.547674 5:-0.73209 6:-0.162427 7:1.055919 8:1.648691 9:-0.812176 10:-1.364197 11:-0.090758 12:-0.285575 13:-0.366633 14:-0.57022 15:-0.774068 16:-0.162497 17:1.07409 18:1.668101 19:0.52572 20:-1.371866 21:-0.172826 22:-0.373827 23:-0.43299 24:12.783808 25:-0.293362 26:-0.121606 27:-0.286479 28:-0.355705 29:12.641379 30:-0.2389 31:-0.403275 32:-0.028156 33:-0.152574 34:-0.163037 35:10.405609 36:-0.086101 
1 1:-0.089481 2:-0.292341 3:-0.429861 4:0.346267 5:-0.73209 6:-0.153322 7:1.055919 8:1.648691 9:-0.692155 10:-1.364197 11:-0.090628 12:-0.285575 13:-0.366633 14:0.006315 15:-0.774068 16:-0.153389 17:1.07409 18:1.668101 19:0.124649 20:-1.371868 21:-0.17283 22:-0.373827 23:-0.432991 24:8.696303 25:-0.293516 26:-0.121617 27:-0.286478 28:-0.355706 29:5.688015 30:-0.2389 31:-0.403275 32:-0.028156 33:-0.152574 34:-0.163037 35:2.323947 36:-0.086101 
-0.149299290727946 1:-0.089494 2:-0.283965 3:2.829835 4:-0.638198 5:-0.014074 6:-0.160772 7:1.715569 8:-1.114193 9:-0.81669 10:1.014896 11:-0.09079 12:-0.276004 13:-0.366633 14:-0.658887 15:-0.0192 16:-0.160842 17:1.745219 18:0.531494 19:-0.824419 20:1.022621 21:-0.173152 22:-0.111014 23:8.201836 24:-0.260021 25:-0.256329 26:-0.121823 27:-0.121255 28:7.570807 29:-0.221907 30:-0.18727 31:-0.403275 32:-0.028156 33:-0.14796 34:6.866154 35:-0.074168 36:-0.085981 
-0.1170562848449338 1:-0.089497 2:-0.284337 3:0.905241 4:0.075619 5:-0.014074 6:-0.159566 7:0.444124 8:-1.114193 9:-0.755385 10:0.995774 11:-0.090789 12:-0.275916 13:-0.366633 14:-0.054826 15:0.108482 16:-0.159634 17:0.450512 18:-0.394524 19:-0.752487 20:1.005444 21:-0.173074 22:-0.09823 23:7.063666 24:-0.18969 25:-0.255977 26:-0.121793 27:-0.116813 28:5.373701 29:-0.141409 30:-0.206332 31:-0.403275 32:-0.028156 33:-0.147682 34:3.673019 35:-0.073818 36:-0.086012 
-0.4397576061870948 1:-0.089499 2:-0.284453 3:0.238901 4:0.104449 5:0.16543 6:-0.159385 7:0.253538 8:-0.612014 9:-0.669921 10:0.976293 11:-0.090787 12:-0.2756 13:0.832646 14:0.330122 15:0.13666 16:-0.159453 17:0.256522 18:0.181628 19:-0.68794 20:0.981878 21:-0.172998 22:-0.085983 23:9.079394 24:-0.092588 25:-0.19363 26:-0.121722 27:-0.106458 28:13.514022 29:-0.122932 30:-0.198277 31:-0.403275 32:-0.028156 33:-0.147272 34:29.255732 35:-0.073847 36:-0.086006 
-0.4869795921279274 1:-0.089471 2:-0.28172 3:-0.37866 4:0.984491 5:1.152702 6:-0.158751 7:-0.415223 8:1.72061 9:1.059531 10:0.405115 11:-0.09076 12:-0.272156 13:-0.366633 14:1.458773 15:0.86532 16:-0.158819 17:-0.423731 18:1.739677 19:0.899212 20:0.395604 21:-0.172421 22:0.008048 23:-0.391305 24:2.431094 25:0.098039 26:-0.121329 27:-0.048428 28:-0.355704 29:1.298685 30:0.168053 31:-0.403275 32:-0.028156 33:-0.14216 34:-0.163037 35:0.136038 36:-0.072805 
-0.05219155078883235 1:-0.089488 2:-0.283362 3:1.913701 4:-0.03228 5:-0.014074 6:-0.155875 7:0.410564 8:-1.114193 9:-0.728865 10:0.975299 11:-0.090781 12:-0.2748 13:-0.364786 14:0.04993 15:0.118555 16:-0.155943 17:0.417894 18:0.392022 19:-0.724833 20:0.979149 21:-0.172881 22:-0.066848 23:5.488329 24:-0.024262 25:-0.088009 26:-0.121645 27:-0.095067 28:5.787703 29:-0.060708 30:-0.090388 31:-0.403275 32:-0.028156 33:-0.146382 34:0.400898 35:-0.07203 36:-0.083411 
-1 1:-0.089498 2:-0.283845 3:1.938843 4:-0.638198 5:-0.014074 6:-0.1526 7:0.789873 8:0.353253 9:-0.81669 10:1.031088 11:-0.090775 12:-0.273657 13:2.648597 14:-0.658887 15:-0.071069 16:-0.152665 17:0.802161 18:0.811799 19:-0.824419 20:1.036068 21:-0.172954 22:-0.078751 23:4.082568 24:-0.260021 25:-0.202614 26:-0.121677 27:-0.099437 28:8.030258 29:-0.221907 30:-0.178511 31:-0.403275 32:-0.028156 33:-0.146677 34:12.185751 35:-0.074168 36:-0.085783 
-0.09041622645863708 1:-0.08939 2:-0.273658 3:6.059976 4:-0.638198 5:0.793695 6:-0.161356 7:2.331746 8:-0.896347 9:-0.81669 10:0.477544 11:-0.090659 12:-0.258128 13:0.739901 14:-0.658887 15:0.726725 16:-0.161425 17:2.370126 18:0.761626 19:-0.824419 20:0.47657 21:-0.171582 22:0.144442 23:7.653132 24:-0.260021 25:1.02927 26:-0.120794 27:0.030337 28:12.209335 29:-0.221907 30:0.758631 31:-0.403275 32:-0.028156 33:-0.134783 34:21.074736 35:-0.074168 36:0.010106 
-0.7210395530721461 1:-0.089474 2:-0.281931 3:2.681365 4:-0.638198 5:0.16543 6:-0.161268 7:2.239136 8:1.72061 9:-0.81669 10:0.96003 11:-0.090762 12:-0.272347 13:-0.366633 14:-0.658887 15:0.108367 16:-0.161338 17:2.276791 18:1.383756 19:-0.824419 20:0.957839 21:-0.172507 22:-0.005951 23:4.887269 24:-0.260021 25:-0.043327 26:-0.121394 27:-0.058134 28:-0.355703 29:-0.221907 30:-0.078964 31:-0.403275 32:-0.028156 33:-0.143806 34:-0.163037 35:-0.074168 36:-0.083838 
-0.2437427737747909 1:-0.089503 2:-0.284874 3:0.299455 4:-0.638198 5:-0.014074 6:-0.160658 7:1.595569 8:1.564882 9:-0.81669 10:1.026284 11:-0.09079 12:-0.276003 13:0.57585 14:-0.658887 15:-0.077395 16:-0.160728 17:1.62256 18:0.909593 19:-0.824419 20:1.027235 21:-0.173197 22:-0.11836 23:7.843603 24:-0.260021 25:-0.255269 26:-0.121874 27:-0.128831 28:14.243599 29:-0.221907 30:-0.207227 31:-0.403275 32:-0.028156 33:-0.148227 34:28.522158 35:-0.074168 36:-0.086059 
-0.2098303372661412 1:-0.089501 2:-0.284724 3:0.095832 4:-0.638198 5:-0.103826 6:-0.160377 7:1.298941 8:-1.114193 9:-0.814432 10:1.021748 11:-0.090793 12:-0.276374 13:-0.366633 14:-0.528862 15:-0.017247 16:-0.160447 17:1.321639 18:0.580589 19:-0.821254 20:1.024095 21:-0.173222 22:-0.122377 23:8.814213 24:-0.252109 25:-0.243425 26:-0.121881 27:-0.129838 28:1.185749 29:-0.208851 30:-0.154839 31:-0.403275 32:-0.028156 33:-0.148366 34:-0.035365 35:-0.074158 36:-0.085923 
