svm_type c_svc
kernel_type rbf
gamma 0.1
nr_class 2
total_sv 526
rho 0.689188
label 0 1
nr_sv 159 367
SV
0.8991655968484358 1:-0.089224 2:-0.292341 3:-0.429861 4:-0.638198 5:-0.73209 6:-0.152399 7:1.055919 8:1.646031 9:-0.81669 10:-1.364197 11:-0.090434 12:-0.285575 13:0.190051 14:-0.658887 15:-0.774068 16:-0.152462 17:1.07409 18:1.662488 19:-0.824419 20:-1.371868 21:-0.172578 22:-0.373825 23:-0.377022 24:-0.260021 25:-0.293516 26:-0.121425 27:-0.286474 28:-0.329872 29:-0.221907 30:-0.2389 31:1.796406 32:-0.028156 33:-0.152574 34:-0.162908 35:-0.074168 36:-0.086101 
0.3973594453992379 1:-0.089146 2:-0.292341 3:-0.429861 4:-0.638198 5:-0.73209 6:-0.15245 7:1.055919 8:1.638825 9:-0.81669 10:-1.364197 11:-0.090448 12:-0.285575 13:0.657018 14:-0.658887 15:-0.774068 16:-0.152779 17:0.856484 18:1.57358 19:-0.824419 20:-1.121442 21:-0.146544 22:1.541269 23:0.787415 24:-0.260021 25:5.092388 26:-0.121478 27:-0.286476 28:-0.279475 29:-0.221907 30:-0.2389 31:1.796406 32:-0.028156 33:-0.152574 34:-0.161943 35:-0.074168 36:-0.086101 
1 1:-0.089033 2:-0.276658 3:-0.388276 4:-0.638198 5:-0.73209 6:-0.15248 7:1.055919 8:1.627352 9:-0.81669 10:-1.364197 11:-0.090386 12:-0.285575 13:1.145542 14:-0.658887 15:-0.774068 16:-0.153132 17:0.6037 18:1.453463 19:-0.824419 20:-0.798765 21:-0.134039 22:2.304979 23:1.7674 24:-0.260021 25:8.285455 26:-0.121443 27:-0.28605 28:0.265199 29:-0.221907 30:1.315542 31:1.796406 32:-0.028156 33:-0.152574 34:-0.108683 35:-0.074168 36:0.076167 
1 1:-0.089033 2:-0.276658 3:-0.388276 4:-0.638198 5:-0.73209 6:-0.152508 7:1.055916 8:1.520958 9:-0.81669 10:-1.16356 11:-0.090431 12:-0.279781 13:3.494665 14:-0.658887 15:0.78628 16:-0.153492 17:0.362887 18:1.298679 19:-0.824419 20:-0.476984 21:-0.12825 22:2.589622 23:2.518318 24:-0.260021 25:9.601181 26:-0.052049 27:4.122118 28:1.996953 29:-0.221907 30:12.850039 31:1.796406 32:-0.027982 33:3.46973 34:0.733749 35:-0.074168 36:12.833038 
1 1:-0.088912 2:-0.226023 3:6.126837 4:-0.638198 5:1.421959 6:-0.15492 7:-0.595941 8:0.556893 9:-0.81669 10:0.857361 11:-0.090058 12:-0.177521 13:10.085443 14:-0.658887 15:1.836247 16:-0.154595 17:-0.3096 18:0.747636 19:-0.824419 20:0.491054 21:-0.139091 22:1.75614 23:2.909585 24:-0.260021 25:6.876575 26:-0.119797 27:0.177248 28:1.055033 29:-0.221907 30:0.066891 31:1.796406 32:-0.028155 33:-0.089255 34:0.179706 35:-0.074168 36:-0.084218 
0.1760280750257365 1:-0.089165 2:-0.292341 3:-0.429861 4:-0.638198 5:-0.73209 6:-0.156271 7:1.055919 8:1.648687 9:-0.800607 10:-1.364015 11:-0.090426 12:-0.285575 13:-0.366633 14:0.059886 15:-0.705017 16:-0.156344 17:1.073431 18:1.668126 19:-0.812089 20:-1.369254 21:-0.17259 22:-0.357788 23:-0.431646 24:-0.184777 25:-0.161351 26:-0.121495 27:-0.286477 28:-0.355697 29:-0.144778 30:-0.237133 31:1.796406 32:-0.028156 33:-0.152574 34:-0.163037 35:-0.073562 36:-0.086101 
1 1:-0.088943 2:-0.226023 3:6.126837 4:-0.638198 5:1.421959 6:-0.155027 7:-0.483383 8:-0.135335 9:-0.81669 10:0.887779 11:-0.090266 12:-0.205111 13:8.282514 14:-0.658887 15:1.674346 16:-0.155082 17:-0.505072 18:0.736829 19:-0.824419 20:0.886517 21:-0.17149 22:0.159371 23:2.871655 24:-0.260021 25:-0.097096 26:-0.120818 27:0.026871 28:3.236455 29:-0.221907 30:0.030637 31:1.796406 32:-0.028156 33:-0.123962 34:0.111598 35:-0.074168 36:-0.082943 
0.444801170837459 1:-0.089165 2:-0.292341 3:-0.429861 4:-0.638198 5:-0.73209 6:-0.156306 7:1.055919 8:1.648689 9:-0.792357 10:-1.363963 11:-0.090415 12:-0.285575 13:-0.366633 14:0.224725 15:-0.695678 16:-0.156385 17:1.046831 18:1.668473 19:-0.808214 20:-1.330174 21:-0.167246 22:0.219822 23:-0.420134 24:-0.183901 25:1.5587 26:-0.121428 27:-0.286476 28:-0.355697 29:-0.17059 30:-0.237754 31:1.796406 32:-0.028156 33:-0.152574 34:-0.163037 35:-0.074016 36:-0.086101 
0.7610802618719795 1:-0.088834 2:-0.254134 3:-0.378313 4:-0.638198 5:-0.73209 6:-0.156331 7:1.055919 8:1.648687 9:-0.792423 10:-1.363872 11:-0.090406 12:-0.285575 13:-0.366633 14:0.223519 15:-0.681696 16:-0.156502 17:0.900662 18:1.654992 19:-0.804271 20:-1.208301 21:-0.150839 22:1.550936 23:0.245152 24:-0.194079 25:4.167018 26:-0.121456 27:-0.286476 28:-0.355698 29:-0.221181 30:-0.227512 31:1.796406 32:-0.028156 33:-0.152574 34:-0.163037 35:-0.074168 36:-0.08609 
0.5188498910705335 1:-0.088902 2:-0.274009 3:0.379391 4:-0.638198 5:-0.373082 6:-0.149093 7:1.055919 8:1.648709 9:-0.808518 10:-1.361117 11:-0.090431 12:-0.285575 13:-0.187285 14:-0.145519 15:-0.56089 16:-0.149694 17:0.858818 18:1.508459 19:-0.80901 20:-0.982235 21:-0.136766 22:2.534962 23:1.590553 24:-0.150087 25:6.641018 26:-0.121419 27:-0.167315 28:0.050734 29:-0.137759 30:0.296124 31:1.796406 32:-0.028156 33:-0.150215 34:-0.137726 35:-0.07374 36:-0.061024 
0.1839250065596071 1:-0.088834 2:-0.254134 3:-0.378313 4:-0.638198 5:-0.73209 6:-0.156359 7:1.055919 8:1.648688 9:-0.792341 10:-1.362872 11:-0.090405 12:-0.285575 13:-0.366633 14:0.225003 15:-0.633283 16:-0.156687 17:0.64616 18:1.608273 19:-0.799969 20:-1.006396 21:-0.137308 22:2.621943 23:1.184679 24:-0.196385 25:6.345326 26:-0.12149 27:-0.262236 28:-0.352115 29:-0.180937 30:0.286026 31:1.796406 32:-0.028156 33:-0.152469 34:-0.163035 35:-0.074076 36:-0.062296 
1 1:-0.088977 2:-0.232559 3:5.711113 4:-0.638198 5:0.703943 6:-0.155162 7:-0.340734 8:1.483937 9:-0.81669 10:0.900486 11:-0.090278 12:-0.206891 13:4.90557 14:-0.658887 15:1.596614 16:-0.155225 17:-0.352489 18:1.185506 19:-0.824419 20:0.905672 21:-0.172151 22:0.051904 23:3.894161 24:-0.260021 25:-0.016755 26:-0.121158 27:-0.023268 28:1.746297 29:-0.221907 30:0.092831 31:1.796406 32:-0.028156 33:-0.133924 34:0.665414 35:-0.074168 36:-0.074007 
1 1:-0.088902 2:-0.274009 3:0.379391 4:-0.638198 5:-0.373082 6:-0.149126 7:1.041141 8:1.586645 9:-0.792567 10:-1.331505 11:-0.090442 12:0.589246 13:3.232929 14:0.223114 15:0.011193 16:-0.150099 17:0.724069 18:1.403502 19:-0.80393 20:-0.707461 21:-0.128534 22:3.142138 23:2.016929 24:-0.14852 25:8.171643 26:-0.085191 27:2.391238 28:1.237299 29:-0.067587 30:6.084026 31:1.796406 32:-0.028116 33:0.980386 34:0.28661 35:-0.072116 36:3.457709 
1 1:-0.088382 2:-0.188638 3:-0.197893 4:-0.638198 5:1.062951 6:-0.156387 7:1.052527 8:1.648751 9:-0.784046 10:-1.333059 11:-0.090399 12:0.09379 13:-0.350876 14:0.364322 15:0.004415 16:-0.156919 17:0.323574 18:1.56041 19:-0.795511 20:-0.740617 21:-0.128395 22:3.281612 23:1.830785 24:-0.184629 25:7.925447 26:-0.087702 27:2.340056 28:-0.204104 29:-0.163282 30:5.520912 31:1.796406 32:-0.028117 33:0.962495 34:-0.160024 35:-0.074021 36:2.824469 
1 1:-0.08905 2:-0.239855 3:4.454503 4:-0.638198 5:1.062951 6:-0.155196 7:-0.305053 8:1.623327 9:-0.81669 10:0.914766 11:-0.090345 12:-0.215793 13:3.164823 14:-0.658887 15:1.513344 16:-0.155266 17:-0.308709 18:1.424141 19:-0.824419 20:0.91752 21:-0.172243 22:0.036996 23:2.536234 24:-0.260021 25:0.055254 26:-0.121135 27:-0.019828 28:0.762664 29:-0.221907 30:0.02946 31:1.796406 32:-0.028156 33:-0.135476 34:0.069722 35:-0.074168 36:-0.079048 
1 1:-0.08905 2:-0.239855 3:4.454503 4:-0.638198 5:1.062951 6:-0.155243 7:-0.255863 8:1.68736 9:-0.81669 10:0.924796 11:-0.090383 12:-0.220983 13:1.795649 14:-0.658887 15:1.460536 16:-0.155305 17:-0.266376 18:1.558406 19:-0.824419 20:0.935272 21:-0.172309 22:0.026252 23:1.490971 24:-0.260021 25:0.124844 26:-0.12129 27:-0.042671 28:0.030492 29:-0.221907 30:0.016242 31:1.796406 32:-0.028156 33:-0.138514 34:-0.137233 35:-0.074168 36:-0.078321 
1 1:-0.088374 2:-0.179176 3:5.810651 4:-0.638198 5:0.703943 6:-0.151865 7:0.035438 8:0.912665 9:-0.776067 10:0.605397 11:-0.089971 12:0.660697 13:11.004321 14:0.485678 15:2.280767 16:-0.150955 17:0.476535 18:1.244042 19:-0.793687 20:-0.128914 21:-0.126232 22:3.195865 23:1.886493 24:-0.163419 25:8.56467 26:-0.066284 27:3.540706 28:2.829469 29:-0.174586 30:9.589894 31:1.796406 32:-0.028064 33:1.743028 34:1.314506 35:-0.074036 36:8.476476 
1 1:-0.088381 2:-0.186367 3:3.001565 4:-0.638198 5:2.139976 6:-0.157957 7:-1.252401 8:0.937552 9:-0.767079 10:0.667242 11:-0.089837 12:-0.149911 13:9.412941 14:0.602432 15:2.472472 16:-0.157655 17:-0.640898 18:1.319861 19:-0.778434 20:0.136267 21:-0.130419 22:2.941871 23:4.118482 24:-0.129035 25:7.501764 26:-0.118745 27:0.321446 28:6.933418 29:-0.132132 30:3.013479 31:1.796406 32:-0.028155 33:-0.070731 34:4.524539 35:-0.073432 36:0.795527 
1 1:-0.088246 2:-0.147862 3:8.305762 4:-0.638198 5:1.780967 6:-0.152027 7:0.184655 8:1.068822 9:-0.776176 10:0.687944 11:-0.089597 12:-0.057163 13:10.747688 14:0.484134 15:2.045696 16:-0.151786 17:0.283847 18:1.094142 19:-0.784203 20:0.419025 21:-0.145673 22:1.70122 23:1.345631 24:-0.185361 25:5.309422 26:-0.120162 27:0.13622 28:1.739734 29:-0.163645 30:0.402666 31:1.796406 32:-0.028155 33:-0.107181 34:0.484137 35:-0.073815 36:-0.077032 
1 1:-0.089117 2:-0.24651 3:5.467929 4:-0.638198 5:0.344934 6:-0.155352 7:-0.14137 8:1.716669 9:-0.81669 10:1.004781 11:-0.090442 12:-0.231077 13:0.159082 14:-0.658887 15:0.87746 16:-0.155415 17:-0.147956 18:1.095269 19:-0.824419 20:0.991433 21:-0.172483 22:-0.00211 23:6.768394 24:-0.260021 25:0.104391 26:-0.121346 27:-0.050938 28:5.815578 29:-0.221907 30:0.085572 31:1.796406 32:-0.028156 33:-0.140997 34:5.472587 35:-0.074168 36:-0.076433 
1 1:-0.088284 2:-0.147862 3:8.704714 4:-0.638198 5:2.139976 6:-0.15214 7:0.304122 8:1.150349 9:-0.767286 10:0.684777 11:-0.090099 12:-0.16452 13:9.933032 14:0.603326 15:2.087713 16:-0.152176 17:0.296865 18:1.023355 19:-0.778221 20:0.660639 21:-0.169015 22:0.212916 23:1.002935 24:-0.163714 25:0.749332 26:-0.1207 27:0.054476 28:0.741946 29:-0.157217 30:0.433462 31:1.796406 32:-0.028156 33:-0.123612 34:-0.057071 35:-0.07377 36:-0.063221 
1 1:-0.089246 2:-0.25936 3:0.898394 4:-0.638198 5:-0.373082 6:-0.155419 7:-0.069998 8:-1.106843 9:-0.81669 10:1.029738 11:-0.090412 12:-0.227106 13:0.16449 14:-0.658887 15:0.644105 16:-0.155483 17:-0.075088 18:1.061154 19:-0.824419 20:1.031598 21:-0.172544 22:-0.012 23:6.849243 24:-0.260021 25:0.07011 26:-0.121423 27:-0.062391 28:11.923794 29:-0.221907 30:0.013134 31:1.796406 32:-0.028156 33:-0.142214 34:-0.121446 35:-0.074168 36:-0.081108 
1 1:-0.088803 2:-0.215644 3:2.872726 4:-0.638198 5:2.139976 6:-0.158131 7:-1.068983 8:-1.108991 9:-0.734904 10:0.669635 11:-0.090202 12:-0.197804 13:0.232565 14:0.928974 15:2.396266 16:-0.158189 17:-1.098576 18:0.506815 19:-0.760344 20:0.709267 21:-0.171606 22:0.140537 23:7.890444 24:-0.168448 25:0.330459 26:-0.120926 27:0.010967 28:13.74063 29:-0.106459 30:0.211745 31:1.796406 32:-0.028156 33:-0.130921 34:24.008846 35:-0.073712 36:-0.065293 
1 1:-0.089044 2:-0.239249 3:2.924748 4:-0.598295 5:2.139976 6:-0.158195 7:-1.001032 8:0.739404 9:-0.733211 10:0.735965 11:-0.090375 12:-0.22168 13:10.037549 14:0.946135 15:2.149215 16:-0.15826 17:-1.022149 18:0.601655 19:-0.757599 20:0.739813 21:-0.171986 22:0.078673 23:8.147178 24:-0.178392 25:0.383072 26:-0.120938 27:0.009129 28:11.809001 29:-0.074948 30:0.209483 31:1.796406 32:-0.028156 33:-0.130559 34:28.625473 35:-0.073447 36:-0.065259 
1 1:-0.089166 2:-0.2514 3:3.155608 4:-0.598295 5:2.139976 6:-0.15823 7:-0.964122 8:1.700055 9:-0.733703 10:0.760111 11:-0.090314 12:-0.213865 13:1.084592 14:0.941378 15:2.044719 16:-0.158294 17:-0.986265 18:0.60634 19:-0.758949 20:0.760959 21:-0.172071 22:0.064989 23:8.417245 24:-0.179679 25:0.418384 26:-0.12101 27:-0.001442 28:5.87813 29:-0.108458 30:0.077564 31:1.796406 32:-0.028156 33:-0.134844 34:4.708646 35:-0.073842 36:-0.082251 
1 1:-0.089166 2:-0.2514 3:3.155608 4:-0.598295 5:2.139976 6:-0.158258 7:-0.934172 8:1.72061 9:-0.735586 10:0.732731 11:-0.090362 12:-0.220744 13:-0.366632 14:0.923332 15:2.134706 16:-0.158326 17:-0.951665 18:0.902481 19:-0.761153 20:0.786298 21:-0.172163 22:0.049933 23:7.452212 24:-0.177146 25:0.410678 26:-0.121205 27:-0.030249 28:-0.268635 29:-0.1183 30:0.013672 31:1.796406 32:-0.028156 33:-0.136742 34:-0.162033 35:-0.074082 36:-0.084223 
1 1:-0.089054 2:-0.219917 3:7.948004 4:-0.638198 5:2.139976 6:-0.152404 7:0.580211 8:1.282142 9:-0.782908 10:0.803329 11:-0.090574 12:-0.23379 13:8.383815 14:0.374843 15:1.700482 16:-0.152473 17:0.595294 18:1.21451 19:-0.785458 20:0.793495 21:-0.172326 22:0.02235 23:0.777961 24:-0.143941 25:0.484315 26:-0.121273 27:-0.037019 28:0.090471 29:-0.117715 30:0.444224 31:1.796406 32:-0.028156 33:-0.140817 34:-0.131062 35:-0.07333 36:-0.03476 
1 1:-0.089058 2:-0.222106 3:6.814864 4:-0.638198 5:2.139976 6:-0.152445 7:0.626695 8:1.28669 9:-0.783192 10:0.825799 11:-0.090308 12:-0.174557 13:8.585471 14:0.37047 15:1.619623 16:-0.152512 17:0.637723 18:1.247133 19:-0.788985 20:0.823932 21:-0.172362 22:0.016652 23:0.702111 24:-0.159795 25:0.522673 26:-0.121295 27:-0.042986 28:0.084731 29:-0.162633 30:0.364869 31:1.796406 32:-0.028156 33:-0.140107 34:-0.156026 35:-0.073975 36:-0.039955 
1 1:-0.089179 2:-0.252665 3:3.931028 4:-0.598295 5:1.780967 6:-0.158323 7:-0.866304 8:1.72061 9:-0.743776 10:0.82412 11:-0.090308 12:-0.211015 13:-0.366632 14:0.837958 15:1.75795 16:-0.15839 17:-0.883645 18:1.233175 19:-0.768264 20:0.835418 21:-0.172311 22:0.025852 23:6.16473 24:-0.152877 25:0.460959 26:-0.121256 27:-0.037788 28:4.771566 29:-0.107841 30:0.363271 31:1.796406 32:-0.028156 33:-0.140005 34:4.019548 35:-0.073545 36:-0.048815 
1 1:-0.089211 2:-0.255887 3:-0.429861 4:-0.638198 5:-0.73209 6:-0.15564 7:0.162374 8:1.662619 9:-0.81669 10:1.100849 11:-0.090508 12:-0.239564 13:2.019792 14:-0.658887 15:-0.774068 16:-0.155703 17:0.16051 18:1.594753 19:-0.824419 20:1.10176 21:-0.172748 22:-0.045222 23:0.95815 24:-0.260021 25:-0.254175 26:-0.121521 27:-0.076786 28:0.084631 29:-0.221907 30:-0.192305 31:1.796406 32:-0.028156 33:-0.144637 34:-0.123955 35:-0.074168 36:-0.085996 
1 1:-0.089058 2:-0.222106 3:6.814864 4:-0.638198 5:2.139976 6:-0.152487 7:0.670177 8:1.305988 9:-0.781329 10:0.84233 11:-0.090448 12:-0.1753 13:8.429476 14:0.398946 15:1.544108 16:-0.152551 17:0.679002 18:1.149401 19:-0.790313 20:0.857673 21:-0.172415 22:0.007945 23:2.781224 24:-0.179575 25:0.569153 26:-0.121306 27:-0.042615 28:0.226817 29:-0.162834 30:0.414639 31:1.796406 32:-0.028156 33:-0.139605 34:-0.160922 35:-0.073975 36:-0.041856 
1 1:-0.08915 2:-0.249795 3:3.931028 4:-0.638198 5:1.780967 6:-0.158348 7:-0.839879 8:1.62784 9:-0.752041 10:0.861289 11:-0.090367 12:-0.219243 13:2.706623 14:0.74679 15:1.587027 16:-0.158419 17:-0.852022 18:1.128194 19:-0.774307 20:0.862183 21:-0.17237 22:0.016221 23:6.551416 24:-0.136658 25:0.501081 26:-0.12123 27:-0.033865 28:12.232933 29:-0.108568 30:0.248958 31:1.796406 32:-0.028156 33:-0.1395 34:19.529551 35:-0.073535 36:-0.057566 
1 1:-0.089143 2:-0.24907 3:1.248956 4:-0.638198 5:-0.73209 6:-0.155664 7:0.187809 8:1.616387 9:-0.81669 10:1.09589 11:-0.090491 12:-0.237447 13:2.824969 14:-0.658887 15:-0.371662 16:-0.155732 17:0.191885 18:1.515791 19:-0.824419 20:1.10239 21:-0.172772 22:-0.049133 23:1.370569 24:-0.260021 25:-0.260347 26:-0.121541 27:-0.079712 28:0.457768 29:-0.221907 30:-0.206387 31:1.796406 32:-0.028156 33:-0.145127 34:-0.03541 35:-0.074168 36:-0.086036 
1 1:-0.089123 2:-0.247084 3:3.841384 4:-0.638198 5:1.421959 6:-0.158408 7:-0.776034 8:-1.051253 9:-0.776916 10:0.911501 11:-0.090477 12:-0.235553 13:2.963752 14:0.43604 15:1.319942 16:-0.158477 17:-0.789485 18:0.989361 19:-0.785494 20:0.921542 21:-0.172491 22:-0.003348 23:6.916666 24:-0.141096 25:0.433025 26:-0.121365 27:-0.053749 28:10.407578 29:-0.090355 30:0.293945 31:1.796406 32:-0.028156 33:-0.141831 34:0.203631 35:-0.073051 36:-0.054998 
1 1:-0.089104 2:-0.22645 3:6.976262 4:-0.638198 5:-0.73209 6:-0.152732 7:0.930586 8:1.385503 9:-0.758881 10:1.052198 11:-0.090424 12:-0.187627 13:7.819801 14:0.694465 15:0.30193 16:-0.152795 17:0.941007 18:1.091548 19:-0.762746 20:1.043154 21:-0.172648 22:-0.029598 23:3.809539 24:-0.187051 25:0.030873 26:-0.121484 27:-0.068289 28:0.211205 29:-0.160793 30:-0.006534 31:1.796406 32:-0.028156 33:-0.143764 34:-0.154605 35:-0.073766 36:-0.080102 
1 1:-0.089131 2:-0.247892 3:-0.42986 4:-0.638198 5:-0.373082 6:-0.158546 7:-0.631413 8:1.720608 9:-0.783412 10:1.011613 11:-0.090515 12:-0.240503 13:-0.366632 14:0.329946 15:0.708142 16:-0.158613 17:-0.644226 18:1.379421 19:-0.794665 20:1.01008 21:-0.17262 22:-0.024387 23:5.245561 24:-0.13845 25:0.029326 26:-0.121471 27:-0.069476 28:-0.355256 29:-0.118671 30:0.063675 31:1.796406 32:-0.028156 33:-0.143666 34:-0.163037 35:-0.073539 36:-0.075222 
1 1:-0.08913 2:-0.247829 3:-0.429861 4:-0.638198 5:-0.373082 6:-0.158566 7:-0.610322 8:1.720608 9:-0.783823 10:1.029277 11:-0.090505 12:-0.239197 13:-0.366632 14:0.309175 15:0.596924 16:-0.158639 17:-0.615971 18:1.482695 19:-0.787474 20:1.014892 21:-0.172646 22:-0.02857 23:4.490626 24:-0.092452 25:-0.006615 26:-0.12147 27:-0.069228 28:-0.355698 29:-0.118912 30:0.052126 31:1.796406 32:-0.028156 33:-0.143886 34:-0.163037 35:-0.073374 36:-0.079445 
1 1:-0.089246 2:-0.259361 3:8.675672 4:-0.638198 5:-0.73209 6:-0.15591 7:0.447152 8:-1.034808 9:-0.81669 10:1.085944 11:-0.09056 12:-0.246279 13:2.130785 14:-0.658887 15:-0.076413 16:-0.155979 17:0.456011 18:0.225806 19:-0.824419 20:1.093688 21:-0.1729 22:-0.069919 23:5.737518 24:-0.260021 25:-0.233008 26:-0.121627 27:-0.092363 28:7.285117 29:-0.221907 30:-0.162465 31:1.796406 32:-0.028156 33:-0.146173 34:0.645137 35:-0.074168 36:-0.085518 
1 1:-0.089151 2:-0.23477 3:7.697255 4:-0.558392 5:-0.73209 6:-0.152857 7:1.059286 8:1.352583 9:-0.741449 10:1.068448 11:-0.090536 12:-0.234997 13:8.067717 14:0.877996 15:0.187006 16:-0.152921 17:1.076242 18:1.368739 19:-0.753883 20:1.063542 21:-0.172716 22:-0.039384 23:-0.000848 24:-0.138914 25:-0.177308 26:-0.121509 27:-0.071543 28:0.140941 29:-0.115784 30:-0.120827 31:1.796406 32:-0.028156 33:-0.144219 34:-0.130787 35:-0.073223 36:-0.084836 
1 1:-0.089182 2:-0.252957 3:-0.429861 4:-0.638198 5:-0.014074 6:-0.158692 7:-0.476633 8:1.720611 9:-0.700779 10:1.005943 11:-0.090513 12:-0.240214 13:-0.366632 14:1.088952 15:0.820642 16:-0.158766 17:-0.480255 18:1.740866 19:-0.741352 20:1.020505 21:-0.17277 22:-0.048831 23:-0.43299 24:-0.048613 25:-0.12403 26:-0.121533 27:-0.078573 28:-0.355696 29:-0.077141 30:-0.053484 31:1.796406 32:-0.028156 33:-0.145046 34:-0.163037 35:-0.072572 36:-0.083765 
1 1:-0.089209 2:-0.255669 3:4.360666 4:-0.638198 5:-0.73209 6:-0.156059 7:0.604943 8:1.69522 9:-0.81669 10:1.080912 11:-0.090567 12:-0.247211 13:1.342147 14:-0.658887 15:0.032811 16:-0.156131 17:0.619613 18:1.579152 19:-0.824419 20:1.087621 21:-0.172982 22:-0.083286 23:2.251425 24:-0.260021 25:-0.268503 26:-0.121681 27:-0.100403 28:-0.170469 29:-0.221907 30:-0.231238 31:1.796406 32:-0.028156 33:-0.14696 34:-0.156474 35:-0.074168 36:-0.086097 
1 1:-0.089214 2:-0.239838 3:8.10239 4:-0.638198 5:-0.73209 6:-0.153 7:1.213238 8:0.68012 9:-0.790504 10:1.051158 11:-0.090504 12:-0.204664 13:10.587449 14:0.231215 15:0.453941 16:-0.153069 17:1.235133 18:0.736441 19:-0.772283 20:1.040227 21:-0.172805 22:-0.052925 23:5.258416 24:-0.096073 25:-0.099385 26:-0.121602 27:-0.085165 28:9.701963 29:-0.103006 30:-0.029358 31:1.796406 32:-0.028156 33:-0.146134 34:15.858931 35:-0.073457 36:-0.082721 
1 1:-0.089179 2:-0.252688 3:-0.429861 4:-0.51849 5:-0.73209 6:-0.158792 7:-0.372102 8:1.709289 9:-0.70623 10:1.016798 11:-0.090535 12:-0.243035 13:0.477613 14:1.021883 15:0.785511 16:-0.158863 17:-0.376368 18:0.737486 19:-0.719329 20:1.028073 21:-0.17279 22:-0.051996 23:8.382389 24:-0.099746 25:-0.151982 26:-0.121469 27:-0.069115 28:6.85508 29:-0.03788 30:-0.182709 31:1.796406 32:-0.028156 33:-0.144396 34:6.329092 35:-0.070948 36:-0.085828 
1 1:-0.089191 2:-0.253854 3:-0.096522 4:0.018431 5:-0.73209 6:-0.158842 7:-0.318487 8:-1.095437 9:-0.696055 10:1.030662 11:-0.090527 12:-0.242038 13:0.715763 14:1.113541 15:0.649831 16:-0.15891 17:-0.325833 18:0.174618 19:-0.716422 20:1.03677 21:-0.172823 22:-0.057435 23:8.104599 24:-0.091452 25:-0.14243 26:-0.12158 27:-0.085434 28:7.981031 29:-0.128283 30:-0.003951 31:1.796406 32:-0.028156 33:-0.145872 34:8.5417 35:-0.073511 36:-0.080737 
1 1:-0.089191 2:-0.253854 3:0.584059 4:0.018431 5:-0.73209 6:-0.158865 7:-0.295181 8:-1.114192 9:-0.697011 10:1.053999 11:-0.090498 12:-0.238292 13:-0.36109 14:1.10833 15:0.427089 16:-0.158933 17:-0.300827 18:0.174215 19:-0.715879 20:1.039437 21:-0.172842 22:-0.060508 23:8.100959 24:-0.088793 25:-0.159441 26:-0.121663 27:-0.097669 28:-0.256039 29:-0.139563 30:-0.039048 31:1.796406 32:-0.028156 33:-0.146353 34:-0.161813 35:-0.073531 36:-0.083043 
1 1:-0.089178 2:-0.252567 3:-0.429861 4:-0.638198 5:-0.73209 6:-0.15621 7:0.763249 8:1.714324 9:-0.81669 10:1.095843 11:-0.090584 12:-0.249374 13:0.419123 14:-0.658887 15:-0.369766 16:-0.156275 17:0.77361 18:1.727912 19:-0.824419 20:1.096272 21:-0.173035 22:-0.091844 23:-0.335105 24:-0.260021 25:-0.239788 26:-0.12169 27:-0.101681 28:-0.329436 29:-0.221907 30:-0.197065 31:1.796406 32:-0.028156 33:-0.147066 34:-0.162941 35:-0.074168 36:-0.086101 
1 1:-0.089188 2:-0.239396 3:9.401681 4:-0.638198 5:-0.73209 6:-0.153171 7:1.393123 8:1.314106 9:-0.780756 10:1.024891 11:-0.090591 12:-0.222255 13:8.228084 14:0.388548 15:0.706929 16:-0.153235 17:1.412408 18:1.256664 19:-0.776492 20:1.023965 21:-0.172885 22:-0.06652 23:1.740944 24:-0.168847 25:-0.221748 26:-0.121598 27:-0.082654 28:-0.011059 29:-0.171944 30:-0.133514 31:1.796406 32:-0.028156 33:-0.146134 34:-0.151301 35:-0.074127 36:-0.085528 
1 1:-0.089236 2:-0.258332 3:0.584059 4:-0.598295 5:-0.73209 6:-0.158914 7:-0.243461 8:0.735293 9:-0.730898 10:1.050661 11:-0.090527 12:-0.242081 13:7.19993 14:0.906645 15:0.481379 16:-0.158979 17:-0.251536 18:0.353389 19:-0.72393 20:1.042098 21:-0.172879 22:-0.066584 23:8.899083 24:-0.071848 25:-0.185289 26:-0.121669 27:-0.09867 28:12.553333 29:0.024415 30:-0.112551 31:1.796406 32:-0.028156 33:-0.146443 34:29.995993 35:-0.07123 36:-0.084723 
1 1:-0.089187 2:-0.253443 3:-0.429861 4:-0.638198 5:-0.73209 6:-0.15625 7:0.805925 8:1.70338 9:-0.81669 10:1.090832 11:-0.090573 12:-0.247983 13:0.897963 14:-0.658887 15:-0.202146 16:-0.156322 17:0.823822 18:1.703357 19:-0.824419 20:1.098119 21:-0.17303 22:-0.091179 23:-0.032581 24:-0.260021 25:-0.257308 26:-0.121691 27:-0.101826 28:-0.271424 29:-0.221907 30:-0.196925 31:1.796406 32:-0.028156 33:-0.147334 34:-0.161527 35:-0.074168 36:-0.085983 
1 1:-0.089186 2:-0.24051 3:8.527658 4:-0.638198 5:-0.73209 6:-0.153225 7:1.447029 8:1.367422 9:-0.764997 10:1.021851 11:-0.090587 12:-0.231797 13:7.633417 14:0.608107 15:0.736552 16:-0.153287 17:1.468709 18:1.331454 19:-0.77295 20:1.02742 21:-0.172892 22:-0.067567 23:0.03044 24:-0.146613 25:-0.227216 26:-0.121559 27:-0.082546 28:-0.044035 29:-0.104334 30:-0.162527 31:1.796406 32:-0.028156 33:-0.146021 34:-0.150377 35:-0.073263 36:-0.085703 
1 1:-0.089185 2:-0.253276 3:-0.429861 4:-0.638198 5:-0.73209 6:-0.156303 7:0.861665 8:1.674956 9:-0.81669 10:1.090925 11:-0.090583 12:-0.249294 13:1.680618 14:-0.658887 15:-0.20481 16:-0.156369 17:0.873827 18:1.597269 19:-0.824419 20:1.094827 21:-0.173037 22:-0.092318 23:0.957685 24:-0.260021 25:-0.235345 26:-0.121778 27:-0.114678 28:-0.007416 29:-0.221907 30:-0.173843 31:1.796406 32:-0.028156 33:-0.147925 34:-0.13787 35:-0.074168 36:-0.085718 
1 1:-0.0893 2:-0.264658 3:1.381599 4:0.339252 5:-0.73209 6:-0.159004 7:-0.148051 8:1.720608 9:-0.746615 10:1.030381 11:-0.090549 12:-0.244913 13:-0.366632 14:0.758813 15:0.733571 16:-0.15907 17:-0.154175 18:1.531508 19:-0.744662 20:1.039117 21:-0.172906 22:-0.070982 23:4.085895 24:-0.132754 25:-0.226414 26:-0.121613 27:-0.090336 28:-0.355698 29:-0.163759 30:-0.122061 31:1.796406 32:-0.028156 33:-0.14635 34:-0.163037 35:-0.074151 36:-0.084651 
1 1:-0.089207 2:-0.255435 3:0.667542 4:-0.638198 5:-0.73209 6:-0.15632 7:0.879822 8:1.626635 9:-0.81669 10:1.08593 11:-0.090581 12:-0.248903 13:2.579602 14:-0.658887 15:-0.07609 16:-0.156392 17:0.898419 18:1.49489 19:-0.824419 20:1.092983 21:-0.173059 22:-0.09576 23:1.531913 24:-0.260021 25:-0.227321 26:-0.121782 27:-0.115259 28:0.47895 29:-0.221907 30:-0.162011 31:1.796406 32:-0.028156 33:-0.147917 34:-0.030034 35:-0.074168 36:-0.085515 
1 1:-0.08922 2:-0.240519 3:6.677832 4:-0.638198 5:-0.73209 6:-0.1533 7:1.527329 8:1.344114 9:-0.755227 10:1.026532 11:-0.090592 12:-0.239066 13:7.813869 14:0.697011 15:0.65411 16:-0.153364 17:1.550921 18:1.326957 19:-0.770949 20:1.03748 21:-0.172949 22:-0.078557 23:0.094759 24:-0.138155 25:-0.179143 26:-0.121639 27:-0.096817 28:0.211109 29:-0.014716 30:-0.165073 31:1.796406 32:-0.028156 33:-0.146726 34:-0.116162 35:-0.070945 36:-0.085863 
1 1:-0.089263 2:-0.261 3:7.898261 4:-0.638198 5:-0.73209 6:-0.156434 7:1.000152 8:0.685924 9:-0.81669 10:1.070786 11:-0.090569 12:-0.247521 13:8.733717 14:-0.658887 15:0.212914 16:-0.156503 17:1.017909 18:0.793154 19:-0.824419 20:1.078851 21:-0.173124 22:-0.106469 23:3.599217 24:-0.260021 25:-0.23239 26:-0.121782 27:-0.115237 28:0.43032 29:-0.221907 30:-0.190876 31:1.796406 32:-0.028156 33:-0.147598 34:-0.141869 35:-0.074168 36:-0.085829 
1 1:-0.089263 2:-0.261 3:8.509973 4:-0.638198 5:-0.73209 6:-0.156458 7:1.025317 8:0.675917 9:-0.81669 10:1.065297 11:-0.090551 12:-0.24515 13:8.776109 14:-0.658887 15:0.29686 16:-0.156525 17:1.040978 18:0.696535 19:-0.824419 20:1.075276 21:-0.173118 22:-0.105468 23:4.387592 24:-0.260021 25:-0.211773 26:-0.121832 27:-0.122614 28:1.264578 29:-0.221907 30:-0.190983 31:1.796406 32:-0.028156 33:-0.148079 34:0.064815 35:-0.074168 36:-0.085953 
1 1:-0.089265 2:-0.2332 3:7.000995 4:-0.638198 5:-0.014074 6:-0.153468 7:1.705343 8:-1.040964 9:-0.766468 10:1.034435 11:-0.090579 12:-0.217219 13:3.188934 14:0.578179 15:0.609327 16:-0.153537 17:1.736557 18:0.540052 19:-0.780422 20:1.04373 21:-0.172998 22:-0.082763 23:6.307565 24:-0.137284 25:-0.225996 26:-0.121798 27:-0.114035 28:4.131889 29:-0.101446 30:-0.182462 31:1.796406 32:-0.028156 33:-0.147689 34:1.272558 35:-0.07368 36:-0.085898 
1 1:-0.08927 2:-0.26179 3:8.509973 4:-0.638198 5:-0.73209 6:-0.156522 7:1.092382 8:1.096975 9:-0.81669 10:1.050749 11:-0.090576 12:-0.248352 13:6.73756 14:-0.658887 15:0.494835 16:-0.15659 17:1.110974 18:0.570244 19:-0.824419 20:1.066409 21:-0.173124 22:-0.106428 23:6.771932 24:-0.260021 25:-0.204314 26:-0.121854 27:-0.125965 28:6.595969 29:-0.221907 30:-0.143238 31:1.796406 32:-0.028156 33:-0.148216 34:7.190911 35:-0.074168 36:-0.085398 
1 1:-0.089205 2:-0.255304 3:0.799512 4:-0.638198 5:0.344934 6:-0.159219 7:0.078572 8:1.039785 9:-0.760612 10:1.019605 11:-0.090525 12:-0.241705 13:6.568345 14:0.633655 15:0.828272 16:-0.159288 17:0.079807 18:0.803396 19:-0.764399 20:1.018497 21:-0.172989 22:-0.084462 23:7.474695 24:-0.166492 25:-0.181214 26:-0.121722 27:-0.106379 28:12.505551 29:-0.122191 30:-0.07628 31:1.796406 32:-0.028156 33:-0.147116 34:26.942802 35:-0.073284 36:-0.083683 
1 1:-0.089291 2:-0.263775 3:7.937382 4:-0.638198 5:-0.73209 6:-0.156541 7:1.112286 8:1.394714 9:-0.81669 10:1.05022 11:-0.090598 12:-0.251114 13:4.431235 14:-0.658887 15:0.501565 16:-0.156611 17:1.134138 18:0.573699 19:-0.824419 20:1.064747 21:-0.173121 22:-0.105854 23:7.34296 24:-0.260021 25:-0.209938 26:-0.121788 27:-0.116149 28:9.432056 29:-0.221907 30:-0.228858 31:1.796406 32:-0.028156 33:-0.147847 34:16.181175 35:-0.074168 36:-0.086095 
1 1:-0.089291 2:-0.263775 3:7.937382 4:-0.638198 5:-0.73209 6:-0.156565 7:1.138002 8:0.825773 9:-0.81669 10:1.050694 11:-0.090586 12:-0.249693 13:5.913275 14:-0.658887 15:0.495445 16:-0.156633 17:1.157678 18:0.578917 19:-0.824419 20:1.062523 21:-0.173125 22:-0.106504 23:7.705267 24:-0.260021 25:-0.234324 26:-0.121799 27:-0.117814 28:12.98632 29:-0.221907 30:-0.234952 31:1.796406 32:-0.028156 33:-0.147991 34:26.638386 35:-0.074168 36:-0.0861 
1 1:-0.089265 2:-0.249557 3:6.79775 4:-0.638198 5:0.703943 6:-0.153565 7:1.804646 8:1.400897 9:-0.783794 10:1.026168 11:-0.090567 12:-0.256614 13:7.216052 14:0.36679 15:0.735041 16:-0.15363 17:1.836458 18:1.05644 19:-0.782121 20:1.028089 21:-0.173012 22:-0.087154 23:4.047053 24:-0.156773 25:-0.15317 26:-0.121662 27:-0.11191 28:0.029033 29:-0.116826 30:-0.163429 31:1.796406 32:-0.028156 33:-0.147708 34:-0.147529 35:-0.073284 36:-0.085586 
1 1:-0.089281 2:-0.250606 3:6.79775 4:-0.638198 5:0.703943 6:-0.153587 7:1.830543 8:1.333565 9:-0.775566 10:1.022844 11:-0.090533 12:-0.235183 13:8.17762 14:0.483889 15:0.772514 16:-0.153653 17:1.861396 18:1.234623 19:-0.780887 20:1.022343 21:-0.173014 22:-0.087419 23:2.37386 24:-0.153715 25:-0.154957 26:-0.121625 27:-0.103403 28:-0.050119 29:-0.150354 30:-0.105849 31:1.796406 32:-0.028156 33:-0.147233 34:-0.149227 35:-0.074002 36:-0.084623 
1 1:-0.089222 2:-0.25698 3:1.505966 4:-0.638198 5:0.703943 6:-0.159279 7:0.141707 8:-0.392882 9:-0.749473 10:1.015356 11:-0.090626 12:-0.254769 13:6.286193 14:0.744114 15:0.834355 16:-0.159352 17:0.147606 18:0.806548 19:-0.758 20:1.016654 21:-0.173 22:-0.086268 23:7.506052 24:-0.155908 25:-0.166983 26:-0.12163 27:-0.092806 28:12.837554 29:-0.134618 30:-0.023121 31:1.796406 32:-0.028156 33:-0.146419 34:27.768799 35:-0.07368 36:-0.08222 
1 1:-0.089296 2:-0.26427 3:6.544806 4:-0.638198 5:-0.73209 6:-0.156612 7:1.18731 8:-0.909441 9:-0.81669 10:1.05541 11:-0.090569 12:-0.247383 13:2.985407 14:-0.658887 15:0.433268 16:-0.156676 17:1.203632 18:0.601554 19:-0.824419 20:1.059459 21:-0.17313 22:-0.107309 23:7.864783 24:-0.260021 25:-0.226213 26:-0.121774 27:-0.114079 28:10.920759 29:-0.221907 30:-0.199975 31:1.796406 32:-0.028156 33:-0.147803 34:19.601582 35:-0.074168 36:-0.086 
1 1:-0.089281 2:-0.250606 3:6.79775 4:-0.638198 5:0.703943 6:-0.153616 7:1.85981 8:1.343385 9:-0.783902 10:1.010677 11:-0.090604 12:-0.24469 13:7.974069 14:0.359532 15:0.890945 16:-0.153677 17:1.885829 18:1.320961 19:-0.776097 20:1.01751 21:-0.173016 22:-0.088001 23:0.816266 24:-0.138704 25:-0.160622 26:-0.121745 27:-0.121201 28:-0.184092 29:-0.181981 30:-0.115724 31:1.796406 32:-0.028156 33:-0.148263 34:-0.160666 35:-0.074152 36:-0.084496 
1 1:-0.089248 2:-0.248357 3:5.766065 4:-0.638198 5:0.344934 6:-0.153633 7:1.876033 8:1.32343 9:-0.783612 10:1.01024 11:-0.090534 12:-0.252642 13:8.259437 14:0.363967 15:0.898875 16:-0.153699 17:1.910221 18:1.350723 19:-0.769928 20:1.012152 21:-0.173029 22:-0.0912 23:-0.108229 24:-0.135733 25:-0.162389 26:-0.121781 27:-0.128837 28:-0.23621 29:-0.176225 30:-0.089296 31:1.796406 32:-0.028156 33:-0.148671 34:-0.161066 35:-0.074077 36:-0.084321 
1 1:-0.089291 2:-0.263783 3:4.249368 4:-0.638198 5:-0.73209 6:-0.156654 7:1.231747 8:-1.113787 9:-0.81669 10:1.049838 11:-0.090584 12:-0.249357 13:-0.286232 14:-0.658887 15:0.507315 16:-0.156718 17:1.248697 18:0.625546 19:-0.824419 20:1.056758 21:-0.173153 22:-0.111141 23:7.765358 24:-0.260021 25:-0.215624 26:-0.121783 27:-0.115414 28:5.77703 29:-0.221907 30:-0.137384 31:1.796406 32:-0.028156 33:-0.147865 34:-0.114106 35:-0.074168 36:-0.085128 
1 1:-0.089248 2:-0.248357 3:5.766065 4:-0.638198 5:0.344934 6:-0.153655 7:1.899822 8:1.331519 9:-0.775711 10:1.008034 11:-0.090598 12:-0.253831 13:8.234461 14:0.474026 15:0.891664 16:-0.153722 17:1.934698 18:1.356811 19:-0.765225 20:1.00594 21:-0.173034 22:-0.09188 23:-0.233142 24:-0.140533 25:-0.147531 26:-0.121701 27:-0.11366 28:-0.246551 29:-0.043545 30:-0.080527 31:1.796406 32:-0.028156 33:-0.148011 34:-0.16233 35:-0.071909 36:-0.084094 
1 1:-0.089284 2:-0.263119 3:0.751396 4:-0.638198 5:-0.014074 6:-0.159348 7:0.214668 8:-1.081934 9:-0.756723 10:1.006502 11:-0.090515 12:-0.240475 13:0.906363 14:0.655688 15:0.915826 16:-0.159414 17:0.214214 18:0.80697 19:-0.759699 20:1.015234 21:-0.173022 22:-0.089871 23:7.490284 24:-0.133109 25:-0.181038 26:-0.121662 27:-0.09755 28:8.639574 29:-0.145597 30:-0.107685 31:1.796406 32:-0.028156 33:-0.147025 34:6.810403 35:-0.073961 36:-0.084408 
1 1:-0.089219 2:-0.245807 3:5.843199 4:-0.638198 5:0.344934 6:-0.153678 7:1.924437 8:1.348992 9:-0.750873 10:1.006246 11:-0.090546 12:-0.235755 13:8.041589 14:0.781249 15:0.910025 16:-0.153744 17:1.958592 18:1.363891 19:-0.761434 20:0.999534 21:-0.173038 22:-0.091009 23:-0.234554 24:-0.137917 25:-0.139546 26:-0.121761 27:-0.115782 28:-0.239584 29:-0.051662 30:-0.071503 31:1.796406 32:-0.028156 33:-0.148186 34:-0.161989 35:-0.072254 36:-0.084179 
1 1:-0.089297 2:-0.264383 3:2.7425 4:-0.638198 5:-0.73209 6:-0.156693 7:1.273178 8:-1.005864 9:-0.81669 10:1.044939 11:-0.090591 12:-0.250317 13:2.309717 14:-0.658887 15:0.567332 16:-0.15676 17:1.293673 18:0.631607 19:-0.824419 20:1.053663 21:-0.17316 22:-0.112266 23:7.684295 24:-0.260021 25:-0.204201 26:-0.121866 27:-0.127615 28:9.802543 29:-0.221907 30:-0.183312 31:1.796406 32:-0.028156 33:-0.148219 34:14.337055 35:-0.074168 36:-0.086049 
1 1:-0.089279 2:-0.262628 3:1.565489 4:-0.638198 5:0.703943 6:-0.159544 7:0.421169 8:-1.114193 9:-0.792048 10:1.005647 11:-0.090559 12:-0.246117 13:-0.366488 14:0.230587 15:0.931045 16:-0.159617 17:0.431535 18:-0.433255 19:-0.782743 20:0.991622 21:-0.173089 22:-0.100642 23:6.936423 24:-0.16584 25:-0.142745 26:-0.121778 27:-0.11465 28:2.721215 29:-0.139886 30:-0.105379 31:1.796406 32:-0.028156 33:-0.147682 34:1.187992 35:-0.07412 36:-0.084614 
1 1:-0.089274 2:-0.243263 3:6.649703 4:-0.638198 5:2.139976 6:-0.153897 7:2.157246 8:1.235361 9:-0.75863 10:0.917693 11:-0.090574 12:-0.219133 13:8.485364 14:0.66974 15:1.532488 16:-0.15396 17:2.18999 18:0.845798 19:-0.769058 20:0.939807 21:-0.173111 22:-0.103108 23:4.181572 24:-0.151704 25:-0.144551 26:-0.121834 27:-0.113918 28:3.968289 29:-0.048358 30:-0.093966 31:1.796406 32:-0.028156 33:-0.147753 34:3.096048 35:-0.071768 36:-0.083892 
0.7745182865605418 1:-0.089279 2:-0.262628 3:1.565489 4:-0.638198 5:0.703943 6:-0.159564 7:0.442219 8:-1.114193 9:-0.784426 10:0.995607 11:-0.090564 12:-0.246861 13:-0.366633 14:0.368993 15:1.017514 16:-0.159636 17:0.45244 18:-0.41903 19:-0.779777 20:0.992704 21:-0.173086 22:-0.100283 23:6.85711 24:-0.14703 25:-0.12984 26:-0.12174 27:-0.10909 28:-0.297592 29:-0.152427 30:-0.091694 31:1.796406 32:-0.028156 33:-0.147363 34:-0.162567 35:-0.074001 36:-0.083762 
0.7828548261721104 1:-0.089284 2:-0.263043 3:1.565489 4:-0.638198 5:1.780967 6:-0.159587 7:0.466566 8:-1.114193 9:-0.784081 10:0.98975 11:-0.090556 12:-0.245765 13:-0.366633 14:0.374028 15:1.0652 16:-0.159656 17:0.473843 18:-0.408891 19:-0.776735 20:0.993289 21:-0.173071 22:-0.09777 23:6.835423 24:-0.129675 25:-0.124051 26:-0.121788 27:-0.116114 28:0.334386 29:-0.161782 30:-0.098009 31:1.796406 32:-0.028156 33:-0.147851 34:-0.114578 35:-0.074115 36:-0.085012 
1 1:-0.089267 2:-0.261468 3:6.925996 4:-0.638198 5:1.062951 6:-0.15693 7:1.522978 8:1.564132 9:-0.81669 10:1.005539 11:-0.090613 12:-0.253187 13:3.530383 14:-0.658887 15:0.957876 16:-0.157001 17:1.551538 18:0.629371 19:-0.824419 20:1.017964 21:-0.173231 22:-0.123768 23:7.663344 24:-0.260021 25:-0.19588 26:-0.12184 27:-0.123821 28:3.009513 29:-0.221907 30:-0.129705 31:1.796406 32:-0.028156 33:-0.148025 34:1.547921 35:-0.074168 36:-0.085518 
1 1:-0.089258 2:-0.260516 3:3.243229 4:-0.638198 5:1.062951 6:-0.156968 7:1.563297 8:1.687602 9:-0.81669 10:0.996664 11:-0.090601 12:-0.25163 13:1.43293 14:-0.658887 15:1.0352 16:-0.15704 17:1.592989 18:0.809078 19:-0.824419 20:1.01507 21:-0.173241 22:-0.125369 23:8.132805 24:-0.260021 25:-0.201525 26:-0.121895 27:-0.131887 28:0.475232 29:-0.221907 30:-0.092751 31:1.796406 32:-0.028156 33:-0.148509 34:-0.083714 35:-0.074168 36:-0.083921 
1 1:-0.089266 2:-0.261405 3:0.367612 4:-0.638198 5:1.062951 6:-0.156995 7:1.590813 8:1.703795 9:-0.81669 10:0.996668 11:-0.090609 12:-0.252564 13:0.952452 14:-0.658887 15:1.03719 16:-0.157059 17:1.61334 18:0.860097 19:-0.824419 20:1.013136 21:-0.173232 22:-0.12403 23:8.272806 24:-0.260021 25:-0.208035 26:-0.121856 27:-0.126091 28:0.807693 29:-0.221907 30:-0.153754 31:1.796406 32:-0.028156 33:-0.148334 34:0.005354 35:-0.074168 36:-0.085724 
1 1:-0.089308 2:-0.265516 3:1.577613 4:-0.638198 5:-0.014074 6:-0.159697 7:0.582608 8:-0.232844 9:-0.758628 10:1.011338 11:-0.090626 12:-0.254797 13:6.762041 14:0.715034 15:0.857036 16:-0.159774 17:0.59999 18:0.761695 19:-0.758511 20:1.009757 21:-0.173099 22:-0.1024 23:7.738058 24:-0.111163 25:-0.188971 26:-0.121792 27:-0.116694 28:12.79224 29:-0.080203 30:-0.052769 31:1.796406 32:-0.028156 33:-0.14793 34:30.020933 35:-0.072714 36:-0.082145 
1 1:-0.089262 2:-0.260931 3:1.9e-005 4:-0.638198 5:-0.73209 6:-0.157067 7:1.666858 8:1.714685 9:-0.81669 10:1.011635 11:-0.090619 12:-0.253944 13:0.341982 14:-0.658887 15:0.900528 16:-0.157135 17:1.695574 18:0.826616 19:-0.824419 20:1.019566 21:-0.173236 22:-0.124584 23:8.288199 24:-0.260021 25:-0.184715 26:-0.121815 27:-0.120144 28:2.795848 29:-0.221907 30:-0.070761 31:1.796406 32:-0.028156 33:-0.147954 34:1.109844 35:-0.074168 36:-0.083666 
1 1:-0.089262 2:-0.260931 3:1.9e-005 4:-0.638198 5:-0.73209 6:-0.157089 7:1.690592 8:1.700869 9:-0.81669 10:1.022477 11:-0.090619 12:-0.25386 13:0.959455 14:-0.658887 15:0.791676 16:-0.157154 17:1.716062 18:0.787612 19:-0.824419 20:1.020632 21:-0.173233 22:-0.124118 23:8.179374 24:-0.260021 25:-0.185046 26:-0.121862 27:-0.12708 28:3.517 29:-0.221907 30:-0.117839 31:1.796406 32:-0.028156 33:-0.148314 34:1.808165 35:-0.074168 36:-0.085316 
1 1:-0.089285 2:-0.263212 3:0.323004 4:-0.638198 5:0.703943 6:-0.159785 7:0.674725 8:-0.380596 9:-0.738385 10:1.007346 11:-0.09056 12:-0.246325 13:6.295 14:0.898468 15:0.864678 16:-0.159851 17:0.682428 18:0.766434 19:-0.750418 20:0.998037 21:-0.173098 22:-0.102096 23:7.708359 24:-0.142499 25:-0.126477 26:-0.121731 27:-0.107771 28:13.158499 29:-0.111609 30:-0.105556 31:1.796406 32:-0.028156 33:-0.147454 34:29.181036 35:-0.073255 36:-0.085124 
1 1:-0.089271 2:-0.26178 3:-0.011544 4:-0.638198 5:2.139976 6:-0.159834 7:0.726571 8:-0.744499 9:-0.734228 10:0.958361 11:-0.090577 12:-0.248491 13:4.384274 14:0.930121 15:1.24827 16:-0.159907 17:0.743362 18:0.757155 19:-0.749802 20:0.96994 21:-0.173115 22:-0.104974 23:7.814207 24:-0.157592 25:0.009927 26:-0.121753 27:-0.110984 28:13.466531 29:-0.083399 30:-0.069009 31:1.796406 32:-0.028156 33:-0.147965 34:26.879755 35:-0.072739 36:-0.083584 
1 1:-0.089253 2:-0.259996 3:2.436289 4:-0.638198 5:-0.73209 6:-0.157162 7:1.767019 8:1.032223 9:-0.81669 10:0.996772 11:-0.090602 12:-0.251743 13:7.525019 14:-0.658887 15:1.01169 16:-0.15723 17:1.796717 18:0.371932 19:-0.824419 20:1.016373 21:-0.173248 22:-0.126648 23:6.749452 24:-0.260021 25:-0.154045 26:-0.121963 27:-0.141855 28:7.060343 29:-0.221907 30:-0.183445 31:1.796406 32:-0.028156 33:-0.148884 34:9.014398 35:-0.074168 36:-0.086086 
1 1:-0.089246 2:-0.259284 3:-0.110876 4:-0.638198 5:1.780967 6:-0.159893 7:0.788778 8:-1.06054 9:-0.750967 10:0.921885 11:-0.090555 12:-0.245662 13:1.040793 14:0.739285 15:1.471459 16:-0.159963 17:0.803155 18:0.751447 19:-0.759132 20:0.93292 21:-0.173115 22:-0.104951 23:7.918866 24:-0.190643 25:-0.041684 26:-0.121789 27:-0.116268 28:12.648711 29:-0.102873 30:-0.095034 31:1.796406 32:-0.028156 33:-0.1479 34:21.093668 35:-0.072857 36:-0.085932 
1 1:-0.089246 2:-0.259284 3:-0.110876 4:-0.638198 5:1.780967 6:-0.159909 7:0.805891 8:-1.09917 9:-0.750291 10:0.932446 11:-0.090565 12:-0.246897 13:0.293554 14:0.739546 15:1.413076 16:-0.159982 17:0.823419 18:0.755282 19:-0.759601 20:0.919215 21:-0.173116 22:-0.10514 23:7.877151 24:-0.195002 25:-0.003761 26:-0.121768 27:-0.11322 28:11.501762 29:-0.124332 30:-0.077136 31:1.796406 32:-0.028156 33:-0.147736 34:17.02322 35:-0.073407 36:-0.085674 
1 1:-0.08926 2:-0.260744 3:5.404312 4:-0.638198 5:0.703943 6:-0.157232 7:1.841371 8:-0.000543 9:-0.81669 10:0.979134 11:-0.090597 12:-0.25108 13:7.997585 14:-0.658887 15:1.115882 16:-0.157303 17:1.875755 18:0.17418 19:-0.824419 20:1.000475 21:-0.173283 22:-0.132193 23:5.639893 24:-0.260021 25:-0.127815 26:-0.121935 27:-0.137875 28:8.721297 29:-0.221907 30:-0.125356 31:1.796406 32:-0.028156 33:-0.148629 34:13.492426 35:-0.074168 36:-0.085431 
1 1:-0.089263 2:-0.261067 3:-0.042764 4:-0.638198 5:2.139976 6:-0.15995 7:0.849108 8:-1.113599 9:-0.758568 10:0.883027 11:-0.090576 12:-0.248342 13:-0.231416 14:0.65055 15:1.673001 16:-0.16002 17:0.863809 18:0.767281 19:-0.75709 20:0.894789 21:-0.173119 22:-0.105574 23:7.800562 24:-0.192413 25:-0.029311 26:-0.121818 27:-0.120518 28:7.364199 29:-0.155494 30:0.03415 31:1.796406 32:-0.028156 33:-0.147996 34:4.687433 35:-0.074108 36:-0.078731 
1 1:-0.08929 2:-0.26374 3:5.404312 4:-0.638198 5:0.703943 6:-0.15727 7:1.880945 8:-0.937798 9:-0.81669 10:0.975523 11:-0.090577 12:-0.248414 13:2.862789 14:-0.658887 15:1.117854 16:-0.157339 17:1.914461 18:0.324364 19:-0.824419 20:0.991679 21:-0.17329 22:-0.133361 23:6.643916 24:-0.260021 25:-0.173776 26:-0.121969 27:-0.142815 28:8.694717 29:-0.221907 30:-0.09862 31:1.796406 32:-0.028156 33:-0.148844 34:11.606091 35:-0.074168 36:-0.084511 
0.9849097415420481 1:-0.089311 2:-0.265842 3:-0.042764 4:-0.638198 5:2.139976 6:-0.159967 7:0.866858 8:-1.114193 9:-0.75085 10:0.872882 11:-0.090586 12:-0.249595 13:-0.366633 14:0.743428 15:1.754536 16:-0.160039 17:0.883912 18:0.764506 19:-0.75622 20:0.885941 21:-0.173116 22:-0.105177 23:7.791966 24:-0.194932 25:-0.023635 26:-0.121816 27:-0.120239 28:5.976449 29:-0.092347 30:-0.027588 31:1.796406 32:-0.028156 33:-0.148072 34:1.07406 35:-0.072764 36:-0.081902 
1 1:-0.089311 2:-0.265842 3:-0.042764 4:-0.638198 5:2.139976 6:-0.159983 7:0.884432 8:-1.114193 9:-0.736243 10:0.851907 11:-0.090585 12:-0.249547 13:-0.366633 14:0.914298 15:1.87732 16:-0.160057 17:0.903836 18:0.75235 19:-0.754348 20:0.874571 21:-0.17313 22:-0.107308 23:7.782873 24:-0.192834 25:-0.065995 26:-0.121754 27:-0.111115 28:5.920102 29:-0.132994 30:-0.119927 31:1.796406 32:-0.028156 33:-0.147716 34:0.029492 35:-0.073701 36:-0.085229 
1 1:-0.089261 2:-0.239522 3:7.697257 4:-0.598295 5:2.139976 6:-0.154342 7:2.623014 8:1.310945 9:-0.699463 10:0.827414 11:-0.090615 12:-0.253435 13:8.440925 14:1.218548 15:1.981875 16:-0.154409 17:2.671885 18:1.317177 19:-0.708194 20:0.811952 21:-0.173133 22:-0.108155 23:0.08302 24:-0.11623 25:0.183954 26:-0.121788 27:-0.108946 28:0.049811 29:-0.119265 30:0.263375 31:1.796406 32:-0.028156 33:-0.147686 34:-0.135638 35:-0.073661 36:-0.058887 
0.8863528130216567 1:-0.08934 2:-0.268655 3:-0.042764 4:-0.638198 5:1.780967 6:-0.160006 7:0.908058 8:-1.114059 9:-0.743518 10:0.856417 11:-0.090577 12:-0.248523 13:-0.297057 14:0.836461 15:1.847056 16:-0.160076 17:0.923627 18:0.745659 19:-0.749941 20:0.862979 21:-0.173129 22:-0.107256 23:7.791425 24:-0.158298 25:-0.073925 26:-0.121778 27:-0.114629 28:7.248237 29:-0.114299 30:-0.125966 31:1.796406 32:-0.028156 33:-0.147826 34:3.162257 35:-0.073142 36:-0.086048 
1 1:-0.089306 2:-0.265354 3:4.742982 4:-0.638198 5:0.344934 6:-0.157323 7:1.937407 8:-1.113684 9:-0.81669 10:0.986465 11:-0.090609 12:-0.252618 13:-0.213707 14:-0.658887 15:1.023351 16:-0.157393 17:1.972365 18:0.524453 19:-0.824419 20:0.981714 21:-0.173272 22:-0.130561 23:7.685694 24:-0.260021 25:-0.154428 26:-0.121931 27:-0.137176 28:5.391635 29:-0.221907 30:-0.015497 31:1.796406 32:-0.028156 33:-0.14845 34:0.304017 35:-0.074168 36:-0.08228 
1 1:-0.089306 2:-0.265354 3:4.742982 4:-0.638198 5:0.344934 6:-0.157343 7:1.958266 8:-1.106848 9:-0.81669 10:0.970592 11:-0.090617 12:-0.253545 13:0.329868 14:-0.658887 15:1.144424 16:-0.157411 17:1.991282 18:0.573778 19:-0.824419 20:0.977024 21:-0.173289 22:-0.133208 23:7.843491 24:-0.260021 25:-0.143876 26:-0.121916 27:-0.134966 28:8.111686 29:-0.221907 30:-0.059585 31:1.796406 32:-0.028156 33:-0.148229 34:9.368221 35:-0.074168 36:-0.083113 
1 1:-0.089337 2:-0.268374 3:-0.429861 4:-0.638198 5:2.139976 6:-0.16006 7:0.965556 8:-0.917572 9:-0.725078 10:0.838372 11:-0.090541 12:-0.243864 13:2.308224 14:1.023916 15:1.917174 16:-0.160131 17:0.982563 18:0.719098 19:-0.743776 20:0.834535 21:-0.173122 22:-0.106117 23:8.001916 24:-0.121172 25:0.062999 26:-0.121728 27:-0.107247 28:12.888517 29:-0.012869 30:-0.004522 31:1.796406 32:-0.028156 33:-0.147477 34:23.844433 35:-0.070716 36:-0.080038 
0.5326370492789863 1:-0.089305 2:-0.265174 3:3.50282 4:-0.638198 5:0.703943 6:-0.157446 7:2.066939 8:1.688322 9:-0.81669 10:0.93136 11:-0.090614 12:-0.253283 13:1.354505 14:-0.658887 15:1.406355 16:-0.157517 17:2.104901 18:0.958563 19:-0.824419 20:0.92754 21:-0.173285 22:-0.13262 23:7.445548 24:-0.260021 25:0.012104 26:-0.121942 27:-0.138848 28:2.199244 29:-0.221907 30:-0.033841 31:1.796406 32:-0.028156 33:-0.148557 34:1.008871 35:-0.074168 36:-0.081962 
1 1:-0.089236 2:-0.245585 3:7.697257 4:-0.638198 5:3.217 6:-0.154481 7:2.771996 8:1.302405 9:-0.716907 10:0.525937 11:-0.090581 12:-0.241244 13:8.046367 14:1.092575 15:2.585834 16:-0.154552 17:2.824636 18:1.331805 19:-0.74495 20:0.518243 21:-0.17314 22:-0.107318 23:-0.111619 24:-0.102634 25:1.164598 26:-0.12184 27:-0.112988 28:-0.047887 29:-0.133479 30:0.831601 31:1.796406 32:-0.028156 33:-0.148257 34:-0.15862 35:-0.07363 36:0.01422 
1 1:-0.0893 2:-0.264616 3:3.45968 4:-0.638198 5:1.062951 6:-0.157466 7:2.088174 8:1.690572 9:-0.81669 10:0.912324 11:-0.090618 12:-0.253681 13:1.254364 14:-0.658887 15:1.518561 16:-0.157535 17:2.123731 18:1.077427 19:-0.824419 20:0.913079 21:-0.173302 22:-0.135284 23:6.809152 24:-0.260021 25:0.06778 26:-0.121948 27:-0.139725 28:0.312676 29:-0.221907 30:0.054953 31:1.796406 32:-0.028156 33:-0.148451 34:-0.098631 35:-0.074168 36:-0.077904 
1 1:-0.089215 2:-0.24558 3:7.697257 4:-0.638198 5:3.576009 6:-0.1545 7:2.791852 8:1.343028 9:-0.725115 10:0.511432 11:-0.090613 12:-0.241787 13:7.710862 14:1.012778 15:2.662325 16:-0.154569 17:2.842956 18:1.323728 19:-0.751402 20:0.461454 21:-0.173148 22:-0.109874 23:0.145712 24:-0.112461 25:1.231067 26:-0.121774 27:-0.103705 28:0.016446 29:-0.04763 30:1.436071 31:1.796406 32:-0.028156 33:-0.147468 34:-0.141447 35:-0.071821 36:0.153298 
1 1:-0.08924 2:-0.258706 3:2.468821 4:-0.638198 5:2.139976 6:-0.16017 7:1.08133 8:1.669958 9:-0.749256 10:0.665988 11:-0.090565 12:-0.24688 13:0.31356 14:0.772094 15:2.30799 16:-0.16024 17:1.099334 18:0.453844 19:-0.74114 20:0.676552 21:-0.173116 22:-0.105156 23:8.358663 24:-0.135354 25:0.617578 26:-0.121843 27:-0.124214 28:10.265182 29:-0.069092 30:0.530026 31:1.796406 32:-0.028156 33:-0.148346 34:14.63233 35:-0.072846 36:-0.028969 
1 1:-0.0893 2:-0.264616 3:3.45968 4:-0.638198 5:1.062951 6:-0.157486 7:2.108683 8:1.68193 9:-0.81669 10:0.89694 11:-0.090603 12:-0.251828 13:1.661056 14:-0.658887 15:1.59185 16:-0.157552 17:2.142552 18:1.166452 19:-0.824419 20:0.895618 21:-0.173328 22:-0.139564 23:5.933498 24:-0.260021 25:0.102888 26:-0.121915 27:-0.134754 28:0.312922 29:-0.221907 30:0.054602 31:1.796406 32:-0.028156 33:-0.148201 34:-0.090165 35:-0.074168 36:-0.075782 
1 1:-0.0893 2:-0.264616 3:4.656734 4:-0.638198 5:1.421959 6:-0.157522 7:2.147109 8:1.539258 9:-0.81669 10:0.853025 11:-0.090621 12:-0.254031 13:3.953482 14:-0.658887 15:1.726682 16:-0.157587 17:2.179545 18:1.2156 19:-0.824419 20:0.854755 21:-0.173334 22:-0.140603 23:3.929492 24:-0.260021 25:0.192224 26:-0.121987 27:-0.145493 28:1.156916 29:-0.221907 30:0.094434 31:1.796406 32:-0.028156 33:-0.148739 34:0.319549 35:-0.074168 36:-0.072697 
1 1:-0.089198 2:-0.241755 3:6.816154 4:-0.638198 5:3.576009 6:-0.154571 7:2.866099 8:1.147751 9:-0.757706 10:0.233784 11:-0.090614 12:-0.247775 13:8.428695 14:0.690115 15:2.934478 16:-0.154637 17:2.915378 18:0.577268 19:-0.763325 20:0.201417 21:-0.173166 22:-0.112085 23:5.862056 24:-0.196467 25:1.184251 26:-0.121873 27:-0.120335 28:7.105289 29:-0.116203 30:1.312743 31:1.796406 32:-0.028156 33:-0.147929 34:9.138883 35:-0.073317 36:0.131879 
1 1:-0.089257 2:-0.260404 3:2.713159 4:-0.638198 5:1.780967 6:-0.160349 7:1.27018 8:1.720609 9:-0.713217 10:0.286161 11:-0.090577 12:-0.248483 13:-0.366632 14:1.048853 15:3.01756 16:-0.160417 17:1.289454 18:1.444853 19:-0.726788 20:0.279112 21:-0.173102 22:-0.102825 23:4.432736 24:-0.159922 25:0.268896 26:-0.121744 27:-0.109586 28:-0.355701 29:-0.146409 30:0.203818 31:1.796406 32:-0.028156 33:-0.147486 34:-0.163037 35:-0.073718 36:-0.069482 
1 1:-0.089318 2:-0.266487 3:5.158895 4:-0.638198 5:2.139976 6:-0.157655 7:2.286849 8:0.968674 9:-0.81669 10:0.507071 11:-0.090613 12:-0.253188 13:8.019598 14:-0.658887 15:2.492686 16:-0.157721 17:2.323765 18:1.078215 19:-0.824419 20:0.479059 21:-0.173348 22:-0.142835 23:2.067358 24:-0.260021 25:0.98391 26:-0.121954 27:-0.140532 28:1.825311 29:-0.221907 30:0.626511 31:1.796406 32:-0.028156 33:-0.148294 34:0.832799 35:-0.074168 36:-0.02434 
1 1:-0.089213 2:-0.241872 3:7.697255 4:-0.129522 5:2.139976 6:-0.154699 7:3.002845 8:1.400076 9:-0.714063 10:-0.072952 11:-0.090589 12:-0.235801 13:7.412465 14:1.085119 15:3.128618 16:-0.154769 17:3.057094 18:1.365554 19:-0.722397 20:-0.075207 21:-0.17313 22:-0.110335 23:-0.071694 24:-0.136793 25:0.220042 26:-0.121777 27:-0.115655 28:0.08054 29:-0.103329 30:0.042961 31:1.796406 32:-0.028156 33:-0.148038 34:-0.140985 35:-0.073348 36:-0.081344 
1 1:-0.089364 2:-0.271054 3:3.800242 4:-0.638198 5:2.857992 6:-0.157685 7:2.318457 8:1.438469 9:-0.81669 10:0.381452 11:-0.090597 12:-0.251064 13:4.811832 14:-0.658887 15:2.703464 16:-0.157754 17:2.359088 18:1.323898 19:-0.824332 20:0.368614 21:-0.173368 22:-0.1461 23:2.100246 24:-0.258278 25:0.79507 26:-0.122003 27:-0.147759 28:1.587098 29:-0.221907 30:0.63481 31:1.796406 32:-0.028156 33:-0.148521 34:0.619095 35:-0.074168 36:-0.011604 
1 1:-0.089358 2:-0.270497 3:-0.429861 4:-0.638198 5:2.498984 6:-0.157771 7:2.409119 8:1.704458 9:-0.81669 10:0.170778 11:-0.090619 12:-0.253926 13:0.829079 14:-0.658887 15:2.859884 16:-0.157835 17:2.446011 18:1.699986 19:-0.824114 20:0.191168 21:-0.17338 22:-0.148091 23:0.081634 24:-0.257387 25:0.280938 26:-0.121975 27:-0.143695 28:-0.280375 29:-0.217457 30:0.591951 31:1.796406 32:-0.028156 33:-0.148178 34:-0.16183 35:-0.074167 36:-0.030931 
1 1:-0.089304 2:-0.265103 3:-0.429861 4:-0.598295 5:2.498984 6:-0.160505 7:1.434051 8:1.720609 9:-0.719747 10:0.117596 11:-0.090575 12:-0.248233 13:-0.366632 14:1.076915 15:3.009672 16:-0.160573 17:1.456943 18:1.740866 19:-0.731478 20:0.149747 21:-0.173087 22:-0.100418 23:-0.432989 24:-0.177773 25:0.106956 26:-0.121735 27:-0.10836 28:-0.355699 29:-0.075195 30:0.356431 31:1.796406 32:-0.028156 33:-0.147348 34:-0.163037 35:-0.072361 36:-0.064587 
1 1:-0.089284 2:-0.234033 3:7.265206 4:-0.129522 5:3.217 6:-0.15484 7:3.150823 8:1.407544 9:-0.734537 10:-0.038764 11:-0.090588 12:-0.242263 13:7.19524 14:0.775098 15:2.901919 16:-0.154908 17:3.206377 18:1.310774 19:-0.728735 20:-0.081131 21:-0.173105 22:-0.100844 23:1.375227 24:-0.131691 25:0.151336 26:-0.121765 27:-0.107336 28:0.027221 29:-0.092578 30:0.460334 31:1.796406 32:-0.028156 33:-0.147493 34:-0.140129 35:-0.073223 36:-0.032738 
1 1:-0.089268 2:-0.261502 3:-0.429861 4:-0.638198 5:2.139976 6:-0.160575 7:1.508575 8:1.720609 9:-0.732601 10:0.103484 11:-0.090566 12:-0.247075 13:-0.366632 14:0.953556 15:3.031162 16:-0.160642 17:1.530365 18:1.740866 19:-0.732522 20:0.10051 21:-0.17305 22:-0.094306 23:-0.43299 24:-0.16883 25:0.067333 26:-0.121703 27:-0.103552 28:-0.355704 29:-0.101875 30:-0.102709 31:1.796406 32:-0.028156 33:-0.147279 34:-0.163037 35:-0.073328 36:-0.085755 
1 1:-0.089313 2:-0.265967 3:1.482248 4:-0.638198 5:2.139976 6:-0.157878 7:2.522295 8:1.712142 9:-0.81669 10:0.126768 11:-0.090607 12:-0.252334 13:0.638075 14:-0.658887 15:2.782159 16:-0.157947 17:2.566161 18:1.096371 19:-0.824245 20:0.09519 21:-0.173394 22:-0.15029 23:6.947862 24:-0.257733 25:0.045074 26:-0.121947 27:-0.139538 28:2.166877 29:-0.21845 30:0.154468 31:1.796406 32:-0.028156 33:-0.147705 34:0.813967 35:-0.074168 36:-0.072183 
1 1:-0.089271 2:-0.261851 3:-0.429861 4:-0.558392 5:2.139976 6:-0.160609 7:1.543974 8:1.720609 9:-0.708728 10:0.105265 11:-0.090556 12:-0.245729 13:-0.366632 14:1.165773 15:3.048664 16:-0.160675 17:1.566618 18:1.740866 19:-0.722799 20:0.07175 21:-0.173049 22:-0.094248 23:-0.43299 24:-0.121824 25:0.08722 26:-0.121735 27:-0.108295 28:-0.355701 29:-0.128504 30:0.101273 31:1.796406 32:-0.028156 33:-0.147148 34:-0.163037 35:-0.073336 36:-0.080463 
1 1:-0.089271 2:-0.261851 3:-0.429861 4:-0.558392 5:2.139976 6:-0.160623 7:1.558455 8:1.720611 9:-0.706919 10:0.057111 11:-0.09057 12:-0.247544 13:-0.366632 14:1.177184 15:3.035119 16:-0.160692 17:1.584678 18:1.740865 19:-0.716372 20:0.059434 21:-0.173044 22:-0.093313 23:-0.432989 24:-0.116239 25:0.057114 26:-0.12171 27:-0.104669 28:-0.355701 29:-0.13255 30:0.346553 31:1.796406 32:-0.028156 33:-0.147276 34:-0.163037 35:-0.073544 36:-0.063257 
1 1:-0.089297 2:-0.26444 3:6.971133 4:-0.638198 5:2.498984 6:-0.157985 7:2.634545 8:1.44345 9:-0.81669 10:0.021777 11:-0.090637 12:-0.256204 13:4.966573 14:-0.658887 15:2.747854 16:-0.158055 17:2.681078 18:0.6842 19:-0.824419 20:-0.009216 21:-0.173368 22:-0.146066 23:6.50593 24:-0.260021 25:0.059688 26:-0.122005 27:-0.148069 28:5.147024 29:-0.221907 30:0.236275 31:1.796406 32:-0.028156 33:-0.148252 34:5.877298 35:-0.074168 36:-0.081837 
1 1:-0.089227 2:-0.244143 3:5.782791 4:-0.638198 5:2.498984 6:-0.154998 7:3.320035 8:1.349084 9:-0.72432 10:-0.170579 11:-0.090611 12:-0.212363 13:8.309951 14:1.020146 15:3.000177 16:-0.155066 17:3.376258 18:1.359184 19:-0.745607 20:-0.212311 21:-0.173032 22:-0.090647 23:0.000173 24:-0.158025 25:0.253429 26:-0.121658 27:-0.092433 28:-0.241935 29:-0.09495 30:0.132466 31:1.796406 32:-0.028156 33:-0.146419 34:-0.161122 35:-0.072924 36:-0.082528 
1 1:-0.089297 2:-0.26444 3:6.971133 4:-0.638198 5:2.498984 6:-0.157997 7:2.647391 8:1.13463 9:-0.81669 10:0.037362 11:-0.090624 12:-0.25449 13:7.344882 14:-0.658887 15:2.761428 16:-0.15807 17:2.697676 18:0.78178 19:-0.824419 20:-0.024304 21:-0.17335 22:-0.143234 23:5.734433 24:-0.260021 25:0.106168 26:-0.121948 27:-0.139648 28:2.570967 29:-0.221907 30:0.116672 31:1.796406 32:-0.028156 33:-0.147734 34:1.242798 35:-0.074168 36:-0.085111 
1 1:-0.089263 2:-0.260998 3:1.974042 4:-0.638198 5:2.139976 6:-0.16077 7:1.713413 8:1.720608 9:-0.72518 10:-0.04604 11:-0.09053 12:-0.24239 13:-0.366632 14:1.020223 15:3.016357 16:-0.160842 17:1.744676 18:1.264672 19:-0.72847 20:-0.049777 21:-0.17296 22:-0.079803 23:6.162271 24:-0.032935 25:0.099281 26:-0.121634 27:-0.093429 28:-0.185573 29:-0.019701 30:0.244521 31:1.796406 32:-0.028156 33:-0.146707 34:-0.158899 35:-0.069897 36:-0.067315 
1 1:-0.089263 2:-0.260998 3:1.974042 4:-0.638198 5:2.139976 6:-0.160788 7:1.732761 8:1.720266 9:-0.742134 10:-0.062755 11:-0.090563 12:-0.24669 13:-0.283288 14:0.86194 15:3.012441 16:-0.160858 17:1.762068 18:1.094971 19:-0.740919 20:-0.061031 21:-0.172961 22:-0.079842 23:6.851595 24:-0.01601 25:0.118344 26:-0.121677 27:-0.099838 28:1.73292 29:0.016089 30:-0.004533 31:1.796406 32:-0.028156 33:-0.146856 34:0.515357 35:-0.068855 36:-0.083839 
1 1:-0.089297 2:-0.26439 3:6.364319 4:-0.638198 5:2.139976 6:-0.158063 7:2.716953 8:0.722819 9:-0.81669 10:-0.062578 11:-0.090612 12:-0.25303 13:8.835658 14:-0.658887 15:2.742162 16:-0.15813 17:2.761739 18:0.854157 19:-0.824419 20:-0.083455 21:-0.173309 22:-0.136425 23:1.598539 24:-0.260021 25:0.097161 26:-0.12195 27:-0.139932 28:0.647105 29:-0.221907 30:0.124925 31:1.796406 32:-0.028156 33:-0.147663 34:0.068378 35:-0.074168 36:-0.081349 
1 1:-0.089176 2:-0.237921 3:7.35195 4:-0.638198 5:2.498984 6:-0.155068 7:3.38963 8:1.348642 9:-0.739887 10:-0.247409 11:-0.090548 12:-0.231895 13:8.183855 14:0.895004 15:3.094442 16:-0.155133 17:3.447005 18:1.371762 19:-0.754979 20:-0.245641 21:-0.172992 22:-0.085404 23:-0.082888 24:-0.164344 25:0.102366 26:-0.12172 27:-0.108261 28:-0.147712 29:-0.025145 30:-0.097172 31:1.796406 32:-0.028156 33:-0.147345 34:-0.155557 35:-0.07104 36:-0.085483 
1 1:-0.089246 2:-0.259359 3:3.964029 4:-0.638198 5:2.139976 6:-0.160805 7:1.750598 8:1.71304 9:-0.75862 10:-0.032468 11:-0.090559 12:-0.246106 13:0.216847 14:0.683422 15:3.033098 16:-0.160874 17:1.779653 18:0.840375 19:-0.751485 20:-0.07902 21:-0.172945 22:-0.077213 23:7.797372 24:-0.035795 25:0.176024 26:-0.121658 27:-0.096932 28:6.934541 29:-0.041377 30:0.090442 31:1.796406 32:-0.028156 33:-0.146666 34:8.169504 35:-0.070754 36:-0.082319 
1 1:-0.089178 2:-0.236093 3:7.35195 4:-0.638198 5:2.498984 6:-0.155089 7:3.413635 8:1.408871 9:-0.740453 10:-0.233625 11:-0.090508 12:-0.210015 13:7.465233 14:0.891316 15:3.129551 16:-0.155158 17:3.474181 18:1.237721 19:-0.756785 20:-0.261074 21:-0.172969 22:-0.07985 23:2.21659 24:-0.163337 25:0.119024 26:-0.121717 27:-0.107886 28:-0.1401 29:-0.045175 30:0.333474 31:1.796406 32:-0.028156 33:-0.147395 34:-0.162568 35:-0.071427 36:-0.059022 
1 1:-0.089173 2:-0.252089 3:5.631808 4:-0.638198 5:3.576009 6:-0.160867 7:1.816327 8:-1.114193 9:-0.783261 10:-0.176177 11:-0.090481 12:-0.23607 13:-0.366633 14:0.352376 15:3.004556 16:-0.160939 17:1.848826 18:-0.394116 19:-0.777447 20:-0.172876 21:-0.172891 22:-0.068529 23:7.38506 24:-0.147831 25:0.420713 26:-0.121574 27:-0.084622 28:2.568819 29:-0.076396 30:0.317073 31:1.796406 32:-0.028156 33:-0.14587 34:1.06308 35:-0.072764 36:-0.076587 
1 1:-0.089184 2:-0.232232 3:7.665012 4:-0.638198 5:2.139976 6:-0.155143 7:3.468243 8:-0.850145 9:-0.741333 10:-0.35504 11:-0.09058 12:-0.248995 13:6.188597 14:0.891852 15:3.108875 16:-0.155208 17:3.526958 18:0.74209 19:-0.749398 20:-0.34536 21:-0.172921 22:-0.072535 23:5.356608 24:-0.142903 25:0.308598 26:-0.121602 27:-0.078195 28:6.32921 29:-0.069987 30:0.167908 31:1.796406 32:-0.028156 33:-0.145322 34:1.428959 35:-0.07197 36:-0.074229 
1 1:-0.089256 2:-0.260274 3:5.120267 4:-0.638198 5:2.857992 6:-0.158271 7:2.936511 8:-0.923315 9:-0.81669 10:-0.195809 11:-0.090544 12:-0.244251 13:4.232255 14:-0.658887 15:2.732336 16:-0.158339 17:2.985849 18:0.732014 19:-0.824419 20:-0.23908 21:-0.173056 22:-0.095322 23:7.261447 24:-0.260021 25:0.664592 26:-0.121835 27:-0.123007 28:8.283899 29:-0.221907 30:0.808153 31:1.796406 32:-0.028156 33:-0.147193 34:8.285743 35:-0.074168 36:-0.086073 
1 1:-0.08907 2:-0.222106 3:6.633405 4:-0.638198 5:2.139976 6:-0.155316 7:3.658497 8:1.407581 9:-0.741399 10:-0.58365 11:-0.09032 12:-0.172706 13:7.081574 14:0.863209 15:3.235307 16:-0.155385 17:3.716948 18:1.134411 19:-0.761522 20:-0.593681 21:-0.172432 22:0.008598 23:4.085677 24:-0.196597 25:0.023102 26:-0.121312 27:-0.034485 28:0.551167 29:-0.165204 30:-0.047858 31:1.796406 32:-0.028156 33:-0.14253 34:-0.031182 35:-0.074009 36:-0.085811 
1 1:-0.089148 2:-0.249584 3:5.146527 4:-0.638198 5:2.498984 6:-0.161172 7:2.137234 8:0.498017 9:-0.749899 10:-0.54932 11:-0.090377 12:-0.222582 13:11.605127 14:0.69504 15:2.89103 16:-0.161241 17:2.173169 18:1.066403 19:-0.765307 20:-0.562117 21:-0.172307 22:0.026466 23:6.236374 24:-0.169075 25:0.328751 26:-0.121183 27:-0.026955 28:9.270552 29:-0.113537 30:0.300544 31:1.796406 32:-0.028156 33:-0.14138 34:13.842937 35:-0.073247 36:-0.070843 
1 1:-0.089148 2:-0.249584 3:5.146527 4:-0.638198 5:2.498984 6:-0.161184 7:2.150605 8:-1.048165 9:-0.749604 10:-0.498995 11:-0.090406 12:-0.227812 13:2.555454 14:0.704211 15:2.93476 16:-0.161255 17:2.188122 18:1.014363 19:-0.766058 20:-0.590055 21:-0.172241 22:0.037273 23:6.506349 24:-0.164178 25:0.490802 26:-0.121215 27:-0.031697 28:9.867082 29:-0.073643 30:0.426782 31:1.796406 32:-0.028156 33:-0.140703 34:-0.160857 35:-0.0724 36:-0.054615 
1 1:-0.089109 2:-0.245732 3:5.146527 4:-0.638198 5:2.498984 6:-0.161198 7:2.165255 8:0.471335 9:-0.758158 10:-0.566805 11:-0.090492 12:-0.237988 13:10.56048 14:0.599136 15:2.858316 16:-0.161269 17:2.202414 18:1.07469 19:-0.765079 20:-0.620994 21:-0.172165 22:0.04956 23:6.233325 24:-0.155694 25:0.533273 26:-0.121229 27:-0.033757 28:9.408612 29:-0.081943 30:0.663192 31:1.796406 32:-0.028156 33:-0.14177 34:13.830853 35:-0.072336 36:-0.03016 
1 1:-0.089077 2:-0.224512 3:7.218453 4:-0.638198 5:2.139976 6:-0.155336 7:3.676504 8:1.498859 9:-0.749637 10:-0.561757 11:-0.089666 12:-0.031174 13:6.388626 14:0.741373 15:3.275019 16:-0.155403 17:3.737043 18:1.429906 19:-0.767934 20:-0.626748 21:-0.172242 22:0.037184 23:0.584553 24:-0.177727 25:0.129389 26:-0.121283 27:-0.041054 28:0.336623 29:-0.165447 30:0.150845 31:1.796406 32:-0.028156 33:-0.142478 34:-0.083331 35:-0.074002 36:-0.085956 
1 1:-0.088661 2:-0.186318 3:7.661603 4:-0.638198 5:2.139976 6:-0.155356 7:3.696213 8:1.558322 9:-0.786211 10:-0.683579 11:-0.090014 12:-0.091764 13:5.667989 14:0.220522 15:3.018256 16:-0.15542 17:3.755488 18:1.047155 19:-0.798647 20:-0.7551 21:-0.171517 22:0.158983 23:3.972548 24:-0.196972 25:0.333217 26:-0.120797 27:0.03721 28:2.750834 29:-0.184622 30:0.582626 31:1.796406 32:-0.028156 33:-0.135148 34:1.186804 35:-0.074105 36:-0.039581 
1 1:-0.088799 2:-0.214856 3:1.280795 4:-0.638198 5:2.857992 6:-0.161306 7:2.279121 8:-1.108483 9:-0.779962 10:-0.889562 11:-0.089988 12:-0.167035 13:-0.037 14:0.220488 15:2.283886 16:-0.161368 17:2.304486 18:0.636873 19:-0.739143 20:-0.903879 21:-0.169193 22:0.441555 23:8.339039 24:0.896828 25:0.726273 26:-0.120111 27:0.131086 28:14.499903 29:-0.064127 30:0.434904 31:1.796406 32:-0.028156 33:-0.121377 34:27.154684 35:-0.072157 36:-0.045701 
1 1:-0.089087 2:-0.243477 3:6.093684 4:-0.638198 5:2.857992 6:-0.158531 7:3.21028 8:0.80248 9:-0.81669 10:-0.697784 11:-0.090524 12:-0.243574 13:8.08343 14:-0.658887 15:2.677013 16:-0.158597 17:3.262336 18:0.758712 19:-0.824419 20:-0.647685 21:-0.171945 22:0.085434 23:3.004296 24:-0.260021 25:0.519277 26:-0.120977 27:0.003442 28:0.899933 29:-0.221907 30:0.55678 31:1.796406 32:-0.028156 33:-0.138313 34:0.073374 35:-0.074168 36:-0.048079 
1 1:-0.089087 2:-0.243477 3:6.093684 4:-0.638198 5:2.857992 6:-0.158536 7:3.215693 8:0.679885 9:-0.81669 10:-0.717155 11:-0.090507 12:-0.241468 13:8.779246 14:-0.658887 15:2.647448 16:-0.158603 17:3.268643 18:0.647609 19:-0.824419 20:-0.671863 21:-0.171832 22:0.103807 23:2.509176 24:-0.260021 25:0.565683 26:-0.120957 27:0.006319 28:1.275512 29:-0.221907 30:0.518942 31:1.796406 32:-0.028156 33:-0.138161 34:0.345334 35:-0.074168 36:-0.034411 
1 1:-0.087841 2:-0.112246 3:2.992224 4:2.574808 5:1.421959 6:-0.154417 7:1.838244 8:1.550321 9:0.998707 10:-1.127619 11:-0.050104 12:5.315708 13:4.969446 14:3.500771 15:1.509234 16:-0.15478 17:2.301568 18:1.422314 19:1.05667 20:-1.137805 21:-0.143558 22:4.808312 23:1.816274 24:11.485895 25:0.996282 26:-0.06566 27:8.59978 28:0.449295 29:15.228161 30:0.85682 31:1.796406 32:-0.028083 33:13.132553 34:-0.058993 35:18.65494 36:0.039779 
1 1:-0.089281 2:-0.292341 3:-0.429861 4:-0.638198 5:-0.73209 6:-0.16113 7:1.055919 8:1.648691 9:3.259815 10:-1.364197 11:-0.090635 12:-0.285575 13:-0.366633 14:-0.658887 15:-0.774068 16:-0.161204 17:1.07409 18:1.668101 19:2.954939 20:-1.371804 21:-0.172811 22:-0.373828 23:-0.432988 24:6.857498 25:-0.289125 26:-0.12156 27:-0.286479 28:-0.355706 29:-0.220158 30:-0.2389 31:1.796406 32:-0.028156 33:-0.152574 34:-0.163037 35:-0.074168 36:-0.086101 
1 1:-0.088854 2:-0.276789 3:-0.429861 4:2.837523 5:-0.014074 6:-0.157757 7:1.055919 8:1.648854 9:3.259814 10:-1.260343 11:-0.090586 12:-0.285575 13:-0.350892 14:-0.658887 15:0.680258 16:-0.158014 17:1.571886 18:1.512271 19:1.83138 20:-1.237326 21:-0.151272 22:3.2154 23:2.24969 24:12.167491 25:0.664608 26:-0.121594 27:-0.285681 28:-0.316678 29:0.534111 30:0.334945 31:1.796406 32:-0.028156 33:-0.152574 34:-0.162832 35:-0.039072 36:-0.052032 
1 1:-0.089266 2:-0.292341 3:-0.429861 4:-0.638198 5:-0.73209 6:-0.158031 7:1.055919 8:1.648691 9:3.226146 10:-1.364197 11:-0.090514 12:-0.285575 13:-0.366633 14:-0.118307 15:-0.774068 16:-0.158101 17:1.07409 18:1.668101 19:3.218894 20:-1.371868 21:-0.172839 22:-0.373828 23:-0.43299 24:0.5236 25:-0.293516 26:-0.121659 27:-0.286479 28:-0.355705 29:-0.043785 30:-0.2389 31:1.796406 32:-0.028156 33:-0.152574 34:-0.163037 35:-0.071002 36:-0.086101 
1 1:-0.089265 2:-0.292341 3:-0.429861 4:-0.638198 5:-0.73209 6:-0.158079 7:1.055919 8:1.648691 9:3.206289 10:-1.364197 11:-0.090506 12:-0.285575 13:-0.366633 14:0.035222 15:-0.774068 16:-0.15815 17:1.07409 18:1.668101 19:3.148362 20:-1.371868 21:-0.172857 22:-0.373828 23:-0.43299 24:1.285647 25:-0.293516 26:-0.121661 27:-0.286479 28:-0.355705 29:0.158404 30:-0.2389 31:1.796406 32:-0.028156 33:-0.152574 34:-0.163037 35:-0.060467 36:-0.086101 
1 1:-0.089202 2:-0.292341 3:-0.429861 4:1.203846 5:-0.73209 6:-0.161491 7:1.055919 8:1.648691 9:3.259807 10:-1.364197 11:-0.090497 12:-0.285575 13:-0.366633 14:-0.654494 15:-0.774068 16:-0.16156 17:1.07409 18:1.668101 19:2.403242 20:-1.371868 21:-0.172823 22:-0.373828 23:-0.43299 24:10.582417 25:-0.293516 26:-0.121582 27:-0.286479 28:-0.355705 29:2.271651 30:-0.2389 31:1.796406 32:-0.028156 33:-0.152574 34:-0.163037 35:0.400638 36:-0.086101 
1 1:-0.089208 2:-0.292341 3:-0.429861 4:3.436858 5:-0.73209 6:-0.15488 7:1.055919 8:1.648691 9:-0.155281 10:-1.364197 11:-0.09052 12:-0.285575 13:-0.366633 14:1.450462 15:-0.774068 16:-0.154944 17:1.07409 18:1.668101 19:1.899704 20:-1.371868 21:-0.172838 22:-0.373828 23:-0.43299 24:8.581325 25:-0.293516 26:-0.121491 27:-0.286479 28:-0.355705 29:11.768646 30:-0.2389 31:1.796406 32:-0.028156 33:-0.152574 34:-0.163037 35:2.9167 36:-0.086101 
1 1:-0.089227 2:-0.292341 3:-0.429861 4:-0.638198 5:-0.73209 6:-0.161958 7:1.055919 8:1.648691 9:3.259814 10:-1.364197 11:-0.090483 12:-0.285575 13:-0.366633 14:-0.658887 15:-0.774068 16:-0.16203 17:1.07409 18:1.668101 19:3.1091 20:-1.371868 21:-0.172873 22:-0.373828 23:-0.43299 24:4.719368 25:-0.293516 26:-0.121615 27:-0.286479 28:-0.355705 29:-0.221904 30:-0.2389 31:1.796406 32:-0.028156 33:-0.152574 34:-0.163037 35:-0.074168 36:-0.086101 
1 1:-0.089179 2:-0.292341 3:-0.429861 4:3.034216 5:-0.73209 6:-0.155314 7:1.055919 8:1.648691 9:-0.236193 10:-1.364197 11:-0.090485 12:-0.285575 13:-0.366633 14:1.143848 15:-0.774068 16:-0.155381 17:1.07409 18:1.668101 19:1.773453 20:-1.371868 21:-0.17287 22:-0.373828 23:-0.43299 24:8.147103 25:-0.293516 26:-0.121619 27:-0.286479 28:-0.355705 29:10.636143 30:-0.2389 31:1.796406 32:-0.028156 33:-0.152574 34:-0.163037 35:0.940873 36:-0.086101 
1 1:-0.089257 2:-0.292341 3:-0.429861 4:-0.490591 5:-0.73209 6:-0.162053 7:1.055919 8:1.648691 9:-0.236059 10:-1.364197 11:-0.090541 12:-0.285575 13:-0.366633 14:0.722897 15:-0.774068 16:-0.162123 17:1.07409 18:1.668101 19:2.444622 20:-1.371868 21:-0.172862 22:-0.373828 23:-0.43299 24:9.442866 25:-0.293516 26:-0.121566 27:-0.286479 28:-0.355705 29:16.286055 30:-0.2389 31:1.796406 32:-0.028156 33:-0.152574 34:-0.163037 35:3.84732 36:-0.086101 
1 1:-0.089237 2:-0.292341 3:-0.429861 4:2.560532 5:-0.73209 6:-0.155793 7:1.055919 8:1.648691 9:2.667357 10:-1.364197 11:-0.090526 12:-0.285575 13:-0.366633 14:2.497215 15:-0.774068 16:-0.155865 17:1.07409 18:1.668101 19:2.718764 20:-1.371868 21:-0.172872 22:-0.373828 23:-0.43299 24:1.525427 25:-0.293516 26:-0.121621 27:-0.286479 28:-0.355705 29:0.450175 30:-0.2389 31:1.796406 32:-0.028156 33:-0.152574 34:-0.163037 35:-0.047349 36:-0.086101 
1 1:-0.089231 2:-0.292341 3:-0.429861 4:1.261748 5:-0.73209 6:-0.159206 7:1.055919 8:1.648691 9:1.388791 10:-1.364197 11:-0.090515 12:-0.285575 13:-0.366633 14:2.477132 15:-0.774068 16:-0.159275 17:1.07409 18:1.668101 19:2.518993 20:-1.371868 21:-0.172896 22:-0.373828 23:-0.43299 24:4.928601 25:-0.293516 26:-0.121672 27:-0.286479 28:-0.355705 29:7.851222 30:-0.2389 31:1.796406 32:-0.028156 33:-0.152574 34:-0.163037 35:0.00603 36:-0.086101 
1 1:-0.089264 2:-0.292341 3:-0.429861 4:1.956778 5:-0.73209 6:-0.155972 7:1.055919 8:1.648691 9:2.713854 10:-1.364197 11:-0.090545 12:-0.285575 13:-0.366633 14:2.207571 15:-0.774068 16:-0.156042 17:1.07409 18:1.668101 19:1.947286 20:-1.371868 21:-0.172895 22:-0.373828 23:-0.43299 24:7.488613 25:-0.293516 26:-0.121637 27:-0.286479 28:-0.355705 29:0.874219 30:-0.2389 31:1.796406 32:-0.028156 33:-0.152574 34:-0.163037 35:-0.001788 36:-0.086101 
1 1:-0.089164 2:-0.292341 3:-0.429861 4:2.262591 5:-0.73209 6:-0.1626 7:1.055919 8:1.648691 9:-0.451278 10:-1.364197 11:-0.09054 12:-0.285575 13:-0.366633 14:-0.188907 15:-0.774068 16:-0.162674 17:1.07409 18:1.668101 19:0.841938 20:-1.371868 21:-0.172887 22:-0.373828 23:-0.43299 24:10.759135 25:-0.293516 26:-0.121641 27:-0.286479 28:-0.355705 29:8.670028 30:-0.2389 31:1.796406 32:-0.028156 33:-0.152574 34:-0.163037 35:0.646547 36:-0.086101 
1 1:-0.089246 2:-0.292341 3:-0.429861 4:1.794784 5:-0.73209 6:-0.156046 7:1.055919 8:1.648691 9:-0.225396 10:-1.364197 11:-0.09054 12:-0.285575 13:-0.366633 14:2.62266 15:-0.774068 16:-0.156116 17:1.07409 18:1.668101 19:0.539175 20:-1.371868 21:-0.172902 22:-0.373828 23:-0.43299 24:10.87405 25:-0.293516 26:-0.121661 27:-0.286479 28:-0.355705 29:12.609977 30:-0.2389 31:1.796406 32:-0.028156 33:-0.152574 34:-0.163037 35:12.181135 36:-0.086101 
1 1:-0.089194 2:-0.292341 3:-0.429861 4:-0.492818 5:-0.73209 6:-0.162674 7:1.055919 8:1.648691 9:-0.770064 10:-1.364197 11:-0.090518 12:-0.285575 13:-0.366633 14:-0.046649 15:-0.774068 16:-0.162742 17:1.07409 18:1.668101 19:-0.177429 20:-1.371868 21:-0.172882 22:-0.373828 23:-0.43299 24:6.990634 25:-0.293516 26:-0.121648 27:-0.286479 28:-0.355705 29:7.692027 30:-0.2389 31:1.796406 32:-0.028156 33:-0.152574 34:-0.163037 35:3.871577 36:-0.086101 
1 1:-0.089242 2:-0.292341 3:-0.429861 4:0.060628 5:-0.73209 6:-0.159367 7:1.055919 8:1.648691 9:-0.5991 10:-1.364197 11:-0.090546 12:-0.285575 13:-0.366633 14:0.637505 15:-0.774068 16:-0.159443 17:1.07409 18:1.668101 19:0.04902 20:-1.371868 21:-0.172903 22:-0.373828 23:-0.43299 24:7.417379 25:-0.293516 26:-0.121635 27:-0.286479 28:-0.355705 29:7.096842 30:-0.2389 31:1.796406 32:-0.028156 33:-0.152574 34:-0.163037 35:3.579442 36:-0.086101 
1 1:-0.089228 2:-0.292341 3:-0.429861 4:0.836474 5:-0.73209 6:-0.156073 7:1.055919 8:1.648691 9:-0.813479 10:-1.364197 11:-0.090541 12:-0.285575 13:-0.366633 14:-0.382896 15:-0.774068 16:-0.156141 17:1.07409 18:1.668101 19:0.041211 20:-1.371868 21:-0.172898 22:-0.373828 23:-0.43299 24:9.171474 25:-0.293516 26:-0.121591 27:-0.286479 28:-0.355705 29:3.059363 30:-0.2389 31:1.796406 32:-0.028156 33:-0.152574 34:-0.163037 35:0.593256 36:-0.086101 
0.5881383677737055 1:-0.089242 2:-0.292341 3:-0.429861 4:0.060628 5:-0.73209 6:-0.159393 7:1.055919 8:1.648691 9:-0.800044 10:-1.364197 11:-0.090497 12:-0.285575 13:-0.366633 14:-0.296181 15:-0.774068 16:-0.159466 17:1.07409 18:1.668101 19:-0.319885 20:-1.371868 21:-0.172892 22:-0.373828 23:-0.43299 24:5.549706 25:-0.293516 26:-0.121625 27:-0.286479 28:-0.355705 29:1.049286 30:-0.2389 31:1.796406 32:-0.028156 33:-0.152574 34:-0.163037 35:0.025601 36:-0.086101 
0.921200753250302 1:-0.089228 2:-0.292341 3:-0.429861 4:0.836474 5:-0.73209 6:-0.156104 7:1.055919 8:1.648691 9:-0.81669 10:-1.364197 11:-0.090538 12:-0.285575 13:-0.366633 14:-0.658887 15:-0.774068 16:-0.156166 17:1.07409 18:1.668101 19:-0.432022 20:-1.371868 21:-0.172874 22:-0.373828 23:-0.43299 24:5.623304 25:-0.293516 26:-0.12166 27:-0.286479 28:-0.355705 29:-0.134183 30:-0.2389 31:1.796406 32:-0.028156 33:-0.152574 34:-0.163037 35:-0.07365 36:-0.086101 
0.5922728645012392 1:-0.089233 2:-0.292341 3:-0.429861 4:-0.638198 5:-0.73209 6:-0.162711 7:1.055919 8:1.648691 9:-0.81669 10:-1.364197 11:-0.090563 12:-0.285575 13:-0.366633 14:-0.658887 15:-0.774068 16:-0.162788 17:1.07409 18:1.668101 19:-0.653092 20:-1.371868 21:-0.172899 22:-0.373828 23:-0.43299 24:3.156568 25:-0.293516 26:-0.121625 27:-0.286479 28:-0.355705 29:-0.221477 30:-0.2389 31:1.796406 32:-0.028156 33:-0.152574 34:-0.163037 35:-0.074168 36:-0.086101 
0.33925472308207 1:-0.089222 2:-0.292341 3:-0.429861 4:-0.638198 5:-0.73209 6:-0.158219 7:1.055919 8:1.648689 9:-0.81669 10:-1.364197 11:-0.090547 12:-0.285575 13:-0.366633 14:-0.658887 15:-0.774068 16:-0.158247 17:1.07409 18:1.668099 19:-0.824419 20:-1.371868 21:-0.173409 22:-0.373827 23:-0.432992 24:-0.260021 25:-0.293516 26:-0.121895 27:-0.286479 28:-0.355705 29:-0.221907 30:-0.2389 31:1.796406 32:-0.028156 33:-0.152574 34:-0.163037 35:-0.074168 36:-0.086101 
-0.3059222435272705 1:-0.088923 2:-0.237149 3:2.142989 4:-0.638198 5:-0.73209 6:-0.154198 7:-0.323249 8:1.205731 9:-0.81669 10:0.335654 11:-0.023567 12:3.412325 13:6.696053 14:-0.658887 15:3.220797 16:-0.153856 17:0.130689 18:1.129707 19:-0.824419 20:-0.153865 21:-0.127019 22:2.589768 23:2.926278 24:-0.260021 25:9.832853 26:-0.043865 27:4.467535 28:3.154981 29:-0.221907 30:14.534448 31:1.796406 32:-0.027893 33:4.432365 34:2.048098 35:-0.074168 36:19.853947 
-0.3216587419062504 1:-0.088923 2:-0.237149 3:2.142989 4:-0.638198 5:-0.73209 6:-0.154837 7:-0.683726 8:0.771133 9:-0.81669 10:0.837651 11:-0.089458 12:-0.099435 13:9.269472 14:-0.658887 15:1.939018 16:-0.154224 17:-0.093049 18:0.902204 19:-0.824419 20:0.169286 21:-0.130166 22:2.332335 23:3.456189 24:-0.260021 25:9.038233 26:-0.103656 27:0.605234 28:2.274943 29:-0.221907 30:4.650695 31:1.796406 32:-0.028142 33:-0.09472 34:1.127968 35:-0.074168 36:1.506623 
-0.4732592873438331 1:-0.088912 2:-0.226023 3:6.126837 4:-0.638198 5:1.421959 6:-0.154964 7:-0.550344 8:0.415475 9:-0.81669 10:0.884861 11:-0.090164 12:-0.191704 13:10.112231 14:-0.658887 15:1.662666 16:-0.154967 17:-0.519005 18:0.695563 19:-0.824419 20:0.788554 21:-0.164588 22:0.276078 23:2.45675 24:-0.260021 25:2.059145 26:-0.120386 27:0.090412 28:2.810383 29:-0.221907 30:0.042668 31:1.796406 32:-0.028156 33:-0.110434 34:1.33859 35:-0.074168 36:-0.081914 
-0.1581888974018933 1:-0.088943 2:-0.226023 3:6.126837 4:-0.638198 5:1.421959 6:-0.155073 7:-0.435437 8:0.922704 9:-0.81669 10:0.87625 11:-0.090294 12:-0.208796 13:8.244532 14:-0.658887 15:1.721373 16:-0.155134 17:-0.449315 18:0.84907 19:-0.824419 20:0.890487 21:-0.171867 22:0.098157 23:3.508531 24:-0.260021 25:-0.090076 26:-0.121109 27:-0.016108 28:5.331006 29:-0.221907 30:0.050772 31:1.796406 32:-0.028156 33:-0.131711 34:5.749013 35:-0.074168 36:-0.078078 
-0.6583901107011752 1:-0.088977 2:-0.232559 3:5.711113 4:-0.638198 5:0.703943 6:-0.155116 7:-0.390136 8:1.165479 9:-0.81669 10:0.874278 11:-0.090312 12:-0.211398 13:7.490593 14:-0.658887 15:1.742166 16:-0.155181 17:-0.399265 18:1.008326 19:-0.824419 20:0.897379 21:-0.172015 22:0.073968 23:3.90926 24:-0.260021 25:-0.065919 26:-0.121072 27:-0.010684 28:3.183612 29:-0.221907 30:0.056235 31:1.796406 32:-0.028156 33:-0.131713 34:1.890782 35:-0.074168 36:-0.07803 
-0.3060616082301318 1:-0.088374 2:-0.179176 3:5.810651 4:-0.638198 5:0.703943 6:-0.150439 7:0.54676 8:1.351419 9:-0.776588 10:-0.711399 11:-0.020524 12:4.060165 13:7.863729 14:0.478313 15:1.974825 16:-0.150525 17:0.595522 18:1.310046 19:-0.798843 20:-0.420216 21:-0.125003 22:3.354963 23:2.086919 24:-0.160423 25:8.799959 26:-0.047026 27:5.141198 28:2.568753 29:-0.11878 30:13.722516 31:1.796406 32:-0.027921 33:5.447917 34:1.473975 35:-0.073396 36:16.163666 
-0.3130773834425985 1:-0.088382 2:-0.188638 3:-0.197893 4:-0.638198 5:1.062951 6:-0.15676 7:0.451754 8:1.668479 9:-0.783853 10:-0.744891 11:-0.024541 12:4.200712 13:-0.144608 14:0.367346 15:2.084799 16:-0.157162 17:-0.004912 18:1.490636 19:-0.791234 20:-0.449331 21:-0.124285 22:3.538478 23:2.632877 24:-0.165654 25:8.717111 26:-0.032176 27:6.381417 28:0.349379 29:-0.162378 30:12.542659 31:1.796406 32:-0.027914 33:6.464121 34:-0.12063 35:-0.073775 36:14.086909 
-0.3118819744365393 1:-0.088381 2:-0.186367 3:3.001565 4:-0.638198 5:2.139976 6:-0.157879 7:-1.332476 8:1.686395 9:-0.775221 10:0.38642 11:-0.08898 12:0.083139 13:1.502619 14:0.49432 15:2.773754 16:-0.157407 17:-0.326459 18:1.417848 19:-0.785317 20:-0.155577 21:-0.12481 22:3.427209 23:3.58985 24:-0.142288 25:8.58943 26:-0.059793 27:4.176208 28:4.351315 29:-0.120831 30:10.260408 31:1.796406 32:-0.028028 33:2.57251 34:3.28802 35:-0.07332 36:9.991606 
-1 1:-0.0891 2:-0.244881 3:5.467929 4:-0.638198 5:1.062951 6:-0.155272 7:-0.225495 8:1.708654 9:-0.81669 10:0.94008 11:-0.090378 12:-0.220016 13:0.945721 14:-0.658887 15:1.349678 16:-0.155343 17:-0.225465 18:1.458649 19:-0.824419 20:0.95449 21:-0.172386 22:0.013618 23:4.018773 24:-0.260021 25:0.13029 26:-0.12128 27:-0.041229 28:-0.183529 29:-0.221907 30:0.124458 31:1.796406 32:-0.028156 33:-0.139691 34:-0.159297 35:-0.074168 36:-0.072975 
-0.9010623591639418 1:-0.088246 2:-0.147862 3:8.305762 4:-0.638198 5:1.780967 6:-0.151957 7:0.107738 8:0.856276 9:-0.776298 10:0.630279 11:-0.090022 12:-0.156646 13:11.301536 14:0.482412 15:2.154498 16:-0.151389 17:0.366386 18:1.181708 19:-0.788516 20:0.161536 21:-0.132865 22:2.63468 23:1.559643 24:-0.183711 25:7.341432 26:-0.119481 27:0.18499 28:1.475752 29:-0.175284 30:1.87284 31:1.796406 32:-0.028155 33:-0.116846 34:-0.148722 35:-0.07404 36:0.323877 
-0.3335399170146811 1:-0.088462 2:-0.186617 3:3.001565 4:-0.638198 5:2.139976 6:-0.15801 7:-1.196616 8:0.464837 9:-0.759357 10:0.667244 11:-0.089764 12:-0.140155 13:11.035969 14:0.697031 15:2.451833 16:-0.157889 17:-0.924095 18:0.924349 19:-0.772695 20:0.391131 21:-0.141733 22:2.077097 23:6.875386 24:-0.130712 25:5.640152 26:-0.119959 27:0.15345 28:6.902508 29:-0.101976 30:0.009541 31:1.796406 32:-0.028155 33:-0.097473 34:0.919442 35:-0.072942 36:-0.085238 
-0.9497871087175551 1:-0.088284 2:-0.147862 3:8.704714 4:-0.638198 5:2.139976 6:-0.152064 7:0.228002 8:1.119048 9:-0.767884 10:0.604508 11:-0.089601 12:-0.046896 13:10.391438 14:0.595662 15:2.289106 16:-0.152049 17:0.262964 18:1.033316 19:-0.781199 20:0.582155 21:-0.15956 22:0.753741 23:1.191798 24:-0.171114 25:2.818691 26:-0.120466 27:0.086885 28:0.558499 29:-0.141309 30:0.384487 31:1.796406 32:-0.028156 33:-0.116319 34:0.009775 35:-0.073721 36:-0.066315 
-0.582859841946316 1:-0.088462 2:-0.186617 3:3.001565 4:-0.638198 5:2.139976 6:-0.158051 7:-1.153403 8:1.673271 9:-0.741832 10:0.633979 11:-0.090117 12:-0.186876 13:2.117 14:0.884068 15:2.52818 16:-0.158049 17:-1.0828 18:0.54386 19:-0.768163 20:0.568386 21:-0.154981 22:1.114023 23:8.02446 24:-0.149304 25:3.377604 26:-0.120417 27:0.085876 28:6.33788 29:-0.113802 30:0.024627 31:1.796406 32:-0.028156 33:-0.116058 34:5.813177 35:-0.073226 36:-0.082622 
-0.1782137182614555 1:-0.089117 2:-0.24651 3:5.467929 4:-0.638198 5:0.344934 6:-0.155382 7:-0.109031 8:0.825209 9:-0.81669 10:1.018255 11:-0.090477 12:-0.235491 13:7.437824 14:-0.658887 15:0.756088 16:-0.15545 17:-0.111312 18:1.058452 19:-0.824419 20:1.011631 21:-0.172506 22:-0.005925 23:6.83705 24:-0.260021 25:0.091838 26:-0.121399 27:-0.058816 28:13.706373 29:-0.221907 30:-0.071777 31:1.796406 32:-0.028156 33:-0.14135 34:28.157959 35:-0.074168 36:-0.083856 
-0.3218349580090396 1:-0.088803 2:-0.215644 3:2.872726 4:-0.638198 5:2.139976 6:-0.158096 7:-1.105147 8:1.28191 9:-0.734895 10:0.646326 11:-0.09022 12:-0.200356 13:6.664467 14:0.929945 15:2.470958 16:-0.158142 17:-1.127496 18:0.452718 19:-0.763557 20:0.669005 21:-0.168959 22:0.228699 23:7.679002 24:-0.161473 25:1.180516 26:-0.120628 27:0.054871 28:13.47948 29:-0.142279 30:0.123697 31:1.796406 32:-0.028156 33:-0.121839 34:22.587286 35:-0.074068 36:-0.078194 
-0.352699256342597 1:-0.089246 2:-0.25936 3:0.898394 4:-0.638198 5:-0.373082 6:-0.155454 7:-0.032924 8:0.913102 9:-0.81669 10:1.052616 11:-0.090447 12:-0.231686 13:7.44374 14:-0.658887 15:0.390269 16:-0.155517 17:-0.039377 18:1.060002 19:-0.824419 20:1.049187 21:-0.172589 22:-0.019314 23:6.844019 24:-0.260021 25:0.040901 26:-0.121474 27:-0.069881 28:14.501619 29:-0.221907 30:0.090931 31:1.796406 32:-0.028156 33:-0.143536 34:28.829393 35:-0.074168 36:-0.076054 
-0.1464810713191622 1:-0.089044 2:-0.239249 3:2.924748 4:-0.598295 5:2.139976 6:-0.158158 7:-1.039704 8:-1.059251 9:-0.738407 10:0.714621 11:-0.090214 12:-0.19989 13:1.99268 14:0.892325 15:2.211884 16:-0.158226 17:-1.059484 18:0.57967 19:-0.758128 20:0.724203 21:-0.171853 22:0.100398 23:8.066402 24:-0.176486 25:0.356992 26:-0.121006 27:-0.000879 28:8.832518 29:-0.08799 30:0.246579 31:1.796406 32:-0.028156 33:-0.133462 34:10.548563 35:-0.073754 36:-0.064705 
-0.1143762311414145 1:-0.089235 2:-0.258302 3:0.132896 4:-0.638198 5:-0.73209 6:-0.155485 7:-0.000949 8:1.720091 9:-0.81669 10:1.074289 11:-0.090506 12:-0.239366 13:-0.121576 14:-0.658887 15:0.126268 16:-0.155549 17:-0.004692 18:1.089648 19:-0.824419 20:1.06292 21:-0.172612 22:-0.023051 23:6.863311 24:-0.260021 25:0.027663 26:-0.121525 27:-0.077413 28:6.351449 29:-0.221907 30:0.04268 31:1.796406 32:-0.028156 33:-0.144043 34:6.239612 35:-0.074168 36:-0.078697 
-0.1678417397341752 1:-0.088933 2:-0.209648 3:7.948004 4:-0.638198 5:2.139976 6:-0.152282 7:0.457963 8:1.029457 9:-0.751004 10:0.675468 11:-0.090557 12:-0.145271 13:10.160073 14:0.796531 15:2.126726 16:-0.152343 17:0.455879 18:1.081413 19:-0.776224 20:0.721231 21:-0.172032 22:0.071498 23:0.950608 24:-0.151028 25:0.326321 26:-0.12107 27:-0.011315 28:1.701734 29:-0.111506 30:0.149459 31:1.796406 32:-0.028156 33:-0.13432 34:0.436442 35:-0.073393 36:-0.072618 
-0.0048657706697499 1:-0.089235 2:-0.258302 3:0.132896 4:-0.638198 5:-0.73209 6:-0.155514 7:0.030035 8:1.718808 9:-0.81669 10:1.087242 11:-0.09049 12:-0.237247 13:0.078681 14:-0.658887 15:-0.131568 16:-0.155581 17:0.029286 18:1.262257 19:-0.824419 20:1.075796 21:-0.172646 22:-0.028603 23:6.031964 24:-0.260021 25:-0.012077 26:-0.121436 27:-0.064322 28:-0.298916 29:-0.221907 30:-0.063423 31:1.796406 32:-0.028156 33:-0.143055 34:-0.16248 35:-0.074168 36:-0.083346 
-1 1:-0.088933 2:-0.209648 3:7.948004 4:-0.638198 5:2.139976 6:-0.152324 7:0.495715 8:1.140912 9:-0.750269 10:0.730691 11:-0.090312 12:-0.209036 13:9.750802 14:0.797496 15:1.942038 16:-0.152388 17:0.50432 18:1.094911 19:-0.778439 20:0.742906 21:-0.172145 22:0.053223 23:1.044347 24:-0.140559 25:0.370056 26:-0.12117 27:-0.027158 28:0.924601 29:-0.087223 30:0.221112 31:1.796406 32:-0.028156 33:-0.137566 34:0.137304 35:-0.073164 36:-0.063653 
-0.5430380418460125 1:-0.08923 2:-0.257714 3:-0.429861 4:-0.638198 5:-0.73209 6:-0.155549 7:0.067069 8:1.709429 9:-0.81669 10:1.09172 11:-0.090497 12:-0.238105 13:0.746033 14:-0.658887 15:-0.247719 16:-0.155612 17:0.062849 18:1.490312 19:-0.824419 20:1.087406 21:-0.172668 22:-0.0322 23:4.345663 24:-0.260021 25:-0.093286 26:-0.12148 27:-0.070665 28:-0.266072 29:-0.221907 30:-0.145452 31:1.796406 32:-0.028156 33:-0.143764 34:-0.161692 35:-0.074168 36:-0.085269 
-1 1:-0.089054 2:-0.219917 3:7.948004 4:-0.638198 5:2.139976 6:-0.152372 7:0.547285 8:1.231458 9:-0.766584 10:0.74011 11:-0.090479 12:-0.224619 13:9.023803 14:0.604087 15:1.935221 16:-0.152431 17:0.550674 18:1.151991 19:-0.7816 20:0.765881 21:-0.172238 22:0.037046 23:0.998725 24:-0.136239 25:0.456867 26:-0.121246 27:-0.03365 28:0.412164 29:-0.053615 30:0.33914 31:1.796406 32:-0.028156 33:-0.137126 34:-0.053423 35:-0.071529 36:-0.05379 
-0.5180489665943355 1:-0.08923 2:-0.257714 3:-0.429861 4:-0.638198 5:-0.73209 6:-0.155577 7:0.096371 8:1.70279 9:-0.81669 10:1.096291 11:-0.090433 12:-0.229842 13:1.014667 14:-0.658887 15:-0.401379 16:-0.155643 17:0.096021 18:1.648397 19:-0.824419 20:1.095279 21:-0.172684 22:-0.03475 23:1.426233 24:-0.260021 25:-0.174779 26:-0.121493 27:-0.072663 28:-0.245674 29:-0.221907 30:-0.166598 31:1.796406 32:-0.028156 33:-0.144169 34:-0.160187 35:-0.074168 36:-0.085574 
-0.8356302352665378 1:-0.089179 2:-0.252665 3:3.931028 4:-0.598295 5:1.780967 6:-0.158294 7:-0.896692 8:1.720609 9:-0.735519 10:0.771486 11:-0.090304 12:-0.210856 13:-0.366632 14:0.924043 15:1.996485 16:-0.158359 17:-0.916707 18:1.193851 19:-0.763269 20:0.811192 21:-0.172241 22:0.037233 23:5.752818 24:-0.169479 25:0.444132 26:-0.121132 27:-0.019491 28:-0.012226 29:-0.129759 30:0.308088 31:1.796406 32:-0.028156 33:-0.13766 34:-0.146631 35:-0.073943 36:-0.056574 
-1 1:-0.089211 2:-0.255887 3:-0.429861 4:-0.638198 5:-0.73209 6:-0.155606 7:0.127138 8:1.692276 9:-0.81669 10:1.100849 11:-0.090494 12:-0.23775 13:1.317633 14:-0.658887 15:-0.774068 16:-0.155673 17:0.128416 18:1.652821 19:-0.824419 20:1.099621 21:-0.172718 22:-0.040301 23:0.515385 24:-0.260021 25:-0.231919 26:-0.121456 27:-0.067197 28:-0.122072 29:-0.221907 30:-0.185127 31:1.796406 32:-0.028156 33:-0.143552 34:-0.152292 35:-0.074168 36:-0.085881 
-1 1:-0.089101 2:-0.224736 3:6.362711 4:-0.638198 5:1.780967 6:-0.152528 7:0.712928 8:1.361347 9:-0.783093 10:0.880598 11:-0.090592 12:-0.231921 13:7.892518 14:0.371984 15:1.384909 16:-0.152588 17:0.719325 18:0.983805 19:-0.788544 20:0.892223 21:-0.172477 22:-0.001372 23:3.935589 24:-0.165097 25:0.554483 26:-0.12125 27:-0.033113 28:0.248404 29:-0.145261 30:0.438968 31:1.796406 32:-0.028156 33:-0.140221 34:-0.102682 35:-0.073784 36:-0.034594 
-0.2866993991450786 1:-0.08915 2:-0.249795 3:3.931028 4:-0.638198 5:1.780967 6:-0.158381 7:-0.804647 8:-0.435823 9:-0.759498 10:0.881705 11:-0.090564 12:-0.246766 13:7.566769 14:0.658524 15:1.474005 16:-0.158449 17:-0.820307 18:1.032235 19:-0.78091 20:0.893063 21:-0.172439 22:0.00509 23:6.884862 24:-0.128019 25:0.494412 26:-0.121287 27:-0.042295 28:12.016265 29:-0.082235 30:0.198518 31:1.796406 32:-0.028156 33:-0.140486 34:10.515078 35:-0.072944 36:-0.063765 
-1 1:-0.089143 2:-0.24907 3:1.248956 4:-0.638198 5:-0.73209 6:-0.15569 7:0.215461 8:1.511153 9:-0.81669 10:1.095894 11:-0.090542 12:-0.244018 13:4.172934 14:-0.658887 15:-0.37183 16:-0.155761 17:0.222511 18:1.397701 19:-0.824419 20:1.102353 21:-0.172802 22:-0.054051 23:1.910727 24:-0.260021 25:-0.260126 26:-0.121542 27:-0.079918 28:1.037096 29:-0.221907 30:-0.220348 31:1.796406 32:-0.028156 33:-0.144971 34:0.23151 35:-0.074168 36:-0.086075 
-0.2686054513056171 1:-0.089101 2:-0.224736 3:6.362711 4:-0.638198 5:1.780967 6:-0.152561 7:0.746653 8:1.313606 9:-0.774756 10:0.90957 11:-0.09043 12:-0.214356 13:8.690865 14:0.489601 15:1.23868 16:-0.152625 17:0.7584 18:0.902715 19:-0.783905 20:0.924749 21:-0.172509 22:-0.00699 23:4.373795 24:-0.14729 25:0.539485 26:-0.121324 27:-0.044328 28:4.374371 29:-0.088935 30:0.444348 31:1.796406 32:-0.028156 33:-0.140558 34:3.463483 35:-0.072597 36:-0.032206 
-0.5221032563282699 1:-0.089158 2:-0.250532 3:4.836541 4:-0.638198 5:-0.73209 6:-0.155728 7:0.255932 8:1.339032 9:-0.81669 10:1.095894 11:-0.090537 12:-0.243215 13:5.58164 14:-0.658887 15:-0.371821 16:-0.15579 17:0.253157 18:1.256206 19:-0.824419 20:1.101749 21:-0.172809 22:-0.055138 23:2.285804 24:-0.260021 25:-0.260153 26:-0.121567 27:-0.083631 28:1.699177 29:-0.221907 30:-0.206458 31:1.796406 32:-0.028156 33:-0.145551 34:0.689717 35:-0.074168 36:-0.086036 
-0.3914545228478717 1:-0.089156 2:-0.231914 3:5.853864 4:-0.638198 5:1.062951 6:-0.152594 7:0.781975 8:0.460903 9:-0.758711 10:0.960514 11:-0.090383 12:-0.215074 13:12.03798 14:0.696478 15:0.981018 16:-0.15266 17:0.796172 18:0.904923 19:-0.780234 20:0.955815 21:-0.172556 22:-0.015386 23:4.404809 24:-0.148583 25:0.485931 26:-0.121349 27:-0.037978 28:8.420588 29:-0.064153 30:0.327291 31:1.796406 32:-0.028156 33:-0.142005 34:11.918623 35:-0.072133 36:-0.049196 
-0.245871502102502 1:-0.089123 2:-0.247084 3:3.841384 4:-0.638198 5:1.421959 6:-0.158437 7:-0.746379 8:0.148947 9:-0.784251 10:0.960362 11:-0.090433 12:-0.229859 13:9.569604 14:0.350214 15:1.056512 16:-0.158505 17:-0.759867 18:1.006783 19:-0.790393 20:0.945759 21:-0.172528 22:-0.009445 23:6.8393 24:-0.150127 25:0.36915 26:-0.121315 27:-0.046465 28:11.24829 29:-0.136719 30:0.381833 31:1.796406 32:-0.028156 33:-0.140891 34:16.309076 35:-0.073733 36:-0.04672 
-0.2819457421101068 1:-0.089156 2:-0.231914 3:5.853864 4:-0.638198 5:1.062951 6:-0.152632 7:0.828824 8:-0.634585 9:-0.750588 10:0.988531 11:-0.09054 12:-0.171494 13:8.272177 14:0.789808 15:0.784987 16:-0.152695 17:0.833552 18:0.909952 19:-0.77662 20:0.984338 21:-0.17258 22:-0.016972 23:4.435477 24:-0.156786 25:0.400262 26:-0.12132 27:-0.027741 28:7.097147 29:-0.125478 30:0.233653 31:1.796406 32:-0.028156 33:-0.140728 34:0.641673 35:-0.073381 36:-0.061858 
-0.4263237314407434 1:-0.089123 2:-0.247084 3:2.476128 4:-0.638198 5:-0.014074 6:-0.158468 7:-0.713182 8:1.566367 9:-0.791517 10:0.985934 11:-0.090496 12:-0.23794 13:4.112635 14:0.215112 15:0.882436 16:-0.158533 17:-0.730196 18:1.065036 19:-0.793957 20:0.967603 21:-0.172566 22:-0.015646 23:6.685685 24:-0.154395 25:0.288044 26:-0.121374 27:-0.055074 28:10.875301 29:-0.111814 30:0.109371 31:1.796406 32:-0.028156 33:-0.142181 34:17.768827 35:-0.073439 36:-0.071506 
-0.1605757912927243 1:-0.089129 2:-0.227488 3:6.368055 4:-0.638198 5:0.344934 6:-0.152667 7:0.857914 8:1.106077 9:-0.750795 10:1.018085 11:-0.090507 12:-0.242652 13:8.516542 14:0.787454 15:0.589765 16:-0.152729 17:0.869899 18:0.921936 19:-0.771947 20:1.011503 21:-0.17261 22:-0.023046 23:4.490266 24:-0.169987 25:0.271645 26:-0.121423 27:-0.04529 28:9.225436 29:-0.142396 30:0.1142 31:1.796406 32:-0.028156 33:-0.1415 34:12.385971 35:-0.07378 36:-0.071046 
-0.9834544532433946 1:-0.089123 2:-0.247084 3:2.476128 4:-0.638198 5:-0.014074 6:-0.158492 7:-0.688403 8:1.720609 9:-0.775349 10:0.990955 11:-0.090505 12:-0.23908 13:-0.366632 14:0.453202 15:0.871066 16:-0.158559 17:-0.702035 18:1.1617 19:-0.796508 20:0.987613 21:-0.172592 22:-0.019805 23:6.244684 24:-0.153998 25:0.222506 26:-0.121468 27:-0.068993 28:5.165782 29:-0.103045 30:0.037547 31:1.796406 32:-0.028156 33:-0.143209 34:4.936966 35:-0.073412 36:-0.078435 
-0.4434014164218793 1:-0.08922 2:-0.256685 3:6.658162 4:-0.638198 5:-0.73209 6:-0.155805 7:0.336675 8:0.636901 9:-0.81669 10:1.095879 11:-0.090516 12:-0.240553 13:9.0062 14:-0.658887 15:-0.371217 16:-0.155872 17:0.341952 18:0.657526 19:-0.824419 20:1.100427 21:-0.172851 22:-0.062046 23:4.70911 24:-0.260021 25:-0.256001 26:-0.121557 27:-0.082063 28:1.247739 29:-0.221907 30:-0.197105 31:1.796406 32:-0.028156 33:-0.145216 34:0.066325 35:-0.074168 36:-0.085984 
-0.5014557627868892 1:-0.089131 2:-0.247892 3:-0.42986 4:-0.638198 5:-0.373082 6:-0.158513 7:-0.666298 8:1.72061 9:-0.783815 10:1.001795 11:-0.090577 12:-0.248482 13:-0.366632 14:0.323677 15:0.790156 16:-0.158586 17:-0.673279 18:1.27028 19:-0.796505 20:1.002029 21:-0.172615 22:-0.023632 23:5.79903 24:-0.146977 25:0.101697 26:-0.121371 27:-0.054673 28:0.770137 29:-0.118134 30:0.035439 31:1.796406 32:-0.028156 33:-0.142808 34:0.013311 35:-0.073385 36:-0.077936 
-0.2270428314589056 1:-0.089228 2:-0.257505 3:8.423283 4:-0.638198 5:-0.73209 6:-0.155833 7:0.366551 8:0.567674 9:-0.81669 10:1.09587 11:-0.090537 12:-0.243297 13:9.395288 14:-0.658887 15:-0.37084 16:-0.155899 17:0.37082 18:0.44639 19:-0.824419 20:1.0989 21:-0.172867 22:-0.064663 23:4.922055 24:-0.260021 25:-0.24962 26:-0.121658 27:-0.09695 28:3.268667 29:-0.221907 30:-0.197028 31:1.796406 32:-0.028156 33:-0.146305 34:0.939183 35:-0.074168 36:-0.085983 
-1 1:-0.089104 2:-0.22645 3:6.976262 4:-0.638198 5:-0.73209 6:-0.152758 7:0.956008 8:1.360405 9:-0.757783 10:1.067216 11:-0.090486 12:-0.222392 13:8.134848 14:0.700166 15:0.11945 16:-0.152827 17:0.975408 18:1.280352 19:-0.759227 20:1.05326 21:-0.172663 22:-0.03318 23:2.308039 24:-0.170011 25:-0.058325 26:-0.121536 27:-0.080064 28:0.092542 29:-0.127433 30:-0.109297 31:1.796406 32:-0.028156 33:-0.144811 34:-0.148115 35:-0.073346 36:-0.08506 
-0.4164783572497439 1:-0.089246 2:-0.259361 3:8.675672 4:-0.638198 5:-0.73209 6:-0.155881 7:0.41734 8:-0.847052 9:-0.81669 10:1.090888 11:-0.09056 12:-0.24619 13:3.227732 14:-0.658887 15:-0.203752 16:-0.155953 17:0.42791 18:0.184218 19:-0.824419 20:1.095223 21:-0.172903 22:-0.070399 23:5.187109 24:-0.260021 25:-0.231142 26:-0.121681 27:-0.100391 28:7.852165 29:-0.221907 30:-0.162416 31:1.796406 32:-0.028156 33:-0.146637 34:5.874025 35:-0.074168 36:-0.085518 
-1 1:-0.089147 2:-0.230006 3:7.210454 4:-0.558392 5:-0.73209 6:-0.152793 7:0.992265 8:1.387697 9:-0.749759 10:1.060876 11:-0.09049 12:-0.212233 13:7.75426 14:0.792309 15:0.229079 16:-0.152859 17:1.009575 18:1.370347 19:-0.756312 20:1.059945 21:-0.172673 22:-0.033935 23:0.217212 24:-0.150579 25:-0.120656 26:-0.121442 27:-0.061144 28:0.102965 29:-0.123058 30:-0.110096 31:1.796406 32:-0.028156 33:-0.143765 34:-0.142733 35:-0.073275 36:-0.083885 
-0.9498458871511701 1:-0.08913 2:-0.247829 3:-0.429861 4:-0.638198 5:-0.373082 6:-0.158595 7:-0.579228 8:1.72061 9:-0.775034 10:1.006977 11:-0.090495 12:-0.237826 13:-0.366632 14:0.425502 15:0.799247 16:-0.158665 17:-0.588491 18:1.586768 19:-0.780622 20:1.019124 21:-0.172666 22:-0.031858 23:3.444945 24:-0.0528 25:-0.041093 26:-0.121382 27:-0.056255 28:-0.355699 29:-0.099808 30:0.057615 31:1.796406 32:-0.028156 33:-0.142583 34:-0.163037 35:-0.072904 36:-0.077154 
-0.1062405014774331 1:-0.089147 2:-0.230006 3:7.210454 4:-0.558392 5:-0.73209 6:-0.152827 7:1.0316 8:1.31107 9:-0.749487 10:1.056665 11:-0.090509 12:-0.201979 13:8.529957 14:0.794959 15:0.300821 16:-0.152891 17:1.043445 18:1.375899 19:-0.753958 20:1.063554 21:-0.172698 22:-0.037312 23:0.043671 24:-0.148411 25:-0.164537 26:-0.121423 27:-0.059879 28:-0.050589 29:-0.118087 30:-0.136348 31:1.796406 32:-0.028156 33:-0.143309 34:-0.159957 35:-0.073313 36:-0.085305 
-0.4653797618126248 1:-0.089224 2:-0.257078 3:8.675672 4:-0.638198 5:-0.73209 6:-0.155935 7:0.473644 8:0.358385 9:-0.81669 10:1.08098 11:-0.090505 12:-0.239179 13:8.639003 14:-0.658887 15:0.031425 16:-0.156005 17:0.483865 18:0.386528 19:-0.824419 20:1.091523 21:-0.172898 22:-0.069708 23:6.327345 24:-0.260021 25:-0.235432 26:-0.121577 27:-0.085083 28:9.710832 29:-0.221907 30:-0.201654 31:1.796406 32:-0.028156 33:-0.145588 34:13.651517 35:-0.074168 36:-0.086036 
-0.8359857400766158 1:-0.089224 2:-0.257078 3:8.675672 4:-0.638198 5:-0.73209 6:-0.155965 7:0.504935 8:1.002399 9:-0.81669 10:1.085982 11:-0.090567 12:-0.247194 13:8.164776 14:-0.658887 15:-0.077298 16:-0.15603 17:0.511306 18:0.615055 19:-0.824419 20:1.089653 21:-0.17291 22:-0.071641 23:6.508273 24:-0.260021 25:-0.24874 26:-0.12164 27:-0.094297 28:6.591115 29:-0.221907 30:-0.206285 31:1.796406 32:-0.028156 33:-0.146471 34:7.836653 35:-0.074168 36:-0.086036 
-0.8845262920935615 1:-0.089182 2:-0.252957 3:-0.429861 4:-0.638198 5:-0.014074 6:-0.158676 7:-0.493837 8:1.72061 9:-0.718692 10:1.007457 11:-0.090522 12:-0.241333 13:-0.366632 14:0.930055 15:0.798532 16:-0.158741 17:-0.506695 18:1.740513 19:-0.749687 20:1.019905 21:-0.172749 22:-0.045447 23:-0.415815 24:-0.016644 25:-0.105463 26:-0.121588 27:-0.086728 28:-0.355697 29:-0.056176 30:-0.051944 31:1.796406 32:-0.028156 33:-0.145406 34:-0.163037 35:-0.071122 36:-0.083241 
-0.616864778218192 1:-0.089218 2:-0.256578 3:6.84954 4:-0.638198 5:-0.73209 6:-0.15599 7:0.531401 8:1.47057 9:-0.81669 10:1.085964 11:-0.090527 12:-0.242049 13:4.413749 14:-0.658887 15:-0.076895 16:-0.156056 17:0.538913 18:0.851131 19:-0.824419 20:1.088292 21:-0.172929 22:-0.074682 23:6.373076 24:-0.260021 25:-0.260469 26:-0.121763 27:-0.112423 28:2.815004 29:-0.221907 30:-0.195719 31:1.796406 32:-0.028156 33:-0.147234 34:1.513243 35:-0.074168 36:-0.085976 
-0.1831040880556032 1:-0.089166 2:-0.237268 3:7.697255 4:-0.638198 5:-0.73209 6:-0.15292 7:1.130169 8:1.325389 9:-0.757777 10:1.070976 11:-0.090511 12:-0.214321 13:8.32042 14:0.70041 15:0.168431 16:-0.152982 17:1.1413 18:1.214067 19:-0.762128 20:1.058556 21:-0.172752 22:-0.044606 23:2.742892 24:-0.079847 25:-0.170244 26:-0.121571 27:-0.069354 28:0.205915 29:-0.058609 30:-0.113799 31:1.796406 32:-0.028156 33:-0.144496 34:-0.103201 35:-0.071624 36:-0.085193 
-0.2244475887243255 1:-0.089218 2:-0.256578 3:6.84954 4:-0.638198 5:-0.73209 6:-0.156015 7:0.557883 8:1.599158 9:-0.81669 10:1.080905 11:-0.090546 12:-0.244488 13:3.057285 14:-0.658887 15:0.032939 16:-0.156082 17:0.566189 18:1.11741 19:-0.824419 20:1.087659 21:-0.172939 22:-0.076285 23:5.689356 24:-0.260021 25:-0.265017 26:-0.12169 27:-0.101652 28:1.059831 29:-0.221907 30:-0.194368 31:1.796406 32:-0.028156 33:-0.146888 34:0.258959 35:-0.074168 36:-0.085958 
-0.8747529679267239 1:-0.089166 2:-0.237268 3:7.697255 4:-0.638198 5:-0.73209 6:-0.152939 7:1.151136 8:1.337302 9:-0.774509 10:1.063969 11:-0.090568 12:-0.183735 13:8.388587 14:0.484523 15:0.282061 16:-0.153011 17:1.172839 18:0.991644 19:-0.76474 20:1.055221 21:-0.172776 22:-0.048391 23:4.51387 24:-0.075871 25:-0.147745 26:-0.121524 27:-0.08221 28:0.235326 29:-0.047028 30:-0.093071 31:1.796406 32:-0.028156 33:-0.145754 34:-0.120849 35:-0.071497 36:-0.084536 
-1 1:-0.089209 2:-0.255669 3:4.360666 4:-0.638198 5:-0.73209 6:-0.156039 7:0.583135 8:1.679743 9:-0.81669 10:1.080903 11:-0.090568 12:-0.247374 13:1.745467 14:-0.658887 15:0.032978 16:-0.156107 17:0.593144 18:1.38623 19:-0.824419 20:1.087744 21:-0.172969 22:-0.081165 23:4.183551 24:-0.260021 25:-0.266054 26:-0.12168 27:-0.100163 28:0.110623 29:-0.221907 30:-0.231178 31:1.796406 32:-0.028156 33:-0.147006 34:-0.122453 35:-0.074168 36:-0.086097 
-0.4325760762646484 1:-0.089179 2:-0.252688 3:-0.429861 4:-0.51849 5:-0.73209 6:-0.158766 7:-0.39865 8:1.720609 9:-0.714767 10:1.011333 11:-0.090534 12:-0.24288 13:-0.366632 14:0.9525 15:0.829899 16:-0.158839 17:-0.40218 18:1.147225 19:-0.72144 20:1.023545 21:-0.172776 22:-0.049823 23:6.775153 24:-0.099723 25:-0.180522 26:-0.121583 27:-0.085866 28:-0.292446 29:-0.067083 30:-0.157332 31:1.796406 32:-0.028156 33:-0.14546 34:-0.162454 35:-0.072366 36:-0.085626 
-1 1:-0.089209 2:-0.255669 3:-0.429861 4:-0.638198 5:-0.73209 6:-0.156087 7:0.633891 8:1.704117 9:-0.81669 10:1.080784 11:-0.09057 12:-0.247651 13:1.011295 14:-0.658887 15:0.035389 16:-0.156156 17:0.645847 18:1.685527 19:-0.824419 20:1.087826 21:-0.172987 22:-0.0841 23:0.240188 24:-0.260021 25:-0.266871 26:-0.121687 27:-0.101287 28:-0.268875 29:-0.221907 30:-0.234511 31:1.796406 32:-0.028156 33:-0.147061 34:-0.161556 35:-0.074168 36:-0.086099 
-0.3904249053369066 1:-0.089215 2:-0.237373 3:9.75097 4:-0.638198 5:-0.73209 6:-0.153032 7:1.246436 8:-0.813805 9:-0.773405 10:1.041636 11:-0.090516 12:-0.219071 13:6.354819 14:0.500402 15:0.564052 16:-0.153097 17:1.265393 18:0.724413 19:-0.775386 20:1.034971 21:-0.172821 22:-0.055743 23:5.204051 24:-0.10991 25:-0.127055 26:-0.121594 27:-0.080076 28:6.140323 29:-0.096241 30:-0.024542 31:1.796406 32:-0.028156 33:-0.145117 34:2.146264 35:-0.073174 36:-0.082411 
-0.2852864314669473 1:-0.089209 2:-0.255669 3:-0.429861 4:-0.638198 5:-0.73209 6:-0.156113 7:0.660986 8:1.708815 9:-0.81669 10:1.080798 11:-0.09056 12:-0.246298 13:0.812402 14:-0.658887 15:0.035097 16:-0.15618 17:0.671906 18:1.716384 19:-0.824419 20:1.089374 21:-0.173002 22:-0.086614 23:-0.190788 24:-0.260021 25:-0.255156 26:-0.121718 27:-0.105828 28:-0.303516 29:-0.221907 30:-0.237349 31:1.796406 32:-0.028156 33:-0.147431 34:-0.162407 35:-0.074168 36:-0.086101 
-0.09690662619489948 1:-0.089215 2:-0.237373 3:9.75097 4:-0.638198 5:-0.73209 6:-0.153063 7:1.275112 8:-0.060617 9:-0.773061 10:1.02596 11:-0.090503 12:-0.233724 13:9.675016 14:0.496756 15:0.730153 16:-0.153125 17:1.295208 18:0.727823 19:-0.776621 20:1.031049 21:-0.172838 22:-0.059009 23:5.221165 24:-0.118144 25:-0.152293 26:-0.121517 27:-0.064396 28:8.140165 29:-0.183502 30:-0.064693 31:1.796406 32:-0.028156 33:-0.144523 34:10.662754 35:-0.074084 36:-0.084177 
-0.8069860737826698 1:-0.089191 2:-0.253854 3:-0.096522 4:0.018431 5:-0.73209 6:-0.158825 7:-0.336754 8:0.39426 9:-0.689535 10:1.017168 11:-0.0906 12:-0.25144 13:7.99803 14:1.162752 15:0.781776 16:-0.158886 17:-0.351166 18:0.3279 19:-0.71479 20:1.032819 21:-0.172819 22:-0.056829 23:8.885794 24:-0.091621 25:-0.141653 26:-0.121436 27:-0.064235 28:11.519497 29:-0.07254 30:-0.148684 31:1.796406 32:-0.028156 33:-0.14441 34:29.408817 35:-0.072351 36:-0.085443 
-0.04070963244545663 1:-0.089201 2:-0.237373 3:9.75097 4:-0.638198 5:-0.73209 6:-0.15309 7:1.304558 8:1.054386 9:-0.7738 10:1.02023 11:-0.090535 12:-0.220347 13:10.022973 14:0.495005 15:0.785939 16:-0.153153 17:1.325055 18:0.736356 19:-0.776405 20:1.026805 21:-0.172853 22:-0.060477 23:5.251679 24:-0.127532 25:-0.180715 26:-0.121625 27:-0.085439 28:7.046022 29:-0.199348 30:-0.108499 31:1.796406 32:-0.028156 33:-0.145824 34:9.38746 35:-0.074129 36:-0.085891 
-0.07913995820734447 1:-0.089201 2:-0.237373 3:9.75097 4:-0.638198 5:-0.73209 6:-0.153112 7:1.327198 8:1.386312 9:-0.773699 10:1.029964 11:-0.090562 12:-0.244426 13:7.532729 14:0.496429 15:0.690665 16:-0.15318 17:1.354385 18:0.860048 19:-0.775235 20:1.023537 21:-0.172869 22:-0.062419 23:4.903028 24:-0.139948 25:-0.208769 26:-0.121666 27:-0.094821 28:1.489064 29:-0.219919 30:-0.114382 31:1.796406 32:-0.028156 33:-0.146542 34:0.347853 35:-0.074168 36:-0.085423 
-0.3452254479567077 1:-0.089178 2:-0.252567 3:-0.429861 4:-0.638198 5:-0.73209 6:-0.156181 7:0.733187 8:1.713535 9:-0.81669 10:1.090924 11:-0.090571 12:-0.247683 13:0.543626 14:-0.658887 15:-0.204759 16:-0.156252 17:0.748273 18:1.730549 19:-0.824419 20:1.094226 21:-0.173029 22:-0.090988 23:-0.374867 24:-0.260021 25:-0.238764 26:-0.121787 27:-0.116054 28:-0.337458 29:-0.221907 30:-0.176623 31:1.796406 32:-0.028156 33:-0.147943 34:-0.163035 35:-0.074168 36:-0.085641 
