svm_type c_svc
kernel_type rbf
gamma 0.0277778
nr_class 2
total_sv 3096
rho 0.712368
label 0 1
nr_sv 1258 1838
SV
0.1879635466977208 1:-0.089118 2:-0.292341 3:-0.429861 4:-0.638198 5:-0.73209 6:-0.157228 7:1.055919 8:1.648746 9:-0.81669 10:-1.364197 11:-0.090473 12:-0.285575 13:-0.353775 14:-0.658887 15:-0.774068 16:-0.157562 17:0.78226 18:1.67429 19:-0.824419 20:-0.964474 21:-0.132086 22:2.128904 23:-0.294569 24:-0.260021 25:6.860782 26:-0.121407 27:-0.286475 28:-0.351449 29:-0.221907 30:-0.139519 31:1.796406 32:-0.028156 33:-0.152574 34:-0.163034 35:-0.074168 36:-0.085356 
0.2668482757963949 1:-0.088937 2:-0.283523 3:-0.306356 4:-0.638198 5:-0.73209 6:-0.156863 7:1.043612 8:1.539907 9:-0.81669 10:-1.27093 11:-0.090407 12:0.077302 13:3.518101 14:-0.658887 15:0.511278 16:-0.157515 17:0.341448 18:1.281715 19:-0.824419 20:-0.513483 21:-0.121263 22:2.660886 23:4.529456 24:-0.260021 25:9.381403 26:-0.048285 27:3.818368 28:2.144409 29:-0.221907 30:11.912448 31:1.796406 32:-0.028009 33:2.849863 34:0.809943 35:-0.074168 36:10.561167 
0.5245667603283714 1:-0.089025 2:-0.264541 3:-0.429861 4:-0.638198 5:-0.014074 6:-0.157252 7:1.055919 8:1.647965 9:-0.81669 10:-1.364197 11:-0.090513 12:-0.285575 13:-0.077263 14:-0.658887 15:-0.774068 16:-0.157797 17:0.573987 18:1.425222 19:-0.824419 20:-0.648358 21:-0.121678 22:2.627898 23:3.931254 24:-0.260021 25:8.878447 26:-0.083398 27:1.872955 28:-0.248841 29:-0.221907 30:6.503304 31:1.796406 32:-0.028119 33:0.532844 34:-0.161658 35:-0.074168 36:3.172441 
1 1:-0.088878 2:-0.246972 3:3.844064 4:-0.638198 5:1.780967 6:-0.158343 7:-0.72647 8:1.065435 9:-0.81669 10:0.229748 11:-0.088281 12:1.402358 13:8.234257 14:-0.658887 15:2.977024 16:-0.157761 17:0.089581 18:0.989862 19:-0.824419 20:-0.198126 21:-0.119443 22:2.693422 23:6.071248 24:-0.260021 25:9.653186 26:-0.029825 27:4.433933 28:2.100102 29:-0.221907 30:14.362157 31:1.796406 32:-0.027881 33:4.451047 34:-0.104764 35:-0.074168 36:20.455805 
1 1:-0.088707 2:-0.216268 3:4.404343 4:-0.638198 5:0.703943 6:-0.14966 7:-0.042082 8:1.515282 9:-0.81669 10:0.047816 11:-0.006717 12:3.402514 13:5.014896 14:-0.658887 15:3.163055 16:-0.149809 17:0.216199 18:1.363944 19:-0.824419 20:-0.19967 21:-0.120214 22:2.572395 23:2.361497 24:-0.260021 25:9.841718 26:-0.030602 27:4.19747 28:1.992034 29:-0.221907 30:13.972199 31:1.796406 32:-0.027884 33:4.529182 34:0.515178 35:-0.074168 36:20.781904 
0.2217445847516645 1:-0.088922 2:-0.275572 3:-0.370274 4:-0.638198 5:-0.73209 6:-0.156554 7:1.055919 8:1.642004 9:-0.81669 10:-1.355905 11:-0.090441 12:-0.285575 13:0.342145 14:-0.658887 15:-0.39469 16:-0.157072 17:0.421192 18:1.619834 19:-0.824347 20:-0.714678 21:-0.126756 22:2.94338 23:0.420248 24:-0.258426 25:8.528913 26:-0.112651 27:0.39192 28:0.599115 29:-0.221907 30:4.227153 31:1.796406 32:-0.028152 33:-0.0635 34:-0.022877 35:-0.074168 36:1.539546 
0.5592876830226453 1:-0.088812 2:-0.25121 3:-0.275216 4:-0.638198 5:-0.73209 6:-0.148583 7:1.033426 8:1.630859 9:-0.808454 10:-1.2441 11:-0.0904 12:0.79438 13:1.811496 14:-0.143511 15:0.565579 16:-0.149764 17:0.525641 18:1.461483 19:-0.820956 20:-0.534672 21:-0.123414 22:3.045598 23:1.85986 24:-0.229707 25:9.341628 26:-0.051111 27:4.001646 28:0.27 29:-0.169901 30:12.665198 31:1.796406 32:-0.028012 33:2.874981 34:-0.088162 35:-0.074012 36:12.572941 
1 1:-0.088707 2:-0.216268 3:4.404343 4:-0.638198 5:0.703943 6:-0.151242 7:-0.64083 8:1.23895 9:-0.81669 10:0.858593 11:-0.088844 12:-0.029463 13:9.25185 14:-0.658887 15:1.779641 16:-0.15029 17:0.003213 18:1.187694 19:-0.824419 20:0.130697 21:-0.122624 22:2.379334 23:3.066616 24:-0.260021 25:9.257298 26:-0.091453 27:1.126547 28:1.246499 29:-0.221907 30:6.982006 31:1.796406 32:-0.02813 33:0.081337 34:-0.01787 35:-0.074168 36:3.84336 
1 1:-0.088849 2:-0.230239 3:-0.429861 4:-0.638198 5:1.062951 6:-0.158723 7:-0.443212 8:1.682714 9:-0.81669 10:0.68597 11:-0.089475 12:-0.068323 13:1.271369 14:-0.658887 15:2.54522 16:-0.158274 17:0.177722 18:1.441285 19:-0.824419 20:0.002346 21:-0.118695 22:2.603488 23:3.97972 24:-0.260021 25:9.473106 26:-0.051097 27:3.186859 28:9.382858 29:-0.221907 30:10.772026 31:1.796406 32:-0.028011 33:1.490585 34:11.4935 35:-0.074168 36:9.324691 
1 1:-0.088717 2:-0.223858 3:4.277764 4:-0.638198 5:-0.014074 6:-0.156576 7:1.004372 8:1.492084 9:-0.81669 10:-0.823298 11:-0.090409 12:0.94876 13:3.853146 14:-0.658887 15:2.128374 16:-0.157318 17:0.122582 18:1.577083 19:-0.824163 20:-0.39968 21:-0.121807 22:3.20811 23:1.518047 24:-0.250446 25:9.470501 26:-0.030163 27:5.705521 28:0.733936 29:-0.221907 30:13.200853 31:1.796406 32:-0.027907 33:5.510835 34:-0.060888 35:-0.074168 36:16.454144 
1 1:-0.088481 2:-0.195353 3:-0.378312 4:-0.638198 5:0.703943 6:-0.154024 7:0.321935 8:1.657911 9:-0.81669 10:0.126292 11:-0.011548 12:4.606621 13:1.631563 14:-0.658887 15:2.949072 16:-0.154209 17:0.344108 18:1.437016 19:-0.822712 20:-0.170873 21:-0.12746 22:2.885139 23:2.393028 24:-0.234835 25:9.720039 26:-0.044388 27:4.756018 28:4.646108 29:-0.221907 30:14.046801 31:1.796406 32:-0.027888 33:4.403073 34:2.901469 35:-0.074168 36:18.509069 
1 1:-0.088912 2:-0.226023 3:6.126837 4:-0.638198 5:1.421959 6:-0.15492 7:-0.595941 8:0.556893 9:-0.81669 10:0.857361 11:-0.090058 12:-0.177521 13:10.085443 14:-0.658887 15:1.836247 16:-0.154595 17:-0.3096 18:0.747636 19:-0.824419 20:0.491054 21:-0.139091 22:1.75614 23:2.909585 24:-0.260021 25:6.876575 26:-0.119797 27:0.177248 28:1.055033 29:-0.221907 30:0.066891 31:1.796406 32:-0.028155 33:-0.089255 34:0.179706 35:-0.074168 36:-0.084218 
1 1:-0.088861 2:-0.229241 3:-0.352538 4:-0.638198 5:1.062951 6:-0.153933 7:-0.489187 8:1.499917 9:-0.81669 10:-0.277755 11:-0.029618 12:3.476204 13:5.422968 14:-0.658887 15:2.736899 16:-0.153467 17:0.074383 18:1.447095 19:-0.824419 20:-0.300736 21:-0.126328 22:3.03278 23:2.595105 24:-0.260021 25:9.5382 26:-0.036087 27:5.596219 28:1.279051 29:-0.221907 30:14.399191 31:1.796406 32:-0.027884 33:4.914604 34:0.461854 35:-0.074168 36:19.361122 
1 1:-0.088861 2:-0.229241 3:-0.352538 4:-0.638198 5:1.062951 6:-0.154555 7:-0.980699 8:1.460022 9:-0.81669 10:0.594375 11:-0.08965 12:-0.122959 13:6.008725 14:-0.658887 15:2.467059 16:-0.15384 17:-0.190541 18:1.456933 19:-0.824362 20:0.022734 21:-0.128023 22:2.835865 23:2.635137 24:-0.25859 25:9.214128 26:-0.077278 27:2.467807 28:4.407336 29:-0.221907 30:8.397651 31:1.796406 32:-0.028067 33:0.993259 34:2.562875 35:-0.074168 36:5.771204 
1 1:-0.088605 2:-0.18198 3:7.697255 4:-0.638198 5:1.780967 6:-0.151395 7:-0.47701 8:0.598011 9:-0.81669 10:0.937691 11:-0.090043 12:-0.143971 13:11.300727 14:-0.658887 15:1.317147 16:-0.151263 17:-0.39586 18:1.095464 19:-0.824419 20:0.779421 21:-0.153192 22:0.635494 23:2.602481 24:-0.260021 25:3.241642 26:-0.120332 27:0.093694 28:4.303562 29:-0.221907 30:-0.074606 31:1.796406 32:-0.028156 33:-0.111543 34:2.376805 35:-0.074168 36:-0.085378 
1 1:-0.088526 2:-0.193014 3:4.196191 4:-0.638198 5:0.703943 6:-0.151008 7:-0.804312 8:1.093 9:-0.81669 10:0.761407 11:-0.088656 12:1.34764 13:9.316465 14:-0.658887 15:1.992821 16:-0.149941 17:-0.059379 18:1.274315 19:-0.824419 20:0.023752 21:-0.119997 22:2.453507 23:1.537037 24:-0.260021 25:9.678825 26:-0.060533 27:2.933752 28:1.129208 29:-0.221907 30:11.666903 31:1.796406 32:-0.028052 33:1.279464 34:0.06568 35:-0.074168 36:10.944267 
1 1:-0.088865 2:-0.224553 3:-0.429861 4:-0.638198 5:1.780967 6:-0.158831 7:-0.330988 8:1.716723 9:-0.81669 10:0.900075 11:-0.090416 12:-0.226019 13:0.107902 14:-0.658887 15:1.643986 16:-0.158756 17:-0.195181 18:1.458596 19:-0.824419 20:0.658697 21:-0.142193 22:1.266221 23:4.02837 24:-0.260021 25:4.981973 26:-0.120253 27:0.110087 28:9.642412 29:-0.221907 30:0.319347 31:1.796406 32:-0.028155 33:-0.109212 34:12.2386 35:-0.074168 36:-0.057062 
1 1:-0.088648 2:-0.206354 3:6.57293 4:-0.638198 5:1.780967 6:-0.158153 7:-1.045868 8:1.720609 9:-0.81669 10:0.827709 11:-0.089847 12:-0.153303 13:-0.36663 14:-0.658887 15:1.887881 16:-0.157817 17:-0.455451 18:1.366016 19:-0.82261 20:0.229395 21:-0.127012 22:2.735911 23:3.741726 24:-0.231148 25:8.250853 26:-0.118889 27:0.304413 28:0.891107 29:-0.221907 30:2.600068 31:1.796406 32:-0.028155 33:-0.062934 34:0.014346 35:-0.074168 36:0.672371 
1 1:-0.088943 2:-0.226023 3:6.126837 4:-0.638198 5:1.421959 6:-0.155027 7:-0.483383 8:-0.135335 9:-0.81669 10:0.887779 11:-0.090266 12:-0.205111 13:8.282514 14:-0.658887 15:1.674346 16:-0.155082 17:-0.505072 18:0.736829 19:-0.824419 20:0.886517 21:-0.17149 22:0.159371 23:2.871655 24:-0.260021 25:-0.097096 26:-0.120818 27:0.026871 28:3.236455 29:-0.221907 30:0.030637 31:1.796406 32:-0.028156 33:-0.123962 34:0.111598 35:-0.074168 36:-0.082943 
1 1:-0.088491 2:-0.178787 3:7.249403 4:-0.638198 5:2.139976 6:-0.151615 7:-0.251013 8:0.593239 9:-0.808412 10:0.836843 11:-0.089715 12:-0.078478 13:10.468157 14:-0.142204 15:1.827681 16:-0.151143 17:0.014068 18:1.246336 19:-0.816607 20:0.399361 21:-0.133762 22:2.207614 23:1.676403 24:-0.218069 25:7.078754 26:-0.119763 27:0.18598 28:2.904972 29:-0.221751 30:0.171572 31:1.796406 32:-0.028155 33:-0.094649 34:0.133112 35:-0.074168 36:-0.08238 
1 1:-0.088633 2:-0.18198 3:7.939525 4:-0.638198 5:2.139976 6:-0.151464 7:-0.407186 8:0.435356 9:-0.81669 10:0.944597 11:-0.089622 12:-0.123585 13:11.68136 14:-0.658887 15:1.27277 16:-0.151514 17:-0.431657 18:1.066661 19:-0.824419 20:0.931154 21:-0.171309 22:0.189151 23:2.51338 24:-0.260021 25:0.273107 26:-0.12084 27:0.019875 28:5.005151 29:-0.221907 30:-0.015129 31:1.796406 32:-0.028156 33:-0.12474 34:4.403196 35:-0.074168 36:-0.081986 
0.3354272055893808 1:-0.088902 2:-0.279984 3:-0.429861 4:-0.638198 5:-0.73209 6:-0.157746 7:1.055919 8:1.646973 9:-0.81669 10:-1.364197 11:-0.090366 12:-0.285575 13:0.172852 14:-0.658887 15:-0.774068 16:-0.158134 17:0.822538 18:1.432604 19:-0.824419 20:-0.8858 21:-0.125873 22:2.590842 23:3.819465 24:-0.260021 25:7.836456 26:-0.12139 27:-0.26778 28:-0.238887 29:-0.221907 30:0.486316 31:1.796406 32:-0.028156 33:-0.152516 34:-0.160515 35:-0.074168 36:-0.044075 
1 1:-0.088865 2:-0.224553 3:-0.429861 4:-0.638198 5:1.780967 6:-0.158875 7:-0.284023 8:1.71887 9:-0.81669 10:0.902406 11:-0.090488 12:-0.235726 13:-0.064627 14:-0.658887 15:1.62788 16:-0.158928 17:-0.290926 18:1.443993 19:-0.824419 20:0.869827 21:-0.168322 22:0.253736 23:4.092664 24:-0.260021 25:1.34414 26:-0.120466 27:0.078708 28:-0.303744 29:-0.221907 30:0.012848 31:1.796406 32:-0.028156 33:-0.116053 34:-0.163022 35:-0.074168 36:-0.079771 
0.8677072685375026 1:-0.088911 2:-0.224389 3:6.630973 4:-0.638198 5:2.139976 6:-0.158582 7:-0.593489 8:1.72061 9:-0.81669 10:0.903421 11:-0.090267 12:-0.209925 13:-0.366632 14:-0.658887 15:1.563497 16:-0.158645 17:-0.609839 18:0.580457 19:-0.824419 20:0.906688 21:-0.171778 22:0.112604 23:7.334278 24:-0.260021 25:0.235457 26:-0.120798 27:0.029818 28:5.030818 29:-0.221907 30:0.333896 31:1.796406 32:-0.028156 33:-0.126367 34:4.568678 35:-0.074168 36:-0.055442 
1 1:-0.088427 2:-0.182113 3:-0.352537 4:-0.638198 5:2.139976 6:-0.155311 7:-0.184017 8:1.693311 9:-0.808404 10:0.884625 11:-0.090018 12:-0.174397 13:1.206408 14:-0.141951 15:1.652899 16:-0.155257 17:-0.139232 18:1.465055 19:-0.820147 20:0.745182 21:-0.157256 22:0.777336 23:2.51025 24:-0.22875 25:3.626605 26:-0.120201 27:0.117711 28:3.95845 29:-0.221826 30:0.005527 31:1.796406 32:-0.028155 33:-0.106985 34:2.270118 35:-0.074168 36:-0.082217 
1 1:-0.088633 2:-0.18198 3:7.939525 4:-0.638198 5:2.139976 6:-0.151521 7:-0.347797 8:1.402524 9:-0.81669 10:0.962292 11:-0.090345 12:-0.178817 13:6.979527 14:-0.658887 15:1.152556 16:-0.151577 17:-0.363966 18:1.085133 19:-0.824419 20:0.956573 21:-0.171721 22:0.122905 23:2.604252 24:-0.260021 25:-0.041936 26:-0.120943 27:0.008814 28:4.284398 29:-0.221907 30:-0.043376 31:1.796406 32:-0.028156 33:-0.128421 34:2.21472 35:-0.074168 36:-0.083495 
0.8954499163167634 1:-0.088634 2:-0.234264 3:2.261088 4:-0.638198 5:-0.73209 6:-0.157774 7:1.054682 8:1.640241 9:-0.81669 10:-1.317315 11:-0.090332 12:-0.035679 13:0.823785 14:-0.658887 15:0.406376 16:-0.158356 17:0.68175 18:1.326071 19:-0.824419 20:-0.573418 21:-0.117831 22:2.983518 23:4.619283 24:-0.260021 25:9.364896 26:-0.041228 27:4.409069 28:3.854982 29:-0.221907 30:9.566729 31:1.796406 32:-0.028002 33:2.438803 34:1.992589 35:-0.074168 36:7.962701 
1 1:-0.088688 2:-0.206354 3:6.57293 4:-0.638198 5:1.780967 6:-0.158246 7:-0.947523 8:1.025275 9:-0.81669 10:0.848763 11:-0.090179 12:-0.196982 13:7.296952 14:-0.658887 15:1.766271 16:-0.158271 17:-0.930141 18:1.260267 19:-0.819867 20:0.746551 21:-0.162246 22:0.516188 23:4.5055 24:-0.221013 25:2.394511 26:-0.120585 27:0.061118 28:9.017397 29:-0.169486 30:0.002138 31:1.796406 32:-0.028156 33:-0.119558 34:10.186342 35:-0.074009 36:-0.081245 
1 1:-0.088924 2:-0.214352 3:8.205325 4:-0.638198 5:2.139976 6:-0.151568 7:-0.29427 8:1.372641 9:-0.81669 10:0.949458 11:-0.089833 12:-0.138319 13:7.519399 14:-0.658887 15:1.252825 16:-0.151634 17:-0.303291 18:1.113315 19:-0.824419 20:0.967156 21:-0.171903 22:0.092494 23:2.749593 24:-0.260021 25:-0.015197 26:-0.121017 27:0.000186 28:0.308031 29:-0.221907 30:-0.068324 31:1.796406 32:-0.028156 33:-0.131774 34:-0.141028 35:-0.074168 36:-0.084334 
1 1:-0.088468 2:-0.182113 3:-0.049397 4:-0.638198 5:2.139976 6:-0.155396 7:-0.094657 8:1.709935 9:-0.808394 10:0.910696 11:-0.090233 12:-0.20263 13:0.571935 14:-0.141645 15:1.500287 16:-0.15546 17:-0.100263 18:1.205133 19:-0.818435 20:0.889557 21:-0.171708 22:0.124017 23:6.37621 24:-0.231748 25:-0.024886 26:-0.120903 27:0.014249 28:-0.296836 29:-0.221825 30:-0.087761 31:1.796406 32:-0.028156 33:-0.127992 34:-0.16245 35:-0.074168 36:-0.085867 
1 1:-0.088977 2:-0.232559 3:5.711113 4:-0.638198 5:0.703943 6:-0.155162 7:-0.340734 8:1.483937 9:-0.81669 10:0.900486 11:-0.090278 12:-0.206891 13:4.90557 14:-0.658887 15:1.596614 16:-0.155225 17:-0.352489 18:1.185506 19:-0.824419 20:0.905672 21:-0.172151 22:0.051904 23:3.894161 24:-0.260021 25:-0.016755 26:-0.121158 27:-0.023268 28:1.746297 29:-0.221907 30:0.092831 31:1.796406 32:-0.028156 33:-0.133924 34:0.665414 35:-0.074168 36:-0.074007 
1 1:-0.088569 2:-0.179527 3:7.249403 4:-0.638198 5:2.139976 6:-0.151792 7:-0.060003 8:1.213775 9:-0.800163 10:0.847517 11:-0.090268 12:-0.159133 13:8.624024 14:0.071165 15:1.757023 16:-0.151854 17:-0.068225 18:1.065204 19:-0.812584 20:0.812466 21:-0.171608 22:0.140289 23:1.958972 24:-0.205555 25:0.018702 26:-0.120862 27:0.027682 28:0.598736 29:-0.221127 30:0.086738 31:1.796406 32:-0.028156 33:-0.12648 34:-0.091766 35:-0.074168 36:-0.081668 
1 1:-0.088924 2:-0.214352 3:8.205325 4:-0.638198 5:2.139976 6:-0.15163 7:-0.231026 8:1.320662 9:-0.81669 10:0.974598 11:-0.090041 12:-0.149414 13:7.366529 14:-0.658887 15:1.07758 16:-0.151686 17:-0.24709 18:1.190872 19:-0.824419 20:0.980494 21:-0.172043 22:0.069128 23:2.281262 24:-0.260021 25:-0.017931 26:-0.120977 27:0.005038 28:0.523882 29:-0.221907 30:-0.036441 31:1.796406 32:-0.028156 33:-0.132277 34:-0.061433 35:-0.074168 36:-0.082001 
1 1:-0.088989 2:-0.233709 3:3.412804 4:-0.638198 5:1.780967 6:-0.158984 7:-0.169398 8:1.72061 9:-0.81669 10:0.961326 11:-0.090423 12:-0.226754 13:-0.366437 14:-0.658887 15:1.240781 16:-0.159047 17:-0.178594 18:1.004815 19:-0.824419 20:0.970306 21:-0.17197 22:0.081299 23:7.531078 24:-0.260021 25:0.087238 26:-0.12093 27:0.01027 28:2.691405 29:-0.221907 30:0.041807 31:1.796406 32:-0.028156 33:-0.131408 34:1.242345 35:-0.074168 36:-0.07674 
1 1:-0.08905 2:-0.239855 3:4.454503 4:-0.638198 5:1.062951 6:-0.155196 7:-0.305053 8:1.623327 9:-0.81669 10:0.914766 11:-0.090345 12:-0.215793 13:3.164823 14:-0.658887 15:1.513344 16:-0.155266 17:-0.308709 18:1.424141 19:-0.824419 20:0.91752 21:-0.172243 22:0.036996 23:2.536234 24:-0.260021 25:0.055254 26:-0.121135 27:-0.019828 28:0.762664 29:-0.221907 30:0.02946 31:1.796406 32:-0.028156 33:-0.135476 34:0.069722 35:-0.074168 36:-0.079048 
0.9479551253100024 1:-0.088437 2:-0.192493 3:5.317195 4:-0.638198 5:1.780967 6:-0.152041 7:0.988048 8:1.546209 9:-0.808434 10:-1.109487 11:-0.090547 12:0.625201 13:3.362086 14:-0.1429 15:1.151087 16:-0.153012 17:0.220651 18:1.360206 19:-0.814023 20:-0.511583 21:-0.128571 22:3.175804 23:2.156268 24:-0.202388 25:9.122054 26:-0.063463 27:4.072479 28:1.761572 29:-0.217435 30:11.044249 31:1.796406 32:-0.028023 33:2.77276 34:0.582309 35:-0.074167 36:11.493607 
1 1:-0.088965 2:-0.212675 3:6.844026 4:-0.638198 5:2.139976 6:-0.15185 7:-0.00021 8:1.438083 9:-0.800127 10:0.795347 11:-0.090392 12:-0.165373 13:6.540816 14:0.071953 15:1.974972 16:-0.15191 17:-0.007746 18:1.009633 19:-0.808982 20:0.825111 21:-0.171899 22:0.093876 23:2.405099 24:-0.184792 25:0.065432 26:-0.120854 27:0.020593 28:0.852553 29:-0.221249 30:0.115635 31:1.796406 32:-0.028156 33:-0.129509 34:-0.129279 35:-0.074168 36:-0.078976 
1 1:-0.087908 2:-0.124303 3:6.935651 4:-0.638198 5:1.421959 6:-0.148497 7:0.517409 8:1.441802 9:-0.81669 10:-0.631689 11:-0.022932 12:2.7397 13:5.960901 14:-0.658887 15:2.318723 16:-0.149187 17:0.185797 18:1.366557 19:-0.824419 20:-0.389614 21:-0.120241 22:2.696391 23:1.605268 24:-0.260021 25:8.878157 26:-0.047944 27:3.571862 28:1.577937 29:-0.221907 30:11.322629 31:1.796406 32:-0.02798 33:2.237137 34:0.594932 35:-0.074168 36:12.388706 
1 1:-0.089135 2:-0.248266 3:3.060305 4:-0.638198 5:0.344934 6:-0.158715 7:-0.453336 8:1.718677 9:-0.81669 10:0.995575 11:-0.090424 12:-0.229909 13:0.065573 14:-0.658887 15:0.944363 16:-0.158782 17:-0.462635 18:1.161546 19:-0.824419 20:1.00259 21:-0.17226 22:0.034122 23:6.334876 24:-0.260021 25:0.137882 26:-0.121198 27:-0.029253 28:5.28545 29:-0.221907 30:0.127263 31:1.796406 32:-0.028156 33:-0.138207 34:4.577207 35:-0.074168 36:-0.072777 
1 1:-0.088923 2:-0.227104 3:2.447808 4:-0.638198 5:2.139976 6:-0.158359 7:-0.827742 8:1.720323 9:-0.808365 10:0.830869 11:-0.090367 12:-0.221497 13:-0.178968 14:-0.140739 15:1.866101 16:-0.158421 17:-0.849579 18:1.344918 19:-0.815769 20:0.830166 21:-0.171937 22:0.086708 23:4.465697 24:-0.226912 25:0.076258 26:-0.121031 27:-0.004569 28:3.277849 29:-0.221747 30:0.008139 31:1.796406 32:-0.028156 33:-0.132259 34:1.94332 35:-0.074168 36:-0.080336 
1 1:-0.088479 2:-0.19474 3:6.315672 4:-0.638198 5:0.703943 6:-0.155569 7:0.089318 8:1.227365 9:-0.798711 10:0.542035 11:-0.089769 12:0.043049 13:6.644035 14:0.074789 15:2.491014 16:-0.154875 17:0.509282 18:1.174712 19:-0.804104 20:-0.08965 21:-0.128111 22:3.124907 23:3.291694 24:-0.196574 25:9.038157 26:-0.063831 27:3.882333 28:1.710639 29:-0.169565 30:10.197968 31:1.796406 32:-0.028023 33:2.089837 34:0.278957 35:-0.074007 36:10.401442 
1 1:-0.08905 2:-0.239855 3:4.454503 4:-0.638198 5:1.062951 6:-0.155243 7:-0.255863 8:1.68736 9:-0.81669 10:0.924796 11:-0.090383 12:-0.220983 13:1.795649 14:-0.658887 15:1.460536 16:-0.155305 17:-0.266376 18:1.558406 19:-0.824419 20:0.935272 21:-0.172309 22:0.026252 23:1.490971 24:-0.260021 25:0.124844 26:-0.12129 27:-0.042671 28:0.030492 29:-0.221907 30:0.016242 31:1.796406 32:-0.028156 33:-0.138514 34:-0.137233 35:-0.074168 36:-0.078321 
1 1:-0.088374 2:-0.179176 3:5.810651 4:-0.638198 5:0.703943 6:-0.151865 7:0.035438 8:0.912665 9:-0.776067 10:0.605397 11:-0.089971 12:0.660697 13:11.004321 14:0.485678 15:2.280767 16:-0.150955 17:0.476535 18:1.244042 19:-0.793687 20:-0.128914 21:-0.126232 22:3.195865 23:1.886493 24:-0.163419 25:8.56467 26:-0.066284 27:3.540706 28:2.829469 29:-0.174586 30:9.589894 31:1.796406 32:-0.028064 33:1.743028 34:1.314506 35:-0.074036 36:8.476476 
1 1:-0.088965 2:-0.212675 3:6.844026 4:-0.638198 5:2.139976 6:-0.151904 7:0.05647 8:1.200834 9:-0.800094 10:0.829768 11:-0.09022 12:-0.136701 13:8.668138 14:0.072689 15:1.852021 16:-0.151961 17:0.046783 18:1.029445 19:-0.806256 20:0.841035 21:-0.172032 22:0.073199 23:2.408875 24:-0.185681 25:0.12474 26:-0.121086 27:-0.016156 28:4.248113 29:-0.221463 30:0.202355 31:1.796406 32:-0.028156 33:-0.134493 34:3.216985 35:-0.074168 36:-0.068824 
1 1:-0.089074 2:-0.224044 3:8.654847 4:-0.638198 5:2.139976 6:-0.151727 7:-0.131096 8:1.569015 9:-0.81669 10:1.008096 11:-0.090212 12:-0.189293 13:4.865053 14:-0.658887 15:0.813779 16:-0.151782 17:-0.144332 18:1.006753 19:-0.824419 20:1.00579 21:-0.172242 22:0.035995 23:3.619614 24:-0.260021 25:0.001689 26:-0.121192 27:-0.019771 28:2.241567 29:-0.221907 30:0.012615 31:1.796406 32:-0.028156 33:-0.137247 34:0.512352 35:-0.074168 36:-0.080061 
1 1:-0.088677 2:-0.207945 3:5.029387 4:-0.638198 5:1.421959 6:-0.159269 7:0.131734 8:0.857761 9:-0.81669 10:0.875596 11:-0.089893 12:-0.159849 13:10.578662 14:-0.658887 15:1.660476 16:-0.159238 17:0.202087 18:0.954048 19:-0.824419 20:0.663423 21:-0.143512 22:1.348427 23:5.874567 24:-0.260021 25:5.292384 26:-0.120382 27:0.09111 28:5.554234 29:-0.221907 30:0.836586 31:1.796406 32:-0.028156 33:-0.116482 34:4.9355 35:-0.074168 36:0.026296 
1 1:-0.089039 2:-0.238783 3:0.78071 4:-0.638198 5:2.139976 6:-0.155527 7:0.04364 8:-1.078178 9:-0.808384 10:0.908516 11:-0.090266 12:-0.207078 13:1.183588 14:-0.141331 15:1.510132 16:-0.155589 17:0.038528 18:1.148031 19:-0.817755 20:0.911948 21:-0.172164 22:0.049831 23:6.16077 24:-0.23481 25:-0.072623 26:-0.121031 27:-0.004506 28:14.048896 29:-0.221855 30:-0.052745 31:1.796406 32:-0.028156 33:-0.134706 34:0.176697 35:-0.074168 36:-0.083464 
1 1:-0.088677 2:-0.207945 3:5.029387 4:-0.638198 5:1.421959 6:-0.159305 7:0.168691 8:0.733275 9:-0.81669 10:0.922451 11:-0.090082 12:-0.184144 13:9.932015 14:-0.658887 15:1.462535 16:-0.159357 17:0.178469 18:1.062513 19:-0.824419 20:0.83172 21:-0.164351 22:0.368262 23:5.794535 24:-0.260021 25:2.327116 26:-0.120534 27:0.068605 28:5.399071 29:-0.221907 30:0.249811 31:1.796406 32:-0.028156 33:-0.123008 34:4.805433 35:-0.074168 36:-0.072718 
1 1:-0.088977 2:-0.232589 3:9.742877 4:-0.638198 5:0.703943 6:-0.159078 7:-0.070509 8:-1.114193 9:-0.81669 10:1.021208 11:-0.090524 12:-0.239574 13:-0.366633 14:-0.658887 15:0.742471 16:-0.159143 17:-0.075612 18:0.325881 19:-0.824419 20:1.024966 21:-0.172291 22:0.029054 23:8.164508 24:-0.260021 25:0.066658 26:-0.12122 27:-0.032395 28:4.923994 29:-0.221907 30:0.097758 31:1.796406 32:-0.028156 33:-0.138972 34:4.040504 35:-0.074168 36:-0.073982 
1 1:-0.088983 2:-0.233122 3:-0.429861 4:-0.638198 5:2.498984 6:-0.158421 7:-0.762644 8:1.719883 9:-0.808355 10:0.841886 11:-0.090385 12:-0.223349 13:-0.127298 14:-0.140434 15:1.825151 16:-0.158491 17:-0.775012 18:1.577011 19:-0.814253 20:0.846958 21:-0.172191 22:0.045465 23:2.898433 24:-0.234232 25:0.154999 26:-0.12112 27:-0.01776 28:-0.346285 29:-0.221792 30:0.026026 31:1.796406 32:-0.028156 33:-0.136248 34:-0.163024 35:-0.074168 36:-0.079512 
1 1:-0.088381 2:-0.186367 3:3.001565 4:-0.638198 5:2.139976 6:-0.157957 7:-1.252401 8:0.937552 9:-0.767079 10:0.667242 11:-0.089837 12:-0.149911 13:9.412941 14:0.602432 15:2.472472 16:-0.157655 17:-0.640898 18:1.319861 19:-0.778434 20:0.136267 21:-0.130419 22:2.941871 23:4.118482 24:-0.129035 25:7.501764 26:-0.118745 27:0.321446 28:6.933418 29:-0.132132 30:3.013479 31:1.796406 32:-0.028155 33:-0.070731 34:4.524539 35:-0.073432 36:0.795527 
1 1:-0.088489 2:-0.193539 3:7.641882 4:-0.638198 5:2.139976 6:-0.155683 7:0.208388 8:0.815952 9:-0.790328 10:0.810964 11:-0.09013 12:-0.190481 13:8.803446 14:0.240181 15:1.883759 16:-0.155518 17:0.318162 18:0.817667 19:-0.797284 20:0.488273 21:-0.144175 22:1.830645 23:3.650403 24:-0.208658 25:5.713649 26:-0.119587 27:0.208265 28:5.12833 29:-0.168134 30:0.595721 31:1.796406 32:-0.028155 33:-0.08904 34:5.174698 35:-0.073999 36:-0.038725 
1 1:-0.088246 2:-0.147862 3:8.305762 4:-0.638198 5:1.780967 6:-0.152027 7:0.184655 8:1.068822 9:-0.776176 10:0.687944 11:-0.089597 12:-0.057163 13:10.747688 14:0.484134 15:2.045696 16:-0.151786 17:0.283847 18:1.094142 19:-0.784203 20:0.419025 21:-0.145673 22:1.70122 23:1.345631 24:-0.185361 25:5.309422 26:-0.120162 27:0.13622 28:1.739734 29:-0.163645 30:0.402666 31:1.796406 32:-0.028155 33:-0.107181 34:0.484137 35:-0.073815 36:-0.077032 
1 1:-0.088874 2:-0.222377 3:4.566399 4:-0.638198 5:1.421959 6:-0.159341 7:0.206792 8:1.643019 9:-0.81669 10:0.892989 11:-0.090112 12:-0.188225 13:2.614758 14:-0.658887 15:1.619251 16:-0.159408 17:0.208181 18:1.166197 19:-0.824419 20:0.899172 21:-0.171353 22:0.181595 23:5.407814 24:-0.260021 25:0.518803 26:-0.120735 27:0.039071 28:5.030736 29:-0.221907 30:0.006598 31:1.796406 32:-0.028156 33:-0.127602 34:3.955997 35:-0.074168 36:-0.084563 
1 1:-0.089071 2:-0.241886 3:9.742877 4:-0.638198 5:-0.73209 6:-0.159106 7:-0.040871 8:-1.104082 9:-0.81669 10:1.046433 11:-0.090469 12:-0.233476 13:0.570343 14:-0.658887 15:0.500857 16:-0.159173 17:-0.043541 18:0.347231 19:-0.824419 20:1.040905 21:-0.172339 22:0.021278 23:8.277 24:-0.260021 25:0.034742 26:-0.121213 27:-0.03145 28:10.45997 29:-0.221907 30:0.074858 31:1.796406 32:-0.028156 33:-0.138878 34:14.236802 35:-0.074168 36:-0.076746 
1 1:-0.089158 2:-0.2506 3:-0.429861 4:-0.638198 5:-0.73209 6:-0.158806 7:-0.356723 8:1.720609 9:-0.81669 10:1.065427 11:-0.090501 12:-0.238582 13:-0.366632 14:-0.658887 15:0.243715 16:-0.158875 17:-0.363356 18:1.688944 19:-0.824419 20:1.058182 21:-0.172455 22:0.002365 23:1.564729 24:-0.260021 25:0.022329 26:-0.121311 27:-0.045827 28:-0.355702 29:-0.221907 30:0.026459 31:1.796406 32:-0.028156 33:-0.140652 34:-0.163037 35:-0.074168 36:-0.079807 
1 1:-0.089051 2:-0.239905 3:-0.429861 4:-0.638198 5:2.498984 6:-0.158456 7:-0.725803 8:1.720471 9:-0.808353 10:0.832262 11:-0.090341 12:-0.217234 13:-0.244942 14:-0.140359 15:1.886045 16:-0.158524 17:-0.74002 18:1.606993 19:-0.814095 20:0.863822 21:-0.172282 22:0.030608 23:2.197963 24:-0.233631 25:0.219326 26:-0.121134 27:-0.019754 28:-0.348034 29:-0.22182 30:0.139309 31:1.796406 32:-0.028156 33:-0.136943 34:-0.16303 35:-0.074168 36:-0.07634 
1 1:-0.088649 2:-0.20344 3:8.000027 4:-0.638198 5:2.139976 6:-0.155736 7:0.264281 8:0.256293 9:-0.78183 10:0.812636 11:-0.090246 12:-0.205474 13:9.474674 14:0.381406 15:1.848635 16:-0.155732 17:0.287782 18:0.781434 19:-0.79496 20:0.674867 21:-0.157753 22:0.885059 23:3.395787 24:-0.214084 25:2.972394 26:-0.120287 27:0.105047 28:4.605793 29:-0.168248 30:0.274957 31:1.796406 32:-0.028156 33:-0.112211 34:3.418104 35:-0.074 36:-0.06548 
1 1:-0.089117 2:-0.24651 3:5.467929 4:-0.638198 5:0.344934 6:-0.155352 7:-0.14137 8:1.716669 9:-0.81669 10:1.004781 11:-0.090442 12:-0.231077 13:0.159082 14:-0.658887 15:0.87746 16:-0.155415 17:-0.147956 18:1.095269 19:-0.824419 20:0.991433 21:-0.172483 22:-0.00211 23:6.768394 24:-0.260021 25:0.104391 26:-0.121346 27:-0.050938 28:5.815578 29:-0.221907 30:0.085572 31:1.796406 32:-0.028156 33:-0.140997 34:5.472587 35:-0.074168 36:-0.076433 
1 1:-0.089093 2:-0.223087 3:7.092429 4:-0.638198 5:2.139976 6:-0.152032 7:0.189353 8:1.156087 9:-0.791953 10:0.898738 11:-0.09034 12:-0.157895 13:9.325568 14:0.234265 15:1.480615 16:-0.152099 17:0.19501 18:0.993187 19:-0.800672 20:0.897153 21:-0.172309 22:0.027626 23:2.243058 24:-0.19868 25:0.275478 26:-0.121244 27:-0.031395 28:4.118747 29:-0.16972 30:0.188354 31:1.796406 32:-0.028156 33:-0.139502 34:2.68086 35:-0.074014 36:-0.072777 
1 1:-0.088946 2:-0.226147 3:5.77197 4:-0.638198 5:-0.73209 6:-0.151547 7:-0.321699 8:1.194565 9:-0.81669 10:1.029603 11:-0.090072 12:-0.167218 13:9.707414 14:-0.658887 15:0.539684 16:-0.151622 17:-0.316602 18:1.137992 19:-0.824419 20:1.040429 21:-0.172266 22:0.033001 23:0.402874 24:-0.260021 25:-0.001598 26:-0.121086 27:-0.008125 28:0.084152 29:-0.221907 30:-0.029677 31:1.796406 32:-0.028156 33:-0.136908 34:-0.150246 35:-0.074168 36:-0.081768 
1 1:-0.088874 2:-0.222377 3:4.566399 4:-0.638198 5:1.421959 6:-0.159377 7:0.244788 8:1.716945 9:-0.81669 10:0.924838 11:-0.089834 12:-0.151607 13:0.308197 14:-0.658887 15:1.437991 16:-0.159443 17:0.245372 18:1.283137 19:-0.824419 20:0.924786 21:-0.171658 22:0.13209 23:4.933211 24:-0.260021 25:0.459509 26:-0.120869 27:0.019204 28:0.119448 29:-0.221907 30:0.076497 31:1.796406 32:-0.028156 33:-0.131746 34:-0.127513 35:-0.074168 36:-0.078505 
1 1:-0.088649 2:-0.20344 3:8.000027 4:-0.638198 5:2.139976 6:-0.155789 7:0.320219 8:-0.101022 9:-0.781839 10:0.785101 11:-0.090326 12:-0.215848 13:9.145671 14:0.381273 15:1.949504 16:-0.155843 17:0.310543 18:0.75126 19:-0.792753 20:0.764261 21:-0.171175 22:0.209462 23:3.294967 24:-0.228645 25:0.407002 26:-0.120516 27:0.071337 28:3.150373 29:-0.221146 30:0.210897 31:1.796406 32:-0.028156 33:-0.120859 34:0.051509 35:-0.074168 36:-0.069321 
1 1:-0.088284 2:-0.147862 3:8.704714 4:-0.638198 5:2.139976 6:-0.15214 7:0.304122 8:1.150349 9:-0.767286 10:0.684777 11:-0.090099 12:-0.16452 13:9.933032 14:0.603326 15:2.087713 16:-0.152176 17:0.296865 18:1.023355 19:-0.778221 20:0.660639 21:-0.169015 22:0.212916 23:1.002935 24:-0.163714 25:0.749332 26:-0.1207 27:0.054476 28:0.741946 29:-0.157217 30:0.433462 31:1.796406 32:-0.028156 33:-0.123612 34:-0.057071 35:-0.07377 36:-0.063221 
1 1:-0.089093 2:-0.223087 3:7.092429 4:-0.638198 5:2.139976 6:-0.152071 7:0.232407 8:1.260503 9:-0.791934 10:0.920777 11:-0.090351 12:-0.173993 13:8.540723 14:0.234604 15:1.364528 16:-0.152141 17:0.240062 18:0.991666 19:-0.798775 20:0.922096 21:-0.172388 22:0.01563 23:2.220093 24:-0.201699 25:0.270745 26:-0.121229 27:-0.0274 28:0.73693 29:-0.220644 30:0.211065 31:1.796406 32:-0.028156 33:-0.139044 34:-0.094694 35:-0.074168 36:-0.06536 
1 1:-0.088946 2:-0.226147 3:5.77197 4:-0.638198 5:-0.73209 6:-0.151603 7:-0.257864 8:1.146989 9:-0.81669 10:1.04741 11:-0.089474 12:-0.062751 13:9.923966 14:-0.658887 15:0.363762 16:-0.151664 17:-0.270919 18:1.092995 19:-0.824419 20:1.054424 21:-0.17234 22:0.021795 23:1.388731 24:-0.260021 25:-0.011061 26:-0.121032 27:-0.002634 28:0.022083 29:-0.221907 30:-0.056667 31:1.796406 32:-0.028156 33:-0.136936 34:-0.154953 35:-0.074168 36:-0.082667 
1 1:-0.089041 2:-0.238959 3:0.365438 4:-0.638198 5:1.421959 6:-0.159406 7:0.275602 8:1.720158 9:-0.81669 10:0.945614 11:-0.090156 12:-0.193905 13:-0.094757 14:-0.658887 15:1.303068 16:-0.159475 17:0.280143 18:1.53906 19:-0.824419 20:0.952362 21:-0.171887 22:0.094818 23:3.018035 24:-0.260021 25:0.167729 26:-0.120945 27:0.008092 28:-0.324049 29:-0.221907 30:0.105253 31:1.796406 32:-0.028156 33:-0.133243 34:-0.162849 35:-0.074168 36:-0.074336 
1 1:-0.089159 2:-0.250676 3:7.472953 4:-0.638198 5:-0.73209 6:-0.159165 7:0.021073 8:1.720609 9:-0.81669 10:1.072684 11:-0.09048 12:-0.235975 13:-0.365784 14:-0.658887 15:0.142828 16:-0.159231 17:0.01833 18:0.744731 19:-0.824419 20:1.067707 21:-0.172427 22:0.006915 23:8.265585 24:-0.260021 25:-0.057138 26:-0.121221 27:-0.032566 28:4.898181 29:-0.221907 30:-0.085807 31:1.796406 32:-0.028156 33:-0.139455 34:2.632125 35:-0.074168 36:-0.083853 
1 1:-0.089153 2:-0.25004 3:-0.429861 4:-0.638198 5:-0.73209 6:-0.158866 7:-0.293865 8:1.720608 9:-0.81669 10:1.086663 11:-0.09049 12:-0.237243 13:-0.366632 14:-0.658887 15:-0.126922 16:-0.158932 17:-0.302121 18:1.740866 19:-0.824419 20:1.080191 21:-0.172548 22:-0.01275 23:-0.432991 24:-0.260021 25:-0.131762 26:-0.121322 27:-0.047531 28:-0.355701 29:-0.221907 30:-0.152088 31:1.796406 32:-0.028156 33:-0.141816 34:-0.163037 35:-0.074168 36:-0.085677 
1 1:-0.089246 2:-0.25936 3:0.898394 4:-0.638198 5:-0.373082 6:-0.155419 7:-0.069998 8:-1.106843 9:-0.81669 10:1.029738 11:-0.090412 12:-0.227106 13:0.16449 14:-0.658887 15:0.644105 16:-0.155483 17:-0.075088 18:1.061154 19:-0.824419 20:1.031598 21:-0.172544 22:-0.012 23:6.849243 24:-0.260021 25:0.07011 26:-0.121423 27:-0.062391 28:11.923794 29:-0.221907 30:0.013134 31:1.796406 32:-0.028156 33:-0.142214 34:-0.121446 35:-0.074168 36:-0.081108 
1 1:-0.088797 2:-0.214546 3:9.096242 4:-0.638198 5:2.139976 6:-0.154647 7:-0.884226 8:-0.08151 9:-0.799351 10:0.895767 11:-0.090412 12:-0.225989 13:9.352886 14:0.075098 15:1.445042 16:-0.154702 17:-0.913008 18:0.711781 19:-0.802111 20:0.872678 21:-0.171469 22:0.162586 23:2.751882 24:-0.213363 25:0.513786 26:-0.120536 27:0.068342 28:3.370556 29:-0.168577 30:0.207499 31:1.796406 32:-0.028156 33:-0.122176 34:0.176629 35:-0.073994 36:-0.067126 
1 1:-0.089153 2:-0.25004 3:-0.429861 4:-0.638198 5:-0.73209 6:-0.158897 7:-0.260499 8:1.720609 9:-0.81669 10:1.091156 11:-0.090517 12:-0.24078 13:-0.366632 14:-0.658887 15:-0.234978 16:-0.15896 17:-0.272208 18:1.740866 19:-0.824419 20:1.086799 21:-0.172599 22:-0.02096 23:-0.432991 24:-0.260021 25:-0.184238 26:-0.121301 27:-0.044332 28:-0.355701 29:-0.221907 30:-0.174142 31:1.796406 32:-0.028156 33:-0.14186 34:-0.163037 35:-0.074168 36:-0.086076 
1 1:-0.088803 2:-0.215644 3:2.872726 4:-0.638198 5:2.139976 6:-0.158131 7:-1.068983 8:-1.108991 9:-0.734904 10:0.669635 11:-0.090202 12:-0.197804 13:0.232565 14:0.928974 15:2.396266 16:-0.158189 17:-1.098576 18:0.506815 19:-0.760344 20:0.709267 21:-0.171606 22:0.140537 23:7.890444 24:-0.168448 25:0.330459 26:-0.120926 27:0.010967 28:13.74063 29:-0.106459 30:0.211745 31:1.796406 32:-0.028156 33:-0.130921 34:24.008846 35:-0.073712 36:-0.065293 
1 1:-0.088845 2:-0.219779 3:8.000027 4:-0.638198 5:2.139976 6:-0.15587 7:0.405687 8:0.91971 9:-0.781561 10:0.78566 11:-0.090372 12:-0.221784 13:7.595192 14:0.385588 15:1.973484 16:-0.155932 17:0.405965 18:0.731891 19:-0.790713 20:0.79694 21:-0.171799 22:0.109108 23:3.275565 24:-0.233578 25:0.159296 26:-0.120863 27:0.020229 28:1.495235 29:-0.214534 30:0.019601 31:1.796406 32:-0.028156 33:-0.130079 34:-0.053153 35:-0.074167 36:-0.081103 
1 1:-0.089107 2:-0.245539 3:-0.429861 4:-0.638198 5:1.421959 6:-0.159471 7:0.343921 8:1.720609 9:-0.81669 10:0.980159 11:-0.09015 12:-0.192318 13:-0.366632 14:-0.658887 15:1.074984 16:-0.159537 17:0.345883 18:1.736135 19:-0.824419 20:0.990181 21:-0.172116 22:0.057521 23:-0.351716 24:-0.260021 25:0.127234 26:-0.121229 27:-0.033754 28:-0.355094 29:-0.221907 30:-0.025815 31:1.796406 32:-0.028156 33:-0.139438 34:-0.163037 35:-0.074168 36:-0.0819 
1 1:-0.08914 2:-0.248767 3:-0.429861 4:-0.638198 5:-0.73209 6:-0.158923 7:-0.233303 8:1.720609 9:-0.81669 10:1.086038 11:-0.090515 12:-0.240507 13:-0.366632 14:-0.658887 15:-0.09754 16:-0.158988 17:-0.242218 18:1.732351 19:-0.824419 20:1.091575 21:-0.172625 22:-0.025213 23:-0.04051 24:-0.260021 25:-0.233737 26:-0.121427 27:-0.062907 28:-0.355702 29:-0.221907 30:-0.196124 31:1.796406 32:-0.028156 33:-0.143348 34:-0.163037 35:-0.074168 36:-0.0861 
1 1:-0.089187 2:-0.253392 3:4.573661 4:-0.638198 5:1.062951 6:-0.158575 7:-0.600071 8:-0.855391 9:-0.808354 10:0.962373 11:-0.090431 12:-0.229636 13:4.340502 14:-0.14042 15:1.146674 16:-0.158644 17:-0.610708 18:0.468296 19:-0.81566 20:0.960353 21:-0.17252 22:-0.008061 23:8.239717 24:-0.226736 25:0.337273 26:-0.121307 27:-0.045234 28:12.140434 29:-0.221885 30:0.196232 31:1.796406 32:-0.028156 33:-0.141046 34:22.885138 35:-0.074168 36:-0.06505 
1 1:-0.089171 2:-0.25194 3:5.819684 4:-0.638198 5:-0.014074 6:-0.155729 7:0.256645 8:0.922478 9:-0.81669 10:1.031038 11:-0.090471 12:-0.234804 13:8.868504 14:-0.658887 15:0.622118 16:-0.155805 17:0.269211 18:1.018185 19:-0.817302 20:1.011037 21:-0.172533 22:-0.010331 23:1.421804 24:-0.209977 25:0.070751 26:-0.121369 27:-0.054422 28:1.059759 29:-0.170252 30:0.056582 31:1.796406 32:-0.028156 33:-0.142233 34:0.241361 35:-0.074014 36:-0.078952 
1 1:-0.088896 2:-0.224488 3:7.169283 4:-0.638198 5:2.139976 6:-0.154734 7:-0.792083 8:1.174705 9:-0.791117 10:0.910199 11:-0.090474 12:-0.234625 13:7.220184 14:0.237886 15:1.390741 16:-0.154792 17:-0.816443 18:1.023291 19:-0.801647 20:0.925633 21:-0.171905 22:0.09197 23:3.620416 24:-0.208784 25:0.197578 26:-0.121006 27:-0.000875 28:4.167184 29:-0.220718 30:0.111017 31:1.796406 32:-0.028156 33:-0.133489 34:3.999383 35:-0.074168 36:-0.074891 
1 1:-0.089058 2:-0.23695 3:6.742286 4:-0.638198 5:-0.73209 6:-0.151722 7:-0.133363 8:0.70395 9:-0.81669 10:1.087511 11:-0.090414 12:-0.222741 13:11.55314 14:-0.658887 15:-0.167854 16:-0.151785 17:-0.14157 18:0.8115 19:-0.824419 20:1.085714 21:-0.1725 22:-0.00361 23:2.866669 24:-0.260021 25:-0.115364 26:-0.121337 27:-0.052117 28:4.623116 29:-0.221907 30:-0.110512 31:1.796406 32:-0.028156 33:-0.14246 34:3.923278 35:-0.074168 36:-0.084768 
0.3905790815615701 1:-0.088829 2:-0.249693 3:-0.429861 4:-0.638198 5:0.344934 6:-0.158428 7:1.042184 8:1.584794 9:-0.81669 10:-1.058046 11:-0.090303 12:1.408766 13:2.857054 14:-0.658887 15:1.743603 16:-0.158993 17:0.882337 18:1.55933 19:-0.824419 20:-0.522673 21:-0.117031 22:2.992685 23:1.518006 24:-0.260021 25:8.837812 26:-0.02559 27:5.315475 28:3.26002 29:-0.221907 30:13.060567 31:1.796406 32:-0.027939 33:3.477813 34:1.707846 35:-0.074168 36:13.850611 
1 1:-0.089185 2:-0.253227 3:0.202869 4:-0.638198 5:-0.73209 6:-0.159243 7:0.10422 8:1.72061 9:-0.81669 10:1.086475 11:-0.090436 12:-0.230258 13:-0.366632 14:-0.658887 15:-0.113617 16:-0.159314 17:0.106985 18:1.689088 19:-0.824419 20:1.089924 21:-0.172603 22:-0.021606 23:1.575249 24:-0.260021 25:-0.206756 26:-0.121388 27:-0.057159 28:-0.3557 29:-0.221907 30:-0.195794 31:1.796406 32:-0.028156 33:-0.142333 34:-0.163037 35:-0.074168 36:-0.085876 
1 1:-0.08914 2:-0.248767 3:-0.429861 4:-0.638198 5:-0.73209 6:-0.15895 7:-0.205377 8:1.72061 9:-0.81669 10:1.090958 11:-0.090492 12:-0.237538 13:-0.366632 14:-0.658887 15:-0.218109 16:-0.159015 17:-0.213455 18:1.645373 19:-0.824249 20:1.093163 21:-0.172647 22:-0.02873 23:2.02342 24:-0.251235 25:-0.24173 26:-0.121425 27:-0.062705 28:-0.355703 29:-0.221907 30:-0.196448 31:1.796406 32:-0.028156 33:-0.143489 34:-0.163037 35:-0.074168 36:-0.085987 
1 1:-0.089044 2:-0.239249 3:2.924748 4:-0.598295 5:2.139976 6:-0.158195 7:-1.001032 8:0.739404 9:-0.733211 10:0.735965 11:-0.090375 12:-0.22168 13:10.037549 14:0.946135 15:2.149215 16:-0.15826 17:-1.022149 18:0.601655 19:-0.757599 20:0.739813 21:-0.171986 22:0.078673 23:8.147178 24:-0.178392 25:0.383072 26:-0.120938 27:0.009129 28:11.809001 29:-0.074948 30:0.209483 31:1.796406 32:-0.028156 33:-0.130559 34:28.625473 35:-0.073447 36:-0.065259 
1 1:-0.089171 2:-0.25194 3:5.819684 4:-0.638198 5:-0.014074 6:-0.155772 7:0.302124 8:0.772972 9:-0.81669 10:1.034406 11:-0.090425 12:-0.228876 13:9.459796 14:-0.658887 15:0.585761 16:-0.155837 17:0.303814 18:0.936095 19:-0.817651 20:1.028355 21:-0.17257 22:-0.016273 23:1.429815 24:-0.205978 25:0.010471 26:-0.12138 27:-0.056053 28:0.708144 29:-0.170257 30:-0.150475 31:1.796406 32:-0.028156 33:-0.142411 34:0.041241 35:-0.074014 36:-0.085876 
1 1:-0.089151 2:-0.232946 3:7.881241 4:-0.638198 5:1.780967 6:-0.152236 7:0.403386 8:1.102281 9:-0.783262 10:1.01323 11:-0.090483 12:-0.239673 13:9.857259 14:0.379375 15:0.759405 16:-0.152297 17:0.407503 18:1.180339 19:-0.79505 20:1.014959 21:-0.172566 22:-0.013865 23:0.688851 24:-0.219186 25:0.147685 26:-0.121344 27:-0.054736 28:0.38617 29:-0.168574 30:0.110443 31:1.796406 32:-0.028156 33:-0.142732 34:-0.121058 35:-0.074005 36:-0.07366 
1 1:-0.089145 2:-0.237786 3:7.677228 4:-0.638198 5:-0.73209 6:-0.152043 7:0.200094 8:1.380142 9:-0.81669 10:1.09078 11:-0.090544 12:-0.247727 13:7.199117 14:-0.658887 15:-0.231684 16:-0.152102 17:0.198155 18:1.42978 19:-0.82136 20:1.087238 21:-0.172645 22:-0.027741 23:0.013869 24:-0.230032 25:-0.203884 26:-0.121397 27:-0.056258 28:-0.013401 29:-0.169952 30:-0.161338 31:1.796406 32:-0.028156 33:-0.143165 34:-0.140525 35:-0.074012 36:-0.085695 
1 1:-0.089202 2:-0.254894 3:-0.429861 4:-0.638198 5:-0.73209 6:-0.159277 7:0.139529 8:1.720611 9:-0.81669 10:1.090948 11:-0.090506 12:-0.23932 13:-0.366632 14:-0.658887 15:-0.215063 16:-0.15934 17:0.135337 18:1.739525 19:-0.824419 20:1.092914 21:-0.172626 22:-0.025375 23:-0.367669 24:-0.260021 25:-0.236919 26:-0.121447 27:-0.06595 28:-0.355702 29:-0.221907 30:-0.165894 31:1.796406 32:-0.028156 33:-0.14342 34:-0.163037 35:-0.074168 36:-0.085561 
1 1:-0.089145 2:-0.249263 3:0.703466 4:-0.638198 5:-0.73209 6:-0.158975 7:-0.178486 8:1.72061 9:-0.81669 10:1.090947 11:-0.090503 12:-0.238889 13:-0.366632 14:-0.658887 15:-0.21775 16:-0.159041 17:-0.185041 18:1.37284 19:-0.824079 20:1.094322 21:-0.172677 22:-0.033759 23:5.031676 24:-0.247723 25:-0.246889 26:-0.121452 27:-0.06661 28:-0.355702 29:-0.221907 30:-0.192905 31:1.796406 32:-0.028156 33:-0.143721 34:-0.163037 35:-0.074168 36:-0.08607 
1 1:-0.089177 2:-0.25244 3:5.548365 4:-0.638198 5:-0.73209 6:-0.158631 7:-0.540942 8:-0.753617 9:-0.81669 10:1.012779 11:-0.090482 12:-0.236221 13:4.49946 14:-0.658887 15:0.766468 16:-0.158701 17:-0.550023 18:0.197099 19:-0.816169 20:1.011885 21:-0.172576 22:-0.017198 23:7.831178 24:-0.230534 25:0.260489 26:-0.121445 27:-0.065565 28:11.48668 29:-0.169623 30:0.19939 31:1.796406 32:-0.028156 33:-0.143083 34:22.256197 35:-0.074168 36:-0.065638 
1 1:-0.089166 2:-0.2514 3:3.155608 4:-0.598295 5:2.139976 6:-0.15823 7:-0.964122 8:1.700055 9:-0.733703 10:0.760111 11:-0.090314 12:-0.213865 13:1.084592 14:0.941378 15:2.044719 16:-0.158294 17:-0.986265 18:0.60634 19:-0.758949 20:0.760959 21:-0.172071 22:0.064989 23:8.417245 24:-0.179679 25:0.418384 26:-0.12101 27:-0.001442 28:5.87813 29:-0.108458 30:0.077564 31:1.796406 32:-0.028156 33:-0.134844 34:4.708646 35:-0.073842 36:-0.082251 
1 1:-0.08919 2:-0.25379 3:7.162588 4:-0.638198 5:-0.73209 6:-0.155219 7:-0.281307 8:0.651698 9:-0.81669 10:1.074025 11:-0.090536 12:-0.243227 13:9.660531 14:-0.658887 15:0.030044 16:-0.15529 17:-0.282647 18:0.841621 19:-0.821002 20:1.067066 21:-0.17257 22:-0.016211 23:1.118985 24:-0.229366 25:-0.035023 26:-0.121386 27:-0.056832 28:0.163468 29:-0.169446 30:0.034737 31:1.796406 32:-0.028156 33:-0.142502 34:-0.156345 35:-0.074008 36:-0.07952 
1 1:-0.089063 2:-0.23707 3:6.762686 4:-0.638198 5:-0.73209 6:-0.151802 7:-0.047306 8:0.209108 9:-0.81669 10:1.095722 11:-0.090301 12:-0.19906 13:12.460659 14:-0.658887 15:-0.364899 16:-0.151859 17:-0.061561 18:0.795035 19:-0.824419 20:1.097621 21:-0.172579 22:-0.016621 23:2.974591 24:-0.260021 25:-0.22513 26:-0.121465 27:-0.067981 28:2.867291 29:-0.221907 30:-0.203976 31:1.796406 32:-0.028156 33:-0.144112 34:1.05883 35:-0.074168 36:-0.086018 
1 1:-0.089138 2:-0.248554 3:-0.089934 4:-0.638198 5:-0.014074 6:-0.159554 7:0.43222 8:1.712149 9:-0.81669 10:1.036279 11:-0.090383 12:-0.223565 13:0.636354 14:-0.658887 15:0.563132 16:-0.159622 17:0.437536 18:1.07624 19:-0.824419 20:1.038338 21:-0.17232 22:0.024459 23:6.577527 24:-0.260021 25:0.002375 26:-0.121164 27:-0.024106 28:5.244845 29:-0.221907 30:-0.014694 31:1.796406 32:-0.028156 33:-0.139277 34:3.750311 35:-0.074168 36:-0.080757 
1 1:-0.089202 2:-0.254894 3:-0.429861 4:-0.638198 5:-0.73209 6:-0.159296 7:0.160043 8:1.72061 9:-0.81669 10:1.095792 11:-0.090474 12:-0.23509 13:-0.366632 14:-0.658887 15:-0.367723 16:-0.159366 17:0.163394 18:1.740866 19:-0.824419 20:1.093523 21:-0.172641 22:-0.027773 23:-0.43299 24:-0.260021 25:-0.249457 26:-0.121524 27:-0.077176 28:-0.355702 29:-0.221907 30:-0.196132 31:1.796406 32:-0.028156 33:-0.14453 34:-0.163037 35:-0.074168 36:-0.085978 
1 1:-0.089177 2:-0.25244 3:5.548365 4:-0.638198 5:-0.73209 6:-0.15866 7:-0.510698 8:1.489736 9:-0.808455 10:1.050236 11:-0.090452 12:-0.232351 13:2.962005 14:-0.143552 15:0.43518 16:-0.158729 17:-0.520225 18:0.148943 19:-0.816329 20:1.034852 21:-0.1726 22:-0.021095 23:7.947234 24:-0.231991 25:0.203401 26:-0.121447 27:-0.065834 28:10.865436 29:-0.169864 30:0.167017 31:1.796406 32:-0.028156 33:-0.14342 34:14.329132 35:-0.074011 36:-0.070468 
1 1:-0.089166 2:-0.2514 3:3.155608 4:-0.598295 5:2.139976 6:-0.158258 7:-0.934172 8:1.72061 9:-0.735586 10:0.732731 11:-0.090362 12:-0.220744 13:-0.366632 14:0.923332 15:2.134706 16:-0.158326 17:-0.951665 18:0.902481 19:-0.761153 20:0.786298 21:-0.172163 22:0.049933 23:7.452212 24:-0.177146 25:0.410678 26:-0.121205 27:-0.030249 28:-0.268635 29:-0.1183 30:0.013672 31:1.796406 32:-0.028156 33:-0.136742 34:-0.162033 35:-0.074082 36:-0.084223 
1 1:-0.088966 2:-0.23147 3:3.203787 4:-0.638198 5:2.139976 6:-0.15484 7:-0.681088 8:1.669882 9:-0.790588 10:0.954164 11:-0.09049 12:-0.236139 13:1.812497 14:0.235631 15:1.122769 16:-0.15491 17:-0.690336 18:1.524862 19:-0.797449 20:0.978929 21:-0.172184 22:0.046484 23:2.229911 24:-0.181132 25:0.08891 26:-0.121104 27:-0.01537 28:0.017295 29:-0.158225 30:0.111048 31:1.796406 32:-0.028156 33:-0.136726 34:-0.141542 35:-0.07399 36:-0.074493 
1 1:-0.088568 2:-0.217474 3:-0.275216 4:-0.638198 5:0.703943 6:-0.150453 7:0.923659 8:1.452842 9:-0.774072 10:-0.820404 11:-0.030157 12:3.105469 13:5.654332 14:0.48105 15:1.933004 16:-0.150962 17:0.853668 18:1.476247 19:-0.787225 20:-0.531139 21:-0.130522 22:3.257368 23:0.855152 24:-0.0972 25:7.877496 26:-0.061132 27:4.018322 28:1.480215 29:-0.087787 30:9.721044 31:1.796406 32:-0.028033 33:3.063787 34:0.449974 35:-0.072522 36:9.525007 
1 1:-0.089054 2:-0.219917 3:7.948004 4:-0.638198 5:2.139976 6:-0.152404 7:0.580211 8:1.282142 9:-0.782908 10:0.803329 11:-0.090574 12:-0.23379 13:8.383815 14:0.374843 15:1.700482 16:-0.152473 17:0.595294 18:1.21451 19:-0.785458 20:0.793495 21:-0.172326 22:0.02235 23:0.777961 24:-0.143941 25:0.484315 26:-0.121273 27:-0.037019 28:0.090471 29:-0.117715 30:0.444224 31:1.796406 32:-0.028156 33:-0.140817 34:-0.131062 35:-0.07333 36:-0.03476 
1 1:-0.089063 2:-0.23707 3:6.762686 4:-0.638198 5:-0.73209 6:-0.15183 7:-0.018693 8:0.698846 9:-0.81669 10:1.095767 11:-0.090227 12:-0.186993 13:11.544537 14:-0.658887 15:-0.366687 16:-0.151895 17:-0.023265 18:0.832544 19:-0.824419 20:1.100331 21:-0.172595 22:-0.0186 23:3.160835 24:-0.260021 25:-0.268278 26:-0.121458 27:-0.078973 28:4.933206 29:-0.221907 30:-0.238412 31:1.796406 32:-0.028156 33:-0.143873 34:4.924615 35:-0.074168 36:-0.086101 
0.6188680630558124 1:-0.062334 2:0.925785 3:3.308209 4:-0.638198 5:1.780967 6:-0.147693 7:0.81467 8:1.56579 9:-0.81669 10:-1.095821 11:-0.081535 12:2.284015 13:4.335898 14:-0.658887 15:1.50873 16:-0.148798 17:0.438545 18:1.508762 19:-0.824419 20:-0.682279 21:-0.12791 22:2.232913 23:1.013178 24:-0.260021 25:7.459826 26:-0.087739 27:1.481702 28:0.153286 29:-0.221907 30:6.287239 31:1.796406 32:-0.02812 33:0.429419 34:-0.109069 35:-0.074168 36:4.138002 
0.09953730750256383 1:-0.088474 2:-0.189655 3:2.500729 4:-0.638198 5:1.421959 6:-0.159756 7:0.645415 8:1.720609 9:-0.81669 10:0.703257 11:-0.089142 12:-0.060775 13:-0.366374 14:-0.658887 15:2.418861 16:-0.159595 17:0.74425 18:1.425832 19:-0.824419 20:0.379668 21:-0.127898 22:2.162668 23:3.588928 24:-0.260021 25:7.198871 26:-0.119431 27:0.194205 28:1.108017 29:-0.221907 30:1.927798 31:1.796406 32:-0.028155 33:-0.10385 34:0.208925 35:-0.074168 36:0.52052 
1 1:-0.08915 2:-0.249828 3:0.809354 4:-0.638198 5:-0.73209 6:-0.159577 7:0.455424 8:0.729437 9:-0.81669 10:1.049828 11:-0.0901 12:-0.186702 13:10.287971 14:-0.658887 15:0.405762 16:-0.15965 17:0.466962 18:1.05977 19:-0.824419 20:1.050039 21:-0.17237 22:0.016291 23:6.541513 24:-0.260021 25:-0.041581 26:-0.121098 27:-0.014455 28:12.294468 29:-0.221907 30:-0.077328 31:1.796406 32:-0.028156 33:-0.138911 34:29.302538 35:-0.074168 36:-0.083375 
1 1:-0.088533 2:-0.203539 3:2.459661 4:-0.638198 5:1.062951 6:-0.154185 7:1.041958 8:1.44329 9:-0.78285 10:-0.933289 11:-0.090246 12:1.412753 13:4.718314 14:0.33784 15:1.786116 16:-0.155103 17:0.899871 18:1.368223 19:-0.789184 20:-0.465956 21:-0.127596 22:3.382553 23:2.103611 24:-0.159827 25:8.747522 26:-0.04742 27:5.429037 28:2.437936 29:-0.13603 30:13.051092 31:1.796406 32:-0.027969 33:4.51153 34:1.202232 35:-0.073457 36:14.234654 
1 1:-0.089038 2:-0.238596 3:6.749819 4:-0.638198 5:2.139976 6:-0.156051 7:0.596588 8:0.871151 9:-0.791689 10:0.875941 11:-0.090393 12:-0.223965 13:7.979553 14:0.239021 15:1.581201 16:-0.156117 17:0.603593 18:0.714176 19:-0.793541 20:0.90375 21:-0.17228 22:0.030938 23:5.163019 24:-0.208634 25:0.424135 26:-0.121319 27:-0.047013 28:4.502808 29:-0.169606 30:0.296571 31:1.796406 32:-0.028156 33:-0.140735 34:0.898393 35:-0.074011 36:-0.058938 
1 1:-0.089177 2:-0.252545 3:6.164508 4:-0.638198 5:-0.73209 6:-0.155859 7:0.393612 8:0.718283 9:-0.81669 10:1.067006 11:-0.090483 12:-0.236399 13:9.279708 14:-0.658887 15:0.228788 16:-0.155931 17:0.404391 18:0.379537 19:-0.818849 20:1.06249 21:-0.172643 22:-0.028223 23:4.267262 24:-0.207939 25:-0.09512 26:-0.121444 27:-0.06547 28:6.23692 29:-0.170315 30:-0.065528 31:1.796406 32:-0.028156 33:-0.143729 34:5.413967 35:-0.074014 36:-0.083746 
1 1:-0.089001 2:-0.234959 3:-0.201497 4:-0.638198 5:0.344934 6:-0.154885 7:-0.633256 8:1.678366 9:-0.790573 10:0.980904 11:-0.090416 12:-0.225524 13:1.667671 14:0.236061 15:0.946383 16:-0.154946 17:-0.650998 18:1.626951 19:-0.795836 20:0.994064 21:-0.172247 22:0.036333 23:1.24257 24:-0.172934 25:0.097688 26:-0.121133 27:-0.019655 28:-0.174382 29:-0.147869 30:0.066655 31:1.796406 32:-0.028156 33:-0.137857 34:-0.156921 35:-0.073833 36:-0.075835 
1 1:-0.089058 2:-0.222106 3:6.814864 4:-0.638198 5:2.139976 6:-0.152445 7:0.626695 8:1.28669 9:-0.783192 10:0.825799 11:-0.090308 12:-0.174557 13:8.585471 14:0.37047 15:1.619623 16:-0.152512 17:0.637723 18:1.247133 19:-0.788985 20:0.823932 21:-0.172362 22:0.016652 23:0.702111 24:-0.159795 25:0.522673 26:-0.121295 27:-0.042986 28:0.084731 29:-0.162633 30:0.364869 31:1.796406 32:-0.028156 33:-0.140107 34:-0.156026 35:-0.073975 36:-0.039955 
1 1:-0.089117 2:-0.229825 3:9.877366 4:-0.638198 5:-0.73209 6:-0.152337 7:0.514086 8:0.867974 9:-0.783365 10:1.068121 11:-0.0905 12:-0.209894 13:10.580887 14:0.377771 15:0.188806 16:-0.152405 17:0.522682 18:0.774057 19:-0.798794 20:1.058409 21:-0.172652 22:-0.03019 23:5.169695 24:-0.194274 25:-0.03475 26:-0.121394 27:-0.050822 28:11.621585 29:-0.168711 30:-0.084803 31:1.796406 32:-0.028156 33:-0.142539 34:20.626856 35:-0.074005 36:-0.083513 
1 1:-0.089112 2:-0.234442 3:7.611518 4:-0.638198 5:-0.73209 6:-0.151872 7:0.023576 8:1.217846 9:-0.81669 10:1.095793 11:-0.090444 12:-0.21627 13:9.558784 14:-0.658887 15:-0.367752 16:-0.151931 17:0.014932 18:0.936625 19:-0.824419 20:1.101141 21:-0.172631 22:-0.024794 23:3.188014 24:-0.260021 25:-0.276928 26:-0.121415 27:-0.071124 28:2.739457 29:-0.221907 30:-0.238633 31:1.796406 32:-0.028156 33:-0.144062 34:1.584873 35:-0.074168 36:-0.086101 
1 1:-0.088968 2:-0.227948 3:7.909584 4:-0.638198 5:-0.73209 6:-0.151492 7:-0.377244 8:1.303293 9:-0.81669 10:1.053149 11:-0.090355 12:-0.201977 13:7.979357 14:-0.658887 15:0.256041 16:-0.151553 17:-0.39014 18:1.138404 19:-0.824419 20:1.051456 21:-0.172302 22:0.027253 23:1.604786 24:-0.260021 25:0.008941 26:-0.121182 27:-0.03339 28:2.091105 29:-0.221907 30:-0.097763 31:1.796406 32:-0.028156 33:-0.140103 34:0.877539 35:-0.074168 36:-0.08417 
1 1:-0.088474 2:-0.189655 3:2.500729 4:-0.638198 5:1.421959 6:-0.159792 7:0.682782 8:1.720609 9:-0.81669 10:0.82468 11:-0.089738 12:-0.138344 13:-0.366624 14:-0.658887 15:1.893408 16:-0.159729 17:0.739779 18:1.289558 19:-0.824419 20:0.591456 21:-0.138299 22:1.518097 23:4.51263 24:-0.260021 25:5.51756 26:-0.119601 27:0.205076 28:0.001513 29:-0.221907 30:1.046122 31:1.796406 32:-0.028155 33:-0.099291 34:-0.155247 35:-0.074168 36:0.059359 
1 1:-0.08915 2:-0.249828 3:0.809354 4:-0.638198 5:-0.73209 6:-0.159609 7:0.489846 8:-1.091837 9:-0.81669 10:1.059169 11:-0.090069 12:-0.186034 13:0.861937 14:-0.658887 15:0.285953 16:-0.159677 17:0.496003 18:0.979095 19:-0.824419 20:1.061745 21:-0.17243 22:0.006527 23:6.786597 24:-0.260021 25:-0.084976 26:-0.121174 27:-0.025617 28:10.502131 29:-0.221907 30:-0.163084 31:1.796406 32:-0.028156 33:-0.139615 34:0.446902 35:-0.074168 36:-0.085838 
1 1:-0.089192 2:-0.253924 3:5.781138 4:-0.638198 5:-0.73209 6:-0.159054 7:-0.095402 8:1.183011 9:-0.81669 10:1.090737 11:-0.090538 12:-0.24351 13:5.433029 14:-0.658887 15:-0.199448 16:-0.159119 17:-0.101585 18:0.25613 19:-0.82357 20:1.095702 21:-0.172767 22:-0.048312 23:8.431531 24:-0.241201 25:-0.246538 26:-0.121439 27:-0.064715 28:12.356688 29:-0.221907 30:-0.196009 31:1.796406 32:-0.028156 33:-0.144389 34:28.769381 35:-0.074168 36:-0.085977 
1 1:-0.089222 2:-0.256964 3:5.548365 4:-0.638198 5:-0.73209 6:-0.158711 7:-0.456962 8:-1.107266 9:-0.808421 10:1.076801 11:-0.090482 12:-0.236171 13:0.5571 14:-0.142488 15:0.059159 16:-0.158783 17:-0.462122 18:0.632357 19:-0.813901 20:1.07059 21:-0.172676 22:-0.033562 23:7.684489 24:-0.208178 25:0.056818 26:-0.121314 27:-0.046266 28:9.74569 29:-0.221663 30:-0.017928 31:1.796406 32:-0.028156 33:-0.142664 34:0.31867 35:-0.074168 36:-0.080722 
1 1:-0.089179 2:-0.252665 3:3.931028 4:-0.598295 5:1.780967 6:-0.158323 7:-0.866304 8:1.72061 9:-0.743776 10:0.82412 11:-0.090308 12:-0.211015 13:-0.366632 14:0.837958 15:1.75795 16:-0.15839 17:-0.883645 18:1.233175 19:-0.768264 20:0.835418 21:-0.172311 22:0.025852 23:6.16473 24:-0.152877 25:0.460959 26:-0.121256 27:-0.037788 28:4.771566 29:-0.107841 30:0.363271 31:1.796406 32:-0.028156 33:-0.140005 34:4.019548 35:-0.073545 36:-0.048815 
1 1:-0.089211 2:-0.255887 3:-0.429861 4:-0.638198 5:-0.73209 6:-0.15564 7:0.162374 8:1.662619 9:-0.81669 10:1.100849 11:-0.090508 12:-0.239564 13:2.019792 14:-0.658887 15:-0.774068 16:-0.155703 17:0.16051 18:1.594753 19:-0.824419 20:1.10176 21:-0.172748 22:-0.045222 23:0.95815 24:-0.260021 25:-0.254175 26:-0.121521 27:-0.076786 28:0.084631 29:-0.221907 30:-0.192305 31:1.796406 32:-0.028156 33:-0.144637 34:-0.123955 35:-0.074168 36:-0.085996 
1 1:-0.089187 2:-0.25344 3:7.602451 4:-0.638198 5:-0.73209 6:-0.155319 7:-0.175527 8:1.195314 9:-0.81669 10:1.091874 11:-0.090437 12:-0.230315 13:6.880464 14:-0.658887 15:-0.270622 16:-0.155384 17:-0.181497 18:0.969958 19:-0.820826 20:1.093778 21:-0.172669 22:-0.032411 23:3.887681 24:-0.229025 25:-0.20043 26:-0.121527 27:-0.07763 28:1.772575 29:-0.169604 30:-0.194766 31:1.796406 32:-0.028156 33:-0.144483 34:0.443197 35:-0.07401 36:-0.085918 
1 1:-0.089001 2:-0.234959 3:-0.201497 4:-0.638198 5:0.344934 6:-0.15492 7:-0.595878 8:1.704574 9:-0.785923 10:0.987194 11:-0.090464 12:-0.231661 13:1.043045 14:0.282514 15:0.905344 16:-0.154982 17:-0.612958 18:1.622088 19:-0.794209 20:1.009616 21:-0.172334 22:0.022045 23:2.387517 24:-0.167012 25:0.088196 26:-0.121268 27:-0.039461 28:-0.243615 29:-0.123135 30:0.063208 31:1.796406 32:-0.028156 33:-0.140774 34:-0.160797 35:-0.073434 36:-0.077163 
1 1:-0.088199 2:-0.16106 3:1.913578 4:-0.638198 5:1.421959 6:-0.152351 7:0.540973 8:1.171283 9:-0.756551 10:0.487363 11:-0.087122 12:1.059048 13:9.389612 14:0.681701 15:2.717007 16:-0.151723 17:0.758206 18:1.315201 19:-0.775675 20:0.030971 21:-0.133224 22:2.962391 23:1.329213 24:-0.118024 25:7.427193 26:-0.09905 27:1.822741 28:1.039666 29:-0.168008 30:5.103644 31:1.796406 32:-0.028139 33:0.476061 34:-0.073469 35:-0.073997 36:2.992498 
1 1:-0.089058 2:-0.222106 3:6.814864 4:-0.638198 5:2.139976 6:-0.152487 7:0.670177 8:1.305988 9:-0.781329 10:0.84233 11:-0.090448 12:-0.1753 13:8.429476 14:0.398946 15:1.544108 16:-0.152551 17:0.679002 18:1.149401 19:-0.790313 20:0.857673 21:-0.172415 22:0.007945 23:2.781224 24:-0.179575 25:0.569153 26:-0.121306 27:-0.042615 28:0.226817 29:-0.162834 30:0.414639 31:1.796406 32:-0.028156 33:-0.139605 34:-0.160922 35:-0.073975 36:-0.041856 
1 1:-0.089117 2:-0.229825 3:9.877366 4:-0.638198 5:-0.73209 6:-0.152378 7:0.559519 8:-1.040958 9:-0.783379 10:1.075938 11:-0.090503 12:-0.229441 13:2.918981 14:0.37756 15:0.070237 16:-0.152439 17:0.559784 18:0.789669 19:-0.801543 20:1.068433 21:-0.172676 22:-0.03455 23:5.237272 24:-0.190676 25:-0.120771 26:-0.12143 27:-0.059261 28:9.284515 29:-0.117142 30:-0.121792 31:1.796406 32:-0.028156 33:-0.143462 34:0.76818 35:-0.073378 36:-0.084856 
1 1:-0.089145 2:-0.245063 3:6.638702 4:-0.638198 5:-0.73209 6:-0.152177 7:0.343352 8:1.405756 9:-0.808414 10:1.085949 11:-0.090558 12:-0.238846 13:7.124714 14:-0.142279 15:-0.118928 16:-0.152239 17:0.344902 18:0.867585 19:-0.816947 20:1.090887 21:-0.172738 22:-0.042148 23:5.119901 24:-0.237968 25:-0.246161 26:-0.121483 27:-0.069533 28:2.613295 29:-0.217343 30:-0.219863 31:1.796406 32:-0.028156 33:-0.144432 34:0.965164 35:-0.074167 36:-0.086074 
1 1:-0.088968 2:-0.227948 3:7.909584 4:-0.638198 5:-0.73209 6:-0.151531 7:-0.335624 8:1.400387 9:-0.81669 10:1.056273 11:-0.08987 12:-0.136735 13:7.159581 14:-0.658887 15:0.221576 16:-0.151593 17:-0.348177 18:1.176463 19:-0.824419 20:1.063286 21:-0.172355 22:0.019884 23:1.572985 24:-0.260021 25:-0.047135 26:-0.121195 27:-0.029145 28:0.338858 29:-0.221907 30:-0.180999 31:1.796406 32:-0.028156 33:-0.139942 34:-0.08483 35:-0.074168 36:-0.085764 
1 1:-0.08915 2:-0.249795 3:3.931028 4:-0.638198 5:1.780967 6:-0.158348 7:-0.839879 8:1.62784 9:-0.752041 10:0.861289 11:-0.090367 12:-0.219243 13:2.706623 14:0.74679 15:1.587027 16:-0.158419 17:-0.852022 18:1.128194 19:-0.774307 20:0.862183 21:-0.17237 22:0.016221 23:6.551416 24:-0.136658 25:0.501081 26:-0.12123 27:-0.033865 28:12.232933 29:-0.108568 30:0.248958 31:1.796406 32:-0.028156 33:-0.1395 34:19.529551 35:-0.073535 36:-0.057566 
1 1:-0.089143 2:-0.24907 3:1.248956 4:-0.638198 5:-0.73209 6:-0.155664 7:0.187809 8:1.616387 9:-0.81669 10:1.09589 11:-0.090491 12:-0.237447 13:2.824969 14:-0.658887 15:-0.371662 16:-0.155732 17:0.191885 18:1.515791 19:-0.824419 20:1.10239 21:-0.172772 22:-0.049133 23:1.370569 24:-0.260021 25:-0.260347 26:-0.121541 27:-0.079712 28:0.457768 29:-0.221907 30:-0.206387 31:1.796406 32:-0.028156 33:-0.145127 34:-0.03541 35:-0.074168 36:-0.086036 
1 1:-0.089186 2:-0.253407 3:8.400831 4:-0.638198 5:-0.73209 6:-0.155352 7:-0.140957 8:1.409572 9:-0.81669 10:1.096251 11:-0.090483 12:-0.236376 13:5.140375 14:-0.658887 15:-0.413801 16:-0.155415 17:-0.148825 18:0.966604 19:-0.820829 20:1.096444 21:-0.172699 22:-0.037276 23:4.983867 24:-0.229048 25:-0.233796 26:-0.121541 27:-0.079729 28:2.315709 29:-0.169635 30:-0.202916 31:1.796406 32:-0.028156 33:-0.144942 34:0.738778 35:-0.07401 36:-0.08602 
1 1:-0.089117 2:-0.233681 3:9.877366 4:-0.638198 5:-0.73209 6:-0.152411 7:0.589012 8:0.579504 9:-0.799877 10:1.070855 11:-0.090508 12:-0.23216 13:11.337778 14:0.077449 15:0.160317 16:-0.152473 17:0.596216 18:0.794174 19:-0.804132 20:1.074067 21:-0.172709 22:-0.039172 23:5.256687 24:-0.193218 25:-0.185439 26:-0.12149 27:-0.06883 28:10.152189 29:-0.117989 30:-0.119186 31:1.796406 32:-0.028156 33:-0.144282 34:19.927248 35:-0.073379 36:-0.084838 
1 1:-0.089159 2:-0.246003 3:6.638702 4:-0.638198 5:-0.73209 6:-0.15221 7:0.377243 8:0.876966 9:-0.807697 10:1.085964 11:-0.090498 12:-0.237697 13:10.675528 14:-0.140053 15:-0.119248 16:-0.152273 17:0.380702 18:0.758719 19:-0.816836 20:1.090772 21:-0.172757 22:-0.044359 23:5.183291 24:-0.237947 25:-0.254424 26:-0.121539 27:-0.07549 28:8.172342 29:-0.21735 30:-0.205552 31:1.796406 32:-0.028156 33:-0.144834 34:12.661628 35:-0.074167 36:-0.086033 
1 1:-0.0891 2:-0.232661 3:7.611518 4:-0.638198 5:-0.73209 6:-0.151933 7:0.085846 8:1.355346 9:-0.81669 10:1.095805 11:-0.090514 12:-0.235438 13:8.73049 14:-0.658887 15:-0.368246 16:-0.151999 17:0.087844 18:1.233763 19:-0.824419 20:1.101539 21:-0.17269 22:-0.036109 23:2.048367 24:-0.260021 25:-0.279963 26:-0.121419 27:-0.058015 28:0.008501 29:-0.221907 30:-0.238113 31:1.796406 32:-0.028156 33:-0.143184 34:-0.143582 35:-0.074168 36:-0.086101 
1 1:-0.089206 2:-0.255327 3:8.812339 4:-0.638198 5:-0.73209 6:-0.159102 7:-0.044795 8:-1.114193 9:-0.81669 10:1.090744 11:-0.090556 12:-0.245809 13:-0.366633 14:-0.658887 15:-0.199633 16:-0.15917 17:-0.047119 18:-0.217524 19:-0.82323 20:1.094986 21:-0.172784 22:-0.051032 23:6.959587 24:-0.238266 25:-0.24335 26:-0.121557 27:-0.082123 28:-0.19303 29:-0.221907 30:-0.196259 31:1.796406 32:-0.028156 33:-0.145333 34:-0.160779 35:-0.074168 36:-0.085979 
1 1:-0.089259 2:-0.260639 3:5.147735 4:-0.638198 5:-0.73209 6:-0.15877 7:-0.394495 8:1.279566 9:-0.800296 10:1.100849 11:-0.09054 12:-0.243671 13:6.147577 14:0.068214 15:-0.774068 16:-0.158836 17:-0.405373 18:0.966706 19:-0.804357 20:1.092432 21:-0.172717 22:-0.040109 23:7.061988 24:-0.158424 25:-0.109748 26:-0.121572 27:-0.084239 28:11.778833 29:-0.170415 30:-0.172181 31:1.796406 32:-0.028156 33:-0.145495 34:21.794001 35:-0.074012 36:-0.085605 
1 1:-0.088431 2:-0.186735 3:4.938458 4:-0.638198 5:1.780967 6:-0.156187 7:0.739745 8:0.545752 9:-0.773741 10:0.617435 11:-0.089718 12:-0.134988 13:9.622546 14:0.458605 15:2.415478 16:-0.155946 17:0.826705 18:1.180004 19:-0.774118 20:0.337531 21:-0.138347 22:2.389064 23:3.021186 24:-0.156311 25:6.422749 26:-0.119664 27:0.195766 28:3.432746 29:-0.144198 30:0.566355 31:1.796406 32:-0.028155 33:-0.085316 34:0.68223 35:-0.073732 36:-0.05521 
1 1:-0.089175 2:-0.252283 3:5.48574 4:-0.638198 5:-0.73209 6:-0.155952 7:0.49222 8:0.705724 9:-0.81669 10:1.080537 11:-0.090503 12:-0.238952 13:8.595366 14:-0.658887 15:0.01806 16:-0.15602 17:0.500048 18:0.600016 19:-0.820879 20:1.081536 21:-0.172712 22:-0.039349 23:5.652352 24:-0.216811 25:-0.199057 26:-0.121402 27:-0.059207 28:9.180548 29:-0.170436 30:-0.127822 31:1.796406 32:-0.028156 33:-0.143386 34:15.357688 35:-0.074015 36:-0.085157 
1 1:-0.089186 2:-0.253407 3:8.400831 4:-0.638198 5:-0.73209 6:-0.155374 7:-0.117345 8:1.493808 9:-0.81669 10:1.09595 11:-0.090542 12:-0.243968 13:4.389087 14:-0.658887 15:-0.374086 16:-0.155445 17:-0.11652 18:0.965964 19:-0.820831 20:1.096203 21:-0.17271 22:-0.039053 23:5.79836 24:-0.229069 25:-0.230196 26:-0.121521 27:-0.076817 28:2.646346 29:-0.16966 30:-0.19698 31:1.796406 32:-0.028156 33:-0.144873 34:1.132058 35:-0.07401 36:-0.085977 
1 1:-0.087818 2:-0.132295 3:-0.017472 4:-0.638198 5:2.139976 6:-0.154375 7:-1.171156 8:1.403003 9:-0.767104 10:0.824665 11:-0.089299 12:-0.081638 13:6.908379 14:0.476608 15:1.785735 16:-0.153877 17:-0.550111 18:1.432911 19:-0.763377 20:0.185318 21:-0.132848 22:2.85199 23:2.965498 24:-0.110208 25:7.910528 26:-0.093281 27:1.721563 28:5.288585 29:-0.008676 30:3.822448 31:1.796406 32:-0.02812 33:0.234744 34:1.86926 35:-0.070007 36:1.119685 
1 1:-0.089159 2:-0.246003 3:6.638702 4:-0.638198 5:-0.73209 6:-0.152244 7:0.414657 8:-0.430338 9:-0.807686 10:1.085975 11:-0.090459 12:-0.227434 13:9.336499 14:-0.139724 15:-0.119488 16:-0.152305 17:0.415373 18:0.733685 19:-0.816728 20:1.091369 21:-0.172772 22:-0.047444 23:5.070124 24:-0.237959 25:-0.264755 26:-0.12154 27:-0.076699 28:6.831979 29:-0.221789 30:-0.195876 31:1.796406 32:-0.028156 33:-0.14504 34:6.747593 35:-0.074168 36:-0.085979 
1 1:-0.0891 2:-0.232661 3:7.611518 4:-0.638198 5:-0.73209 6:-0.151968 7:0.125299 8:1.368548 9:-0.81669 10:1.095592 11:-0.09048 12:-0.209714 13:8.653543 14:-0.658887 15:-0.359761 16:-0.152033 17:0.123769 18:1.34555 19:-0.824419 20:1.100713 21:-0.172716 22:-0.039037 23:1.064588 24:-0.260021 25:-0.269855 26:-0.12153 27:-0.078835 28:-0.08251 29:-0.221907 30:-0.238121 31:1.796406 32:-0.028156 33:-0.145044 34:-0.149387 35:-0.074168 36:-0.086101 
1 1:-0.089158 2:-0.250609 3:5.663352 4:-0.638198 5:-0.73209 6:-0.159688 7:0.572717 8:1.72061 9:-0.81669 10:1.08092 11:-0.090553 12:-0.245298 13:-0.366632 14:-0.658887 15:-0.00082 16:-0.159755 17:0.579927 18:0.691157 19:-0.824419 20:1.080427 21:-0.172558 22:-0.014329 23:7.899195 24:-0.260021 25:-0.173355 26:-0.121379 27:-0.055888 28:0.656255 29:-0.221907 30:-0.12437 31:1.796406 32:-0.028156 33:-0.143299 34:-0.013685 35:-0.074168 36:-0.08509 
1 1:-0.089156 2:-0.250453 3:-0.204767 4:-0.638198 5:-0.73209 6:-0.159424 7:0.294595 8:1.72061 9:-0.81669 10:1.0809 11:-0.090462 12:-0.23358 13:-0.366632 14:-0.658887 15:0.033037 16:-0.159494 17:0.300162 18:1.580888 19:-0.824419 20:1.087793 21:-0.172774 22:-0.049443 23:3.505899 24:-0.260021 25:-0.262263 26:-0.121613 27:-0.090321 28:-0.355702 29:-0.221907 30:-0.217989 31:1.796406 32:-0.028156 33:-0.145962 34:-0.163037 35:-0.074168 36:-0.086071 
1 1:-0.089208 2:-0.255487 3:8.812339 4:-0.638198 5:-0.73209 6:-0.159128 7:-0.017799 8:-1.113185 9:-0.81669 10:1.090742 11:-0.090515 12:-0.240505 13:-0.142191 14:-0.658887 15:-0.199562 16:-0.159195 17:-0.020152 18:-0.202669 19:-0.82323 20:1.095092 21:-0.172793 22:-0.052505 23:7.257254 24:-0.238266 25:-0.246657 26:-0.12148 27:-0.070788 28:5.645955 29:-0.221907 30:-0.19687 31:1.796406 32:-0.028156 33:-0.144584 34:3.856965 35:-0.074168 36:-0.085985 
1 1:-0.08924 2:-0.258697 3:3.784727 4:-0.638198 5:-0.73209 6:-0.158793 7:-0.370587 8:1.705677 9:-0.800202 10:1.100849 11:-0.09047 12:-0.234622 13:1.000969 14:0.070291 15:-0.774068 16:-0.158861 17:-0.377951 18:1.103945 19:-0.797546 20:1.098499 21:-0.172739 22:-0.04376 23:6.530014 24:-0.12601 25:-0.167431 26:-0.121461 27:-0.067928 28:6.320357 29:-0.117704 30:-0.211967 31:1.796406 32:-0.028156 33:-0.144048 34:7.696417 35:-0.073534 36:-0.086056 
1 1:-0.089123 2:-0.247084 3:3.841384 4:-0.638198 5:1.421959 6:-0.158408 7:-0.776034 8:-1.051253 9:-0.776916 10:0.911501 11:-0.090477 12:-0.235553 13:2.963752 14:0.43604 15:1.319942 16:-0.158477 17:-0.789485 18:0.989361 19:-0.785494 20:0.921542 21:-0.172491 22:-0.003348 23:6.916666 24:-0.141096 25:0.433025 26:-0.121365 27:-0.053749 28:10.407578 29:-0.090355 30:0.293945 31:1.796406 32:-0.028156 33:-0.141831 34:0.203631 35:-0.073051 36:-0.054998 
1 1:-0.088523 2:-0.192686 3:4.273728 4:0.847248 5:2.498984 6:-0.157898 7:-1.313817 8:1.60341 9:-0.717892 10:0.734026 11:-0.089891 12:-0.158088 13:3.03221 14:1.10637 15:2.117766 16:-0.157673 17:-0.822734 18:1.327068 19:-0.727684 20:0.256318 21:-0.136279 22:2.860007 23:3.703123 24:-0.068646 25:6.859881 26:-0.119527 27:0.216891 28:6.754673 29:-0.097105 30:1.745046 31:1.796406 32:-0.028155 33:-0.08004 34:5.779377 35:-0.072835 36:0.214975 
1 1:-0.089158 2:-0.25061 3:3.828378 4:-0.638198 5:-0.73209 6:-0.155984 7:0.525492 8:1.231902 9:-0.81669 10:1.080668 11:-0.090527 12:-0.242015 13:7.14713 14:-0.658887 15:0.015499 16:-0.156049 17:0.53124 18:0.72683 19:-0.821724 20:1.084498 21:-0.172738 22:-0.043591 23:6.10626 24:-0.221826 25:-0.222386 26:-0.121504 27:-0.074312 28:3.695921 29:-0.181891 30:-0.15517 31:1.796406 32:-0.028156 33:-0.144653 34:2.534706 35:-0.074083 36:-0.085632 
1 1:-0.08913 2:-0.236097 3:9.737391 4:-0.638198 5:-0.73209 6:-0.152474 7:0.656356 8:1.351982 9:-0.799959 10:1.075419 11:-0.090526 12:-0.243199 13:8.255524 14:0.075646 15:0.121948 16:-0.152538 17:0.666247 18:0.85744 19:-0.809283 20:1.075911 21:-0.172754 22:-0.047707 23:5.392381 24:-0.207878 25:-0.21962 26:-0.12149 27:-0.066272 28:0.105253 29:-0.16907 30:-0.121293 31:1.796406 32:-0.028156 33:-0.144327 34:-0.162446 35:-0.074007 36:-0.084937 
1 1:-0.089105 2:-0.233198 3:7.555653 4:-0.638198 5:-0.73209 6:-0.151991 7:0.145134 8:1.390087 9:-0.81669 10:1.095797 11:-0.090629 12:-0.24564 13:8.287 14:-0.658887 15:-0.367914 16:-0.152065 17:0.158346 18:1.405459 19:-0.824419 20:1.099881 21:-0.172743 22:-0.043869 23:0.273092 24:-0.260021 25:-0.265143 26:-0.121514 27:-0.077857 28:-0.050089 29:-0.221907 30:-0.238143 31:1.796406 32:-0.028156 33:-0.145726 34:-0.153508 35:-0.074168 36:-0.086101 
1 1:-0.08907 2:-0.231964 3:7.484044 4:-0.638198 5:-0.73209 6:-0.151631 7:-0.233869 8:1.294072 9:-0.81669 10:1.08321 11:-0.090233 12:-0.215817 13:8.531886 14:-0.658887 15:-0.147025 16:-0.151706 17:-0.226664 18:1.249295 19:-0.824419 20:1.086932 21:-0.172442 22:0.006366 23:0.534433 24:-0.260021 25:-0.137682 26:-0.12121 27:-0.028609 28:0.207001 29:-0.221907 30:-0.185577 31:1.796406 32:-0.028156 33:-0.141539 34:-0.130811 35:-0.074168 36:-0.085774 
1 1:-0.089158 2:-0.250609 3:5.663352 4:-0.638198 5:-0.73209 6:-0.159711 7:0.597274 8:1.720434 9:-0.81669 10:1.081061 11:-0.090478 12:-0.235646 13:-0.230007 14:-0.658887 15:-0.003567 16:-0.159781 17:0.607585 18:0.946818 19:-0.824419 20:1.08196 21:-0.172591 22:-0.019711 23:6.865022 24:-0.260021 25:-0.192229 26:-0.121436 27:-0.06427 28:6.09309 29:-0.221907 30:-0.194969 31:1.796406 32:-0.028156 33:-0.143765 34:7.601545 35:-0.074168 36:-0.086001 
1 1:-0.089156 2:-0.250453 3:-0.204767 4:-0.638198 5:-0.73209 6:-0.15945 7:0.322557 8:1.72061 9:-0.81669 10:1.080887 11:-0.090486 12:-0.236746 13:-0.366632 14:-0.658887 15:0.033309 16:-0.159518 17:0.326352 18:1.391452 19:-0.824419 20:1.086681 21:-0.172792 22:-0.052368 23:5.352582 24:-0.260021 25:-0.283242 26:-0.12154 27:-0.079546 28:-0.350299 29:-0.221907 30:-0.234742 31:1.796406 32:-0.028156 33:-0.145326 34:-0.163033 35:-0.074168 36:-0.0861 
1 1:-0.089158 2:-0.25061 3:3.828378 4:-0.638198 5:-0.73209 6:-0.156012 7:0.554842 8:1.501196 9:-0.81669 10:1.08075 11:-0.090562 12:-0.246542 13:4.502139 14:-0.658887 15:0.013889 16:-0.156077 17:0.561281 18:1.007743 19:-0.822057 20:1.086535 21:-0.172764 22:-0.047835 23:5.439388 24:-0.227012 25:-0.235314 26:-0.121598 27:-0.088115 28:1.554263 29:-0.199051 30:-0.169655 31:1.796406 32:-0.028156 33:-0.145684 34:0.550962 35:-0.074134 36:-0.085768 
1 1:-0.089111 2:-0.245904 3:4.096906 4:-0.638198 5:-0.73209 6:-0.155052 7:-0.457068 8:1.716151 9:-0.777274 10:1.055005 11:-0.090526 12:-0.241889 13:0.169372 14:0.420272 15:0.306211 16:-0.155115 17:-0.470321 18:1.21929 19:-0.7871 20:1.053891 21:-0.172486 22:-0.002624 23:5.852095 24:-0.181962 25:-0.06665 26:-0.12133 27:-0.048724 28:6.80107 29:-0.112264 30:-0.072133 31:1.796406 32:-0.028156 33:-0.142076 34:8.493504 35:-0.073679 36:-0.083334 
1 1:-0.08913 2:-0.236097 3:9.737391 4:-0.638198 5:-0.73209 6:-0.152514 7:0.702481 8:1.264415 9:-0.799993 10:1.070418 11:-0.090509 12:-0.213488 13:8.96298 14:0.074914 15:0.208862 16:-0.15257 17:0.700174 18:1.192348 19:-0.813052 20:1.074499 21:-0.172779 22:-0.049703 23:1.72473 24:-0.213167 25:-0.220455 26:-0.121499 27:-0.067845 28:-0.059084 29:-0.16915 30:-0.13359 31:1.796406 32:-0.028156 33:-0.145026 34:-0.159596 35:-0.074007 36:-0.084922 
1 1:-0.089105 2:-0.233198 3:7.555653 4:-0.638198 5:-0.73209 6:-0.15204 7:0.204095 8:1.43089 9:-0.81669 10:1.09579 11:-0.090266 12:-0.198695 13:7.644609 14:-0.658887 15:-0.367604 16:-0.152097 17:0.193225 18:1.429897 19:-0.824419 20:1.098941 21:-0.172763 22:-0.047593 23:-0.040364 24:-0.260021 25:-0.260159 26:-0.12145 27:-0.064862 28:-0.043303 29:-0.221907 30:-0.196405 31:1.796406 32:-0.028156 33:-0.145062 34:-0.149542 35:-0.074168 36:-0.08598 
1 1:-0.08888 2:-0.222913 3:7.459901 4:-0.638198 5:1.780967 6:-0.159947 7:0.846 8:1.720609 9:-0.81669 10:0.965614 11:-0.09036 12:-0.219717 13:-0.366629 14:-0.658887 15:1.150731 16:-0.160016 17:0.859847 18:0.890844 19:-0.824419 20:0.955798 21:-0.171757 22:0.116155 23:6.471085 24:-0.260021 25:0.235815 26:-0.120906 27:0.013854 28:2.941953 29:-0.221907 30:0.149018 31:1.796406 32:-0.028156 33:-0.134852 34:1.58816 35:-0.074168 36:-0.070912 
1 1:-0.089217 2:-0.256455 3:5.270288 4:-0.638198 5:-0.73209 6:-0.159173 7:0.030467 8:1.690997 9:-0.81669 10:1.08567 11:-0.090565 12:-0.246904 13:1.6981 14:-0.658887 15:-0.070043 16:-0.159245 17:0.032808 18:0.420945 19:-0.823231 20:1.094571 21:-0.172816 22:-0.056226 23:8.497429 24:-0.238274 25:-0.251869 26:-0.121606 27:-0.089369 28:9.190804 29:-0.221907 30:-0.192569 31:1.796406 32:-0.028156 33:-0.146135 34:13.955947 35:-0.074168 36:-0.086074 
1 1:-0.088837 2:-0.220617 3:2.526235 4:0.887831 5:2.498984 6:-0.157966 7:-1.242804 8:1.720292 9:-0.691825 10:0.673165 11:-0.089916 12:-0.160569 13:-0.165657 14:1.319057 15:2.335007 16:-0.157963 17:-1.136178 18:1.442756 19:-0.712331 20:0.56588 21:-0.153141 22:1.442719 23:3.351257 24:-0.148512 25:3.427033 26:-0.120656 27:0.050688 28:-0.007215 29:-0.12843 30:0.430551 31:1.796406 32:-0.028156 33:-0.120128 34:-0.144073 35:-0.073458 36:-0.051436 
1 1:-0.089169 2:-0.251744 3:2.211358 4:-0.638198 5:-0.73209 6:-0.156035 7:0.579303 8:1.596419 9:-0.81669 10:1.080571 11:-0.090523 12:-0.241449 13:3.221465 14:-0.658887 15:0.029766 16:-0.156105 17:0.591185 18:1.334716 19:-0.822388 20:1.088756 21:-0.172798 22:-0.053435 23:3.129992 24:-0.233371 25:-0.247886 26:-0.121545 27:-0.080305 28:0.829449 29:-0.221907 30:-0.183893 31:1.796406 32:-0.028156 33:-0.145431 34:0.110313 35:-0.074168 36:-0.085888 
1 1:-0.089161 2:-0.250888 3:4.096906 4:-0.638198 5:-0.73209 6:-0.155081 7:-0.426915 8:1.231887 9:-0.774938 10:1.058314 11:-0.090503 12:-0.238926 13:5.934434 14:0.449795 15:0.278342 16:-0.155147 17:-0.43599 18:1.109388 19:-0.786061 20:1.060366 21:-0.172517 22:-0.007626 23:6.213469 24:-0.184697 25:-0.124019 26:-0.121336 27:-0.049554 28:11.380549 29:-0.124492 30:-0.113021 31:1.796406 32:-0.028156 33:-0.142074 34:19.117649 35:-0.073876 36:-0.084471 
1 1:-0.08916 2:-0.241583 3:9.737391 4:-0.638198 5:-0.73209 6:-0.152532 7:0.720221 8:1.287213 9:-0.800021 10:1.070396 11:-0.090549 12:-0.226479 13:8.776133 14:0.074284 15:0.209287 16:-0.152601 17:0.733908 18:1.314913 19:-0.814282 20:1.073173 21:-0.172798 22:-0.051261 23:-0.158663 24:-0.209184 25:-0.223003 26:-0.121558 27:-0.075981 28:-0.097628 29:-0.163282 30:-0.124557 31:1.796406 32:-0.028156 33:-0.145495 34:-0.160661 35:-0.074025 36:-0.084953 
1 1:-0.089147 2:-0.236704 3:7.555653 4:-0.638198 5:-0.73209 6:-0.152063 7:0.220766 8:1.442971 9:-0.81669 10:1.090739 11:-0.090637 12:-0.265233 13:7.492781 14:-0.658887 15:-0.199504 16:-0.152129 17:0.226741 18:1.433098 19:-0.824419 20:1.098222 21:-0.172788 22:-0.051987 23:0.003887 24:-0.260021 25:-0.260442 26:-0.121573 27:-0.081924 28:-0.091142 29:-0.221907 30:-0.196364 31:1.796406 32:-0.028156 33:-0.145223 34:-0.148846 35:-0.074168 36:-0.085979 
1 1:-0.089078 2:-0.234723 3:9.797379 4:-0.638198 5:-0.73209 6:-0.151708 7:-0.150015 8:1.15797 9:-0.81669 10:1.095723 11:-0.090391 12:-0.216479 13:9.696483 14:-0.658887 15:-0.381002 16:-0.151776 17:-0.150856 18:1.135958 19:-0.824419 20:1.097004 21:-0.172527 22:-0.00911 23:1.221511 24:-0.260021 25:-0.22212 26:-0.121344 27:-0.052568 28:0.189059 29:-0.221907 30:-0.168786 31:1.796406 32:-0.028156 33:-0.14291 34:-0.13123 35:-0.074168 36:-0.08577 
1 1:-0.088457 2:-0.179744 3:7.500034 4:-0.638198 5:2.139976 6:-0.151188 7:-0.700776 8:0.917217 9:-0.81669 10:0.83158 11:-0.089214 12:-0.03536 13:11.829167 14:-0.658887 15:1.637937 16:-0.151221 17:-0.690572 18:1.02008 19:-0.824419 20:0.799902 21:-0.168162 22:0.25135 23:0.713632 24:-0.260021 25:1.799642 26:-0.120396 27:0.08826 28:0.712892 29:-0.221907 30:0.519055 31:1.796406 32:-0.028156 33:-0.122651 34:0.083122 35:-0.074168 36:-0.018762 
1 1:-0.089147 2:-0.236704 3:7.555653 4:-0.638198 5:-0.73209 6:-0.152089 7:0.247771 8:1.433636 9:-0.81669 10:1.090722 11:-0.090643 12:-0.252888 13:7.575013 14:-0.658887 15:-0.199024 16:-0.152159 17:0.259805 18:1.413877 19:-0.824419 20:1.097003 21:-0.172794 22:-0.053718 23:0.32831 24:-0.260021 25:-0.256833 26:-0.121404 27:-0.049013 28:-0.135991 29:-0.221907 30:-0.238642 31:1.796406 32:-0.028156 33:-0.143558 34:-0.158329 35:-0.074168 36:-0.086101 
1 1:-0.088457 2:-0.179744 3:7.500034 4:-0.638198 5:2.139976 6:-0.151229 7:-0.657254 8:0.981667 9:-0.81669 10:0.864458 11:-0.089873 12:-0.134576 13:11.366363 14:-0.658887 15:1.484874 16:-0.151289 17:-0.668469 18:1.023164 19:-0.824419 20:0.867355 21:-0.171343 22:0.154871 23:0.586444 24:-0.260021 25:0.937896 26:-0.120776 27:0.036433 28:0.808805 29:-0.221907 30:0.620159 31:1.796406 32:-0.028156 33:-0.131667 34:0.077663 35:-0.074168 36:-0.010318 
1 1:-0.089112 2:-0.245999 3:7.802401 4:-0.638198 5:-0.73209 6:-0.159786 7:0.676172 8:-1.110434 9:-0.81669 10:1.075394 11:-0.090485 12:-0.236619 13:0.236772 14:-0.658887 15:0.1155 16:-0.159855 17:0.686865 18:0.779658 19:-0.824419 20:1.081574 21:-0.172662 22:-0.031187 23:7.617638 24:-0.260021 25:-0.219679 26:-0.121397 27:-0.058597 28:9.154959 29:-0.221907 30:-0.186075 31:1.796406 32:-0.028156 33:-0.143491 34:0.336014 35:-0.074168 36:-0.08585 
1 1:-0.089193 2:-0.254084 3:-0.429861 4:-0.638198 5:-0.73209 6:-0.158894 7:-0.263994 8:1.72061 9:-0.76414 10:1.100849 11:-0.090541 12:-0.243872 13:-0.366632 14:0.642894 15:-0.774068 16:-0.158962 17:-0.269757 18:1.619293 19:-0.774651 20:1.101359 21:-0.172827 22:-0.058126 23:2.884584 24:-0.161448 25:-0.234162 26:-0.121509 27:-0.075065 28:-0.355702 29:-0.11954 30:-0.198147 31:1.796406 32:-0.028156 33:-0.145458 34:-0.163037 35:-0.073525 36:-0.08599 
1 1:-0.088739 2:-0.21056 3:6.625021 4:-0.638198 5:2.139976 6:-0.156398 7:0.962438 8:1.509089 9:-0.757515 10:0.682648 11:-0.090076 12:-0.181004 13:4.273301 14:0.634852 15:2.269343 16:-0.156465 17:0.977361 18:1.002087 19:-0.76625 20:0.744783 21:-0.171616 22:0.138899 23:5.075178 24:-0.156215 25:0.263981 26:-0.120738 27:0.038543 28:4.87016 29:-0.126547 30:0.113262 31:1.796406 32:-0.028156 33:-0.128423 34:3.453889 35:-0.07337 36:-0.081009 
1 1:-0.089151 2:-0.249895 3:-0.429861 4:-0.638198 5:-0.73209 6:-0.156292 7:0.850619 8:1.699207 9:-0.782767 10:1.078907 11:-0.09059 12:-0.250135 13:0.946892 14:0.356724 15:0.013456 16:-0.156364 17:0.869227 18:1.642165 19:-0.790458 20:1.079252 21:-0.172611 22:-0.022939 23:0.766304 24:-0.198804 25:-0.117373 26:-0.121424 27:-0.062489 28:-0.174969 29:-0.151108 30:-0.153378 31:1.796406 32:-0.028156 33:-0.143791 34:-0.156751 35:-0.073845 36:-0.085291 
1 1:-0.089195 2:-0.254286 3:1.374004 4:-0.638198 5:-0.73209 6:-0.15609 7:0.637566 8:1.682027 9:-0.81669 10:1.080686 11:-0.090534 12:-0.242947 13:1.671046 14:-0.658887 15:0.027483 16:-0.15616 17:0.649719 18:1.598791 19:-0.819819 20:1.091639 21:-0.172843 22:-0.060641 23:1.038637 24:-0.214662 25:-0.240886 26:-0.121656 27:-0.096686 28:-0.02242 29:-0.181336 30:-0.189096 31:1.796406 32:-0.028156 33:-0.146407 34:-0.140393 35:-0.074081 36:-0.085871 
1 1:-0.089184 2:-0.253099 3:3.589799 4:-0.638198 5:-0.73209 6:-0.155144 7:-0.360255 8:-0.769056 9:-0.767513 10:1.062605 11:-0.090398 12:-0.225267 13:6.118302 14:0.547705 15:0.277501 16:-0.155209 17:-0.369576 18:0.976648 19:-0.782976 20:1.066611 21:-0.172569 22:-0.016032 23:6.55978 24:-0.192075 25:-0.188528 26:-0.121464 27:-0.068409 28:11.173621 29:-0.118886 30:-0.176526 31:1.796406 32:-0.028156 33:-0.143819 34:2.27597 35:-0.073752 36:-0.085837 
1 1:-0.089104 2:-0.22645 3:6.976262 4:-0.638198 5:-0.73209 6:-0.152732 7:0.930586 8:1.385503 9:-0.758881 10:1.052198 11:-0.090424 12:-0.187627 13:7.819801 14:0.694465 15:0.30193 16:-0.152795 17:0.941007 18:1.091548 19:-0.762746 20:1.043154 21:-0.172648 22:-0.029598 23:3.809539 24:-0.187051 25:0.030873 26:-0.121484 27:-0.068289 28:0.211205 29:-0.160793 30:-0.006534 31:1.796406 32:-0.028156 33:-0.143764 34:-0.154605 35:-0.073766 36:-0.080102 
1 1:-0.089229 2:-0.24496 3:7.854936 4:-0.638198 5:-0.73209 6:-0.152596 7:0.784159 8:1.308125 9:-0.81669 10:1.060729 11:-0.090579 12:-0.242452 13:8.57113 14:-0.658887 15:0.36801 16:-0.152662 17:0.799182 18:1.31549 19:-0.816718 20:1.070031 21:-0.17284 22:-0.058796 23:-0.239551 24:-0.206503 25:-0.231022 26:-0.121535 27:-0.092176 28:-0.073946 29:-0.163731 30:-0.189769 31:1.796406 32:-0.028156 33:-0.14615 34:-0.161036 35:-0.074079 36:-0.085872 
1 1:-0.089221 2:-0.236577 3:7.138152 4:-0.638198 5:-0.73209 6:-0.152391 7:0.569486 8:1.27426 9:-0.807695 10:1.090842 11:-0.090536 12:-0.238634 13:9.12105 14:-0.139982 15:-0.22293 16:-0.152458 17:0.580185 18:1.215703 19:-0.8196 20:1.096079 21:-0.172889 22:-0.068042 23:2.023718 24:-0.228693 25:-0.243107 26:-0.121679 27:-0.095269 28:-0.074792 29:-0.169327 30:-0.182808 31:1.796406 32:-0.028156 33:-0.146499 34:-0.160132 35:-0.074007 36:-0.085861 
1 1:-0.089114 2:-0.237345 3:9.900681 4:-0.638198 5:-0.73209 6:-0.151782 7:-0.070441 8:1.146755 9:-0.81669 10:1.095794 11:-0.090355 12:-0.205546 13:9.631805 14:-0.658887 15:-0.383732 16:-0.151844 17:-0.077753 18:0.932232 19:-0.824419 20:1.100913 21:-0.172624 22:-0.026611 23:2.084615 24:-0.260021 25:-0.263002 26:-0.12146 27:-0.067351 28:1.26766 29:-0.221907 30:-0.238614 31:1.796406 32:-0.028156 33:-0.144783 34:0.33366 35:-0.074168 36:-0.086101 
1 1:-0.08874 2:-0.201786 3:6.97503 4:-0.638198 5:2.139976 6:-0.151279 7:-0.605497 8:1.137254 9:-0.81669 10:0.919932 11:-0.090019 12:-0.164898 13:10.434288 14:-0.658887 15:1.241287 16:-0.151336 17:-0.623318 18:1.048313 19:-0.824419 20:0.910277 21:-0.171576 22:0.148196 23:0.508636 24:-0.260021 25:0.65467 26:-0.120757 27:0.033224 28:0.478855 29:-0.221907 30:0.472237 31:1.796406 32:-0.028156 33:-0.130425 34:-0.054718 35:-0.074168 36:-0.026547 
1 1:-0.089183 2:-0.253105 3:6.484004 4:-0.638198 5:-0.73209 6:-0.159546 7:0.423135 8:-1.106174 9:-0.81669 10:1.085952 11:-0.090511 12:-0.23996 13:0.272891 14:-0.658887 15:-0.076616 16:-0.159614 17:0.428444 18:0.565238 19:-0.824419 20:1.091276 21:-0.172865 22:-0.064195 23:8.134583 24:-0.260021 25:-0.251962 26:-0.121627 27:-0.092366 28:9.190549 29:-0.221907 30:-0.196847 31:1.796406 32:-0.028156 33:-0.146166 34:4.898341 35:-0.074168 36:-0.08598 
1 1:-0.089131 2:-0.247892 3:-0.42986 4:-0.638198 5:-0.373082 6:-0.158546 7:-0.631413 8:1.720608 9:-0.783412 10:1.011613 11:-0.090515 12:-0.240503 13:-0.366632 14:0.329946 15:0.708142 16:-0.158613 17:-0.644226 18:1.379421 19:-0.794665 20:1.01008 21:-0.17262 22:-0.024387 23:5.245561 24:-0.13845 25:0.029326 26:-0.121471 27:-0.069476 28:-0.355256 29:-0.118671 30:0.063675 31:1.796406 32:-0.028156 33:-0.143666 34:-0.163037 35:-0.073539 36:-0.075222 
1 1:-0.089151 2:-0.249895 3:-0.429861 4:-0.638198 5:-0.73209 6:-0.156323 7:0.883308 8:1.703306 9:-0.782806 10:1.086588 11:-0.090496 12:-0.238018 13:0.82545 14:0.356149 15:-0.127654 16:-0.156393 17:0.899745 18:1.669705 19:-0.793129 20:1.084944 21:-0.172634 22:-0.026699 23:0.427063 24:-0.188124 25:-0.181581 26:-0.121373 27:-0.054981 28:-0.229095 29:-0.168974 30:-0.155431 31:1.796406 32:-0.028156 33:-0.142871 34:-0.159946 35:-0.074009 36:-0.085485 
1 1:-0.089195 2:-0.254286 3:1.374004 4:-0.638198 5:-0.73209 6:-0.15612 7:0.669131 8:1.693708 9:-0.81669 10:1.085756 11:-0.090534 12:-0.24292 13:1.335559 14:-0.658887 15:-0.077685 16:-0.156186 17:0.678411 18:1.64655 19:-0.817852 20:1.093572 21:-0.172853 22:-0.062242 23:0.636974 24:-0.208782 25:-0.239043 26:-0.121597 27:-0.087951 28:-0.174715 29:-0.149527 30:-0.175328 31:1.796406 32:-0.028156 33:-0.146113 34:-0.15638 35:-0.073826 36:-0.085622 
1 1:-0.089275 2:-0.262223 3:4.537286 4:-0.638198 5:-0.73209 6:-0.15555 7:0.067583 8:1.703941 9:-0.81669 10:1.066176 11:-0.09051 12:-0.239859 13:0.811681 14:-0.658887 15:0.290006 16:-0.155615 17:0.065998 18:0.998629 19:-0.823907 20:1.074556 21:-0.172821 22:-0.057157 23:7.26644 24:-0.245052 25:-0.221703 26:-0.121568 27:-0.083785 28:7.610454 29:-0.221907 30:-0.13704 31:1.796406 32:-0.028156 33:-0.145474 34:10.636358 35:-0.074168 36:-0.0851 
1 1:-0.089184 2:-0.253099 3:3.589799 4:-0.638198 5:-0.73209 6:-0.155177 7:-0.325507 8:0.82667 9:-0.767719 10:1.062133 11:-0.090451 12:-0.232179 13:7.403416 14:0.545728 15:0.295477 16:-0.155238 17:-0.337707 18:1.011476 19:-0.782595 20:1.068025 21:-0.172606 22:-0.022185 23:6.447352 24:-0.201088 25:-0.214076 26:-0.121424 27:-0.062442 28:10.802177 29:-0.145276 30:-0.202321 31:1.796406 32:-0.028156 33:-0.143581 34:16.605656 35:-0.07399 36:-0.086046 
1 1:-0.088518 2:-0.186862 3:2.914866 4:-0.598295 5:2.139976 6:-0.154666 7:-0.863646 8:1.654354 9:-0.753178 10:0.791277 11:-0.089922 12:-0.159882 13:2.417936 14:0.649743 15:2.024793 16:-0.154727 17:-0.886333 18:1.356446 19:-0.755913 20:0.813933 21:-0.171578 22:0.145088 23:3.357344 24:-0.185699 25:0.389741 26:-0.120836 27:0.024084 28:0.094881 29:-0.14184 30:0.431619 31:1.796406 32:-0.028156 33:-0.130363 34:-0.123618 35:-0.073711 36:-0.043588 
1 1:-0.089221 2:-0.236577 3:7.138152 4:-0.638198 5:-0.73209 6:-0.152417 7:0.594847 8:1.261808 9:-0.815985 10:1.090864 11:-0.090543 12:-0.227999 13:9.222041 14:-0.614903 15:-0.223543 16:-0.152488 17:0.611706 18:1.30906 19:-0.820627 20:1.097294 21:-0.172879 22:-0.068013 23:0.140197 24:-0.229803 25:-0.240424 26:-0.121569 27:-0.082546 28:-0.178779 29:-0.169607 30:-0.19652 31:1.796406 32:-0.028156 33:-0.145741 34:-0.160694 35:-0.07401 36:-0.085864 
1 1:-0.08874 2:-0.201786 3:6.97503 4:-0.638198 5:2.139976 6:-0.151311 7:-0.570092 8:1.127665 9:-0.81669 10:0.974932 11:-0.089549 12:-0.088585 13:10.434831 14:-0.658887 15:0.90577 16:-0.151381 17:-0.574742 18:1.07146 19:-0.824419 20:0.942498 21:-0.171745 22:0.119658 23:0.475271 24:-0.260021 25:0.549209 26:-0.120891 27:0.016899 28:-0.014555 29:-0.221907 30:0.251661 31:1.796406 32:-0.028156 33:-0.134245 34:-0.148097 35:-0.074168 36:-0.059247 
1 1:-0.089155 2:-0.250271 3:7.802401 4:-0.638198 5:-0.73209 6:-0.159833 7:0.726334 8:1.5425 9:-0.81669 10:1.075702 11:-0.090458 12:-0.233153 13:3.851865 14:-0.658887 15:0.120534 16:-0.159903 17:0.738578 18:0.993493 19:-0.824419 20:1.076333 21:-0.172704 22:-0.038114 23:7.108085 24:-0.260021 25:-0.228297 26:-0.121524 27:-0.077148 28:11.403725 29:-0.221907 30:-0.154974 31:1.796406 32:-0.028156 33:-0.145276 34:18.874792 35:-0.074168 36:-0.085526 
1 1:-0.0892 2:-0.254809 3:8.236327 4:-0.638198 5:-0.73209 6:-0.159571 7:0.449746 8:-1.039917 9:-0.81669 10:1.085988 11:-0.090511 12:-0.239962 13:2.459172 14:-0.658887 15:-0.077449 16:-0.159637 17:0.453267 18:0.332182 19:-0.824419 20:1.093938 21:-0.172878 22:-0.066426 23:8.306745 24:-0.260021 25:-0.232866 26:-0.121612 27:-0.090245 28:9.258803 29:-0.221907 30:-0.1969 31:1.796406 32:-0.028156 33:-0.146247 34:12.279224 35:-0.074168 36:-0.085981 
1 1:-0.089151 2:-0.24992 3:-0.429861 4:-0.638198 5:-0.73209 6:-0.158941 7:-0.214962 8:1.720609 9:-0.772682 10:1.086259 11:-0.090515 12:-0.240437 13:-0.366632 14:0.532407 15:-0.083818 16:-0.159011 17:-0.217538 18:1.735193 19:-0.770517 20:1.095595 21:-0.172842 22:-0.060601 23:-0.165687 24:-0.168779 25:-0.211262 26:-0.121633 27:-0.093275 28:-0.3557 29:-0.093941 30:-0.156841 31:1.796406 32:-0.028156 33:-0.146233 34:-0.163037 35:-0.073123 36:-0.085644 
1 1:-0.08913 2:-0.247829 3:-0.429861 4:-0.638198 5:-0.373082 6:-0.158566 7:-0.610322 8:1.720608 9:-0.783823 10:1.029277 11:-0.090505 12:-0.239197 13:-0.366632 14:0.309175 15:0.596924 16:-0.158639 17:-0.615971 18:1.482695 19:-0.787474 20:1.014892 21:-0.172646 22:-0.02857 23:4.490626 24:-0.092452 25:-0.006615 26:-0.12147 27:-0.069228 28:-0.355698 29:-0.118912 30:0.052126 31:1.796406 32:-0.028156 33:-0.143886 34:-0.163037 35:-0.073374 36:-0.079445 
1 1:-0.089207 2:-0.255489 3:-0.304301 4:-0.638198 5:-0.73209 6:-0.156143 7:0.693023 8:1.69872 9:-0.807758 10:1.090739 11:-0.09051 12:-0.239922 13:1.165318 14:-0.141861 15:-0.1995 16:-0.156213 17:0.70675 18:1.680028 19:-0.81588 20:1.094934 21:-0.172863 22:-0.063922 23:0.248683 24:-0.207425 25:-0.241677 26:-0.121534 27:-0.078711 28:-0.245719 29:-0.165419 30:-0.196943 31:1.796406 32:-0.028156 33:-0.145493 34:-0.160628 35:-0.073824 36:-0.085983 
1 1:-0.089273 2:-0.24719 3:7.688545 4:-0.638198 5:-0.73209 6:-0.152652 7:0.845831 8:1.286624 9:-0.81669 10:1.060797 11:-0.090528 12:-0.207518 13:8.735369 14:-0.658887 15:0.366999 16:-0.152722 17:0.862962 18:1.282315 19:-0.819476 20:1.067238 21:-0.172845 22:-0.059414 23:0.014901 24:-0.216501 25:-0.246217 26:-0.121593 27:-0.094852 28:-0.104424 29:-0.169975 30:-0.187557 31:1.796406 32:-0.028156 33:-0.146296 34:-0.160453 35:-0.074012 36:-0.085847 
1 1:-0.089249 2:-0.238866 3:6.432091 4:-0.638198 5:-0.73209 6:-0.152452 7:0.630759 8:1.258702 9:-0.815986 10:1.095799 11:-0.090607 12:-0.246669 13:9.21478 14:-0.614937 15:-0.367989 16:-0.152517 17:0.642865 18:1.320093 19:-0.821755 20:1.098301 21:-0.172883 22:-0.068423 23:-0.153812 24:-0.232563 25:-0.240835 26:-0.121575 27:-0.086658 28:-0.162035 29:-0.221892 30:-0.183036 31:1.796406 32:-0.028156 33:-0.146117 34:-0.160124 35:-0.074168 36:-0.085865 
1 1:-0.089146 2:-0.239261 3:9.900681 4:-0.638198 5:-0.73209 6:-0.151846 7:-0.004156 8:0.510988 9:-0.81669 10:1.095811 11:-0.090419 12:-0.225918 13:11.612335 14:-0.658887 15:-0.384377 16:-0.151909 17:-0.008957 18:0.747421 19:-0.824419 20:1.100746 21:-0.172677 22:-0.034602 23:2.434465 24:-0.260021 25:-0.268509 26:-0.121397 27:-0.059544 28:2.639938 29:-0.221907 30:-0.238847 31:1.796406 32:-0.028156 33:-0.144023 34:1.60763 35:-0.074168 36:-0.086101 
1 1:-0.088815 2:-0.209265 3:7.879132 4:-0.638198 5:2.139976 6:-0.15136 7:-0.517218 8:1.175801 9:-0.81669 10:0.991596 11:-0.089506 12:-0.085265 13:9.941352 14:-0.658887 15:0.797333 16:-0.151423 17:-0.529583 18:1.086999 19:-0.824419 20:0.972705 21:-0.171882 22:0.096495 23:0.431182 24:-0.260021 25:0.436118 26:-0.120923 27:0.011578 28:0.060021 29:-0.221907 30:0.113162 31:1.796406 32:-0.028156 33:-0.135059 34:-0.131092 35:-0.074168 36:-0.071817 
1 1:-0.089155 2:-0.250271 3:7.802401 4:-0.638198 5:-0.73209 6:-0.159856 7:0.750078 8:1.71673 9:-0.81669 10:1.065551 11:-0.090458 12:-0.23301 13:0.318278 14:-0.658887 15:0.289713 16:-0.159927 17:0.764167 18:1.142936 19:-0.824419 20:1.073117 21:-0.172744 22:-0.044586 23:6.65186 24:-0.260021 25:-0.223409 26:-0.121476 27:-0.070106 28:4.684926 29:-0.221907 30:-0.144681 31:1.796406 32:-0.028156 33:-0.144522 34:4.370826 35:-0.074168 36:-0.085188 
1 1:-0.089151 2:-0.24992 3:-0.429861 4:-0.638198 5:-0.73209 6:-0.158967 7:-0.18725 8:1.72061 9:-0.775514 10:1.086137 11:-0.090477 12:-0.235593 13:-0.366632 14:0.493433 15:-0.080941 16:-0.159035 17:-0.191382 18:1.740711 19:-0.772265 20:1.090252 21:-0.17286 22:-0.063384 23:-0.425498 24:-0.16385 25:-0.179287 26:-0.121639 27:-0.094142 28:-0.355699 29:-0.080254 30:-0.196798 31:1.796406 32:-0.028156 33:-0.146421 34:-0.163037 35:-0.07298 36:-0.085979 
1 1:-0.088896 2:-0.224438 3:6.625021 4:-0.638198 5:2.139976 6:-0.156506 7:1.076162 8:0.890279 9:-0.759068 10:0.800102 11:-0.090028 12:-0.173391 13:8.240864 14:0.629521 15:1.85599 16:-0.156569 17:1.088985 18:1.027124 19:-0.764856 20:0.7908 21:-0.17195 22:0.084635 23:5.270528 24:-0.125539 25:0.388909 26:-0.121014 27:-0.001991 28:9.595397 29:-0.083564 30:0.048495 31:1.796406 32:-0.028156 33:-0.134938 34:12.195018 35:-0.07238 36:-0.079431 
1 1:-0.089207 2:-0.255489 3:-0.304301 4:-0.638198 5:-0.73209 6:-0.156175 7:0.726866 8:1.702908 9:-0.807733 10:1.090755 11:-0.090538 12:-0.243357 13:0.998569 14:-0.141132 15:-0.199941 16:-0.156239 17:0.734986 18:1.698876 19:-0.813904 20:1.096281 21:-0.172857 22:-0.062958 23:0.011184 24:-0.210258 25:-0.24808 26:-0.12155 27:-0.081012 28:-0.279568 29:-0.169323 30:-0.196738 31:1.796406 32:-0.028156 33:-0.145549 34:-0.161893 35:-0.074008 36:-0.085982 
1 1:-0.089246 2:-0.259361 3:8.675672 4:-0.638198 5:-0.73209 6:-0.15591 7:0.447152 8:-1.034808 9:-0.81669 10:1.085944 11:-0.09056 12:-0.246279 13:2.130785 14:-0.658887 15:-0.076413 16:-0.155979 17:0.456011 18:0.225806 19:-0.824419 20:1.093688 21:-0.1729 22:-0.069919 23:5.737518 24:-0.260021 25:-0.233008 26:-0.121627 27:-0.092363 28:7.285117 29:-0.221907 30:-0.162465 31:1.796406 32:-0.028156 33:-0.146173 34:0.645137 35:-0.074168 36:-0.085518 
1 1:-0.089249 2:-0.238866 3:6.432091 4:-0.638198 5:-0.73209 6:-0.152476 7:0.655695 8:1.292559 9:-0.815987 10:1.095807 11:-0.090591 12:-0.262122 13:8.854016 14:-0.61497 15:-0.368298 16:-0.152545 17:0.673681 18:1.319039 19:-0.822887 20:1.099418 21:-0.172882 22:-0.06821 23:-0.165922 24:-0.238833 25:-0.246385 26:-0.121533 27:-0.07583 28:-0.202443 29:-0.221888 30:-0.196668 31:1.796406 32:-0.028156 33:-0.145725 34:-0.160577 35:-0.074168 36:-0.085981 
1 1:-0.089209 2:-0.248632 3:8.149721 4:-0.638198 5:-0.73209 6:-0.15222 7:0.389632 8:1.247525 9:-0.81669 10:1.085881 11:-0.090425 12:-0.213458 13:9.158443 14:-0.658887 15:-0.074954 16:-0.15228 17:0.388898 18:0.971003 19:-0.824419 20:1.093713 21:-0.172856 22:-0.063216 23:3.468108 24:-0.260021 25:-0.259285 26:-0.12161 27:-0.091666 28:2.646385 29:-0.221907 30:-0.198557 31:1.796406 32:-0.028156 33:-0.146487 34:1.57379 35:-0.074168 36:-0.08599 
1 1:-0.0892 2:-0.254809 3:8.29565 4:-0.638198 5:-0.73209 6:-0.159613 7:0.493889 8:1.159882 9:-0.81669 10:1.090983 11:-0.090549 12:-0.244785 13:7.831028 14:-0.658887 15:-0.20647 16:-0.159683 17:0.502946 18:0.152317 19:-0.824419 20:1.098064 21:-0.172902 22:-0.070318 23:7.91416 24:-0.260021 25:-0.243952 26:-0.121727 27:-0.107142 28:11.812927 29:-0.221907 30:-0.155776 31:1.796406 32:-0.028156 33:-0.147004 34:20.672735 35:-0.074168 36:-0.085636 
1 1:-0.08899 2:-0.233846 3:5.858251 4:-0.638198 5:2.139976 6:-0.156539 7:1.110675 8:1.589766 9:-0.751244 10:0.805916 11:-0.090167 12:-0.194301 13:3.017309 14:0.727842 15:1.81739 16:-0.156602 17:1.123984 18:1.100942 19:-0.762631 20:0.806877 21:-0.172031 22:0.07141 23:5.079987 24:-0.111999 25:0.410598 26:-0.121099 27:-0.014637 28:5.80953 29:-0.111135 30:0.1155 31:1.796406 32:-0.028156 33:-0.13653 34:6.722655 35:-0.073156 36:-0.072898 
1 1:-0.08919 2:-0.253705 3:1.54343 4:-0.638198 5:-0.73209 6:-0.156403 7:0.967443 8:1.712306 9:-0.799568 10:1.076241 11:-0.090497 12:-0.238111 13:0.44792 14:0.041251 15:0.115457 16:-0.156475 17:0.98836 18:1.121058 19:-0.804606 20:1.083542 21:-0.172706 22:-0.038316 23:6.636899 24:-0.174281 25:-0.194019 26:-0.121496 27:-0.073117 28:-0.261029 29:-0.081577 30:-0.164787 31:1.796406 32:-0.028156 33:-0.144883 34:-0.161745 35:-0.072572 36:-0.085748 
1 1:-0.089237 2:-0.258447 3:5.059835 4:-0.638198 5:-0.73209 6:-0.155258 7:-0.240133 8:1.597156 9:-0.773149 10:1.071018 11:-0.090478 12:-0.235616 13:2.780655 14:0.507938 15:0.176107 16:-0.155326 17:-0.243752 18:1.062582 19:-0.782846 20:1.070028 21:-0.172678 22:-0.033888 23:4.935149 24:-0.210036 25:-0.250505 26:-0.121442 27:-0.065218 28:0.674936 29:-0.148374 30:-0.178638 31:1.796406 32:-0.028156 33:-0.144123 34:0.029623 35:-0.073789 36:-0.086037 
1 1:-0.088919 2:-0.207546 3:7.697257 4:0.143475 5:2.857992 6:-0.152897 7:1.102703 8:1.479659 9:-0.69193 10:0.6036 11:-0.090112 12:-0.144137 13:6.460059 14:1.175543 15:2.386196 16:-0.152957 17:1.114445 18:1.209625 19:-0.707169 20:0.626498 21:-0.172263 22:0.030027 23:2.271467 24:-0.040448 25:0.350978 26:-0.121217 27:-0.0297 28:0.318084 29:-0.026353 30:0.301909 31:1.796406 32:-0.028156 33:-0.137003 34:-0.108735 35:-0.070451 36:-0.053626 
1 1:-0.089151 2:-0.23477 3:7.697255 4:-0.558392 5:-0.73209 6:-0.152857 7:1.059286 8:1.352583 9:-0.741449 10:1.068448 11:-0.090536 12:-0.234997 13:8.067717 14:0.877996 15:0.187006 16:-0.152921 17:1.076242 18:1.368739 19:-0.753883 20:1.063542 21:-0.172716 22:-0.039384 23:-0.000848 24:-0.138914 25:-0.177308 26:-0.121509 27:-0.071543 28:0.140941 29:-0.115784 30:-0.120827 31:1.796406 32:-0.028156 33:-0.144219 34:-0.130787 35:-0.073223 36:-0.084836 
1 1:-0.089285 2:-0.246907 3:7.531656 4:-0.638198 5:-0.73209 6:-0.152722 7:0.919038 8:1.201169 9:-0.81669 10:1.060376 11:-0.090625 12:-0.230078 13:9.805664 14:-0.658887 15:0.373061 16:-0.152781 17:0.925797 18:0.858886 19:-0.81801 20:1.068123 21:-0.172887 22:-0.068033 23:5.31098 24:-0.200593 25:-0.239531 26:-0.121566 27:-0.08274 28:0.184895 29:-0.169903 30:-0.17415 31:1.796406 32:-0.028156 33:-0.146268 34:-0.125877 35:-0.074012 36:-0.085733 
1 1:-0.089254 2:-0.243019 3:6.432091 4:-0.638198 5:-0.73209 6:-0.15251 7:0.696955 8:1.294065 9:-0.815989 10:1.09581 11:-0.090487 12:-0.209325 13:8.843047 14:-0.615004 15:-0.368448 16:-0.152574 17:0.704176 18:1.321092 19:-0.824014 20:1.099721 21:-0.172905 22:-0.071532 23:-0.191562 24:-0.257397 25:-0.249772 26:-0.121597 27:-0.084591 28:-0.209153 29:-0.217472 30:-0.192223 31:1.796406 32:-0.028156 33:-0.146442 34:-0.160275 35:-0.074167 36:-0.085996 
1 1:-0.088882 2:-0.215654 3:8.480618 4:-0.638198 5:-0.014074 6:-0.151445 7:-0.427227 8:1.122618 9:-0.81669 10:1.021078 11:-0.089688 12:-0.103448 13:10.247967 14:-0.658887 15:0.581076 16:-0.151503 17:-0.443314 18:1.074147 19:-0.824419 20:1.020776 21:-0.17205 22:0.069249 23:0.445319 24:-0.260021 25:0.196118 26:-0.121011 27:-0.001304 28:0.233888 29:-0.221907 30:0.101016 31:1.796406 32:-0.028156 33:-0.137978 34:-0.127619 35:-0.074168 36:-0.072137 
1 1:-0.089137 2:-0.248477 3:6.211966 4:-0.638198 5:-0.373082 6:-0.160129 7:1.038402 8:-1.080805 9:-0.81669 10:1.046749 11:-0.090322 12:-0.207815 13:1.283741 14:-0.658887 15:0.483985 16:-0.160203 17:1.060636 18:0.499831 19:-0.824419 20:1.053421 21:-0.17234 22:0.021111 23:7.856462 24:-0.260021 25:-0.053594 26:-0.121185 27:-0.027271 28:10.446147 29:-0.221907 30:-0.067605 31:1.796406 32:-0.028156 33:-0.140332 34:0.138776 35:-0.074168 36:-0.083102 
1 1:-0.089185 2:-0.253286 3:6.090521 4:-0.638198 5:-0.73209 6:-0.159903 7:0.799606 8:1.720609 9:-0.81669 10:1.075727 11:-0.090533 12:-0.242801 13:-0.366632 14:-0.658887 15:0.131674 16:-0.159974 17:0.814554 18:1.382952 19:-0.824419 20:1.066277 21:-0.172784 22:-0.051143 23:5.31016 24:-0.260021 25:-0.19363 26:-0.121591 27:-0.087123 28:-0.355148 29:-0.221907 30:-0.124923 31:1.796406 32:-0.028156 33:-0.145905 34:-0.163037 35:-0.074168 36:-0.085586 
1 1:-0.0892 2:-0.254809 3:8.29565 4:-0.638198 5:-0.73209 6:-0.159631 7:0.513347 8:-1.03117 9:-0.81669 10:1.100849 11:-0.090551 12:-0.245138 13:2.478925 14:-0.658887 15:-0.774068 16:-0.159706 17:0.527664 18:0.251769 19:-0.824419 20:1.098085 21:-0.172917 22:-0.072786 23:8.058056 24:-0.260021 25:-0.242226 26:-0.12157 27:-0.084002 28:10.179272 29:-0.221907 30:-0.176687 31:1.796406 32:-0.028156 33:-0.145809 34:13.179575 35:-0.074168 36:-0.085986 
1 1:-0.08899 2:-0.233846 3:5.858251 4:-0.638198 5:2.139976 6:-0.156569 7:1.142611 8:1.618208 9:-0.750628 10:0.814977 11:-0.090341 12:-0.218964 13:2.596509 14:0.728611 15:1.768415 16:-0.156634 17:1.158133 18:1.223947 19:-0.76093 20:0.821573 21:-0.172111 22:0.058469 23:4.535693 24:-0.106293 25:0.445696 26:-0.121144 27:-0.021274 28:0.73338 29:-0.121116 30:0.329556 31:1.796406 32:-0.028156 33:-0.137824 34:0.080095 35:-0.073389 36:-0.053197 
1 1:-0.08919 2:-0.253705 3:1.54343 4:-0.638198 5:-0.73209 6:-0.156435 7:1.000423 8:1.697647 9:-0.807833 10:1.066504 11:-0.090526 12:-0.241831 13:0.951808 14:-0.163798 15:0.279103 16:-0.156503 17:1.017757 18:0.958223 19:-0.807479 20:1.080608 21:-0.172724 22:-0.041388 23:6.65888 24:-0.181331 25:-0.200611 26:-0.121502 27:-0.074043 28:6.725828 29:-0.151692 30:-0.129368 31:1.796406 32:-0.028156 33:-0.144919 34:6.122404 35:-0.073847 36:-0.084971 
1 1:-0.08921 2:-0.255744 3:-0.429861 4:-0.638198 5:-0.73209 6:-0.15623 7:0.78456 8:1.709 9:-0.807689 10:1.095764 11:-0.090543 12:-0.244078 13:0.745733 14:-0.139856 15:-0.366563 16:-0.156291 17:0.790677 18:1.703618 19:-0.810766 20:1.096491 21:-0.17288 22:-0.066772 23:-0.070857 24:-0.218366 25:-0.252629 26:-0.121667 27:-0.098348 28:-0.329927 29:-0.169021 30:-0.206768 31:1.796406 32:-0.028156 33:-0.146833 34:-0.163005 35:-0.074006 36:-0.086038 
1 1:-0.089237 2:-0.258447 3:5.059835 4:-0.638198 5:-0.73209 6:-0.155286 7:-0.210414 8:1.490245 9:-0.773349 10:1.064952 11:-0.090496 12:-0.238039 13:4.057411 14:0.505479 15:0.280247 16:-0.155354 17:-0.213757 18:1.037936 19:-0.783926 20:1.071073 21:-0.172699 22:-0.037186 23:4.322261 24:-0.212241 25:-0.248993 26:-0.121433 27:-0.063799 28:1.439353 29:-0.177255 30:-0.172669 31:1.796406 32:-0.028156 33:-0.144079 34:0.37389 35:-0.074145 36:-0.086018 
1 1:-0.088919 2:-0.207546 3:7.697257 4:0.143475 5:2.857992 6:-0.15293 7:1.137114 8:1.530987 9:-0.676362 10:0.592824 11:-0.090101 12:-0.131548 13:5.644186 14:1.286686 15:2.403476 16:-0.152993 17:1.153125 18:1.148327 19:-0.697521 20:0.628231 21:-0.172305 22:0.025191 23:2.623523 24:-0.032166 25:0.392247 26:-0.121349 27:-0.041579 28:0.953662 29:-0.120197 30:0.159728 31:1.796406 32:-0.028156 33:-0.140185 34:-0.053777 35:-0.073482 36:-0.068553 
1 1:-0.089285 2:-0.246907 3:7.531656 4:-0.638198 5:-0.73209 6:-0.152749 7:0.944611 8:1.165744 9:-0.81669 10:1.066038 11:-0.090556 12:-0.238106 13:10.223635 14:-0.658887 15:0.292114 16:-0.152809 17:0.956352 18:0.65617 19:-0.817203 20:1.067802 21:-0.172891 22:-0.068631 23:5.595632 24:-0.196641 25:-0.237351 26:-0.121646 27:-0.096746 28:2.655119 29:-0.150329 30:-0.155114 31:1.796406 32:-0.028156 33:-0.14654 34:1.26889 35:-0.073826 36:-0.085411 
1 1:-0.089254 2:-0.243019 3:6.432091 4:-0.638198 5:-0.73209 6:-0.152538 7:0.725638 8:1.283452 9:-0.81669 10:1.090832 11:-0.090544 12:-0.222019 13:8.953773 14:-0.658887 15:-0.202146 16:-0.152602 17:0.734939 18:1.316902 19:-0.824101 20:1.100018 21:-0.17294 22:-0.077282 23:-0.111635 24:-0.257387 25:-0.253618 26:-0.121682 27:-0.097028 28:-0.170446 29:-0.217481 30:-0.20626 31:1.796406 32:-0.028156 33:-0.146778 34:-0.161677 35:-0.074167 36:-0.086035 
1 1:-0.089143 2:-0.23784 3:8.901587 4:-0.638198 5:-0.73209 6:-0.151936 7:0.090546 8:0.156956 9:-0.81669 10:1.090895 11:-0.090372 12:-0.22026 13:12.001372 14:-0.658887 15:-0.203948 16:-0.152002 17:0.090553 18:0.66229 19:-0.824419 20:1.09801 21:-0.172749 22:-0.045569 23:2.949502 24:-0.260021 25:-0.256597 26:-0.121524 27:-0.062825 28:3.568058 29:-0.221907 30:-0.238607 31:1.796406 32:-0.028156 33:-0.144514 34:2.179813 35:-0.074168 36:-0.086101 
1 1:-0.089205 2:-0.255297 3:-0.429861 4:-0.638198 5:-0.73209 6:-0.159036 7:-0.114443 8:1.720609 9:-0.78392 10:1.054237 11:-0.090548 12:-0.244759 13:-0.366632 14:0.369107 15:0.459668 16:-0.159107 17:-0.114467 18:1.740866 19:-0.780088 20:1.07644 21:-0.172894 22:-0.068936 23:-0.432991 24:-0.139362 25:-0.190805 26:-0.121702 27:-0.103456 28:-0.355704 29:-0.06777 30:-0.094642 31:1.796406 32:-0.028156 33:-0.147276 34:-0.163037 35:-0.072599 36:-0.084727 
1 1:-0.089224 2:-0.257121 3:0.215782 4:-0.638198 5:-0.73209 6:-0.156252 7:0.807648 8:1.712065 9:-0.80767 10:1.095763 11:-0.090549 12:-0.244855 13:0.563814 14:-0.139295 15:-0.366541 16:-0.156317 17:0.818077 18:1.5872 19:-0.810479 20:1.096388 21:-0.172896 22:-0.069378 23:2.843189 24:-0.216508 25:-0.253299 26:-0.121726 27:-0.106948 28:-0.30326 29:-0.16955 30:-0.182874 31:1.796406 32:-0.028156 33:-0.1473 34:-0.162735 35:-0.074003 36:-0.085864 
