svm_type c_svc
kernel_type rbf
gamma 1
nr_class 2
total_sv 1028
rho 0.68575
label 0 1
nr_sv 264 764
SV
0.1834604351475714 1:-0.089076 2:-0.292341 3:-0.429861 4:-0.638198 5:-0.73209 6:-0.145499 7:1.055919 8:1.648689 9:-0.81669 10:-1.364197 11:-0.090479 12:-0.285575 13:-0.366633 14:-0.658887 15:-0.774068 16:-0.145605 17:1.07409 18:1.6681 19:-0.824419 20:-1.371868 21:-0.173147 22:-0.373828 23:-0.432989 24:-0.260021 25:-0.293516 26:-0.12166 27:-0.286479 28:-0.355705 29:-0.221907 30:-0.2389 31:1.796406 32:-0.028156 33:-0.152574 34:-0.163037 35:-0.074168 36:-0.086101 
0.3245615362930201 1:-0.089224 2:-0.292341 3:-0.429861 4:-0.638198 5:-0.73209 6:-0.152399 7:1.055919 8:1.646031 9:-0.81669 10:-1.364197 11:-0.090434 12:-0.285575 13:0.190051 14:-0.658887 15:-0.774068 16:-0.152462 17:1.07409 18:1.662488 19:-0.824419 20:-1.371868 21:-0.172578 22:-0.373825 23:-0.377022 24:-0.260021 25:-0.293516 26:-0.121425 27:-0.286474 28:-0.329872 29:-0.221907 30:-0.2389 31:1.796406 32:-0.028156 33:-0.152574 34:-0.162908 35:-0.074168 36:-0.086101 
0.6857997265281353 1:-0.089146 2:-0.292341 3:-0.429861 4:-0.638198 5:-0.73209 6:-0.152425 7:1.055919 8:1.643043 9:-0.81669 10:-1.364197 11:-0.090425 12:-0.285575 13:0.419329 14:-0.658887 15:-0.774068 16:-0.15249 17:1.073641 18:1.644807 19:-0.824419 20:-1.347642 21:-0.172582 22:-0.365799 23:-0.128808 24:-0.260021 25:0.297681 26:-0.121512 27:-0.286474 28:-0.321622 29:-0.221907 30:-0.2389 31:1.796406 32:-0.028156 33:-0.152574 34:-0.162811 35:-0.074168 36:-0.086101 
1 1:-0.089146 2:-0.292341 3:-0.429861 4:-0.638198 5:-0.73209 6:-0.15245 7:1.055919 8:1.638825 9:-0.81669 10:-1.364197 11:-0.090448 12:-0.285575 13:0.657018 14:-0.658887 15:-0.774068 16:-0.152779 17:0.856484 18:1.57358 19:-0.824419 20:-1.121442 21:-0.146544 22:1.541269 23:0.787415 24:-0.260021 25:5.092388 26:-0.121478 27:-0.286476 28:-0.279475 29:-0.221907 30:-0.2389 31:1.796406 32:-0.028156 33:-0.152574 34:-0.161943 35:-0.074168 36:-0.086101 
1 1:-0.089033 2:-0.276658 3:-0.388276 4:-0.638198 5:-0.73209 6:-0.15248 7:1.055919 8:1.627352 9:-0.81669 10:-1.364197 11:-0.090386 12:-0.285575 13:1.145542 14:-0.658887 15:-0.774068 16:-0.153132 17:0.6037 18:1.453463 19:-0.824419 20:-0.798765 21:-0.134039 22:2.304979 23:1.7674 24:-0.260021 25:8.285455 26:-0.121443 27:-0.28605 28:0.265199 29:-0.221907 30:1.315542 31:1.796406 32:-0.028156 33:-0.152574 34:-0.108683 35:-0.074168 36:0.076167 
1 1:-0.089033 2:-0.276658 3:-0.388276 4:-0.638198 5:-0.73209 6:-0.152508 7:1.055916 8:1.520958 9:-0.81669 10:-1.16356 11:-0.090431 12:-0.279781 13:3.494665 14:-0.658887 15:0.78628 16:-0.153492 17:0.362887 18:1.298679 19:-0.824419 20:-0.476984 21:-0.12825 22:2.589622 23:2.518318 24:-0.260021 25:9.601181 26:-0.052049 27:4.122118 28:1.996953 29:-0.221907 30:12.850039 31:1.796406 32:-0.027982 33:3.46973 34:0.733749 35:-0.074168 36:12.833038 
1 1:-0.088912 2:-0.226023 3:6.126837 4:-0.638198 5:1.421959 6:-0.15492 7:-0.595941 8:0.556893 9:-0.81669 10:0.857361 11:-0.090058 12:-0.177521 13:10.085443 14:-0.658887 15:1.836247 16:-0.154595 17:-0.3096 18:0.747636 19:-0.824419 20:0.491054 21:-0.139091 22:1.75614 23:2.909585 24:-0.260021 25:6.876575 26:-0.119797 27:0.177248 28:1.055033 29:-0.221907 30:0.066891 31:1.796406 32:-0.028155 33:-0.089255 34:0.179706 35:-0.074168 36:-0.084218 
0.2445414551328634 1:-0.089165 2:-0.292341 3:-0.429861 4:-0.638198 5:-0.73209 6:-0.156271 7:1.055919 8:1.648687 9:-0.800607 10:-1.364015 11:-0.090426 12:-0.285575 13:-0.366633 14:0.059886 15:-0.705017 16:-0.156344 17:1.073431 18:1.668126 19:-0.812089 20:-1.369254 21:-0.17259 22:-0.357788 23:-0.431646 24:-0.184777 25:-0.161351 26:-0.121495 27:-0.286477 28:-0.355697 29:-0.144778 30:-0.237133 31:1.796406 32:-0.028156 33:-0.152574 34:-0.163037 35:-0.073562 36:-0.086101 
1 1:-0.088943 2:-0.226023 3:6.126837 4:-0.638198 5:1.421959 6:-0.155027 7:-0.483383 8:-0.135335 9:-0.81669 10:0.887779 11:-0.090266 12:-0.205111 13:8.282514 14:-0.658887 15:1.674346 16:-0.155082 17:-0.505072 18:0.736829 19:-0.824419 20:0.886517 21:-0.17149 22:0.159371 23:2.871655 24:-0.260021 25:-0.097096 26:-0.120818 27:0.026871 28:3.236455 29:-0.221907 30:0.030637 31:1.796406 32:-0.028156 33:-0.123962 34:0.111598 35:-0.074168 36:-0.082943 
0.9772026400557639 1:-0.089165 2:-0.292341 3:-0.429861 4:-0.638198 5:-0.73209 6:-0.156306 7:1.055919 8:1.648689 9:-0.792357 10:-1.363963 11:-0.090415 12:-0.285575 13:-0.366633 14:0.224725 15:-0.695678 16:-0.156385 17:1.046831 18:1.668473 19:-0.808214 20:-1.330174 21:-0.167246 22:0.219822 23:-0.420134 24:-0.183901 25:1.5587 26:-0.121428 27:-0.286476 28:-0.355697 29:-0.17059 30:-0.237754 31:1.796406 32:-0.028156 33:-0.152574 34:-0.163037 35:-0.074016 36:-0.086101 
0.1049665335237401 1:-0.089007 2:-0.292341 3:-0.429861 4:-0.638198 5:-0.73209 6:-0.149065 7:1.055919 8:1.648722 9:-0.808555 10:-1.362375 11:-0.090453 12:-0.285575 13:-0.289761 14:-0.146686 15:-0.61045 16:-0.149348 17:0.979935 18:1.601918 19:-0.814048 20:-1.201304 21:-0.150013 22:1.513622 23:0.675694 24:-0.165287 25:4.368672 26:-0.121451 27:-0.286475 28:-0.355271 29:-0.170468 30:-0.214507 31:1.796406 32:-0.028156 33:-0.152574 34:-0.163037 35:-0.074015 36:-0.086029 
1 1:-0.088834 2:-0.254134 3:-0.378313 4:-0.638198 5:-0.73209 6:-0.156331 7:1.055919 8:1.648687 9:-0.792423 10:-1.363872 11:-0.090406 12:-0.285575 13:-0.366633 14:0.223519 15:-0.681696 16:-0.156502 17:0.900662 18:1.654992 19:-0.804271 20:-1.208301 21:-0.150839 22:1.550936 23:0.245152 24:-0.194079 25:4.167018 26:-0.121456 27:-0.286476 28:-0.355698 29:-0.221181 30:-0.227512 31:1.796406 32:-0.028156 33:-0.152574 34:-0.163037 35:-0.074168 36:-0.08609 
1 1:-0.088902 2:-0.274009 3:0.379391 4:-0.638198 5:-0.373082 6:-0.149093 7:1.055919 8:1.648709 9:-0.808518 10:-1.361117 11:-0.090431 12:-0.285575 13:-0.187285 14:-0.145519 15:-0.56089 16:-0.149694 17:0.858818 18:1.508459 19:-0.80901 20:-0.982235 21:-0.136766 22:2.534962 23:1.590553 24:-0.150087 25:6.641018 26:-0.121419 27:-0.167315 28:0.050734 29:-0.137759 30:0.296124 31:1.796406 32:-0.028156 33:-0.150215 34:-0.137726 35:-0.07374 36:-0.061024 
1 1:-0.088834 2:-0.254134 3:-0.378313 4:-0.638198 5:-0.73209 6:-0.156359 7:1.055919 8:1.648688 9:-0.792341 10:-1.362872 11:-0.090405 12:-0.285575 13:-0.366633 14:0.225003 15:-0.633283 16:-0.156687 17:0.64616 18:1.608273 19:-0.799969 20:-1.006396 21:-0.137308 22:2.621943 23:1.184679 24:-0.196385 25:6.345326 26:-0.12149 27:-0.262236 28:-0.352115 29:-0.180937 30:0.286026 31:1.796406 32:-0.028156 33:-0.152469 34:-0.163035 35:-0.074076 36:-0.062296 
1 1:-0.088977 2:-0.232559 3:5.711113 4:-0.638198 5:0.703943 6:-0.155162 7:-0.340734 8:1.483937 9:-0.81669 10:0.900486 11:-0.090278 12:-0.206891 13:4.90557 14:-0.658887 15:1.596614 16:-0.155225 17:-0.352489 18:1.185506 19:-0.824419 20:0.905672 21:-0.172151 22:0.051904 23:3.894161 24:-0.260021 25:-0.016755 26:-0.121158 27:-0.023268 28:1.746297 29:-0.221907 30:0.092831 31:1.796406 32:-0.028156 33:-0.133924 34:0.665414 35:-0.074168 36:-0.074007 
1 1:-0.088902 2:-0.274009 3:0.379391 4:-0.638198 5:-0.373082 6:-0.149126 7:1.041141 8:1.586645 9:-0.792567 10:-1.331505 11:-0.090442 12:0.589246 13:3.232929 14:0.223114 15:0.011193 16:-0.150099 17:0.724069 18:1.403502 19:-0.80393 20:-0.707461 21:-0.128534 22:3.142138 23:2.016929 24:-0.14852 25:8.171643 26:-0.085191 27:2.391238 28:1.237299 29:-0.067587 30:6.084026 31:1.796406 32:-0.028116 33:0.980386 34:0.28661 35:-0.072116 36:3.457709 
1 1:-0.088382 2:-0.188638 3:-0.197893 4:-0.638198 5:1.062951 6:-0.156387 7:1.052527 8:1.648751 9:-0.784046 10:-1.333059 11:-0.090399 12:0.09379 13:-0.350876 14:0.364322 15:0.004415 16:-0.156919 17:0.323574 18:1.56041 19:-0.795511 20:-0.740617 21:-0.128395 22:3.281612 23:1.830785 24:-0.184629 25:7.925447 26:-0.087702 27:2.340056 28:-0.204104 29:-0.163282 30:5.520912 31:1.796406 32:-0.028117 33:0.962495 34:-0.160024 35:-0.074021 36:2.824469 
1 1:-0.08905 2:-0.239855 3:4.454503 4:-0.638198 5:1.062951 6:-0.155196 7:-0.305053 8:1.623327 9:-0.81669 10:0.914766 11:-0.090345 12:-0.215793 13:3.164823 14:-0.658887 15:1.513344 16:-0.155266 17:-0.308709 18:1.424141 19:-0.824419 20:0.91752 21:-0.172243 22:0.036996 23:2.536234 24:-0.260021 25:0.055254 26:-0.121135 27:-0.019828 28:0.762664 29:-0.221907 30:0.02946 31:1.796406 32:-0.028156 33:-0.135476 34:0.069722 35:-0.074168 36:-0.079048 
1 1:-0.08905 2:-0.239855 3:4.454503 4:-0.638198 5:1.062951 6:-0.155243 7:-0.255863 8:1.68736 9:-0.81669 10:0.924796 11:-0.090383 12:-0.220983 13:1.795649 14:-0.658887 15:1.460536 16:-0.155305 17:-0.266376 18:1.558406 19:-0.824419 20:0.935272 21:-0.172309 22:0.026252 23:1.490971 24:-0.260021 25:0.124844 26:-0.12129 27:-0.042671 28:0.030492 29:-0.221907 30:0.016242 31:1.796406 32:-0.028156 33:-0.138514 34:-0.137233 35:-0.074168 36:-0.078321 
1 1:-0.088374 2:-0.179176 3:5.810651 4:-0.638198 5:0.703943 6:-0.151865 7:0.035438 8:0.912665 9:-0.776067 10:0.605397 11:-0.089971 12:0.660697 13:11.004321 14:0.485678 15:2.280767 16:-0.150955 17:0.476535 18:1.244042 19:-0.793687 20:-0.128914 21:-0.126232 22:3.195865 23:1.886493 24:-0.163419 25:8.56467 26:-0.066284 27:3.540706 28:2.829469 29:-0.174586 30:9.589894 31:1.796406 32:-0.028064 33:1.743028 34:1.314506 35:-0.074036 36:8.476476 
1 1:-0.088381 2:-0.186367 3:3.001565 4:-0.638198 5:2.139976 6:-0.157957 7:-1.252401 8:0.937552 9:-0.767079 10:0.667242 11:-0.089837 12:-0.149911 13:9.412941 14:0.602432 15:2.472472 16:-0.157655 17:-0.640898 18:1.319861 19:-0.778434 20:0.136267 21:-0.130419 22:2.941871 23:4.118482 24:-0.129035 25:7.501764 26:-0.118745 27:0.321446 28:6.933418 29:-0.132132 30:3.013479 31:1.796406 32:-0.028155 33:-0.070731 34:4.524539 35:-0.073432 36:0.795527 
1 1:-0.088246 2:-0.147862 3:8.305762 4:-0.638198 5:1.780967 6:-0.152027 7:0.184655 8:1.068822 9:-0.776176 10:0.687944 11:-0.089597 12:-0.057163 13:10.747688 14:0.484134 15:2.045696 16:-0.151786 17:0.283847 18:1.094142 19:-0.784203 20:0.419025 21:-0.145673 22:1.70122 23:1.345631 24:-0.185361 25:5.309422 26:-0.120162 27:0.13622 28:1.739734 29:-0.163645 30:0.402666 31:1.796406 32:-0.028155 33:-0.107181 34:0.484137 35:-0.073815 36:-0.077032 
1 1:-0.089117 2:-0.24651 3:5.467929 4:-0.638198 5:0.344934 6:-0.155352 7:-0.14137 8:1.716669 9:-0.81669 10:1.004781 11:-0.090442 12:-0.231077 13:0.159082 14:-0.658887 15:0.87746 16:-0.155415 17:-0.147956 18:1.095269 19:-0.824419 20:0.991433 21:-0.172483 22:-0.00211 23:6.768394 24:-0.260021 25:0.104391 26:-0.121346 27:-0.050938 28:5.815578 29:-0.221907 30:0.085572 31:1.796406 32:-0.028156 33:-0.140997 34:5.472587 35:-0.074168 36:-0.076433 
1 1:-0.089208 2:-0.292341 3:-0.429861 4:-0.638198 5:-0.73209 6:-0.158322 7:1.055919 8:1.648703 9:-0.81669 10:-1.363165 11:-0.090233 12:-0.285575 13:-0.359974 14:-0.658887 15:-0.647659 16:-0.158412 17:1.064605 18:1.659066 19:-0.824419 20:-1.322526 21:-0.161806 22:0.439888 23:-0.042349 24:-0.260021 25:1.876656 26:-0.121347 27:-0.286477 28:-0.355515 29:-0.221907 30:-0.232177 31:1.796406 32:-0.028156 33:-0.152574 34:-0.163037 35:-0.074168 36:-0.086096 
1 1:-0.088284 2:-0.147862 3:8.704714 4:-0.638198 5:2.139976 6:-0.15214 7:0.304122 8:1.150349 9:-0.767286 10:0.684777 11:-0.090099 12:-0.16452 13:9.933032 14:0.603326 15:2.087713 16:-0.152176 17:0.296865 18:1.023355 19:-0.778221 20:0.660639 21:-0.169015 22:0.212916 23:1.002935 24:-0.163714 25:0.749332 26:-0.1207 27:0.054476 28:0.741946 29:-0.157217 30:0.433462 31:1.796406 32:-0.028156 33:-0.123612 34:-0.057071 35:-0.07377 36:-0.063221 
1 1:-0.08911 2:-0.292341 3:-0.429861 4:-0.638198 5:-0.73209 6:-0.158349 7:1.055919 8:1.648711 9:-0.81669 10:-1.362643 11:-0.090258 12:-0.285575 13:-0.358383 14:-0.658887 15:-0.618897 16:-0.158513 17:1.029867 18:1.626064 19:-0.824419 20:-1.206718 21:-0.143729 22:1.587607 23:0.866947 24:-0.260021 25:4.323227 26:-0.121391 27:-0.286477 28:-0.355135 29:-0.221907 30:-0.220987 31:1.796406 32:-0.028156 33:-0.152574 34:-0.163037 35:-0.074168 36:-0.086066 
1 1:-0.089246 2:-0.25936 3:0.898394 4:-0.638198 5:-0.373082 6:-0.155419 7:-0.069998 8:-1.106843 9:-0.81669 10:1.029738 11:-0.090412 12:-0.227106 13:0.16449 14:-0.658887 15:0.644105 16:-0.155483 17:-0.075088 18:1.061154 19:-0.824419 20:1.031598 21:-0.172544 22:-0.012 23:6.849243 24:-0.260021 25:0.07011 26:-0.121423 27:-0.062391 28:11.923794 29:-0.221907 30:0.013134 31:1.796406 32:-0.028156 33:-0.142214 34:-0.121446 35:-0.074168 36:-0.081108 
1 1:-0.08911 2:-0.292341 3:-0.429861 4:-0.638198 5:-0.73209 6:-0.158373 7:1.055919 8:1.648729 9:-0.81669 10:-1.361419 11:-0.090301 12:-0.285575 13:-0.355354 14:-0.658887 15:-0.566602 16:-0.158635 17:0.990272 18:1.588773 19:-0.824419 20:-1.036665 21:-0.132434 22:2.218358 23:1.340173 24:-0.260021 25:6.337548 26:-0.12147 27:-0.282977 28:-0.325177 29:-0.221907 30:0.396497 31:1.796406 32:-0.028156 33:-0.152572 34:-0.162928 35:-0.074168 36:-0.049444 
1 1:-0.088803 2:-0.215644 3:2.872726 4:-0.638198 5:2.139976 6:-0.158131 7:-1.068983 8:-1.108991 9:-0.734904 10:0.669635 11:-0.090202 12:-0.197804 13:0.232565 14:0.928974 15:2.396266 16:-0.158189 17:-1.098576 18:0.506815 19:-0.760344 20:0.709267 21:-0.171606 22:0.140537 23:7.890444 24:-0.168448 25:0.330459 26:-0.120926 27:0.010967 28:13.74063 29:-0.106459 30:0.211745 31:1.796406 32:-0.028156 33:-0.130921 34:24.008846 35:-0.073712 36:-0.065293 
0.7064817451674653 1:-0.088735 2:-0.292341 3:-0.429861 4:-0.638198 5:-0.73209 6:-0.147569 7:1.051892 8:1.647329 9:-0.81669 10:-1.360357 11:-0.090422 12:0.0703 13:0.267394 14:-0.658887 15:-0.483164 16:-0.147722 17:1.022351 18:1.648412 19:-0.824419 20:-1.317743 21:-0.163012 22:0.129113 23:-0.134385 24:-0.260021 25:1.245288 26:-0.121493 27:-0.265474 28:-0.323535 29:-0.221907 30:-0.175148 31:1.796406 32:-0.028156 33:-0.152485 34:-0.162902 35:-0.074168 36:-0.085642 
1 1:-0.088829 2:-0.249693 3:-0.429861 4:-0.638198 5:0.344934 6:-0.158401 7:1.055919 8:1.642691 9:-0.81669 10:-1.341776 11:-0.090325 12:-0.285575 13:0.492779 14:-0.658887 15:-0.147677 16:-0.158801 17:0.938715 18:1.576139 19:-0.824419 20:-0.807165 21:-0.122725 22:2.720944 23:1.403341 24:-0.260021 25:7.840819 26:-0.076734 27:2.53597 28:-0.095254 29:-0.221907 30:5.975019 31:1.796406 32:-0.028097 33:1.02153 34:-0.154489 35:-0.074168 36:3.719846 
1 1:-0.087921 2:-0.145842 3:-0.069115 4:-0.638198 5:-0.73209 6:-0.147586 7:1.047041 8:1.641639 9:-0.81669 10:-1.355228 11:-0.090463 12:0.248143 13:1.00001 14:-0.658887 15:-0.327385 16:-0.147893 17:0.942555 18:1.636343 19:-0.824419 20:-1.233372 21:-0.15211 22:0.776184 23:-0.063637 24:-0.260021 25:3.029132 26:-0.121459 27:-0.205129 28:-0.276559 29:-0.221907 30:0.017576 31:1.796406 32:-0.028156 33:-0.151281 34:-0.161752 35:-0.074168 36:-0.078824 
1 1:-0.088829 2:-0.249693 3:-0.429861 4:-0.638198 5:0.344934 6:-0.158428 7:1.042184 8:1.584794 9:-0.81669 10:-1.058046 11:-0.090303 12:1.408766 13:2.857054 14:-0.658887 15:1.743603 16:-0.158993 17:0.882337 18:1.55933 19:-0.824419 20:-0.522673 21:-0.117031 22:2.992685 23:1.518006 24:-0.260021 25:8.837812 26:-0.02559 27:5.315475 28:3.26002 29:-0.221907 30:13.060567 31:1.796406 32:-0.027939 33:3.477813 34:1.707846 35:-0.074168 36:13.850611 
1 1:-0.089044 2:-0.239249 3:2.924748 4:-0.598295 5:2.139976 6:-0.158195 7:-1.001032 8:0.739404 9:-0.733211 10:0.735965 11:-0.090375 12:-0.22168 13:10.037549 14:0.946135 15:2.149215 16:-0.15826 17:-1.022149 18:0.601655 19:-0.757599 20:0.739813 21:-0.171986 22:0.078673 23:8.147178 24:-0.178392 25:0.383072 26:-0.120938 27:0.009129 28:11.809001 29:-0.074948 30:0.209483 31:1.796406 32:-0.028156 33:-0.130559 34:28.625473 35:-0.073447 36:-0.065259 
1 1:-0.087921 2:-0.145842 3:-0.069115 4:-0.638198 5:-0.73209 6:-0.147625 7:1.031363 8:1.63462 9:-0.81669 10:-1.339339 11:-0.090429 12:0.591174 13:1.597505 14:-0.658887 15:-0.031796 16:-0.148118 17:0.817139 18:1.612837 19:-0.824419 20:-1.096506 21:-0.142578 22:1.392709 23:0.184962 24:-0.260021 25:4.882998 26:-0.111235 27:0.047726 28:-0.047313 29:-0.221907 30:0.747187 31:1.796406 32:-0.028152 33:-0.130254 34:-0.145089 35:-0.074168 36:0.018156 
1 1:-0.089166 2:-0.2514 3:3.155608 4:-0.598295 5:2.139976 6:-0.15823 7:-0.964122 8:1.700055 9:-0.733703 10:0.760111 11:-0.090314 12:-0.213865 13:1.084592 14:0.941378 15:2.044719 16:-0.158294 17:-0.986265 18:0.60634 19:-0.758949 20:0.760959 21:-0.172071 22:0.064989 23:8.417245 24:-0.179679 25:0.418384 26:-0.12101 27:-0.001442 28:5.87813 29:-0.108458 30:0.077564 31:1.796406 32:-0.028156 33:-0.134844 34:4.708646 35:-0.073842 36:-0.082251 
1 1:-0.062334 2:0.925785 3:3.308209 4:-0.638198 5:1.780967 6:-0.147658 7:0.97334 8:1.600847 9:-0.81669 10:-1.282575 11:-0.087027 12:1.312727 13:3.134868 14:-0.658887 15:0.558614 16:-0.148424 17:0.648984 18:1.569341 19:-0.824419 20:-0.910835 21:-0.133985 22:1.888285 23:0.610283 24:-0.260021 25:6.416988 26:-0.088379 27:0.629285 28:0.139506 29:-0.221907 30:2.717025 31:1.796406 32:-0.028132 33:0.00799 34:-0.118809 35:-0.074168 36:0.812728 
1 1:-0.089166 2:-0.2514 3:3.155608 4:-0.598295 5:2.139976 6:-0.158258 7:-0.934172 8:1.72061 9:-0.735586 10:0.732731 11:-0.090362 12:-0.220744 13:-0.366632 14:0.923332 15:2.134706 16:-0.158326 17:-0.951665 18:0.902481 19:-0.761153 20:0.786298 21:-0.172163 22:0.049933 23:7.452212 24:-0.177146 25:0.410678 26:-0.121205 27:-0.030249 28:-0.268635 29:-0.1183 30:0.013672 31:1.796406 32:-0.028156 33:-0.136742 34:-0.162033 35:-0.074082 36:-0.084223 
1 1:-0.089054 2:-0.219917 3:7.948004 4:-0.638198 5:2.139976 6:-0.152404 7:0.580211 8:1.282142 9:-0.782908 10:0.803329 11:-0.090574 12:-0.23379 13:8.383815 14:0.374843 15:1.700482 16:-0.152473 17:0.595294 18:1.21451 19:-0.785458 20:0.793495 21:-0.172326 22:0.02235 23:0.777961 24:-0.143941 25:0.484315 26:-0.121273 27:-0.037019 28:0.090471 29:-0.117715 30:0.444224 31:1.796406 32:-0.028156 33:-0.140817 34:-0.131062 35:-0.07333 36:-0.03476 
1 1:-0.062334 2:0.925785 3:3.308209 4:-0.638198 5:1.780967 6:-0.147693 7:0.81467 8:1.56579 9:-0.81669 10:-1.095821 11:-0.081535 12:2.284015 13:4.335898 14:-0.658887 15:1.50873 16:-0.148798 17:0.438545 18:1.508762 19:-0.824419 20:-0.682279 21:-0.12791 22:2.232913 23:1.013178 24:-0.260021 25:7.459826 26:-0.087739 27:1.481702 28:0.153286 29:-0.221907 30:6.287239 31:1.796406 32:-0.02812 33:0.429419 34:-0.109069 35:-0.074168 36:4.138002 
1 1:-0.088474 2:-0.189655 3:2.500729 4:-0.638198 5:1.421959 6:-0.159756 7:0.645415 8:1.720609 9:-0.81669 10:0.703257 11:-0.089142 12:-0.060775 13:-0.366374 14:-0.658887 15:2.418861 16:-0.159595 17:0.74425 18:1.425832 19:-0.824419 20:0.379668 21:-0.127898 22:2.162668 23:3.588928 24:-0.260021 25:7.198871 26:-0.119431 27:0.194205 28:1.108017 29:-0.221907 30:1.927798 31:1.796406 32:-0.028155 33:-0.10385 34:0.208925 35:-0.074168 36:0.52052 
1 1:-0.089058 2:-0.222106 3:6.814864 4:-0.638198 5:2.139976 6:-0.152445 7:0.626695 8:1.28669 9:-0.783192 10:0.825799 11:-0.090308 12:-0.174557 13:8.585471 14:0.37047 15:1.619623 16:-0.152512 17:0.637723 18:1.247133 19:-0.788985 20:0.823932 21:-0.172362 22:0.016652 23:0.702111 24:-0.159795 25:0.522673 26:-0.121295 27:-0.042986 28:0.084731 29:-0.162633 30:0.364869 31:1.796406 32:-0.028156 33:-0.140107 34:-0.156026 35:-0.073975 36:-0.039955 
1 1:-0.088474 2:-0.189655 3:2.500729 4:-0.638198 5:1.421959 6:-0.159792 7:0.682782 8:1.720609 9:-0.81669 10:0.82468 11:-0.089738 12:-0.138344 13:-0.366624 14:-0.658887 15:1.893408 16:-0.159729 17:0.739779 18:1.289558 19:-0.824419 20:0.591456 21:-0.138299 22:1.518097 23:4.51263 24:-0.260021 25:5.51756 26:-0.119601 27:0.205076 28:0.001513 29:-0.221907 30:1.046122 31:1.796406 32:-0.028155 33:-0.099291 34:-0.155247 35:-0.074168 36:0.059359 
1 1:-0.089179 2:-0.252665 3:3.931028 4:-0.598295 5:1.780967 6:-0.158323 7:-0.866304 8:1.72061 9:-0.743776 10:0.82412 11:-0.090308 12:-0.211015 13:-0.366632 14:0.837958 15:1.75795 16:-0.15839 17:-0.883645 18:1.233175 19:-0.768264 20:0.835418 21:-0.172311 22:0.025852 23:6.16473 24:-0.152877 25:0.460959 26:-0.121256 27:-0.037788 28:4.771566 29:-0.107841 30:0.363271 31:1.796406 32:-0.028156 33:-0.140005 34:4.019548 35:-0.073545 36:-0.048815 
1 1:-0.089211 2:-0.255887 3:-0.429861 4:-0.638198 5:-0.73209 6:-0.15564 7:0.162374 8:1.662619 9:-0.81669 10:1.100849 11:-0.090508 12:-0.239564 13:2.019792 14:-0.658887 15:-0.774068 16:-0.155703 17:0.16051 18:1.594753 19:-0.824419 20:1.10176 21:-0.172748 22:-0.045222 23:0.95815 24:-0.260021 25:-0.254175 26:-0.121521 27:-0.076786 28:0.084631 29:-0.221907 30:-0.192305 31:1.796406 32:-0.028156 33:-0.144637 34:-0.123955 35:-0.074168 36:-0.085996 
1 1:-0.089058 2:-0.222106 3:6.814864 4:-0.638198 5:2.139976 6:-0.152487 7:0.670177 8:1.305988 9:-0.781329 10:0.84233 11:-0.090448 12:-0.1753 13:8.429476 14:0.398946 15:1.544108 16:-0.152551 17:0.679002 18:1.149401 19:-0.790313 20:0.857673 21:-0.172415 22:0.007945 23:2.781224 24:-0.179575 25:0.569153 26:-0.121306 27:-0.042615 28:0.226817 29:-0.162834 30:0.414639 31:1.796406 32:-0.028156 33:-0.139605 34:-0.160922 35:-0.073975 36:-0.041856 
1 1:-0.08915 2:-0.249795 3:3.931028 4:-0.638198 5:1.780967 6:-0.158348 7:-0.839879 8:1.62784 9:-0.752041 10:0.861289 11:-0.090367 12:-0.219243 13:2.706623 14:0.74679 15:1.587027 16:-0.158419 17:-0.852022 18:1.128194 19:-0.774307 20:0.862183 21:-0.17237 22:0.016221 23:6.551416 24:-0.136658 25:0.501081 26:-0.12123 27:-0.033865 28:12.232933 29:-0.108568 30:0.248958 31:1.796406 32:-0.028156 33:-0.1395 34:19.529551 35:-0.073535 36:-0.057566 
1 1:-0.089143 2:-0.24907 3:1.248956 4:-0.638198 5:-0.73209 6:-0.155664 7:0.187809 8:1.616387 9:-0.81669 10:1.09589 11:-0.090491 12:-0.237447 13:2.824969 14:-0.658887 15:-0.371662 16:-0.155732 17:0.191885 18:1.515791 19:-0.824419 20:1.10239 21:-0.172772 22:-0.049133 23:1.370569 24:-0.260021 25:-0.260347 26:-0.121541 27:-0.079712 28:0.457768 29:-0.221907 30:-0.206387 31:1.796406 32:-0.028156 33:-0.145127 34:-0.03541 35:-0.074168 36:-0.086036 
1 1:-0.089123 2:-0.247084 3:3.841384 4:-0.638198 5:1.421959 6:-0.158408 7:-0.776034 8:-1.051253 9:-0.776916 10:0.911501 11:-0.090477 12:-0.235553 13:2.963752 14:0.43604 15:1.319942 16:-0.158477 17:-0.789485 18:0.989361 19:-0.785494 20:0.921542 21:-0.172491 22:-0.003348 23:6.916666 24:-0.141096 25:0.433025 26:-0.121365 27:-0.053749 28:10.407578 29:-0.090355 30:0.293945 31:1.796406 32:-0.028156 33:-0.141831 34:0.203631 35:-0.073051 36:-0.054998 
1 1:-0.08888 2:-0.222913 3:7.459901 4:-0.638198 5:1.780967 6:-0.159947 7:0.846 8:1.720609 9:-0.81669 10:0.965614 11:-0.09036 12:-0.219717 13:-0.366629 14:-0.658887 15:1.150731 16:-0.160016 17:0.859847 18:0.890844 19:-0.824419 20:0.955798 21:-0.171757 22:0.116155 23:6.471085 24:-0.260021 25:0.235815 26:-0.120906 27:0.013854 28:2.941953 29:-0.221907 30:0.149018 31:1.796406 32:-0.028156 33:-0.134852 34:1.58816 35:-0.074168 36:-0.070912 
1 1:-0.088457 2:-0.179744 3:7.500034 4:-0.638198 5:2.139976 6:-0.151188 7:-0.700776 8:0.917217 9:-0.81669 10:0.83158 11:-0.089214 12:-0.03536 13:11.829167 14:-0.658887 15:1.637937 16:-0.151221 17:-0.690572 18:1.02008 19:-0.824419 20:0.799902 21:-0.168162 22:0.25135 23:0.713632 24:-0.260021 25:1.799642 26:-0.120396 27:0.08826 28:0.712892 29:-0.221907 30:0.519055 31:1.796406 32:-0.028156 33:-0.122651 34:0.083122 35:-0.074168 36:-0.018762 
1 1:-0.088457 2:-0.179744 3:7.500034 4:-0.638198 5:2.139976 6:-0.151229 7:-0.657254 8:0.981667 9:-0.81669 10:0.864458 11:-0.089873 12:-0.134576 13:11.366363 14:-0.658887 15:1.484874 16:-0.151289 17:-0.668469 18:1.023164 19:-0.824419 20:0.867355 21:-0.171343 22:0.154871 23:0.586444 24:-0.260021 25:0.937896 26:-0.120776 27:0.036433 28:0.808805 29:-0.221907 30:0.620159 31:1.796406 32:-0.028156 33:-0.131667 34:0.077663 35:-0.074168 36:-0.010318 
1 1:-0.089104 2:-0.22645 3:6.976262 4:-0.638198 5:-0.73209 6:-0.152732 7:0.930586 8:1.385503 9:-0.758881 10:1.052198 11:-0.090424 12:-0.187627 13:7.819801 14:0.694465 15:0.30193 16:-0.152795 17:0.941007 18:1.091548 19:-0.762746 20:1.043154 21:-0.172648 22:-0.029598 23:3.809539 24:-0.187051 25:0.030873 26:-0.121484 27:-0.068289 28:0.211205 29:-0.160793 30:-0.006534 31:1.796406 32:-0.028156 33:-0.143764 34:-0.154605 35:-0.073766 36:-0.080102 
0.7424028517977008 1:-0.08874 2:-0.201786 3:6.97503 4:-0.638198 5:2.139976 6:-0.151279 7:-0.605497 8:1.137254 9:-0.81669 10:0.919932 11:-0.090019 12:-0.164898 13:10.434288 14:-0.658887 15:1.241287 16:-0.151336 17:-0.623318 18:1.048313 19:-0.824419 20:0.910277 21:-0.171576 22:0.148196 23:0.508636 24:-0.260021 25:0.65467 26:-0.120757 27:0.033224 28:0.478855 29:-0.221907 30:0.472237 31:1.796406 32:-0.028156 33:-0.130425 34:-0.054718 35:-0.074168 36:-0.026547 
1 1:-0.089131 2:-0.247892 3:-0.42986 4:-0.638198 5:-0.373082 6:-0.158546 7:-0.631413 8:1.720608 9:-0.783412 10:1.011613 11:-0.090515 12:-0.240503 13:-0.366632 14:0.329946 15:0.708142 16:-0.158613 17:-0.644226 18:1.379421 19:-0.794665 20:1.01008 21:-0.17262 22:-0.024387 23:5.245561 24:-0.13845 25:0.029326 26:-0.121471 27:-0.069476 28:-0.355256 29:-0.118671 30:0.063675 31:1.796406 32:-0.028156 33:-0.143666 34:-0.163037 35:-0.073539 36:-0.075222 
1 1:-0.08874 2:-0.201786 3:6.97503 4:-0.638198 5:2.139976 6:-0.151311 7:-0.570092 8:1.127665 9:-0.81669 10:0.974932 11:-0.089549 12:-0.088585 13:10.434831 14:-0.658887 15:0.90577 16:-0.151381 17:-0.574742 18:1.07146 19:-0.824419 20:0.942498 21:-0.171745 22:0.119658 23:0.475271 24:-0.260021 25:0.549209 26:-0.120891 27:0.016899 28:-0.014555 29:-0.221907 30:0.251661 31:1.796406 32:-0.028156 33:-0.134245 34:-0.148097 35:-0.074168 36:-0.059247 
1 1:-0.08913 2:-0.247829 3:-0.429861 4:-0.638198 5:-0.373082 6:-0.158566 7:-0.610322 8:1.720608 9:-0.783823 10:1.029277 11:-0.090505 12:-0.239197 13:-0.366632 14:0.309175 15:0.596924 16:-0.158639 17:-0.615971 18:1.482695 19:-0.787474 20:1.014892 21:-0.172646 22:-0.02857 23:4.490626 24:-0.092452 25:-0.006615 26:-0.12147 27:-0.069228 28:-0.355698 29:-0.118912 30:0.052126 31:1.796406 32:-0.028156 33:-0.143886 34:-0.163037 35:-0.073374 36:-0.079445 
1 1:-0.088815 2:-0.209265 3:7.879132 4:-0.638198 5:2.139976 6:-0.15136 7:-0.517218 8:1.175801 9:-0.81669 10:0.991596 11:-0.089506 12:-0.085265 13:9.941352 14:-0.658887 15:0.797333 16:-0.151423 17:-0.529583 18:1.086999 19:-0.824419 20:0.972705 21:-0.171882 22:0.096495 23:0.431182 24:-0.260021 25:0.436118 26:-0.120923 27:0.011578 28:0.060021 29:-0.221907 30:0.113162 31:1.796406 32:-0.028156 33:-0.135059 34:-0.131092 35:-0.074168 36:-0.071817 
1 1:-0.089246 2:-0.259361 3:8.675672 4:-0.638198 5:-0.73209 6:-0.15591 7:0.447152 8:-1.034808 9:-0.81669 10:1.085944 11:-0.09056 12:-0.246279 13:2.130785 14:-0.658887 15:-0.076413 16:-0.155979 17:0.456011 18:0.225806 19:-0.824419 20:1.093688 21:-0.1729 22:-0.069919 23:5.737518 24:-0.260021 25:-0.233008 26:-0.121627 27:-0.092363 28:7.285117 29:-0.221907 30:-0.162465 31:1.796406 32:-0.028156 33:-0.146173 34:0.645137 35:-0.074168 36:-0.085518 
1 1:-0.089151 2:-0.23477 3:7.697255 4:-0.558392 5:-0.73209 6:-0.152857 7:1.059286 8:1.352583 9:-0.741449 10:1.068448 11:-0.090536 12:-0.234997 13:8.067717 14:0.877996 15:0.187006 16:-0.152921 17:1.076242 18:1.368739 19:-0.753883 20:1.063542 21:-0.172716 22:-0.039384 23:-0.000848 24:-0.138914 25:-0.177308 26:-0.121509 27:-0.071543 28:0.140941 29:-0.115784 30:-0.120827 31:1.796406 32:-0.028156 33:-0.144219 34:-0.130787 35:-0.073223 36:-0.084836 
1 1:-0.088882 2:-0.215654 3:8.480618 4:-0.638198 5:-0.014074 6:-0.151445 7:-0.427227 8:1.122618 9:-0.81669 10:1.021078 11:-0.089688 12:-0.103448 13:10.247967 14:-0.658887 15:0.581076 16:-0.151503 17:-0.443314 18:1.074147 19:-0.824419 20:1.020776 21:-0.17205 22:0.069249 23:0.445319 24:-0.260021 25:0.196118 26:-0.121011 27:-0.001304 28:0.233888 29:-0.221907 30:0.101016 31:1.796406 32:-0.028156 33:-0.137978 34:-0.127619 35:-0.074168 36:-0.072137 
1 1:-0.089137 2:-0.248477 3:6.211966 4:-0.638198 5:-0.373082 6:-0.160129 7:1.038402 8:-1.080805 9:-0.81669 10:1.046749 11:-0.090322 12:-0.207815 13:1.283741 14:-0.658887 15:0.483985 16:-0.160203 17:1.060636 18:0.499831 19:-0.824419 20:1.053421 21:-0.17234 22:0.021111 23:7.856462 24:-0.260021 25:-0.053594 26:-0.121185 27:-0.027271 28:10.446147 29:-0.221907 30:-0.067605 31:1.796406 32:-0.028156 33:-0.140332 34:0.138776 35:-0.074168 36:-0.083102 
1 1:-0.088873 2:-0.216852 3:8.856223 4:-0.638198 5:-0.73209 6:-0.151518 7:-0.349208 8:1.033731 9:-0.81669 10:1.061574 11:-0.089757 12:-0.122938 13:10.847789 14:-0.658887 15:0.189835 16:-0.151578 17:-0.362979 18:1.036785 19:-0.824419 20:1.048123 21:-0.172161 22:0.051888 23:0.52735 24:-0.260021 25:0.036977 26:-0.12107 27:-0.007821 28:0.558525 29:-0.221907 30:-0.018818 31:1.796406 32:-0.028156 33:-0.137813 34:-0.019123 35:-0.074168 36:-0.080416 
1 1:-0.089182 2:-0.252957 3:-0.429861 4:-0.638198 5:-0.014074 6:-0.158692 7:-0.476633 8:1.720611 9:-0.700779 10:1.005943 11:-0.090513 12:-0.240214 13:-0.366632 14:1.088952 15:0.820642 16:-0.158766 17:-0.480255 18:1.740866 19:-0.741352 20:1.020505 21:-0.17277 22:-0.048831 23:-0.43299 24:-0.048613 25:-0.12403 26:-0.121533 27:-0.078573 28:-0.355696 29:-0.077141 30:-0.053484 31:1.796406 32:-0.028156 33:-0.145046 34:-0.163037 35:-0.072572 36:-0.083765 
1 1:-0.088937 2:-0.22396 3:8.856223 4:-0.638198 5:-0.73209 6:-0.151588 7:-0.275812 8:0.873156 9:-0.81669 10:1.067096 11:-0.089765 12:-0.113653 13:11.600951 14:-0.658887 15:0.145289 16:-0.151648 17:-0.288329 18:0.999917 19:-0.824419 20:1.066376 21:-0.172274 22:0.033978 23:0.542501 24:-0.260021 25:-0.095013 26:-0.121315 27:-0.042915 28:0.632271 29:-0.221907 30:-0.117771 31:1.796406 32:-0.028156 33:-0.141578 34:-0.016773 35:-0.074168 36:-0.085011 
1 1:-0.089209 2:-0.255669 3:4.360666 4:-0.638198 5:-0.73209 6:-0.156059 7:0.604943 8:1.69522 9:-0.81669 10:1.080912 11:-0.090567 12:-0.247211 13:1.342147 14:-0.658887 15:0.032811 16:-0.156131 17:0.619613 18:1.579152 19:-0.824419 20:1.087621 21:-0.172982 22:-0.083286 23:2.251425 24:-0.260021 25:-0.268503 26:-0.121681 27:-0.100403 28:-0.170469 29:-0.221907 30:-0.231238 31:1.796406 32:-0.028156 33:-0.14696 34:-0.156474 35:-0.074168 36:-0.086097 
1 1:-0.089214 2:-0.239838 3:8.10239 4:-0.638198 5:-0.73209 6:-0.153 7:1.213238 8:0.68012 9:-0.790504 10:1.051158 11:-0.090504 12:-0.204664 13:10.587449 14:0.231215 15:0.453941 16:-0.153069 17:1.235133 18:0.736441 19:-0.772283 20:1.040227 21:-0.172805 22:-0.052925 23:5.258416 24:-0.096073 25:-0.099385 26:-0.121602 27:-0.085165 28:9.701963 29:-0.103006 30:-0.029358 31:1.796406 32:-0.028156 33:-0.146134 34:15.858931 35:-0.073457 36:-0.082721 
1 1:-0.089152 2:-0.249994 3:7.686011 4:-0.638198 5:-0.73209 6:-0.160278 7:1.194822 8:1.72061 9:-0.81669 10:1.090725 11:-0.090501 12:-0.238701 13:-0.366632 14:-0.658887 15:-0.227151 16:-0.160348 17:1.215223 18:0.940873 19:-0.824419 20:1.086333 21:-0.17255 22:-0.013057 23:7.24571 24:-0.260021 25:-0.216025 26:-0.121404 27:-0.059552 28:0.902446 29:-0.221907 30:-0.192564 31:1.796406 32:-0.028156 33:-0.14401 34:0.0735 35:-0.074168 36:-0.086052 
1 1:-0.089179 2:-0.252688 3:-0.429861 4:-0.51849 5:-0.73209 6:-0.158792 7:-0.372102 8:1.709289 9:-0.70623 10:1.016798 11:-0.090535 12:-0.243035 13:0.477613 14:1.021883 15:0.785511 16:-0.158863 17:-0.376368 18:0.737486 19:-0.719329 20:1.028073 21:-0.17279 22:-0.051996 23:8.382389 24:-0.099746 25:-0.151982 26:-0.121469 27:-0.069115 28:6.85508 29:-0.03788 30:-0.182709 31:1.796406 32:-0.028156 33:-0.144396 34:6.329092 35:-0.070948 36:-0.085828 
1 1:-0.088966 2:-0.225563 3:7.697257 4:-0.638198 5:-0.73209 6:-0.151687 7:-0.1698 8:0.823146 9:-0.81669 10:1.070308 11:-0.089083 12:-0.036287 13:11.513024 14:-0.658887 15:0.135 16:-0.151747 17:-0.182019 18:1.020651 19:-0.824419 20:1.074529 21:-0.17241 22:0.010664 23:0.948319 24:-0.260021 25:-0.194254 26:-0.121142 27:-0.011623 28:0.909089 29:-0.221907 30:-0.155988 31:1.796406 32:-0.028156 33:-0.140032 34:0.105778 35:-0.074168 36:-0.08542 
1 1:-0.089191 2:-0.253854 3:-0.096522 4:0.018431 5:-0.73209 6:-0.158842 7:-0.318487 8:-1.095437 9:-0.696055 10:1.030662 11:-0.090527 12:-0.242038 13:0.715763 14:1.113541 15:0.649831 16:-0.15891 17:-0.325833 18:0.174618 19:-0.716422 20:1.03677 21:-0.172823 22:-0.057435 23:8.104599 24:-0.091452 25:-0.14243 26:-0.12158 27:-0.085434 28:7.981031 29:-0.128283 30:-0.003951 31:1.796406 32:-0.028156 33:-0.145872 34:8.5417 35:-0.073511 36:-0.080737 
1 1:-0.089191 2:-0.253854 3:0.584059 4:0.018431 5:-0.73209 6:-0.158865 7:-0.295181 8:-1.114192 9:-0.697011 10:1.053999 11:-0.090498 12:-0.238292 13:-0.36109 14:1.10833 15:0.427089 16:-0.158933 17:-0.300827 18:0.174215 19:-0.715879 20:1.039437 21:-0.172842 22:-0.060508 23:8.100959 24:-0.088793 25:-0.159441 26:-0.121663 27:-0.097669 28:-0.256039 29:-0.139563 30:-0.039048 31:1.796406 32:-0.028156 33:-0.146353 34:-0.161813 35:-0.073531 36:-0.083043 
1 1:-0.089033 2:-0.233417 3:7.6938 4:-0.638198 5:-0.73209 6:-0.151764 7:-0.092966 8:1.272732 9:-0.81669 10:1.070737 11:-0.090592 12:-0.243374 13:8.940058 14:-0.658887 15:0.128538 16:-0.151841 17:-0.081644 18:1.150773 19:-0.824419 20:1.076567 21:-0.172492 22:-0.002276 23:1.359985 24:-0.260021 25:-0.24065 26:-0.121308 27:-0.041568 28:1.166747 29:-0.221907 30:-0.206715 31:1.796406 32:-0.028156 33:-0.14304 34:0.302783 35:-0.074168 36:-0.086039 
1 1:-0.08917 2:-0.251683 3:1.493085 4:-0.638198 5:-0.73209 6:-0.160368 7:1.289528 8:1.72061 9:-0.81669 10:1.07119 11:-0.090504 12:-0.239063 13:-0.366632 14:-0.658887 15:0.201516 16:-0.160439 17:1.313059 18:1.51131 19:-0.824419 20:1.080678 21:-0.17266 22:-0.030918 23:4.210765 24:-0.260021 25:-0.215156 26:-0.121432 27:-0.063707 28:-0.355701 29:-0.221907 30:-0.177337 31:1.796406 32:-0.028156 33:-0.144249 34:-0.163037 35:-0.074168 36:-0.085811 
1 1:-0.089178 2:-0.252567 3:-0.429861 4:-0.638198 5:-0.73209 6:-0.15621 7:0.763249 8:1.714324 9:-0.81669 10:1.095843 11:-0.090584 12:-0.249374 13:0.419123 14:-0.658887 15:-0.369766 16:-0.156275 17:0.77361 18:1.727912 19:-0.824419 20:1.096272 21:-0.173035 22:-0.091844 23:-0.335105 24:-0.260021 25:-0.239788 26:-0.12169 27:-0.101681 28:-0.329436 29:-0.221907 30:-0.197065 31:1.796406 32:-0.028156 33:-0.147066 34:-0.162941 35:-0.074168 36:-0.086101 
1 1:-0.089188 2:-0.239396 3:9.401681 4:-0.638198 5:-0.73209 6:-0.153171 7:1.393123 8:1.314106 9:-0.780756 10:1.024891 11:-0.090591 12:-0.222255 13:8.228084 14:0.388548 15:0.706929 16:-0.153235 17:1.412408 18:1.256664 19:-0.776492 20:1.023965 21:-0.172885 22:-0.06652 23:1.740944 24:-0.168847 25:-0.221748 26:-0.121598 27:-0.082654 28:-0.011059 29:-0.171944 30:-0.133514 31:1.796406 32:-0.028156 33:-0.146134 34:-0.151301 35:-0.074127 36:-0.085528 
1 1:-0.089033 2:-0.233417 3:7.6938 4:-0.638198 5:-0.73209 6:-0.1518 7:-0.055664 8:1.360996 9:-0.81669 10:1.070637 11:-0.09031 12:-0.210842 13:8.077918 14:-0.658887 15:0.150679 16:-0.151871 17:-0.049496 18:1.215738 19:-0.824419 20:1.07736 21:-0.172512 22:-0.005676 23:1.372144 24:-0.260021 25:-0.248209 26:-0.121401 27:-0.05838 28:0.750002 29:-0.221907 30:-0.19918 31:1.796406 32:-0.028156 33:-0.144204 34:0.043864 35:-0.074168 36:-0.086071 
1 1:-0.089206 2:-0.255352 3:-0.196349 4:-0.638198 5:-0.73209 6:-0.160389 7:1.311796 8:1.720609 9:-0.81669 10:1.071169 11:-0.090604 12:-0.251873 13:-0.366632 14:-0.658887 15:0.208234 16:-0.160461 17:1.337121 18:1.594672 19:-0.824419 20:1.076726 21:-0.172672 22:-0.032823 23:3.250872 24:-0.260021 25:-0.206895 26:-0.121388 27:-0.057214 28:-0.355699 29:-0.221907 30:-0.182491 31:1.796406 32:-0.028156 33:-0.143795 34:-0.163037 35:-0.074168 36:-0.08571 
1 1:-0.089236 2:-0.258332 3:0.584059 4:-0.598295 5:-0.73209 6:-0.158914 7:-0.243461 8:0.735293 9:-0.730898 10:1.050661 11:-0.090527 12:-0.242081 13:7.19993 14:0.906645 15:0.481379 16:-0.158979 17:-0.251536 18:0.353389 19:-0.72393 20:1.042098 21:-0.172879 22:-0.066584 23:8.899083 24:-0.071848 25:-0.185289 26:-0.121669 27:-0.09867 28:12.553333 29:0.024415 30:-0.112551 31:1.796406 32:-0.028156 33:-0.146443 34:29.995993 35:-0.07123 36:-0.084723 
1 1:-0.089187 2:-0.253443 3:-0.429861 4:-0.638198 5:-0.73209 6:-0.15625 7:0.805925 8:1.70338 9:-0.81669 10:1.090832 11:-0.090573 12:-0.247983 13:0.897963 14:-0.658887 15:-0.202146 16:-0.156322 17:0.823822 18:1.703357 19:-0.824419 20:1.098119 21:-0.17303 22:-0.091179 23:-0.032581 24:-0.260021 25:-0.257308 26:-0.121691 27:-0.101826 28:-0.271424 29:-0.221907 30:-0.196925 31:1.796406 32:-0.028156 33:-0.147334 34:-0.161527 35:-0.074168 36:-0.085983 
1 1:-0.089186 2:-0.24051 3:8.527658 4:-0.638198 5:-0.73209 6:-0.153225 7:1.447029 8:1.367422 9:-0.764997 10:1.021851 11:-0.090587 12:-0.231797 13:7.633417 14:0.608107 15:0.736552 16:-0.153287 17:1.468709 18:1.331454 19:-0.77295 20:1.02742 21:-0.172892 22:-0.067567 23:0.03044 24:-0.146613 25:-0.227216 26:-0.121559 27:-0.082546 28:-0.044035 29:-0.104334 30:-0.162527 31:1.796406 32:-0.028156 33:-0.146021 34:-0.150377 35:-0.073263 36:-0.085703 
1 1:-0.088993 2:-0.228289 3:6.594718 4:-0.638198 5:-0.73209 6:-0.151897 7:0.04687 8:1.44655 9:-0.81669 10:1.065572 11:-0.090474 12:-0.228053 13:7.299722 14:-0.658887 15:0.255967 16:-0.15196 17:0.045538 18:1.390498 19:-0.824419 20:1.076149 21:-0.172591 22:-0.018448 23:0.834598 24:-0.260021 25:-0.243642 26:-0.121491 27:-0.074057 28:-0.079386 29:-0.221907 30:-0.183032 31:1.796406 32:-0.028156 33:-0.145459 34:-0.148848 35:-0.074168 36:-0.085873 
1 1:-0.089258 2:-0.260456 3:-0.192048 4:-0.638198 5:-0.73209 6:-0.160455 7:1.38165 8:1.720609 9:-0.81669 10:1.051414 11:-0.090527 12:-0.242095 13:-0.366632 14:-0.658887 15:0.494778 16:-0.160527 17:1.407841 18:1.726098 19:-0.824419 20:1.063239 21:-0.172718 22:-0.040275 23:0.05952 24:-0.260021 25:-0.15947 26:-0.121413 27:-0.060847 28:-0.355704 29:-0.221907 30:-0.096674 31:1.796406 32:-0.028156 33:-0.14447 34:-0.163037 35:-0.074168 36:-0.08415 
1 1:-0.089185 2:-0.253276 3:-0.429861 4:-0.638198 5:-0.73209 6:-0.156303 7:0.861665 8:1.674956 9:-0.81669 10:1.090925 11:-0.090583 12:-0.249294 13:1.680618 14:-0.658887 15:-0.20481 16:-0.156369 17:0.873827 18:1.597269 19:-0.824419 20:1.094827 21:-0.173037 22:-0.092318 23:0.957685 24:-0.260021 25:-0.235345 26:-0.121778 27:-0.114678 28:-0.007416 29:-0.221907 30:-0.173843 31:1.796406 32:-0.028156 33:-0.147925 34:-0.13787 35:-0.074168 36:-0.085718 
1 1:-0.088993 2:-0.228289 3:6.594718 4:-0.638198 5:-0.73209 6:-0.151922 7:0.073642 8:1.470155 9:-0.81669 10:1.070662 11:-0.090386 12:-0.220759 13:6.881543 14:-0.658887 15:0.19135 16:-0.151988 17:0.075898 18:1.428645 19:-0.824419 20:1.07496 21:-0.172628 22:-0.025089 23:0.400137 24:-0.260021 25:-0.243149 26:-0.121512 27:-0.076524 28:-0.176718 29:-0.221907 30:-0.20185 31:1.796406 32:-0.028156 33:-0.145451 34:-0.162032 35:-0.074168 36:-0.085997 
1 1:-0.0893 2:-0.264658 3:1.381599 4:0.339252 5:-0.73209 6:-0.159004 7:-0.148051 8:1.720608 9:-0.746615 10:1.030381 11:-0.090549 12:-0.244913 13:-0.366632 14:0.758813 15:0.733571 16:-0.15907 17:-0.154175 18:1.531508 19:-0.744662 20:1.039117 21:-0.172906 22:-0.070982 23:4.085895 24:-0.132754 25:-0.226414 26:-0.121613 27:-0.090336 28:-0.355698 29:-0.163759 30:-0.122061 31:1.796406 32:-0.028156 33:-0.14635 34:-0.163037 35:-0.074151 36:-0.084651 
1 1:-0.089207 2:-0.255435 3:0.667542 4:-0.638198 5:-0.73209 6:-0.15632 7:0.879822 8:1.626635 9:-0.81669 10:1.08593 11:-0.090581 12:-0.248903 13:2.579602 14:-0.658887 15:-0.07609 16:-0.156392 17:0.898419 18:1.49489 19:-0.824419 20:1.092983 21:-0.173059 22:-0.09576 23:1.531913 24:-0.260021 25:-0.227321 26:-0.121782 27:-0.115259 28:0.47895 29:-0.221907 30:-0.162011 31:1.796406 32:-0.028156 33:-0.147917 34:-0.030034 35:-0.074168 36:-0.085515 
1 1:-0.08922 2:-0.240519 3:6.677832 4:-0.638198 5:-0.73209 6:-0.1533 7:1.527329 8:1.344114 9:-0.755227 10:1.026532 11:-0.090592 12:-0.239066 13:7.813869 14:0.697011 15:0.65411 16:-0.153364 17:1.550921 18:1.326957 19:-0.770949 20:1.03748 21:-0.172949 22:-0.078557 23:0.094759 24:-0.138155 25:-0.179143 26:-0.121639 27:-0.096817 28:0.211109 29:-0.014716 30:-0.165073 31:1.796406 32:-0.028156 33:-0.146726 34:-0.116162 35:-0.070945 36:-0.085863 
1 1:-0.089006 2:-0.23478 3:6.594718 4:-0.638198 5:-0.73209 6:-0.151984 7:0.141827 8:1.500736 9:-0.81669 10:1.065571 11:-0.090181 12:-0.195622 13:6.44381 14:-0.658887 15:0.273778 16:-0.152044 17:0.136739 18:1.436814 19:-0.824419 20:1.069285 21:-0.172678 22:-0.034542 23:0.076623 24:-0.260021 25:-0.208108 26:-0.121496 27:-0.078968 28:-0.14111 29:-0.221907 30:-0.193698 31:1.796406 32:-0.028156 33:-0.145592 34:-0.16267 35:-0.074168 36:-0.086052 
0.883566879526564 1:-0.089028 2:-0.237059 3:6.55247 4:-0.638198 5:-0.73209 6:-0.152006 7:0.163802 8:1.476248 9:-0.81669 10:1.066151 11:-0.090525 12:-0.23715 13:6.593581 14:-0.658887 15:0.282509 16:-0.152072 17:0.166569 18:1.412192 19:-0.824419 20:1.064682 21:-0.172694 22:-0.03714 23:0.271871 24:-0.260021 25:-0.185343 26:-0.121482 27:-0.075536 28:0.100704 29:-0.221907 30:-0.119631 31:1.796406 32:-0.028156 33:-0.145111 34:-0.135761 35:-0.074168 36:-0.085247 
1 1:-0.089235 2:-0.258269 3:1.760054 4:-0.638198 5:-0.373082 6:-0.160546 7:1.477298 8:-0.499335 9:-0.81669 10:1.022003 11:-0.09047 12:-0.234646 13:7.273945 14:-0.658887 15:0.829112 16:-0.160614 17:1.501002 18:0.718737 19:-0.824419 20:1.041919 21:-0.172786 22:-0.051401 23:7.837769 24:-0.260021 25:-0.174221 26:-0.121509 27:-0.075109 28:13.301582 29:-0.221907 30:-0.167517 31:1.796406 32:-0.028156 33:-0.14529 34:30.228382 35:-0.074168 36:-0.085749 
1 1:-0.089204 2:-0.255145 3:2.031853 4:-0.638198 5:1.062951 6:-0.160566 7:1.498351 8:-1.112705 9:-0.81669 10:1.03073 11:-0.090499 12:-0.238432 13:-0.04889 14:-0.658887 15:0.73764 16:-0.160636 17:1.523943 18:0.652793 19:-0.824419 20:1.038345 21:-0.172785 22:-0.051308 23:7.764095 24:-0.260021 25:-0.182282 26:-0.121498 27:-0.073333 28:5.961267 29:-0.221907 30:-0.141482 31:1.796406 32:-0.028156 33:-0.145154 34:0.461198 35:-0.074168 36:-0.085771 
1 1:-0.089052 2:-0.236116 3:6.928988 4:-0.638198 5:-0.73209 6:-0.152059 7:0.217932 8:1.333119 9:-0.81669 10:1.050801 11:-0.090505 12:-0.238019 13:8.225903 14:-0.658887 15:0.497648 16:-0.152125 17:0.223506 18:1.333405 19:-0.824419 20:1.056847 21:-0.172738 22:-0.043089 23:0.63135 24:-0.260021 25:-0.181589 26:-0.121515 27:-0.072288 28:0.114232 29:-0.221907 30:-0.1537 31:1.796406 32:-0.028156 33:-0.145441 34:-0.118119 35:-0.074168 36:-0.085529 
1 1:-0.089263 2:-0.261 3:7.898261 4:-0.638198 5:-0.73209 6:-0.156434 7:1.000152 8:0.685924 9:-0.81669 10:1.070786 11:-0.090569 12:-0.247521 13:8.733717 14:-0.658887 15:0.212914 16:-0.156503 17:1.017909 18:0.793154 19:-0.824419 20:1.078851 21:-0.173124 22:-0.106469 23:3.599217 24:-0.260021 25:-0.23239 26:-0.121782 27:-0.115237 28:0.43032 29:-0.221907 30:-0.190876 31:1.796406 32:-0.028156 33:-0.147598 34:-0.141869 35:-0.074168 36:-0.085829 
1 1:-0.089263 2:-0.261 3:8.509973 4:-0.638198 5:-0.73209 6:-0.156458 7:1.025317 8:0.675917 9:-0.81669 10:1.065297 11:-0.090551 12:-0.24515 13:8.776109 14:-0.658887 15:0.29686 16:-0.156525 17:1.040978 18:0.696535 19:-0.824419 20:1.075276 21:-0.173118 22:-0.105468 23:4.387592 24:-0.260021 25:-0.211773 26:-0.121832 27:-0.122614 28:1.264578 29:-0.221907 30:-0.190983 31:1.796406 32:-0.028156 33:-0.148079 34:0.064815 35:-0.074168 36:-0.085953 
1 1:-0.089265 2:-0.2332 3:7.000995 4:-0.638198 5:-0.014074 6:-0.153468 7:1.705343 8:-1.040964 9:-0.766468 10:1.034435 11:-0.090579 12:-0.217219 13:3.188934 14:0.578179 15:0.609327 16:-0.153537 17:1.736557 18:0.540052 19:-0.780422 20:1.04373 21:-0.172998 22:-0.082763 23:6.307565 24:-0.137284 25:-0.225996 26:-0.121798 27:-0.114035 28:4.131889 29:-0.101446 30:-0.182462 31:1.796406 32:-0.028156 33:-0.147689 34:1.272558 35:-0.07368 36:-0.085898 
1 1:-0.089053 2:-0.236116 3:7.443563 4:-0.638198 5:-0.73209 6:-0.15213 7:0.295206 8:1.335435 9:-0.81669 10:1.050857 11:-0.09031 12:-0.206668 13:7.912052 14:-0.658887 15:0.495091 16:-0.152202 17:0.305664 18:1.179764 19:-0.824419 20:1.048289 21:-0.172778 22:-0.048893 23:1.358351 24:-0.260021 25:-0.186512 26:-0.121438 27:-0.058007 28:0.228904 29:-0.221907 30:-0.160133 31:1.796406 32:-0.028156 33:-0.144496 34:-0.101333 35:-0.074168 36:-0.085559 
1 1:-0.089185 2:-0.253263 3:2.358154 4:-0.638198 5:2.139976 6:-0.16065 7:1.587329 8:1.659001 9:-0.81669 10:1.010764 11:-0.090595 12:-0.250684 13:2.303207 14:-0.658887 15:0.938471 16:-0.160721 17:1.615404 18:1.10228 19:-0.824419 20:1.027228 21:-0.172841 22:-0.060436 23:5.754901 24:-0.260021 25:-0.200366 26:-0.121642 27:-0.094736 28:8.791697 29:-0.221907 30:-0.155434 31:1.796406 32:-0.028156 33:-0.146632 34:13.06108 35:-0.074168 36:-0.085834 
1 1:-0.08927 2:-0.26179 3:8.509973 4:-0.638198 5:-0.73209 6:-0.156522 7:1.092382 8:1.096975 9:-0.81669 10:1.050749 11:-0.090576 12:-0.248352 13:6.73756 14:-0.658887 15:0.494835 16:-0.15659 17:1.110974 18:0.570244 19:-0.824419 20:1.066409 21:-0.173124 22:-0.106428 23:6.771932 24:-0.260021 25:-0.204314 26:-0.121854 27:-0.125965 28:6.595969 29:-0.221907 30:-0.143238 31:1.796406 32:-0.028156 33:-0.148216 34:7.190911 35:-0.074168 36:-0.085398 
1 1:-0.088989 2:-0.234382 3:8.090001 4:-0.638198 5:-0.73209 6:-0.152191 7:0.358 8:1.247108 9:-0.81669 10:1.045255 11:-0.090319 12:-0.214198 13:8.467135 14:-0.658887 15:0.565084 16:-0.152251 17:0.357988 18:1.055628 19:-0.824419 20:1.047072 21:-0.172785 22:-0.049519 23:2.097901 24:-0.260021 25:-0.179938 26:-0.121575 27:-0.082665 28:1.256417 29:-0.221907 30:-0.171634 31:1.796406 32:-0.028156 33:-0.145692 34:0.316161 35:-0.074168 36:-0.085785 
1 1:-0.089189 2:-0.253692 3:0.714077 4:-0.638198 5:1.780967 6:-0.160697 7:1.636375 8:-0.003057 9:-0.81669 10:1.009717 11:-0.090535 12:-0.243138 13:8.969959 14:-0.658887 15:0.947002 16:-0.160762 17:1.659905 18:1.329096 19:-0.824419 20:1.025545 21:-0.172863 22:-0.063992 23:4.548116 24:-0.260021 25:-0.219482 26:-0.12153 27:-0.078074 28:8.47303 29:-0.221907 30:-0.159334 31:1.796406 32:-0.028156 33:-0.145879 34:2.656895 35:-0.074168 36:-0.085796 
1 1:-0.089205 2:-0.255304 3:0.799512 4:-0.638198 5:0.344934 6:-0.159219 7:0.078572 8:1.039785 9:-0.760612 10:1.019605 11:-0.090525 12:-0.241705 13:6.568345 14:0.633655 15:0.828272 16:-0.159288 17:0.079807 18:0.803396 19:-0.764399 20:1.018497 21:-0.172989 22:-0.084462 23:7.474695 24:-0.166492 25:-0.181214 26:-0.121722 27:-0.106379 28:12.505551 29:-0.122191 30:-0.07628 31:1.796406 32:-0.028156 33:-0.147116 34:26.942802 35:-0.073284 36:-0.083683 
1 1:-0.089291 2:-0.263775 3:7.937382 4:-0.638198 5:-0.73209 6:-0.156541 7:1.112286 8:1.394714 9:-0.81669 10:1.05022 11:-0.090598 12:-0.251114 13:4.431235 14:-0.658887 15:0.501565 16:-0.156611 17:1.134138 18:0.573699 19:-0.824419 20:1.064747 21:-0.173121 22:-0.105854 23:7.34296 24:-0.260021 25:-0.209938 26:-0.121788 27:-0.116149 28:9.432056 29:-0.221907 30:-0.228858 31:1.796406 32:-0.028156 33:-0.147847 34:16.181175 35:-0.074168 36:-0.086095 
1 1:-0.088937 2:-0.224978 3:9.464932 4:-0.638198 5:-0.73209 6:-0.152209 7:0.377427 8:1.077882 9:-0.81669 10:1.050252 11:-0.090275 12:-0.201777 13:9.624845 14:-0.658887 15:0.505255 16:-0.152276 17:0.384641 18:0.99685 19:-0.824419 20:1.046964 21:-0.172799 22:-0.052509 23:2.297792 24:-0.260021 25:-0.179838 26:-0.121558 27:-0.079053 28:1.57046 29:-0.221907 30:-0.172235 31:1.796406 32:-0.028156 33:-0.145377 34:0.47823 35:-0.074168 36:-0.085633 
1 1:-0.089189 2:-0.253692 3:0.714077 4:-0.638198 5:1.780967 6:-0.160713 7:1.653398 8:-0.336651 9:-0.81669 10:1.02096 11:-0.090584 12:-0.249447 13:7.944082 14:-0.658887 15:0.835911 16:-0.160783 17:1.681863 18:1.34339 19:-0.824419 20:1.025214 21:-0.172867 22:-0.064597 23:4.350522 24:-0.260021 25:-0.225487 26:-0.121639 27:-0.094149 28:7.357324 29:-0.221907 30:-0.159885 31:1.796406 32:-0.028156 33:-0.146818 34:0.557391 35:-0.074168 36:-0.085902 
1 1:-0.089291 2:-0.263775 3:7.937382 4:-0.638198 5:-0.73209 6:-0.156565 7:1.138002 8:0.825773 9:-0.81669 10:1.050694 11:-0.090586 12:-0.249693 13:5.913275 14:-0.658887 15:0.495445 16:-0.156633 17:1.157678 18:0.578917 19:-0.824419 20:1.062523 21:-0.173125 22:-0.106504 23:7.705267 24:-0.260021 25:-0.234324 26:-0.121799 27:-0.117814 28:12.98632 29:-0.221907 30:-0.234952 31:1.796406 32:-0.028156 33:-0.147991 34:26.638386 35:-0.074168 36:-0.0861 
1 1:-0.089265 2:-0.249557 3:6.79775 4:-0.638198 5:0.703943 6:-0.153565 7:1.804646 8:1.400897 9:-0.783794 10:1.026168 11:-0.090567 12:-0.256614 13:7.216052 14:0.36679 15:0.735041 16:-0.15363 17:1.836458 18:1.05644 19:-0.782121 20:1.028089 21:-0.173012 22:-0.087154 23:4.047053 24:-0.156773 25:-0.15317 26:-0.121662 27:-0.11191 28:0.029033 29:-0.116826 30:-0.163429 31:1.796406 32:-0.028156 33:-0.147708 34:-0.147529 35:-0.073284 36:-0.085586 
1 1:-0.089281 2:-0.250606 3:6.79775 4:-0.638198 5:0.703943 6:-0.153587 7:1.830543 8:1.333565 9:-0.775566 10:1.022844 11:-0.090533 12:-0.235183 13:8.17762 14:0.483889 15:0.772514 16:-0.153653 17:1.861396 18:1.234623 19:-0.780887 20:1.022343 21:-0.173014 22:-0.087419 23:2.37386 24:-0.153715 25:-0.154957 26:-0.121625 27:-0.103403 28:-0.050119 29:-0.150354 30:-0.105849 31:1.796406 32:-0.028156 33:-0.147233 34:-0.149227 35:-0.074002 36:-0.084623 
1 1:-0.089222 2:-0.25698 3:1.505966 4:-0.638198 5:0.703943 6:-0.159279 7:0.141707 8:-0.392882 9:-0.749473 10:1.015356 11:-0.090626 12:-0.254769 13:6.286193 14:0.744114 15:0.834355 16:-0.159352 17:0.147606 18:0.806548 19:-0.758 20:1.016654 21:-0.173 22:-0.086268 23:7.506052 24:-0.155908 25:-0.166983 26:-0.12163 27:-0.092806 28:12.837554 29:-0.134618 30:-0.023121 31:1.796406 32:-0.028156 33:-0.146419 34:27.768799 35:-0.07368 36:-0.08222 
1 1:-0.089296 2:-0.26427 3:6.544806 4:-0.638198 5:-0.73209 6:-0.156612 7:1.18731 8:-0.909441 9:-0.81669 10:1.05541 11:-0.090569 12:-0.247383 13:2.985407 14:-0.658887 15:0.433268 16:-0.156676 17:1.203632 18:0.601554 19:-0.824419 20:1.059459 21:-0.17313 22:-0.107309 23:7.864783 24:-0.260021 25:-0.226213 26:-0.121774 27:-0.114079 28:10.920759 29:-0.221907 30:-0.199975 31:1.796406 32:-0.028156 33:-0.147803 34:19.601582 35:-0.074168 36:-0.086 
1 1:-0.089281 2:-0.250606 3:6.79775 4:-0.638198 5:0.703943 6:-0.153616 7:1.85981 8:1.343385 9:-0.783902 10:1.010677 11:-0.090604 12:-0.24469 13:7.974069 14:0.359532 15:0.890945 16:-0.153677 17:1.885829 18:1.320961 19:-0.776097 20:1.01751 21:-0.173016 22:-0.088001 23:0.816266 24:-0.138704 25:-0.160622 26:-0.121745 27:-0.121201 28:-0.184092 29:-0.181981 30:-0.115724 31:1.796406 32:-0.028156 33:-0.148263 34:-0.160666 35:-0.074152 36:-0.084496 
1 1:-0.088932 2:-0.22704 3:9.464932 4:-0.638198 5:-0.73209 6:-0.152283 7:0.453957 8:0.969651 9:-0.81669 10:1.045717 11:-0.090545 12:-0.237449 13:9.882149 14:-0.658887 15:0.565978 16:-0.15235 17:0.464317 18:0.804731 19:-0.824419 20:1.047456 21:-0.172823 22:-0.057286 23:2.499268 24:-0.260021 25:-0.183635 26:-0.121533 27:-0.078407 28:2.694051 29:-0.221907 30:-0.199199 31:1.796406 32:-0.028156 33:-0.145566 34:1.370005 35:-0.074168 36:-0.08594 
1 1:-0.08921 2:-0.255769 3:-0.2338 4:-0.638198 5:0.703943 6:-0.160775 7:1.718611 8:1.720469 9:-0.81669 10:1.019723 11:-0.090496 12:-0.237944 13:-0.199912 14:-0.658887 15:0.839679 16:-0.160844 17:1.747261 18:1.3772 19:-0.824419 20:1.025331 21:-0.172908 22:-0.071219 23:3.926038 24:-0.260021 25:-0.22452 26:-0.121612 27:-0.090167 28:6.081883 29:-0.221907 30:-0.186905 31:1.796406 32:-0.028156 33:-0.146496 34:6.013295 35:-0.074168 36:-0.08582 
1 1:-0.089248 2:-0.248357 3:5.766065 4:-0.638198 5:0.344934 6:-0.153633 7:1.876033 8:1.32343 9:-0.783612 10:1.01024 11:-0.090534 12:-0.252642 13:8.259437 14:0.363967 15:0.898875 16:-0.153699 17:1.910221 18:1.350723 19:-0.769928 20:1.012152 21:-0.173029 22:-0.0912 23:-0.108229 24:-0.135733 25:-0.162389 26:-0.121781 27:-0.128837 28:-0.23621 29:-0.176225 30:-0.089296 31:1.796406 32:-0.028156 33:-0.148671 34:-0.161066 35:-0.074077 36:-0.084321 
1 1:-0.089291 2:-0.263783 3:4.249368 4:-0.638198 5:-0.73209 6:-0.156654 7:1.231747 8:-1.113787 9:-0.81669 10:1.049838 11:-0.090584 12:-0.249357 13:-0.286232 14:-0.658887 15:0.507315 16:-0.156718 17:1.248697 18:0.625546 19:-0.824419 20:1.056758 21:-0.173153 22:-0.111141 23:7.765358 24:-0.260021 25:-0.215624 26:-0.121783 27:-0.115414 28:5.77703 29:-0.221907 30:-0.137384 31:1.796406 32:-0.028156 33:-0.147865 34:-0.114106 35:-0.074168 36:-0.085128 
1 1:-0.089248 2:-0.248357 3:5.766065 4:-0.638198 5:0.344934 6:-0.153655 7:1.899822 8:1.331519 9:-0.775711 10:1.008034 11:-0.090598 12:-0.253831 13:8.234461 14:0.474026 15:0.891664 16:-0.153722 17:1.934698 18:1.356811 19:-0.765225 20:1.00594 21:-0.173034 22:-0.09188 23:-0.233142 24:-0.140533 25:-0.147531 26:-0.121701 27:-0.11366 28:-0.246551 29:-0.043545 30:-0.080527 31:1.796406 32:-0.028156 33:-0.148011 34:-0.16233 35:-0.071909 36:-0.084094 
1 1:-0.089284 2:-0.263119 3:0.751396 4:-0.638198 5:-0.014074 6:-0.159348 7:0.214668 8:-1.081934 9:-0.756723 10:1.006502 11:-0.090515 12:-0.240475 13:0.906363 14:0.655688 15:0.915826 16:-0.159414 17:0.214214 18:0.80697 19:-0.759699 20:1.015234 21:-0.173022 22:-0.089871 23:7.490284 24:-0.133109 25:-0.181038 26:-0.121662 27:-0.09755 28:8.639574 29:-0.145597 30:-0.107685 31:1.796406 32:-0.028156 33:-0.147025 34:6.810403 35:-0.073961 36:-0.084408 
1 1:-0.089219 2:-0.245807 3:5.843199 4:-0.638198 5:0.344934 6:-0.153678 7:1.924437 8:1.348992 9:-0.750873 10:1.006246 11:-0.090546 12:-0.235755 13:8.041589 14:0.781249 15:0.910025 16:-0.153744 17:1.958592 18:1.363891 19:-0.761434 20:0.999534 21:-0.173038 22:-0.091009 23:-0.234554 24:-0.137917 25:-0.139546 26:-0.121761 27:-0.115782 28:-0.239584 29:-0.051662 30:-0.071503 31:1.796406 32:-0.028156 33:-0.148186 34:-0.161989 35:-0.072254 36:-0.084179 
1 1:-0.089297 2:-0.264383 3:2.7425 4:-0.638198 5:-0.73209 6:-0.156693 7:1.273178 8:-1.005864 9:-0.81669 10:1.044939 11:-0.090591 12:-0.250317 13:2.309717 14:-0.658887 15:0.567332 16:-0.15676 17:1.293673 18:0.631607 19:-0.824419 20:1.053663 21:-0.17316 22:-0.112266 23:7.684295 24:-0.260021 25:-0.204201 26:-0.121866 27:-0.127615 28:9.802543 29:-0.221907 30:-0.183312 31:1.796406 32:-0.028156 33:-0.148219 34:14.337055 35:-0.074168 36:-0.086049 
1 1:-0.089018 2:-0.236722 3:7.835421 4:-0.638198 5:-0.73209 6:-0.152378 7:0.552696 8:0.461661 9:-0.81669 10:1.045793 11:-0.090657 12:-0.254584 13:11.752036 14:-0.658887 15:0.566774 16:-0.152445 17:0.56626 18:0.695365 19:-0.824419 20:1.044207 21:-0.172886 22:-0.068074 23:1.89864 24:-0.260021 25:-0.185212 26:-0.121572 27:-0.080437 28:1.785431 29:-0.221907 30:-0.170499 31:1.796406 32:-0.028156 33:-0.145714 34:0.520639 35:-0.074168 36:-0.085738 
1 1:-0.089233 2:-0.258082 3:5.228742 4:-0.638198 5:0.344934 6:-0.160855 7:1.803219 8:1.717916 9:-0.81669 10:1.025088 11:-0.090514 12:-0.240425 13:0.085015 14:-0.658887 15:0.764699 16:-0.160924 17:1.833488 18:1.341239 19:-0.824419 20:1.015633 21:-0.172938 22:-0.07611 23:3.833159 24:-0.260021 25:-0.136013 26:-0.121591 27:-0.087099 28:-0.067635 29:-0.221907 30:-0.077575 31:1.796406 32:-0.028156 33:-0.146196 34:-0.151284 35:-0.074168 36:-0.083893 
1 1:-0.089138 2:-0.241885 3:6.924127 4:-0.638198 5:-0.73209 6:-0.152406 7:0.585343 8:0.391695 9:-0.81669 10:1.041936 11:-0.090379 12:-0.21497 13:11.709204 14:-0.658887 15:0.612941 16:-0.152468 17:0.590297 18:0.688649 19:-0.824419 20:1.041931 21:-0.172902 22:-0.071349 23:1.811945 24:-0.260021 25:-0.182541 26:-0.121642 27:-0.090514 28:1.53154 29:-0.221907 30:-0.130538 31:1.796406 32:-0.028156 33:-0.146385 34:0.475834 35:-0.074168 36:-0.08511 
1 1:-0.089233 2:-0.258082 3:5.228742 4:-0.638198 5:0.344934 6:-0.160877 7:1.826525 8:1.714328 9:-0.81669 10:1.016297 11:-0.0905 12:-0.23846 13:0.371446 14:-0.658887 15:0.83764 16:-0.160944 17:1.854674 18:1.33228 19:-0.824419 20:1.010059 21:-0.172943 22:-0.07697 23:3.819113 24:-0.260021 25:-0.107904 26:-0.12166 27:-0.097332 28:1.70766 29:-0.221907 30:-0.086475 31:1.796406 32:-0.028156 33:-0.14686 34:0.579399 35:-0.074168 36:-0.083937 
1 1:-0.089233 2:-0.258144 3:7.713524 4:-0.638198 5:0.703943 6:-0.160895 7:1.845664 8:1.670527 9:-0.81669 10:1.012423 11:-0.090515 12:-0.240387 13:1.61252 14:-0.658887 15:0.868855 16:-0.160964 17:1.875805 18:1.291457 19:-0.824419 20:1.004359 21:-0.172958 22:-0.079457 23:4.171885 24:-0.260021 25:-0.101638 26:-0.121711 27:-0.104827 28:4.958739 29:-0.221907 30:-0.00783 31:1.796406 32:-0.028156 33:-0.14698 34:4.582546 35:-0.074168 36:-0.081392 
1 1:-0.089192 2:-0.251278 3:8.187999 4:-0.638198 5:-0.73209 6:-0.152444 7:0.62308 8:0.347084 9:-0.81669 10:1.026175 11:-0.090406 12:-0.229265 13:11.740351 14:-0.658887 15:0.786283 16:-0.152513 17:0.638881 18:0.688839 19:-0.824419 20:1.034342 21:-0.172905 22:-0.071947 23:1.859597 24:-0.260021 25:-0.172036 26:-0.121687 27:-0.099363 28:1.558453 29:-0.221907 30:-0.160245 31:1.796406 32:-0.028156 33:-0.147078 34:0.484513 35:-0.074168 36:-0.085476 
1 1:-0.089192 2:-0.251278 3:8.187999 4:-0.638198 5:-0.73209 6:-0.152469 7:0.654092 8:0.319055 9:-0.81669 10:1.019975 11:-0.090255 12:-0.198458 13:11.679222 14:-0.658887 15:0.848883 16:-0.152536 17:0.663103 18:0.694911 19:-0.824419 20:1.030726 21:-0.172901 22:-0.070998 23:2.042239 24:-0.260021 25:-0.185375 26:-0.12165 27:-0.092932 28:1.344772 29:-0.221907 30:-0.071023 31:1.796406 32:-0.028156 33:-0.146445 34:0.301927 35:-0.074168 36:-0.083504 
1 1:-0.08924 2:-0.25869 3:11.279406 4:-0.638198 5:1.421959 6:-0.160936 7:1.888659 8:-0.135737 9:-0.81669 10:0.975726 11:-0.090559 12:-0.245968 13:10.464853 14:-0.658887 15:1.142676 16:-0.161004 17:1.918455 18:1.093838 19:-0.824419 20:0.992432 21:-0.172972 22:-0.081624 23:6.083262 24:-0.260021 25:-0.119448 26:-0.121623 27:-0.091852 28:8.9054 29:-0.221907 30:-0.165252 31:1.796406 32:-0.028156 33:-0.146872 34:-0.15599 35:-0.074168 36:-0.085807 
1 1:-0.089252 2:-0.259829 3:11.858508 4:-0.638198 5:1.421959 6:-0.160992 7:1.948054 8:1.025148 9:-0.81669 10:0.971663 11:-0.090572 12:-0.247899 13:7.193665 14:-0.658887 15:1.145419 16:-0.161063 17:1.981956 18:0.661301 19:-0.824419 20:0.978056 21:-0.17298 22:-0.082962 23:7.784868 24:-0.260021 25:-0.177936 26:-0.121734 27:-0.108169 28:12.317732 29:-0.221907 30:-0.040567 31:1.796406 32:-0.028156 33:-0.147322 34:24.579559 35:-0.074168 36:-0.082146 
1 1:-0.089119 2:-0.246933 3:8.812566 4:-0.638198 5:0.703943 6:-0.152554 7:0.740544 8:0.127468 9:-0.81669 10:1.031359 11:-0.090446 12:-0.226757 13:11.685071 14:-0.658887 15:0.721574 16:-0.152624 17:0.75714 18:0.760626 19:-0.824419 20:1.02571 21:-0.172942 22:-0.076071 23:2.755674 24:-0.260021 25:-0.202002 26:-0.121714 27:-0.106423 28:2.005449 29:-0.221907 30:-0.156106 31:1.796406 32:-0.028156 33:-0.147156 34:0.035094 35:-0.074168 36:-0.085595 
1 1:-0.089279 2:-0.262628 3:1.565489 4:-0.638198 5:0.703943 6:-0.159544 7:0.421169 8:-1.114193 9:-0.792048 10:1.005647 11:-0.090559 12:-0.246117 13:-0.366488 14:0.230587 15:0.931045 16:-0.159617 17:0.431535 18:-0.433255 19:-0.782743 20:0.991622 21:-0.173089 22:-0.100642 23:6.936423 24:-0.16584 25:-0.142745 26:-0.121778 27:-0.11465 28:2.721215 29:-0.139886 30:-0.105379 31:1.796406 32:-0.028156 33:-0.147682 34:1.187992 35:-0.07412 36:-0.084614 
1 1:-0.089274 2:-0.243263 3:6.649703 4:-0.638198 5:2.139976 6:-0.153897 7:2.157246 8:1.235361 9:-0.75863 10:0.917693 11:-0.090574 12:-0.219133 13:8.485364 14:0.66974 15:1.532488 16:-0.15396 17:2.18999 18:0.845798 19:-0.769058 20:0.939807 21:-0.173111 22:-0.103108 23:4.181572 24:-0.151704 25:-0.144551 26:-0.121834 27:-0.113918 28:3.968289 29:-0.048358 30:-0.093966 31:1.796406 32:-0.028156 33:-0.147753 34:3.096048 35:-0.071768 36:-0.083892 
1 1:-0.089279 2:-0.262628 3:1.565489 4:-0.638198 5:0.703943 6:-0.159564 7:0.442219 8:-1.114193 9:-0.784426 10:0.995607 11:-0.090564 12:-0.246861 13:-0.366633 14:0.368993 15:1.017514 16:-0.159636 17:0.45244 18:-0.41903 19:-0.779777 20:0.992704 21:-0.173086 22:-0.100283 23:6.85711 24:-0.14703 25:-0.12984 26:-0.12174 27:-0.10909 28:-0.297592 29:-0.152427 30:-0.091694 31:1.796406 32:-0.028156 33:-0.147363 34:-0.162567 35:-0.074001 36:-0.083762 
1 1:-0.089284 2:-0.263043 3:1.565489 4:-0.638198 5:1.780967 6:-0.159587 7:0.466566 8:-1.114193 9:-0.784081 10:0.98975 11:-0.090556 12:-0.245765 13:-0.366633 14:0.374028 15:1.0652 16:-0.159656 17:0.473843 18:-0.408891 19:-0.776735 20:0.993289 21:-0.173071 22:-0.09777 23:6.835423 24:-0.129675 25:-0.124051 26:-0.121788 27:-0.116114 28:0.334386 29:-0.161782 30:-0.098009 31:1.796406 32:-0.028156 33:-0.147851 34:-0.114578 35:-0.074115 36:-0.085012 
1 1:-0.089267 2:-0.261468 3:6.925996 4:-0.638198 5:1.062951 6:-0.15693 7:1.522978 8:1.564132 9:-0.81669 10:1.005539 11:-0.090613 12:-0.253187 13:3.530383 14:-0.658887 15:0.957876 16:-0.157001 17:1.551538 18:0.629371 19:-0.824419 20:1.017964 21:-0.173231 22:-0.123768 23:7.663344 24:-0.260021 25:-0.19588 26:-0.12184 27:-0.123821 28:3.009513 29:-0.221907 30:-0.129705 31:1.796406 32:-0.028156 33:-0.148025 34:1.547921 35:-0.074168 36:-0.085518 
1 1:-0.089258 2:-0.260516 3:3.243229 4:-0.638198 5:1.062951 6:-0.156968 7:1.563297 8:1.687602 9:-0.81669 10:0.996664 11:-0.090601 12:-0.25163 13:1.43293 14:-0.658887 15:1.0352 16:-0.15704 17:1.592989 18:0.809078 19:-0.824419 20:1.01507 21:-0.173241 22:-0.125369 23:8.132805 24:-0.260021 25:-0.201525 26:-0.121895 27:-0.131887 28:0.475232 29:-0.221907 30:-0.092751 31:1.796406 32:-0.028156 33:-0.148509 34:-0.083714 35:-0.074168 36:-0.083921 
1 1:-0.089266 2:-0.261405 3:0.367612 4:-0.638198 5:1.062951 6:-0.156995 7:1.590813 8:1.703795 9:-0.81669 10:0.996668 11:-0.090609 12:-0.252564 13:0.952452 14:-0.658887 15:1.03719 16:-0.157059 17:1.61334 18:0.860097 19:-0.824419 20:1.013136 21:-0.173232 22:-0.12403 23:8.272806 24:-0.260021 25:-0.208035 26:-0.121856 27:-0.126091 28:0.807693 29:-0.221907 30:-0.153754 31:1.796406 32:-0.028156 33:-0.148334 34:0.005354 35:-0.074168 36:-0.085724 
1 1:-0.089308 2:-0.265516 3:1.577613 4:-0.638198 5:-0.014074 6:-0.159697 7:0.582608 8:-0.232844 9:-0.758628 10:1.011338 11:-0.090626 12:-0.254797 13:6.762041 14:0.715034 15:0.857036 16:-0.159774 17:0.59999 18:0.761695 19:-0.758511 20:1.009757 21:-0.173099 22:-0.1024 23:7.738058 24:-0.111163 25:-0.188971 26:-0.121792 27:-0.116694 28:12.79224 29:-0.080203 30:-0.052769 31:1.796406 32:-0.028156 33:-0.14793 34:30.020933 35:-0.072714 36:-0.082145 
1 1:-0.089162 2:-0.245057 3:7.059007 4:-0.638198 5:2.139976 6:-0.152747 7:0.950504 8:0.502022 9:-0.81669 10:0.972291 11:-0.090198 12:-0.188266 13:11.86036 14:-0.658887 15:1.210428 16:-0.152811 17:0.958451 18:0.829695 19:-0.824419 20:0.984483 21:-0.172998 22:-0.086293 23:2.127109 24:-0.260021 25:-0.07149 26:-0.121697 27:-0.100649 28:2.664218 29:-0.221907 30:-0.040034 31:1.796406 32:-0.028156 33:-0.147014 34:1.196845 35:-0.074168 36:-0.082265 
1 1:-0.089262 2:-0.260931 3:1.9e-005 4:-0.638198 5:-0.73209 6:-0.157067 7:1.666858 8:1.714685 9:-0.81669 10:1.011635 11:-0.090619 12:-0.253944 13:0.341982 14:-0.658887 15:0.900528 16:-0.157135 17:1.695574 18:0.826616 19:-0.824419 20:1.019566 21:-0.173236 22:-0.124584 23:8.288199 24:-0.260021 25:-0.184715 26:-0.121815 27:-0.120144 28:2.795848 29:-0.221907 30:-0.070761 31:1.796406 32:-0.028156 33:-0.147954 34:1.109844 35:-0.074168 36:-0.083666 
1 1:-0.089262 2:-0.260931 3:1.9e-005 4:-0.638198 5:-0.73209 6:-0.157089 7:1.690592 8:1.700869 9:-0.81669 10:1.022477 11:-0.090619 12:-0.25386 13:0.959455 14:-0.658887 15:0.791676 16:-0.157154 17:1.716062 18:0.787612 19:-0.824419 20:1.020632 21:-0.173233 22:-0.124118 23:8.179374 24:-0.260021 25:-0.185046 26:-0.121862 27:-0.12708 28:3.517 29:-0.221907 30:-0.117839 31:1.796406 32:-0.028156 33:-0.148314 34:1.808165 35:-0.074168 36:-0.085316 
1 1:-0.089285 2:-0.263212 3:0.323004 4:-0.638198 5:0.703943 6:-0.159785 7:0.674725 8:-0.380596 9:-0.738385 10:1.007346 11:-0.09056 12:-0.246325 13:6.295 14:0.898468 15:0.864678 16:-0.159851 17:0.682428 18:0.766434 19:-0.750418 20:0.998037 21:-0.173098 22:-0.102096 23:7.708359 24:-0.142499 25:-0.126477 26:-0.121731 27:-0.107771 28:13.158499 29:-0.111609 30:-0.105556 31:1.796406 32:-0.028156 33:-0.147454 34:29.181036 35:-0.073255 36:-0.085124 
1 1:-0.089241 2:-0.258706 3:8.095616 4:-0.638198 5:-0.014074 6:-0.161265 7:2.235144 8:-1.000699 9:-0.81669 10:0.986129 11:-0.090567 12:-0.246947 13:3.543215 14:-0.658887 15:1.096222 16:-0.161331 17:2.268978 18:0.555056 19:-0.824419 20:0.984311 21:-0.173051 22:-0.094496 23:7.091782 24:-0.260021 25:-0.123186 26:-0.121703 27:-0.103625 28:11.415359 29:-0.221907 30:-0.140607 31:1.796406 32:-0.028156 33:-0.147111 34:18.455116 35:-0.074168 36:-0.085012 
1 1:-0.089133 2:-0.238067 3:7.103141 4:-0.638198 5:1.421959 6:-0.152863 7:1.06798 8:0.567014 9:-0.81669 10:0.934702 11:-0.090259 12:-0.20368 13:12.124971 14:-0.658887 15:1.473632 16:-0.152928 17:1.082981 18:0.802248 19:-0.824419 20:0.951962 21:-0.173013 22:-0.088299 23:1.976485 24:-0.260021 25:-0.141361 26:-0.121752 27:-0.110824 28:2.638143 29:-0.221907 30:-0.141487 31:1.796406 32:-0.028156 33:-0.14742 34:1.528459 35:-0.074168 36:-0.085205 
1 1:-0.089271 2:-0.26178 3:-0.011544 4:-0.638198 5:2.139976 6:-0.159834 7:0.726571 8:-0.744499 9:-0.734228 10:0.958361 11:-0.090577 12:-0.248491 13:4.384274 14:0.930121 15:1.24827 16:-0.159907 17:0.743362 18:0.757155 19:-0.749802 20:0.96994 21:-0.173115 22:-0.104974 23:7.814207 24:-0.157592 25:0.009927 26:-0.121753 27:-0.110984 28:13.466531 29:-0.083399 30:-0.069009 31:1.796406 32:-0.028156 33:-0.147965 34:26.879755 35:-0.072739 36:-0.083584 
1 1:-0.089253 2:-0.259996 3:2.436289 4:-0.638198 5:-0.73209 6:-0.157162 7:1.767019 8:1.032223 9:-0.81669 10:0.996772 11:-0.090602 12:-0.251743 13:7.525019 14:-0.658887 15:1.01169 16:-0.15723 17:1.796717 18:0.371932 19:-0.824419 20:1.016373 21:-0.173248 22:-0.126648 23:6.749452 24:-0.260021 25:-0.154045 26:-0.121963 27:-0.141855 28:7.060343 29:-0.221907 30:-0.183445 31:1.796406 32:-0.028156 33:-0.148884 34:9.014398 35:-0.074168 36:-0.086086 
1 1:-0.089301 2:-0.264866 3:6.665688 4:-0.638198 5:2.139976 6:-0.161351 7:2.326391 8:1.69128 9:-0.81669 10:0.949144 11:-0.090568 12:-0.24732 13:1.494127 14:-0.658887 15:1.397263 16:-0.161424 17:2.368631 18:1.005937 19:-0.824419 20:0.940155 21:-0.173073 22:-0.0981 23:6.313724 24:-0.260021 25:-0.073415 26:-0.121769 27:-0.113417 28:5.320589 29:-0.221907 30:-0.044122 31:1.796406 32:-0.028156 33:-0.147479 34:5.147995 35:-0.074168 36:-0.083753 
1 1:-0.089246 2:-0.259284 3:-0.110876 4:-0.638198 5:1.780967 6:-0.159893 7:0.788778 8:-1.06054 9:-0.750967 10:0.921885 11:-0.090555 12:-0.245662 13:1.040793 14:0.739285 15:1.471459 16:-0.159963 17:0.803155 18:0.751447 19:-0.759132 20:0.93292 21:-0.173115 22:-0.104951 23:7.918866 24:-0.190643 25:-0.041684 26:-0.121789 27:-0.116268 28:12.648711 29:-0.102873 30:-0.095034 31:1.796406 32:-0.028156 33:-0.1479 34:21.093668 35:-0.072857 36:-0.085932 
1 1:-0.089246 2:-0.259284 3:-0.110876 4:-0.638198 5:1.780967 6:-0.159909 7:0.805891 8:-1.09917 9:-0.750291 10:0.932446 11:-0.090565 12:-0.246897 13:0.293554 14:0.739546 15:1.413076 16:-0.159982 17:0.823419 18:0.755282 19:-0.759601 20:0.919215 21:-0.173116 22:-0.10514 23:7.877151 24:-0.195002 25:-0.003761 26:-0.121768 27:-0.11322 28:11.501762 29:-0.124332 30:-0.077136 31:1.796406 32:-0.028156 33:-0.147736 34:17.02322 35:-0.073407 36:-0.085674 
1 1:-0.08926 2:-0.260744 3:5.404312 4:-0.638198 5:0.703943 6:-0.157232 7:1.841371 8:-0.000543 9:-0.81669 10:0.979134 11:-0.090597 12:-0.25108 13:7.997585 14:-0.658887 15:1.115882 16:-0.157303 17:1.875755 18:0.17418 19:-0.824419 20:1.000475 21:-0.173283 22:-0.132193 23:5.639893 24:-0.260021 25:-0.127815 26:-0.121935 27:-0.137875 28:8.721297 29:-0.221907 30:-0.125356 31:1.796406 32:-0.028156 33:-0.148629 34:13.492426 35:-0.074168 36:-0.085431 
1 1:-0.089263 2:-0.261067 3:-0.042764 4:-0.638198 5:2.139976 6:-0.15995 7:0.849108 8:-1.113599 9:-0.758568 10:0.883027 11:-0.090576 12:-0.248342 13:-0.231416 14:0.65055 15:1.673001 16:-0.16002 17:0.863809 18:0.767281 19:-0.75709 20:0.894789 21:-0.173119 22:-0.105574 23:7.800562 24:-0.192413 25:-0.029311 26:-0.121818 27:-0.120518 28:7.364199 29:-0.155494 30:0.03415 31:1.796406 32:-0.028156 33:-0.147996 34:4.687433 35:-0.074108 36:-0.078731 
0.825903500079146 1:-0.089198 2:-0.292341 3:-0.429861 4:-0.638198 5:-0.73209 6:-0.156938 7:1.055919 8:1.64869 9:-0.746843 10:-1.325794 11:-0.090452 12:-0.285575 13:-0.366633 14:0.367935 15:-0.033505 16:-0.157005 17:1.074091 18:1.653969 19:-0.74366 20:-1.296149 21:-0.172722 22:-0.373784 23:-0.188973 24:0.277704 25:0.643503 26:-0.121596 27:-0.286476 28:-0.355692 29:0.039677 30:0.085333 31:1.796406 32:-0.028156 33:-0.152574 34:-0.163037 35:-0.068036 36:-0.074783 
1 1:-0.08929 2:-0.26374 3:5.404312 4:-0.638198 5:0.703943 6:-0.15727 7:1.880945 8:-0.937798 9:-0.81669 10:0.975523 11:-0.090577 12:-0.248414 13:2.862789 14:-0.658887 15:1.117854 16:-0.157339 17:1.914461 18:0.324364 19:-0.824419 20:0.991679 21:-0.17329 22:-0.133361 23:6.643916 24:-0.260021 25:-0.173776 26:-0.121969 27:-0.142815 28:8.694717 29:-0.221907 30:-0.09862 31:1.796406 32:-0.028156 33:-0.148844 34:11.606091 35:-0.074168 36:-0.084511 
1 1:-0.089079 2:-0.24027 3:7.593181 4:-0.638198 5:1.062951 6:-0.152996 7:1.207474 8:0.293549 9:-0.81669 10:0.942246 11:-0.090339 12:-0.214717 13:11.940975 14:-0.658887 15:1.388223 16:-0.153059 17:1.225069 18:0.751834 19:-0.824419 20:0.939676 21:-0.173016 22:-0.088026 23:2.289948 24:-0.260021 25:-0.106256 26:-0.121608 27:-0.084742 28:2.249938 29:-0.221907 30:0.016676 31:1.796406 32:-0.028156 33:-0.145676 34:1.013726 35:-0.074168 36:-0.079381 
1 1:-0.089311 2:-0.265842 3:-0.042764 4:-0.638198 5:2.139976 6:-0.159967 7:0.866858 8:-1.114193 9:-0.75085 10:0.872882 11:-0.090586 12:-0.249595 13:-0.366633 14:0.743428 15:1.754536 16:-0.160039 17:0.883912 18:0.764506 19:-0.75622 20:0.885941 21:-0.173116 22:-0.105177 23:7.791966 24:-0.194932 25:-0.023635 26:-0.121816 27:-0.120239 28:5.976449 29:-0.092347 30:-0.027588 31:1.796406 32:-0.028156 33:-0.148072 34:1.07406 35:-0.072764 36:-0.081902 
1 1:-0.089284 2:-0.263215 3:3.199003 4:-0.638198 5:2.139976 6:-0.161442 7:2.42236 8:1.716834 9:-0.81669 10:0.92104 11:-0.090597 12:-0.251106 13:0.036964 14:-0.658887 15:1.594265 16:-0.161515 17:2.466729 18:1.411289 19:-0.824419 20:0.908725 21:-0.173068 22:-0.09722 23:3.699468 24:-0.260021 25:-0.089742 26:-0.121714 27:-0.10526 28:5.695321 29:-0.221907 30:-0.018863 31:1.796406 32:-0.028156 33:-0.146776 34:5.379335 35:-0.074168 36:-0.081847 
1 1:-0.089311 2:-0.265842 3:-0.042764 4:-0.638198 5:2.139976 6:-0.159983 7:0.884432 8:-1.114193 9:-0.736243 10:0.851907 11:-0.090585 12:-0.249547 13:-0.366633 14:0.914298 15:1.87732 16:-0.160057 17:0.903836 18:0.75235 19:-0.754348 20:0.874571 21:-0.17313 22:-0.107308 23:7.782873 24:-0.192834 25:-0.065995 26:-0.121754 27:-0.111115 28:5.920102 29:-0.132994 30:-0.119927 31:1.796406 32:-0.028156 33:-0.147716 34:0.029492 35:-0.073701 36:-0.085229 
1 1:-0.089261 2:-0.239522 3:7.697257 4:-0.598295 5:2.139976 6:-0.154342 7:2.623014 8:1.310945 9:-0.699463 10:0.827414 11:-0.090615 12:-0.253435 13:8.440925 14:1.218548 15:1.981875 16:-0.154409 17:2.671885 18:1.317177 19:-0.708194 20:0.811952 21:-0.173133 22:-0.108155 23:0.08302 24:-0.11623 25:0.183954 26:-0.121788 27:-0.108946 28:0.049811 29:-0.119265 30:0.263375 31:1.796406 32:-0.028156 33:-0.147686 34:-0.135638 35:-0.073661 36:-0.058887 
1 1:-0.08934 2:-0.268655 3:-0.042764 4:-0.638198 5:1.780967 6:-0.160006 7:0.908058 8:-1.114059 9:-0.743518 10:0.856417 11:-0.090577 12:-0.248523 13:-0.297057 14:0.836461 15:1.847056 16:-0.160076 17:0.923627 18:0.745659 19:-0.749941 20:0.862979 21:-0.173129 22:-0.107256 23:7.791425 24:-0.158298 25:-0.073925 26:-0.121778 27:-0.114629 28:7.248237 29:-0.114299 30:-0.125966 31:1.796406 32:-0.028156 33:-0.147826 34:3.162257 35:-0.073142 36:-0.086048 
1 1:-0.089306 2:-0.265354 3:4.742982 4:-0.638198 5:0.344934 6:-0.157323 7:1.937407 8:-1.113684 9:-0.81669 10:0.986465 11:-0.090609 12:-0.252618 13:-0.213707 14:-0.658887 15:1.023351 16:-0.157393 17:1.972365 18:0.524453 19:-0.824419 20:0.981714 21:-0.173272 22:-0.130561 23:7.685694 24:-0.260021 25:-0.154428 26:-0.121931 27:-0.137176 28:5.391635 29:-0.221907 30:-0.015497 31:1.796406 32:-0.028156 33:-0.14845 34:0.304017 35:-0.074168 36:-0.08228 
1 1:-0.089306 2:-0.265354 3:4.742982 4:-0.638198 5:0.344934 6:-0.157343 7:1.958266 8:-1.106848 9:-0.81669 10:0.970592 11:-0.090617 12:-0.253545 13:0.329868 14:-0.658887 15:1.144424 16:-0.157411 17:1.991282 18:0.573778 19:-0.824419 20:0.977024 21:-0.173289 22:-0.133208 23:7.843491 24:-0.260021 25:-0.143876 26:-0.121916 27:-0.134966 28:8.111686 29:-0.221907 30:-0.059585 31:1.796406 32:-0.028156 33:-0.148229 34:9.368221 35:-0.074168 36:-0.083113 
0.3336736061436361 1:-0.089064 2:-0.292341 3:-0.429861 4:-0.638198 5:-0.73209 6:-0.153574 7:1.055919 8:1.648689 9:-0.773782 10:-1.356467 11:-0.090514 12:-0.285575 13:-0.366633 14:0.212041 15:-0.407077 16:-0.153643 17:1.07409 18:1.668102 19:-0.778006 20:-1.360457 21:-0.172707 22:-0.373824 23:-0.432827 24:0.102601 25:-0.125915 26:-0.121479 27:-0.286474 28:-0.35569 29:0.066109 30:-0.169579 31:1.796406 32:-0.028156 33:-0.152574 34:-0.163037 35:-0.066746 36:-0.085683 
1 1:-0.089278 2:-0.262553 3:0.698382 4:-0.638198 5:2.139976 6:-0.161519 7:2.503791 8:-0.100411 9:-0.81669 10:0.882194 11:-0.090576 12:-0.248334 13:8.317539 14:-0.658887 15:1.751221 16:-0.161588 17:2.544948 18:1.313284 19:-0.824419 20:0.867671 21:-0.173082 22:-0.099505 23:4.522221 24:-0.260021 25:0.109176 26:-0.121767 27:-0.112922 28:8.454379 29:-0.221907 30:-0.024169 31:1.796406 32:-0.028156 33:-0.147417 34:2.936503 35:-0.074168 36:-0.081318 
1 1:-0.089337 2:-0.268374 3:-0.429861 4:-0.638198 5:2.139976 6:-0.16006 7:0.965556 8:-0.917572 9:-0.725078 10:0.838372 11:-0.090541 12:-0.243864 13:2.308224 14:1.023916 15:1.917174 16:-0.160131 17:0.982563 18:0.719098 19:-0.743776 20:0.834535 21:-0.173122 22:-0.106117 23:8.001916 24:-0.121172 25:0.062999 26:-0.121728 27:-0.107247 28:12.888517 29:-0.012869 30:-0.004522 31:1.796406 32:-0.028156 33:-0.147477 34:23.844433 35:-0.070716 36:-0.080038 
1 1:-0.089002 2:-0.231535 3:7.656549 4:-0.638198 5:2.139976 6:-0.153131 7:1.347644 8:0.567999 9:-0.81669 10:0.883698 11:-0.090649 12:-0.251223 13:11.932275 14:-0.658887 15:1.609527 16:-0.153199 17:1.374265 18:0.691495 19:-0.824419 20:0.867372 21:-0.173024 22:-0.090052 23:2.694145 24:-0.260021 25:0.187376 26:-0.121718 27:-0.105713 28:2.630642 29:-0.221907 30:0.021574 31:1.796406 32:-0.028156 33:-0.147178 34:1.560939 35:-0.074168 36:-0.079865 
0.424953011528145 1:-0.089196 2:-0.292341 3:-0.429861 4:-0.638198 5:-0.73209 6:-0.157171 7:1.055919 8:1.647669 9:-0.757894 10:-1.334114 11:-0.090397 12:-0.285575 13:0.048587 14:0.364121 15:-0.070222 16:-0.157241 17:1.075879 18:1.653802 19:-0.752988 20:-1.315938 21:-0.172714 22:-0.339469 23:-0.189095 24:0.229853 25:0.378364 26:-0.121579 27:-0.286476 28:-0.351427 29:0.025766 30:0.05488 31:1.796406 32:-0.028156 33:-0.152574 34:-0.163034 35:-0.068993 36:-0.076483 
1 1:-0.089305 2:-0.265174 3:3.50282 4:-0.638198 5:0.703943 6:-0.157446 7:2.066939 8:1.688322 9:-0.81669 10:0.93136 11:-0.090614 12:-0.253283 13:1.354505 14:-0.658887 15:1.406355 16:-0.157517 17:2.104901 18:0.958563 19:-0.824419 20:0.92754 21:-0.173285 22:-0.13262 23:7.445548 24:-0.260021 25:0.012104 26:-0.121942 27:-0.138848 28:2.199244 29:-0.221907 30:-0.033841 31:1.796406 32:-0.028156 33:-0.148557 34:1.008871 35:-0.074168 36:-0.081962 
1 1:-0.089236 2:-0.245585 3:7.697257 4:-0.638198 5:3.217 6:-0.154481 7:2.771996 8:1.302405 9:-0.716907 10:0.525937 11:-0.090581 12:-0.241244 13:8.046367 14:1.092575 15:2.585834 16:-0.154552 17:2.824636 18:1.331805 19:-0.74495 20:0.518243 21:-0.17314 22:-0.107318 23:-0.111619 24:-0.102634 25:1.164598 26:-0.12184 27:-0.112988 28:-0.047887 29:-0.133479 30:0.831601 31:1.796406 32:-0.028156 33:-0.148257 34:-0.15862 35:-0.07363 36:0.01422 
1 1:-0.0893 2:-0.264616 3:3.45968 4:-0.638198 5:1.062951 6:-0.157466 7:2.088174 8:1.690572 9:-0.81669 10:0.912324 11:-0.090618 12:-0.253681 13:1.254364 14:-0.658887 15:1.518561 16:-0.157535 17:2.123731 18:1.077427 19:-0.824419 20:0.913079 21:-0.173302 22:-0.135284 23:6.809152 24:-0.260021 25:0.06778 26:-0.121948 27:-0.139725 28:0.312676 29:-0.221907 30:0.054953 31:1.796406 32:-0.028156 33:-0.148451 34:-0.098631 35:-0.074168 36:-0.077904 
1 1:-0.089215 2:-0.24558 3:7.697257 4:-0.638198 5:3.576009 6:-0.1545 7:2.791852 8:1.343028 9:-0.725115 10:0.511432 11:-0.090613 12:-0.241787 13:7.710862 14:1.012778 15:2.662325 16:-0.154569 17:2.842956 18:1.323728 19:-0.751402 20:0.461454 21:-0.173148 22:-0.109874 23:0.145712 24:-0.112461 25:1.231067 26:-0.121774 27:-0.103705 28:0.016446 29:-0.04763 30:1.436071 31:1.796406 32:-0.028156 33:-0.147468 34:-0.141447 35:-0.071821 36:0.153298 
1 1:-0.08924 2:-0.258706 3:2.468821 4:-0.638198 5:2.139976 6:-0.16017 7:1.08133 8:1.669958 9:-0.749256 10:0.665988 11:-0.090565 12:-0.24688 13:0.31356 14:0.772094 15:2.30799 16:-0.16024 17:1.099334 18:0.453844 19:-0.74114 20:0.676552 21:-0.173116 22:-0.105156 23:8.358663 24:-0.135354 25:0.617578 26:-0.121843 27:-0.124214 28:10.265182 29:-0.069092 30:0.530026 31:1.796406 32:-0.028156 33:-0.148346 34:14.63233 35:-0.072846 36:-0.028969 
1 1:-0.0893 2:-0.264616 3:3.45968 4:-0.638198 5:1.062951 6:-0.157486 7:2.108683 8:1.68193 9:-0.81669 10:0.89694 11:-0.090603 12:-0.251828 13:1.661056 14:-0.658887 15:1.59185 16:-0.157552 17:2.142552 18:1.166452 19:-0.824419 20:0.895618 21:-0.173328 22:-0.139564 23:5.933498 24:-0.260021 25:0.102888 26:-0.121915 27:-0.134754 28:0.312922 29:-0.221907 30:0.054602 31:1.796406 32:-0.028156 33:-0.148201 34:-0.090165 35:-0.074168 36:-0.075782 
1 1:-0.0893 2:-0.264616 3:4.656734 4:-0.638198 5:1.421959 6:-0.157522 7:2.147109 8:1.539258 9:-0.81669 10:0.853025 11:-0.090621 12:-0.254031 13:3.953482 14:-0.658887 15:1.726682 16:-0.157587 17:2.179545 18:1.2156 19:-0.824419 20:0.854755 21:-0.173334 22:-0.140603 23:3.929492 24:-0.260021 25:0.192224 26:-0.121987 27:-0.145493 28:1.156916 29:-0.221907 30:0.094434 31:1.796406 32:-0.028156 33:-0.148739 34:0.319549 35:-0.074168 36:-0.072697 
1 1:-0.089198 2:-0.241755 3:6.816154 4:-0.638198 5:3.576009 6:-0.154571 7:2.866099 8:1.147751 9:-0.757706 10:0.233784 11:-0.090614 12:-0.247775 13:8.428695 14:0.690115 15:2.934478 16:-0.154637 17:2.915378 18:0.577268 19:-0.763325 20:0.201417 21:-0.173166 22:-0.112085 23:5.862056 24:-0.196467 25:1.184251 26:-0.121873 27:-0.120335 28:7.105289 29:-0.116203 30:1.312743 31:1.796406 32:-0.028156 33:-0.147929 34:9.138883 35:-0.073317 36:0.131879 
1 1:-0.089043 2:-0.233939 3:7.428527 4:-0.638198 5:2.139976 6:-0.153251 7:1.476252 8:1.320148 9:-0.81669 10:0.655712 11:-0.090304 12:-0.2054 13:7.786457 14:-0.658887 15:2.338934 16:-0.153315 17:1.498227 18:1.088763 19:-0.824419 20:0.64368 21:-0.173021 22:-0.088379 23:2.79637 24:-0.260021 25:0.559889 26:-0.121691 27:-0.10087 28:1.72039 29:-0.221907 30:0.498452 31:1.796406 32:-0.028156 33:-0.146802 34:0.623552 35:-0.074168 36:-0.036138 
1 1:-0.089104 2:-0.239947 3:9.238297 4:-0.638198 5:2.139976 6:-0.153326 7:1.552686 8:1.428394 9:-0.81669 10:0.459777 11:-0.090531 12:-0.242706 13:7.109231 14:-0.658887 15:2.701458 16:-0.153393 17:1.581574 18:1.301218 19:-0.824419 20:0.476973 21:-0.173018 22:-0.08972 23:0.992511 24:-0.260021 25:0.265648 26:-0.12166 27:-0.093918 28:-0.08583 29:-0.221907 30:0.163077 31:1.796406 32:-0.028156 33:-0.146569 34:-0.155398 35:-0.074168 36:-0.084041 
1 1:-0.089257 2:-0.260404 3:2.713159 4:-0.638198 5:1.780967 6:-0.160349 7:1.27018 8:1.720609 9:-0.713217 10:0.286161 11:-0.090577 12:-0.248483 13:-0.366632 14:1.048853 15:3.01756 16:-0.160417 17:1.289454 18:1.444853 19:-0.726788 20:0.279112 21:-0.173102 22:-0.102825 23:4.432736 24:-0.159922 25:0.268896 26:-0.121744 27:-0.109586 28:-0.355701 29:-0.146409 30:0.203818 31:1.796406 32:-0.028156 33:-0.147486 34:-0.163037 35:-0.073718 36:-0.069482 
1 1:-0.089318 2:-0.266487 3:5.158895 4:-0.638198 5:2.139976 6:-0.157655 7:2.286849 8:0.968674 9:-0.81669 10:0.507071 11:-0.090613 12:-0.253188 13:8.019598 14:-0.658887 15:2.492686 16:-0.157721 17:2.323765 18:1.078215 19:-0.824419 20:0.479059 21:-0.173348 22:-0.142835 23:2.067358 24:-0.260021 25:0.98391 26:-0.121954 27:-0.140532 28:1.825311 29:-0.221907 30:0.626511 31:1.796406 32:-0.028156 33:-0.148294 34:0.832799 35:-0.074168 36:-0.02434 
1 1:-0.089213 2:-0.241872 3:7.697255 4:-0.129522 5:2.139976 6:-0.154699 7:3.002845 8:1.400076 9:-0.714063 10:-0.072952 11:-0.090589 12:-0.235801 13:7.412465 14:1.085119 15:3.128618 16:-0.154769 17:3.057094 18:1.365554 19:-0.722397 20:-0.075207 21:-0.17313 22:-0.110335 23:-0.071694 24:-0.136793 25:0.220042 26:-0.121777 27:-0.115655 28:0.08054 29:-0.103329 30:0.042961 31:1.796406 32:-0.028156 33:-0.148038 34:-0.140985 35:-0.073348 36:-0.081344 
1 1:-0.089364 2:-0.271054 3:3.800242 4:-0.638198 5:2.857992 6:-0.157685 7:2.318457 8:1.438469 9:-0.81669 10:0.381452 11:-0.090597 12:-0.251064 13:4.811832 14:-0.658887 15:2.703464 16:-0.157754 17:2.359088 18:1.323898 19:-0.824332 20:0.368614 21:-0.173368 22:-0.1461 23:2.100246 24:-0.258278 25:0.79507 26:-0.122003 27:-0.147759 28:1.587098 29:-0.221907 30:0.63481 31:1.796406 32:-0.028156 33:-0.148521 34:0.619095 35:-0.074168 36:-0.011604 
1 1:-0.089159 2:-0.246353 3:6.573508 4:-0.638198 5:3.217 6:-0.153405 7:1.638016 8:1.329061 9:-0.81669 10:0.388414 11:-0.090502 12:-0.227012 13:8.613006 14:-0.658887 15:2.63361 16:-0.153468 17:1.662166 18:1.333268 19:-0.824419 20:0.402705 21:-0.172997 22:-0.087625 23:-0.049599 24:-0.260021 25:0.149578 26:-0.1216 27:-0.085621 28:-0.239993 29:-0.221907 30:0.144575 31:1.796406 32:-0.028156 33:-0.145912 34:-0.162935 35:-0.074168 36:-0.076762 
1 1:-0.089215 2:-0.256275 3:-0.425024 4:-0.638198 5:1.780967 6:-0.161872 7:2.875208 8:1.707352 9:-0.81669 10:0.074286 11:-0.090543 12:-0.244168 13:0.249489 14:-0.658887 15:2.769517 16:-0.161944 17:2.926862 18:1.146549 19:-0.824419 20:0.054415 21:-0.173028 22:-0.090806 23:6.38849 24:-0.260021 25:0.019259 26:-0.121732 27:-0.107876 28:7.90039 29:-0.221907 30:0.159393 31:1.796406 32:-0.028156 33:-0.147059 34:10.398071 35:-0.074168 36:-0.083875 
1 1:-0.089358 2:-0.270497 3:-0.429861 4:-0.638198 5:2.498984 6:-0.157771 7:2.409119 8:1.704458 9:-0.81669 10:0.170778 11:-0.090619 12:-0.253926 13:0.829079 14:-0.658887 15:2.859884 16:-0.157835 17:2.446011 18:1.699986 19:-0.824114 20:0.191168 21:-0.17338 22:-0.148091 23:0.081634 24:-0.257387 25:0.280938 26:-0.121975 27:-0.143695 28:-0.280375 29:-0.217457 30:0.591951 31:1.796406 32:-0.028156 33:-0.148178 34:-0.16183 35:-0.074167 36:-0.030931 
1 1:-0.089163 2:-0.247304 3:4.92585 4:-0.638198 5:3.217 6:-0.153457 7:1.696403 8:1.314747 9:-0.81669 10:0.365757 11:-0.09008 12:-0.180614 13:8.857519 14:-0.658887 15:2.530641 16:-0.153524 17:1.722641 18:1.317382 19:-0.824419 20:0.346912 21:-0.172975 22:-0.083256 23:0.013982 24:-0.260021 25:0.210373 26:-0.121687 27:-0.104118 28:0.066018 29:-0.221907 30:0.269973 31:1.796406 32:-0.028156 33:-0.147127 34:-0.136688 35:-0.074168 36:-0.082458 
1 1:-0.089304 2:-0.265103 3:-0.429861 4:-0.598295 5:2.498984 6:-0.160505 7:1.434051 8:1.720609 9:-0.719747 10:0.117596 11:-0.090575 12:-0.248233 13:-0.366632 14:1.076915 15:3.009672 16:-0.160573 17:1.456943 18:1.740866 19:-0.731478 20:0.149747 21:-0.173087 22:-0.100418 23:-0.432989 24:-0.177773 25:0.106956 26:-0.121735 27:-0.10836 28:-0.355699 29:-0.075195 30:0.356431 31:1.796406 32:-0.028156 33:-0.147348 34:-0.163037 35:-0.072361 36:-0.064587 
1 1:-0.08918 2:-0.252757 3:0.081494 4:-0.638198 5:2.139976 6:-0.161976 7:2.98544 8:-1.095919 9:-0.81669 10:-0.023998 11:-0.090587 12:-0.249741 13:0.480252 14:-0.658887 15:2.784781 16:-0.162048 17:3.038208 18:1.010164 19:-0.824419 20:0.008783 21:-0.173009 22:-0.087754 23:7.234081 24:-0.260021 25:0.08984 26:-0.121709 27:-0.104468 28:11.766529 29:-0.221907 30:0.084742 31:1.796406 32:-0.028156 33:-0.146531 34:7.219323 35:-0.074168 36:-0.080883 
1 1:-0.089284 2:-0.234033 3:7.265206 4:-0.129522 5:3.217 6:-0.15484 7:3.150823 8:1.407544 9:-0.734537 10:-0.038764 11:-0.090588 12:-0.242263 13:7.19524 14:0.775098 15:2.901919 16:-0.154908 17:3.206377 18:1.310774 19:-0.728735 20:-0.081131 21:-0.173105 22:-0.100844 23:1.375227 24:-0.131691 25:0.151336 26:-0.121765 27:-0.107336 28:0.027221 29:-0.092578 30:0.460334 31:1.796406 32:-0.028156 33:-0.147493 34:-0.140129 35:-0.073223 36:-0.032738 
1 1:-0.089268 2:-0.261502 3:-0.429861 4:-0.638198 5:2.139976 6:-0.160575 7:1.508575 8:1.720609 9:-0.732601 10:0.103484 11:-0.090566 12:-0.247075 13:-0.366632 14:0.953556 15:3.031162 16:-0.160642 17:1.530365 18:1.740866 19:-0.732522 20:0.10051 21:-0.17305 22:-0.094306 23:-0.43299 24:-0.16883 25:0.067333 26:-0.121703 27:-0.103552 28:-0.355704 29:-0.101875 30:-0.102709 31:1.796406 32:-0.028156 33:-0.147279 34:-0.163037 35:-0.073328 36:-0.085755 
1 1:-0.089313 2:-0.265967 3:1.482248 4:-0.638198 5:2.139976 6:-0.157878 7:2.522295 8:1.712142 9:-0.81669 10:0.126768 11:-0.090607 12:-0.252334 13:0.638075 14:-0.658887 15:2.782159 16:-0.157947 17:2.566161 18:1.096371 19:-0.824245 20:0.09519 21:-0.173394 22:-0.15029 23:6.947862 24:-0.257733 25:0.045074 26:-0.121947 27:-0.139538 28:2.166877 29:-0.21845 30:0.154468 31:1.796406 32:-0.028156 33:-0.147705 34:0.813967 35:-0.074168 36:-0.072183 
1 1:-0.089271 2:-0.261851 3:-0.429861 4:-0.558392 5:2.139976 6:-0.160609 7:1.543974 8:1.720609 9:-0.708728 10:0.105265 11:-0.090556 12:-0.245729 13:-0.366632 14:1.165773 15:3.048664 16:-0.160675 17:1.566618 18:1.740866 19:-0.722799 20:0.07175 21:-0.173049 22:-0.094248 23:-0.43299 24:-0.121824 25:0.08722 26:-0.121735 27:-0.108295 28:-0.355701 29:-0.128504 30:0.101273 31:1.796406 32:-0.028156 33:-0.147148 34:-0.163037 35:-0.073336 36:-0.080463 
1 1:-0.088951 2:-0.226457 3:7.20134 4:-0.638198 5:2.139976 6:-0.153562 7:1.805097 8:1.033536 9:-0.81669 10:0.133834 11:-0.090621 12:-0.236496 13:10.851554 14:-0.658887 15:2.599068 16:-0.153631 17:1.836671 18:0.957182 19:-0.824419 20:0.104344 21:-0.172875 22:-0.066487 23:1.732303 24:-0.260021 25:0.364264 26:-0.121532 27:-0.081416 28:0.837298 29:-0.221907 30:-0.007802 31:1.796406 32:-0.028156 33:-0.145396 34:0.131091 35:-0.074168 36:-0.08588 
1 1:-0.089271 2:-0.261851 3:-0.429861 4:-0.558392 5:2.139976 6:-0.160623 7:1.558455 8:1.720611 9:-0.706919 10:0.057111 11:-0.09057 12:-0.247544 13:-0.366632 14:1.177184 15:3.035119 16:-0.160692 17:1.584678 18:1.740865 19:-0.716372 20:0.059434 21:-0.173044 22:-0.093313 23:-0.432989 24:-0.116239 25:0.057114 26:-0.12171 27:-0.104669 28:-0.355701 29:-0.13255 30:0.346553 31:1.796406 32:-0.028156 33:-0.147276 34:-0.163037 35:-0.073544 36:-0.063257 
1 1:-0.088951 2:-0.226457 3:7.20134 4:-0.638198 5:2.139976 6:-0.153577 7:1.821698 8:0.976389 9:-0.81669 10:0.143926 11:-0.090291 12:-0.206302 13:11.175408 14:-0.658887 15:2.556711 16:-0.153643 17:1.85007 18:0.886224 19:-0.824419 20:0.077004 21:-0.172869 22:-0.06543 23:1.787307 24:-0.260021 25:0.272473 26:-0.121688 27:-0.104272 28:1.549397 29:-0.221907 30:0.250184 31:1.796406 32:-0.028156 33:-0.147075 34:0.468406 35:-0.074168 36:-0.070364 
1 1:-0.088942 2:-0.223845 3:6.90545 4:-0.638198 5:2.139976 6:-0.153605 7:1.851058 8:0.527096 9:-0.81669 10:0.003959 11:-0.090059 12:-0.176581 13:12.021624 14:-0.658887 15:2.620926 16:-0.153667 17:1.875645 18:0.769596 19:-0.824419 20:0.040353 21:-0.172808 22:-0.054714 23:1.742274 24:-0.260021 25:0.196509 26:-0.121537 27:-0.080558 28:2.054179 29:-0.221907 30:0.289779 31:1.796406 32:-0.028156 33:-0.145882 34:0.871543 35:-0.074168 36:-0.074895 
1 1:-0.089243 2:-0.259044 3:1.770602 4:-0.638198 5:4.294025 6:-0.162133 7:3.15094 8:1.720609 9:-0.81669 10:-0.073481 11:-0.090476 12:-0.235484 13:-0.366632 14:-0.658887 15:2.787906 16:-0.162203 17:3.203672 18:0.843111 19:-0.824419 20:-0.096372 21:-0.17288 22:-0.06669 23:8.417041 24:-0.260021 25:0.200355 26:-0.121604 27:-0.089065 28:-0.006614 29:-0.221907 30:0.56639 31:1.796406 32:-0.028156 33:-0.14588 34:-0.144144 35:-0.074168 36:-0.069316 
1 1:-0.089297 2:-0.26444 3:6.971133 4:-0.638198 5:2.498984 6:-0.157985 7:2.634545 8:1.44345 9:-0.81669 10:0.021777 11:-0.090637 12:-0.256204 13:4.966573 14:-0.658887 15:2.747854 16:-0.158055 17:2.681078 18:0.6842 19:-0.824419 20:-0.009216 21:-0.173368 22:-0.146066 23:6.50593 24:-0.260021 25:0.059688 26:-0.122005 27:-0.148069 28:5.147024 29:-0.221907 30:0.236275 31:1.796406 32:-0.028156 33:-0.148252 34:5.877298 35:-0.074168 36:-0.081837 
1 1:-0.089227 2:-0.244143 3:5.782791 4:-0.638198 5:2.498984 6:-0.154998 7:3.320035 8:1.349084 9:-0.72432 10:-0.170579 11:-0.090611 12:-0.212363 13:8.309951 14:1.020146 15:3.000177 16:-0.155066 17:3.376258 18:1.359184 19:-0.745607 20:-0.212311 21:-0.173032 22:-0.090647 23:0.000173 24:-0.158025 25:0.253429 26:-0.121658 27:-0.092433 28:-0.241935 29:-0.09495 30:0.132466 31:1.796406 32:-0.028156 33:-0.146419 34:-0.161122 35:-0.072924 36:-0.082528 
1 1:-0.089297 2:-0.26444 3:6.971133 4:-0.638198 5:2.498984 6:-0.157997 7:2.647391 8:1.13463 9:-0.81669 10:0.037362 11:-0.090624 12:-0.25449 13:7.344882 14:-0.658887 15:2.761428 16:-0.15807 17:2.697676 18:0.78178 19:-0.824419 20:-0.024304 21:-0.17335 22:-0.143234 23:5.734433 24:-0.260021 25:0.106168 26:-0.121948 27:-0.139648 28:2.570967 29:-0.221907 30:0.116672 31:1.796406 32:-0.028156 33:-0.147734 34:1.242798 35:-0.074168 36:-0.085111 
1 1:-0.089263 2:-0.260998 3:1.974042 4:-0.638198 5:2.139976 6:-0.16077 7:1.713413 8:1.720608 9:-0.72518 10:-0.04604 11:-0.09053 12:-0.24239 13:-0.366632 14:1.020223 15:3.016357 16:-0.160842 17:1.744676 18:1.264672 19:-0.72847 20:-0.049777 21:-0.17296 22:-0.079803 23:6.162271 24:-0.032935 25:0.099281 26:-0.121634 27:-0.093429 28:-0.185573 29:-0.019701 30:0.244521 31:1.796406 32:-0.028156 33:-0.146707 34:-0.158899 35:-0.069897 36:-0.067315 
1 1:-0.089263 2:-0.260998 3:1.974042 4:-0.638198 5:2.139976 6:-0.160788 7:1.732761 8:1.720266 9:-0.742134 10:-0.062755 11:-0.090563 12:-0.24669 13:-0.283288 14:0.86194 15:3.012441 16:-0.160858 17:1.762068 18:1.094971 19:-0.740919 20:-0.061031 21:-0.172961 22:-0.079842 23:6.851595 24:-0.01601 25:0.118344 26:-0.121677 27:-0.099838 28:1.73292 29:0.016089 30:-0.004533 31:1.796406 32:-0.028156 33:-0.146856 34:0.515357 35:-0.068855 36:-0.083839 
1 1:-0.089297 2:-0.26439 3:6.364319 4:-0.638198 5:2.139976 6:-0.158063 7:2.716953 8:0.722819 9:-0.81669 10:-0.062578 11:-0.090612 12:-0.25303 13:8.835658 14:-0.658887 15:2.742162 16:-0.15813 17:2.761739 18:0.854157 19:-0.824419 20:-0.083455 21:-0.173309 22:-0.136425 23:1.598539 24:-0.260021 25:0.097161 26:-0.12195 27:-0.139932 28:0.647105 29:-0.221907 30:0.124925 31:1.796406 32:-0.028156 33:-0.147663 34:0.068378 35:-0.074168 36:-0.081349 
1 1:-0.089176 2:-0.237921 3:7.35195 4:-0.638198 5:2.498984 6:-0.155068 7:3.38963 8:1.348642 9:-0.739887 10:-0.247409 11:-0.090548 12:-0.231895 13:8.183855 14:0.895004 15:3.094442 16:-0.155133 17:3.447005 18:1.371762 19:-0.754979 20:-0.245641 21:-0.172992 22:-0.085404 23:-0.082888 24:-0.164344 25:0.102366 26:-0.12172 27:-0.108261 28:-0.147712 29:-0.025145 30:-0.097172 31:1.796406 32:-0.028156 33:-0.147345 34:-0.155557 35:-0.07104 36:-0.085483 
1 1:-0.089246 2:-0.259359 3:3.964029 4:-0.638198 5:2.139976 6:-0.160805 7:1.750598 8:1.71304 9:-0.75862 10:-0.032468 11:-0.090559 12:-0.246106 13:0.216847 14:0.683422 15:3.033098 16:-0.160874 17:1.779653 18:0.840375 19:-0.751485 20:-0.07902 21:-0.172945 22:-0.077213 23:7.797372 24:-0.035795 25:0.176024 26:-0.121658 27:-0.096932 28:6.934541 29:-0.041377 30:0.090442 31:1.796406 32:-0.028156 33:-0.146666 34:8.169504 35:-0.070754 36:-0.082319 
1 1:-0.089178 2:-0.236093 3:7.35195 4:-0.638198 5:2.498984 6:-0.155089 7:3.413635 8:1.408871 9:-0.740453 10:-0.233625 11:-0.090508 12:-0.210015 13:7.465233 14:0.891316 15:3.129551 16:-0.155158 17:3.474181 18:1.237721 19:-0.756785 20:-0.261074 21:-0.172969 22:-0.07985 23:2.21659 24:-0.163337 25:0.119024 26:-0.121717 27:-0.107886 28:-0.1401 29:-0.045175 30:0.333474 31:1.796406 32:-0.028156 33:-0.147395 34:-0.162568 35:-0.071427 36:-0.059022 
1 1:-0.089085 2:-0.243261 3:-0.429861 4:-0.638198 5:2.139976 6:-0.162298 7:3.325068 8:1.720609 9:-0.81669 10:-0.19141 11:-0.090569 12:-0.247481 13:-0.366632 14:-0.658887 15:2.890338 16:-0.162369 17:3.38245 18:1.730342 19:-0.824419 20:-0.209964 21:-0.172651 22:-0.029375 23:-0.149147 24:-0.260021 25:0.036917 26:-0.121481 27:-0.070928 28:-0.355699 29:-0.221907 30:0.05429 31:1.796406 32:-0.028156 33:-0.144845 34:-0.163037 35:-0.074168 36:-0.084817 
1 1:-0.08897 2:-0.227322 3:5.511953 4:-0.638198 5:2.857992 6:-0.153726 7:1.975394 8:1.417987 9:-0.81669 10:-0.061726 11:-0.090555 12:-0.248097 13:7.552632 14:-0.658887 15:2.678753 16:-0.153793 17:2.010983 18:1.368843 19:-0.824419 20:-0.09197 21:-0.172533 22:-0.010766 23:0.092343 24:-0.260021 25:-0.024065 26:-0.121299 27:-0.04539 28:-0.165673 29:-0.221907 30:0.005 31:1.796406 32:-0.028156 33:-0.143626 34:-0.161957 35:-0.074168 36:-0.084404 
1 1:-0.089173 2:-0.252089 3:5.631808 4:-0.638198 5:3.576009 6:-0.160867 7:1.816327 8:-1.114193 9:-0.783261 10:-0.176177 11:-0.090481 12:-0.23607 13:-0.366633 14:0.352376 15:3.004556 16:-0.160939 17:1.848826 18:-0.394116 19:-0.777447 20:-0.172876 21:-0.172891 22:-0.068529 23:7.38506 24:-0.147831 25:0.420713 26:-0.121574 27:-0.084622 28:2.568819 29:-0.076396 30:0.317073 31:1.796406 32:-0.028156 33:-0.14587 34:1.06308 35:-0.072764 36:-0.076587 
1 1:-0.089184 2:-0.232232 3:7.665012 4:-0.638198 5:2.139976 6:-0.155143 7:3.468243 8:-0.850145 9:-0.741333 10:-0.35504 11:-0.09058 12:-0.248995 13:6.188597 14:0.891852 15:3.108875 16:-0.155208 17:3.526958 18:0.74209 19:-0.749398 20:-0.34536 21:-0.172921 22:-0.072535 23:5.356608 24:-0.142903 25:0.308598 26:-0.121602 27:-0.078195 28:6.32921 29:-0.069987 30:0.167908 31:1.796406 32:-0.028156 33:-0.145322 34:1.428959 35:-0.07197 36:-0.074229 
1 1:-0.08906 2:-0.229312 3:6.58278 4:-0.638198 5:3.217 6:-0.15376 7:2.016267 8:1.322724 9:-0.81669 10:-0.128136 11:-0.089852 12:-0.149696 13:8.334463 14:-0.658887 15:2.694689 16:-0.153817 17:2.036018 18:1.262585 19:-0.824419 20:-0.126848 21:-0.172392 22:0.012321 23:1.269803 24:-0.260021 25:0.050973 26:-0.121267 27:-0.034392 28:-0.148569 29:-0.221907 30:0.10041 31:1.796406 32:-0.028156 33:-0.142977 34:-0.154013 35:-0.074168 36:-0.077382 
1 1:-0.089143 2:-0.249105 3:2.260861 4:-0.638198 5:2.498984 6:-0.162448 7:3.482682 8:1.72061 9:-0.81669 10:-0.291474 11:-0.090085 12:-0.187218 13:-0.366632 14:-0.658887 15:2.926549 16:-0.162515 17:3.538404 18:1.595091 19:-0.824419 20:-0.285759 21:-0.172296 22:0.028313 23:2.095639 24:-0.260021 25:0.322542 26:-0.121173 27:-0.025537 28:-0.355702 29:-0.221907 30:0.257925 31:1.796406 32:-0.028156 33:-0.141425 34:-0.163037 35:-0.074168 36:-0.066347 
1 1:-0.089071 2:-0.241949 3:1.367106 4:-0.638198 5:2.139976 6:-0.162477 7:3.513119 8:1.72061 9:-0.81669 10:-0.313369 11:-0.090302 12:-0.210927 13:-0.366632 14:-0.658887 15:2.962843 16:-0.162546 17:3.572151 18:1.593681 19:-0.824419 20:-0.334266 21:-0.172199 22:0.044148 23:3.208521 24:-0.260021 25:0.336503 26:-0.121147 27:-0.021665 28:-0.355703 29:-0.221907 30:0.379243 31:1.796406 32:-0.028156 33:-0.141756 34:-0.163037 35:-0.074168 36:-0.053942 
1 1:-0.089256 2:-0.260274 3:5.120267 4:-0.638198 5:2.857992 6:-0.158271 7:2.936511 8:-0.923315 9:-0.81669 10:-0.195809 11:-0.090544 12:-0.244251 13:4.232255 14:-0.658887 15:2.732336 16:-0.158339 17:2.985849 18:0.732014 19:-0.824419 20:-0.23908 21:-0.173056 22:-0.095322 23:7.261447 24:-0.260021 25:0.664592 26:-0.121835 27:-0.123007 28:8.283899 29:-0.221907 30:0.808153 31:1.796406 32:-0.028156 33:-0.147193 34:8.285743 35:-0.074168 36:-0.086073 
1 1:-0.088957 2:-0.222193 3:9.041059 4:-0.638198 5:2.857992 6:-0.153799 7:2.052631 8:1.123141 9:-0.81669 10:-0.274642 11:-0.08973 12:-0.132432 13:9.539014 14:-0.658887 15:2.734471 16:-0.153861 17:2.083304 18:1.067796 19:-0.824419 20:-0.273646 21:-0.171804 22:0.108397 23:0.842188 24:-0.260021 25:0.206786 26:-0.120908 27:0.00846 28:1.177027 29:-0.221907 30:0.345454 31:1.796406 32:-0.028156 33:-0.139211 34:0.25005 35:-0.074168 36:-0.047314 
1 1:-0.088872 2:-0.222085 3:5.214608 4:-0.638198 5:2.139976 6:-0.162539 7:3.578222 8:1.720609 9:-0.81669 10:-0.449211 11:-0.090625 12:-0.25355 13:-0.366632 14:-0.658887 15:2.972775 16:-0.162608 17:3.63855 18:0.953318 19:-0.824419 20:-0.436886 21:-0.171776 22:0.112908 23:7.166738 24:-0.260021 25:0.18262 26:-0.120842 27:0.023276 28:2.844436 29:-0.221907 30:0.337993 31:1.796406 32:-0.028156 33:-0.136903 34:1.552342 35:-0.074168 36:-0.063977 
1 1:-0.088594 2:-0.19445 3:7.113759 4:-0.638198 5:2.857992 6:-0.162609 7:3.652992 8:-1.024966 9:-0.81669 10:-0.598254 11:-0.090328 12:-0.205156 13:3.362738 14:-0.658887 15:2.910935 16:-0.162681 17:3.716281 18:0.559353 19:-0.824419 20:-0.571881 21:-0.170899 22:0.255591 23:7.713384 24:-0.260021 25:0.650256 26:-0.12036 27:0.094373 28:8.215547 29:-0.221907 30:0.362122 31:1.796406 32:-0.028156 33:-0.129698 34:9.494121 35:-0.074168 36:-0.049744 
1 1:-0.08907 2:-0.222106 3:6.633405 4:-0.638198 5:2.139976 6:-0.155316 7:3.658497 8:1.407581 9:-0.741399 10:-0.58365 11:-0.09032 12:-0.172706 13:7.081574 14:0.863209 15:3.235307 16:-0.155385 17:3.716948 18:1.134411 19:-0.761522 20:-0.593681 21:-0.172432 22:0.008598 23:4.085677 24:-0.196597 25:0.023102 26:-0.121312 27:-0.034485 28:0.551167 29:-0.165204 30:-0.047858 31:1.796406 32:-0.028156 33:-0.14253 34:-0.031182 35:-0.074009 36:-0.085811 
1 1:-0.089148 2:-0.249584 3:5.146527 4:-0.638198 5:2.498984 6:-0.161172 7:2.137234 8:0.498017 9:-0.749899 10:-0.54932 11:-0.090377 12:-0.222582 13:11.605127 14:0.69504 15:2.89103 16:-0.161241 17:2.173169 18:1.066403 19:-0.765307 20:-0.562117 21:-0.172307 22:0.026466 23:6.236374 24:-0.169075 25:0.328751 26:-0.121183 27:-0.026955 28:9.270552 29:-0.113537 30:0.300544 31:1.796406 32:-0.028156 33:-0.14138 34:13.842937 35:-0.073247 36:-0.070843 
1 1:-0.089148 2:-0.249584 3:5.146527 4:-0.638198 5:2.498984 6:-0.161184 7:2.150605 8:-1.048165 9:-0.749604 10:-0.498995 11:-0.090406 12:-0.227812 13:2.555454 14:0.704211 15:2.93476 16:-0.161255 17:2.188122 18:1.014363 19:-0.766058 20:-0.590055 21:-0.172241 22:0.037273 23:6.506349 24:-0.164178 25:0.490802 26:-0.121215 27:-0.031697 28:9.867082 29:-0.073643 30:0.426782 31:1.796406 32:-0.028156 33:-0.140703 34:-0.160857 35:-0.0724 36:-0.054615 
1 1:-0.088264 2:-0.163621 3:7.041696 4:-0.638198 5:2.139976 6:-0.162661 7:3.707287 8:1.688517 9:-0.81669 10:-0.733436 11:-0.089781 12:-0.129477 13:1.530873 14:-0.658887 15:2.616128 16:-0.16268 17:3.377382 18:1.010179 19:-0.824419 20:-0.807483 21:-0.144183 22:3.086379 23:6.198383 24:-0.260021 25:1.638297 26:-0.118807 27:0.322924 28:2.765297 29:-0.221907 30:0.994108 31:1.796406 32:-0.028155 33:-0.091104 34:1.013211 35:-0.074168 36:0.064982 
1 1:-0.089109 2:-0.245732 3:5.146527 4:-0.638198 5:2.498984 6:-0.161198 7:2.165255 8:0.471335 9:-0.758158 10:-0.566805 11:-0.090492 12:-0.237988 13:10.56048 14:0.599136 15:2.858316 16:-0.161269 17:2.202414 18:1.07469 19:-0.765079 20:-0.620994 21:-0.172165 22:0.04956 23:6.233325 24:-0.155694 25:0.533273 26:-0.121229 27:-0.033757 28:9.408612 29:-0.081943 30:0.663192 31:1.796406 32:-0.028156 33:-0.14177 34:13.830853 35:-0.072336 36:-0.03016 
1 1:-0.089077 2:-0.224512 3:7.218453 4:-0.638198 5:2.139976 6:-0.155336 7:3.676504 8:1.498859 9:-0.749637 10:-0.561757 11:-0.089666 12:-0.031174 13:6.388626 14:0.741373 15:3.275019 16:-0.155403 17:3.737043 18:1.429906 19:-0.767934 20:-0.626748 21:-0.172242 22:0.037184 23:0.584553 24:-0.177727 25:0.129389 26:-0.121283 27:-0.041054 28:0.336623 29:-0.165447 30:0.150845 31:1.796406 32:-0.028156 33:-0.142478 34:-0.083331 35:-0.074002 36:-0.085956 
1 1:-0.087714 2:-0.100163 3:8.744563 4:-0.638198 5:3.576009 6:-0.152897 7:1.558223 8:1.303983 9:-0.81669 10:-0.92516 11:-0.031243 12:5.070939 13:8.759353 14:-0.658887 15:1.755543 16:-0.153062 17:1.599455 18:1.302434 19:-0.824419 20:-0.900738 21:-0.135009 22:3.906744 23:1.871406 24:-0.260021 25:2.641088 26:-0.068828 27:5.155681 28:0.775907 29:-0.221907 30:2.528517 31:1.796406 32:-0.028062 33:6.540194 34:0.132184 35:-0.074168 36:0.809462 
1 1:-0.088264 2:-0.163893 3:3.855605 4:-0.638198 5:1.421959 6:-0.162677 7:3.724198 8:0.920199 9:-0.81669 10:-0.953657 11:-0.088731 12:0.048706 13:9.805464 14:-0.658887 15:2.03027 16:-0.162627 17:2.793559 18:1.246821 19:-0.824419 20:-0.974153 21:-0.134313 22:4.35702 23:4.838541 24:-0.260021 25:1.890764 26:-0.071282 27:5.194535 28:4.72089 29:-0.221907 30:1.534889 31:1.796406 32:-0.028088 33:4.904437 34:1.139319 35:-0.074168 36:0.250193 
1 1:-0.087879 2:-0.127489 3:7.619934 4:-0.638198 5:1.421959 6:-0.152101 7:1.086206 8:1.555761 9:-0.81669 10:-1.194332 11:-0.090277 12:1.614338 13:4.387213 14:-0.658887 15:0.831755 16:-0.152625 17:1.340937 18:1.489825 19:-0.824419 20:-1.0986 21:-0.140565 22:3.422523 23:1.042095 24:-0.260021 25:2.284222 26:-0.100798 27:1.876074 28:0.613507 29:-0.221907 30:1.387765 31:1.796406 32:-0.028145 33:0.849922 34:0.003774 35:-0.074168 36:0.211402 
1 1:-0.088264 2:-0.163893 3:3.855605 4:-0.638198 5:1.421959 6:-0.162508 7:2.36595 8:1.602061 9:-0.81669 10:-1.087054 11:-0.043158 12:4.97862 13:3.494037 14:-0.658887 15:1.545807 16:-0.162592 17:2.410239 18:1.357004 19:-0.824419 20:-1.05766 21:-0.133201 22:4.592165 23:3.78953 24:-0.260021 25:1.821792 26:-0.065843 27:6.295764 28:4.177485 29:-0.221907 30:1.61732 31:1.796406 32:-0.028047 33:9.756439 34:3.039157 35:-0.074168 36:0.270128 
