svm_type c_svc
kernel_type rbf
gamma 1
nr_class 2
total_sv 4119
rho 0.597916
label 0 1
nr_sv 1263 2856
SV
0.4688100297255983 1:-0.089223 2:-0.292341 3:-0.429861 4:-0.638198 5:-0.73209 6:-0.147555 7:1.055919 8:1.648689 9:-0.81669 10:-1.364197 11:-0.090469 12:-0.285575 13:-0.366633 14:-0.658887 15:-0.774068 16:-0.147644 17:1.07409 18:1.6681 19:-0.824419 20:-1.371868 21:-0.173008 22:-0.373827 23:-0.432992 24:-0.260021 25:-0.293516 26:-0.121507 27:-0.286479 28:-0.355705 29:-0.221907 30:-0.2389 31:1.796406 32:-0.028156 33:-0.152574 34:-0.163037 35:-0.074168 36:-0.086101 
0.8658169114067049 1:-0.088986 2:-0.289676 3:-0.429861 4:-0.638198 5:-0.373082 6:-0.160625 7:1.055919 8:1.648689 9:-0.81669 10:-1.346964 11:-0.090563 12:-0.285575 13:-0.366633 14:-0.658887 15:-0.246146 16:-0.160763 17:1.182367 18:1.607062 19:-0.824419 20:-1.219213 21:-0.145817 22:1.949923 23:0.775013 24:-0.260021 25:2.480365 26:-0.1215 27:-0.286473 28:-0.355698 29:-0.221907 30:0.066376 31:1.796406 32:-0.028156 33:-0.152574 34:-0.163037 35:-0.074168 36:-0.077842 
1 1:-0.089231 2:-0.25789 3:1.731637 4:-0.638198 5:1.780967 6:-0.161247 7:2.216907 8:1.72061 9:-0.81669 10:0.967679 11:-0.090527 12:-0.242087 13:-0.366632 14:-0.658887 15:1.124291 16:-0.161318 17:2.255494 18:1.504866 19:-0.824419 20:0.967468 21:-0.172488 22:-0.002891 23:3.931758 24:-0.260021 25:-0.015419 26:-0.121373 27:-0.054911 28:-0.355705 29:-0.221907 30:-0.080533 31:1.796406 32:-0.028156 33:-0.143787 34:-0.163037 35:-0.074168 36:-0.082806 
1 1:-0.089249 2:-0.259564 3:11.858508 4:-0.638198 5:0.703943 6:-0.161023 7:1.980581 8:-1.114029 9:-0.81669 10:0.956681 11:-0.090517 12:-0.240782 13:-0.181707 14:-0.658887 15:1.231311 16:-0.161094 17:2.01527 18:0.449521 19:-0.824419 20:0.980469 21:-0.172961 22:-0.079895 23:7.947863 24:-0.260021 25:-0.169263 26:-0.121662 27:-0.097499 28:8.919955 29:-0.221907 30:-0.057874 31:1.796406 32:-0.028156 33:-0.146552 34:0.013182 35:-0.074168 36:-0.08471 
1 1:-0.089317 2:-0.266334 3:0.693426 4:-0.638198 5:0.344934 6:-0.160211 7:1.124568 8:-1.108097 9:-0.807639 10:1.015012 11:-0.09057 12:-0.247528 13:0.159147 14:-0.138383 15:0.825079 16:-0.160281 17:1.143417 18:-0.172973 19:-0.816793 20:1.026688 21:-0.17319 22:-0.117218 23:7.746597 24:-0.238803 25:-0.203725 26:-0.121794 27:-0.11698 28:4.815413 29:-0.217399 30:-0.130261 31:1.796406 32:-0.028156 33:-0.147824 34:3.415625 35:-0.074167 36:-0.085734 
1 1:-0.089068 2:-0.24156 3:-0.429861 4:3.682233 5:2.857992 6:-0.158753 7:-0.413144 8:1.720609 9:1.096502 10:0.271758 11:-0.090443 12:-0.231098 13:-0.366632 14:4.114036 15:3.201745 16:-0.158819 17:-0.423539 18:1.733248 19:0.933921 20:0.253429 21:-0.172425 22:0.007382 23:-0.220158 24:2.152376 25:0.310703 26:-0.121361 27:-0.053206 28:-0.355703 29:0.926853 30:0.208784 31:1.796406 32:-0.028156 33:-0.142502 34:-0.163037 35:0.031429 36:-0.078454 
1 1:-0.089065 2:-0.241365 3:7.640677 4:3.349309 5:2.139976 6:-0.15769 7:2.324032 8:1.089291 9:0.924816 10:0.186805 11:-0.090266 12:-0.203289 13:7.988649 14:3.469275 15:2.876673 16:-0.157759 17:2.363798 18:0.759377 19:0.94122 20:0.173874 21:-0.172241 22:0.037324 23:4.874019 24:0.611802 25:0.3663 26:-0.121192 27:-0.028293 28:8.673817 29:0.558388 30:0.371181 31:1.796406 32:-0.028156 33:-0.141048 34:10.237499 35:-0.033492 36:-0.04083 
1 1:-0.089187 2:-0.253409 3:2.795048 4:1.703332 5:1.780967 6:-0.157567 7:2.194265 8:1.408717 9:-0.678805 10:0.930281 11:-0.090557 12:-0.245938 13:6.092786 14:1.063009 15:1.353551 16:-0.157638 17:2.234143 18:1.407112 19:-0.666363 20:0.933557 21:-0.172868 22:-0.064725 23:0.688665 24:0.16132 25:-0.03738 26:-0.121657 27:-0.096887 28:0.981979 29:0.153455 30:-0.165121 31:1.796406 32:-0.028156 33:-0.146844 34:0.166663 35:-0.064251 36:-0.085949 
1 1:-0.089281 2:-0.262863 3:7.273446 4:-0.638198 5:-0.014074 6:-0.156889 7:1.47967 8:0.756844 9:-0.81669 10:1.016403 11:-0.09056 12:-0.246315 13:8.810949 14:-0.658887 15:0.823454 16:-0.156956 17:1.503089 18:0.65337 19:-0.824419 20:1.030425 21:-0.173189 22:-0.116928 23:5.402651 24:-0.260021 25:-0.164218 26:-0.121857 27:-0.126308 28:1.510345 29:-0.221907 30:-0.125858 31:1.796406 32:-0.028156 33:-0.148104 34:-0.155675 35:-0.074168 36:-0.085373 
1 1:-0.089308 2:-0.265516 3:2.099057 4:-0.638198 5:0.703943 6:-0.156597 7:1.172059 8:1.118758 9:-0.81669 10:0.995948 11:-0.090571 12:-0.24772 13:6.960825 14:-0.658887 15:1.015178 16:-0.156662 17:1.188461 18:0.858359 19:-0.824419 20:1.002676 21:-0.173183 22:-0.11595 23:4.644489 24:-0.260021 25:-0.190256 26:-0.121777 27:-0.114473 28:2.411697 29:-0.221907 30:-0.123627 31:1.796406 32:-0.028156 33:-0.147772 34:1.403773 35:-0.074168 36:-0.085682 
1 1:-0.089262 2:-0.260885 3:6.158466 4:-0.638198 5:1.062951 6:-0.156263 7:0.819972 8:1.106975 9:-0.80761 10:0.994915 11:-0.090552 12:-0.245197 13:7.231746 14:-0.13723 15:1.015567 16:-0.15633 17:0.831921 18:0.670408 19:-0.815333 20:1.0124 21:-0.173068 22:-0.097225 23:5.982229 24:-0.211472 25:-0.170251 26:-0.121779 27:-0.114857 28:2.578283 29:-0.163211 30:-0.12409 31:1.796406 32:-0.028156 33:-0.147669 34:1.444479 35:-0.074025 36:-0.085853 
1 1:-0.089238 2:-0.258532 3:4.97172 4:0.339252 5:-0.373082 6:-0.155877 7:0.412411 8:-0.940742 9:-0.633628 10:1.011596 11:-0.090565 12:-0.24688 13:3.023377 14:1.646282 15:0.86489 16:-0.155943 17:0.418048 18:0.421498 19:-0.659599 20:1.012539 21:-0.172901 22:-0.070201 23:5.14348 24:0.053859 25:-0.132782 26:-0.121681 27:-0.100385 28:5.059759 29:0.02203 30:-0.122983 31:1.796406 32:-0.028156 33:-0.146825 34:1.451411 35:-0.07033 36:-0.085063 
1 1:-0.088993 2:-0.23418 3:7.076714 4:3.148553 5:2.139976 6:-0.155387 7:-0.104064 8:0.503068 9:1.096661 10:0.455262 11:-0.090431 12:-0.229605 13:9.257148 14:3.873913 15:2.960206 16:-0.155455 17:-0.105916 18:0.660989 19:1.020732 20:0.482571 21:-0.172266 22:0.033181 23:0.73531 24:0.113303 25:0.284895 26:-0.121227 27:-0.033501 28:0.248156 29:0.224964 30:0.28268 31:1.796406 32:-0.028156 33:-0.14192 34:-0.1223 35:-0.071002 36:-0.080671 
0.6941636873993755 1:-0.089059 2:-0.292341 3:-0.429861 4:-0.638198 5:-0.73209 6:-0.152166 7:1.057175 8:1.646574 9:-0.733771 10:-1.322362 11:-0.090457 12:0.158412 13:0.432139 14:0.76684 15:0.131611 16:-0.152286 17:1.104958 18:1.644481 19:-0.733993 20:-1.290032 21:-0.166146 22:0.562212 23:-0.129892 24:0.277077 25:0.693467 26:-0.121414 27:-0.273242 28:-0.342287 29:0.104555 30:0.13231 31:1.796406 32:-0.028156 33:-0.152548 34:-0.162999 35:-0.064365 36:-0.071316 
1 1:-0.089274 2:-0.243263 3:6.649703 4:-0.638198 5:2.139976 6:-0.153901 7:2.162044 8:1.397472 9:-0.750494 10:0.917221 11:-0.090551 12:-0.211504 13:7.431586 14:0.75743 15:1.520062 16:-0.153968 17:2.198719 18:0.987919 19:-0.764596 20:0.936209 21:-0.173096 22:-0.098993 23:3.686538 24:-0.138597 25:-0.123208 26:-0.121853 27:-0.130127 28:1.059163 29:-0.053184 30:-0.06118 31:1.796406 32:-0.028156 33:-0.148691 34:0.191122 35:-0.071756 36:-0.08328 
1 1:-0.089244 2:-0.250745 3:8.025186 4:-0.638198 5:2.139976 6:-0.153515 7:1.7562 8:1.332206 9:-0.800273 10:0.993879 11:-0.09057 12:-0.239187 13:7.258749 14:0.068733 15:1.026851 16:-0.153582 17:1.784368 18:0.891126 19:-0.81408 20:0.990881 21:-0.173202 22:-0.121007 23:3.644398 24:-0.178346 25:-0.14274 26:-0.121885 27:-0.130011 28:2.200826 29:-0.118154 30:-0.122653 31:1.796406 32:-0.028156 33:-0.148696 34:0.840956 35:-0.073543 36:-0.085198 
1 1:-0.089261 2:-0.254832 3:7.697257 4:-0.638198 5:0.344934 6:-0.153255 7:1.477832 8:1.437948 9:-0.81669 10:0.971258 11:-0.090637 12:-0.250552 13:7.370084 14:-0.658887 15:1.204162 16:-0.153327 17:1.51211 18:1.089743 19:-0.824419 20:0.998323 21:-0.173211 22:-0.12236 23:3.380555 24:-0.260021 25:-0.134712 26:-0.121814 27:-0.122113 28:0.285452 29:-0.221907 30:-0.156537 31:1.796406 32:-0.028156 33:-0.148314 34:-0.104238 35:-0.074168 36:-0.085692 
1 1:-0.089248 2:-0.25314 3:6.14641 4:-0.638198 5:0.703943 6:-0.15296 7:1.170676 8:1.372034 9:-0.81669 10:1.00632 11:-0.090436 12:-0.219671 13:7.943391 14:-0.658887 15:0.812376 16:-0.153028 17:1.190357 18:1.101727 19:-0.824419 20:1.012739 21:-0.173138 22:-0.108692 23:3.221718 24:-0.260021 25:-0.129844 26:-0.121801 27:-0.116438 28:0.585455 29:-0.221907 30:-0.057177 31:1.796406 32:-0.028156 33:-0.148008 34:-0.031578 35:-0.074168 36:-0.081901 
1 1:-0.089095 2:-0.23988 3:8.509809 4:-0.638198 5:0.703943 6:-0.152596 7:0.783833 8:0.70184 9:-0.81669 10:1.030726 11:-0.090613 12:-0.262073 13:10.857313 14:-0.658887 15:0.726445 16:-0.152665 17:0.800916 18:0.843959 19:-0.824419 20:1.024003 21:-0.172953 22:-0.077421 23:3.240806 24:-0.260021 25:-0.179815 26:-0.121593 27:-0.081971 28:4.775248 29:-0.221907 30:-0.103513 31:1.796406 32:-0.028156 33:-0.146325 34:5.081833 35:-0.074168 36:-0.084636 
1 1:-0.088913 2:-0.225865 3:6.782497 4:-0.638198 5:0.344934 6:-0.152127 7:0.294946 8:1.457126 9:-0.81669 10:0.993884 11:-0.089941 12:-0.158371 13:6.614833 14:-0.658887 15:0.927033 16:-0.15219 17:0.292655 18:1.265154 19:-0.824419 20:0.97918 21:-0.172417 22:0.008728 23:0.9547 24:-0.260021 25:0.059558 26:-0.121276 27:-0.034478 28:0.09303 29:-0.221907 30:-0.032939 31:1.796406 32:-0.028156 33:-0.142087 34:-0.1402 35:-0.074168 36:-0.082303 
0.733421363566883 1:-0.089231 2:-0.25789 3:1.731637 4:-0.638198 5:1.780967 6:-0.161266 7:2.237123 8:1.72061 9:-0.81669 10:0.961366 11:-0.090412 12:-0.227108 13:-0.366632 14:-0.658887 15:1.173935 16:-0.161338 17:2.276954 18:1.398737 19:-0.824419 20:0.971888 21:-0.172502 22:-0.005125 23:4.584756 24:-0.260021 25:-0.033187 26:-0.121417 27:-0.061366 28:-0.348466 29:-0.221907 30:-0.09487 31:1.796406 32:-0.028156 33:-0.143992 34:-0.16303 35:-0.074168 36:-0.084146 
1 1:-0.089249 2:-0.259564 3:11.858508 4:-0.638198 5:0.703943 6:-0.16105 7:2.009114 8:-1.114193 9:-0.81669 10:0.951371 11:-0.09062 12:-0.254244 13:-0.365903 14:-0.658887 15:1.262139 16:-0.161114 17:2.036339 18:0.421536 19:-0.824419 20:0.978885 21:-0.172981 22:-0.083094 23:8.018186 24:-0.260021 25:-0.172221 26:-0.121589 27:-0.086759 28:10.186911 29:-0.221907 30:-0.079618 31:1.796406 32:-0.028156 33:-0.146281 34:9.536306 35:-0.074168 36:-0.084546 
1 1:-0.089278 2:-0.262505 3:2.886227 4:-0.638198 5:-0.373082 6:-0.160792 7:1.737429 8:-1.109266 9:-0.81669 10:1.041173 11:-0.090587 12:-0.249675 13:0.21482 14:-0.658887 15:0.580278 16:-0.160861 17:1.765036 18:0.319509 19:-0.824419 20:1.043728 21:-0.173148 22:-0.110361 23:8.007011 24:-0.260021 25:-0.159005 26:-0.121817 27:-0.120386 28:7.010997 29:-0.221907 30:-0.167927 31:1.796406 32:-0.028156 33:-0.147909 34:4.014867 35:-0.074168 36:-0.085663 
1 1:-0.089328 2:-0.267527 3:1.814012 4:-0.638198 5:-0.73209 6:-0.160516 7:1.445477 8:-1.114193 9:-0.81669 10:1.039717 11:-0.090601 12:-0.251578 13:-0.366633 14:-0.658887 15:0.570534 16:-0.160589 17:1.474285 18:0.063744 19:-0.824419 20:1.042548 21:-0.173219 22:-0.121862 23:7.981449 24:-0.260021 25:-0.211367 26:-0.121853 27:-0.12564 28:3.010637 29:-0.221907 30:-0.168154 31:1.796406 32:-0.028156 33:-0.148355 34:1.429535 35:-0.074168 36:-0.086056 
1 1:-0.089317 2:-0.266334 3:0.693426 4:-0.638198 5:0.344934 6:-0.160231 7:1.144971 8:-1.114193 9:-0.80764 10:1.01026 11:-0.0906 12:-0.25144 13:-0.366633 14:-0.138408 15:0.869302 16:-0.1603 17:1.164277 18:-0.160614 19:-0.816793 20:1.022413 21:-0.173202 22:-0.119064 23:7.70289 24:-0.238802 25:-0.206857 26:-0.121842 27:-0.124014 28:2.602407 29:-0.21739 30:-0.120879 31:1.796406 32:-0.028156 33:-0.148199 34:1.06654 35:-0.074167 36:-0.085219 
1 1:-0.089279 2:-0.262628 3:1.565489 4:-0.638198 5:0.703943 6:-0.159583 7:0.461814 8:-1.114193 9:-0.776256 10:0.979489 11:-0.090555 12:-0.245667 13:-0.366633 14:0.489908 15:1.151404 16:-0.159654 17:0.471188 18:-0.409833 19:-0.785149 20:0.991529 21:-0.173071 22:-0.097852 23:6.863676 24:-0.17977 25:-0.123203 26:-0.121734 27:-0.108255 28:-0.27586 29:-0.145391 30:-0.07584 31:1.796406 32:-0.028156 33:-0.147297 34:-0.162382 35:-0.074054 36:-0.083759 
1 1:-0.089226 2:-0.257248 3:7.857042 4:-0.638198 5:0.344934 6:-0.157396 7:2.014515 8:0.351608 9:-0.791505 10:0.996137 11:-0.090629 12:-0.255053 13:13.042946 14:0.230469 15:1.054556 16:-0.157468 17:2.052107 18:0.287057 19:-0.799124 20:0.993362 21:-0.173082 22:-0.099512 23:7.216248 24:-0.204216 25:-0.157392 26:-0.121766 27:-0.112843 28:9.131314 29:-0.152745 30:-0.06028 31:1.796406 32:-0.028156 33:-0.147702 34:16.777565 35:-0.073906 36:-0.083276 
1 1:-0.089238 2:-0.258532 3:4.97172 4:0.339252 5:-0.373082 6:-0.155893 7:0.429005 8:-0.968651 9:-0.658051 10:1.015566 11:-0.09049 12:-0.237285 13:2.811002 14:1.495933 15:0.83059 16:-0.155964 17:0.440354 18:0.515483 19:-0.654891 20:1.005209 21:-0.172909 22:-0.071416 23:5.83145 24:0.057634 25:-0.086197 26:-0.121647 27:-0.095356 28:6.765151 29:0.032024 30:-0.056764 31:1.796406 32:-0.028156 33:-0.146668 34:3.440163 35:-0.069368 36:-0.083552 
1 1:-0.089242 2:-0.243564 3:7.286194 4:3.242301 5:2.139976 6:-0.154045 7:2.31341 8:1.366092 9:-0.182016 10:0.661517 11:-0.090527 12:-0.22638 13:7.831079 14:2.847705 15:2.206944 16:-0.154109 17:2.3503 18:1.102848 19:-0.153171 20:0.64964 21:-0.1729 22:-0.070156 23:3.058849 24:1.878465 25:1.221841 26:-0.121691 27:-0.104792 28:0.576259 29:1.00883 30:1.065631 31:1.796406 32:-0.028156 33:-0.147376 34:-0.019024 35:0.083582 36:0.107215 
1 1:-0.089274 2:-0.243263 3:6.649703 4:-0.638198 5:2.139976 6:-0.153919 7:2.181706 8:1.294467 9:-0.775336 10:0.90548 11:-0.090567 12:-0.219583 13:8.164272 14:0.443991 15:1.593308 16:-0.153989 17:2.220919 18:0.861124 19:-0.765857 20:0.932717 21:-0.173096 22:-0.099822 23:4.024183 24:-0.133506 25:-0.146003 26:-0.121827 27:-0.116552 28:3.230333 29:-0.074512 30:-0.049331 31:1.796406 32:-0.028156 33:-0.14789 34:2.104607 35:-0.072498 36:-0.084313 
0.3951780300651955 1:-0.088924 2:-0.28271 3:-0.429861 4:-0.638198 5:-0.373082 6:-0.16068 7:1.055919 8:1.648688 9:-0.81669 10:-1.34254 11:-0.09064 12:-0.285575 13:-0.366633 14:-0.658887 15:-0.230317 16:-0.160859 17:1.265918 18:1.590135 19:-0.824419 20:-1.146256 21:-0.138341 22:2.535762 23:0.822162 24:-0.260021 25:3.351851 26:-0.121557 27:-0.286474 28:-0.355694 29:-0.221907 30:0.38896 31:1.796406 32:-0.028156 33:-0.152574 34:-0.163037 35:-0.074168 36:-0.053866 
1 1:-0.089228 2:-0.257533 3:1.731637 4:-0.638198 5:1.780967 6:-0.161291 7:2.263011 8:1.72061 9:-0.81669 10:0.965231 11:-0.090465 12:-0.23384 13:-0.366632 14:-0.658887 15:1.146781 16:-0.161358 17:2.298124 18:1.325173 19:-0.824419 20:0.972108 21:-0.172522 22:-0.008422 23:4.832911 24:-0.260021 25:-0.043883 26:-0.121475 27:-0.069977 28:3.027559 29:-0.221907 30:-0.04552 31:1.796406 32:-0.028156 33:-0.144501 34:1.599667 35:-0.074168 36:-0.082143 
1 1:-0.089272 2:-0.261902 3:2.886227 4:-0.638198 5:-0.373082 6:-0.160811 7:1.75683 8:-1.109307 9:-0.81669 10:1.035106 11:-0.090551 12:-0.24505 13:0.213103 14:-0.658887 15:0.652351 16:-0.16088 17:1.785557 18:0.341195 19:-0.824419 20:1.042325 21:-0.173151 22:-0.110866 23:7.891413 24:-0.260021 25:-0.168698 26:-0.121816 27:-0.120258 28:5.438517 29:-0.221907 30:-0.164437 31:1.796406 32:-0.028156 33:-0.148035 34:0.66744 35:-0.074168 36:-0.085501 
1 1:-0.089311 2:-0.26577 3:1.689757 4:-0.638198 5:-0.73209 6:-0.16054 7:1.470794 8:-1.114168 9:-0.81669 10:1.050221 11:-0.090598 12:-0.251208 13:-0.337354 14:-0.658887 15:0.44426 16:-0.160609 17:1.494934 18:0.065992 19:-0.824419 20:1.044397 21:-0.173225 22:-0.122915 23:7.953364 24:-0.260021 25:-0.20405 26:-0.121852 27:-0.125526 28:3.54706 29:-0.221907 30:-0.144439 31:1.796406 32:-0.028156 33:-0.148327 34:1.97805 35:-0.074168 36:-0.085989 
1 1:-0.08909 2:-0.243791 3:-0.42986 4:3.125767 5:2.498984 6:-0.158795 7:-0.368187 8:1.72061 9:1.154604 10:0.278141 11:-0.090486 12:-0.236727 13:-0.366632 14:4.176772 15:3.260984 16:-0.158863 17:-0.37673 18:1.277589 19:1.109164 20:0.25422 21:-0.172438 22:0.005267 23:5.994341 24:1.149981 25:0.212349 26:-0.121329 27:-0.048493 28:-0.331965 29:0.061621 30:0.266388 31:1.796406 32:-0.028156 33:-0.142604 34:-0.162956 35:-0.067144 36:-0.065831 
1 1:-0.089265 2:-0.261166 3:4.249604 4:-0.638198 5:0.344934 6:-0.156309 7:0.86853 8:1.555774 9:-0.800297 10:0.985978 11:-0.090617 12:-0.253664 13:3.510889 14:0.068189 15:1.098906 16:-0.15637 17:0.875517 18:0.94321 19:-0.810532 20:1.006384 21:-0.173096 22:-0.101812 23:6.214715 24:-0.186408 25:-0.175928 26:-0.121748 27:-0.110275 28:0.759411 29:-0.155875 30:-0.122416 31:1.796406 32:-0.028156 33:-0.147583 34:0.064066 35:-0.073883 36:-0.085756 
1 1:-0.089227 2:-0.2575 3:3.999299 4:0.339252 5:-0.014074 6:-0.155913 7:0.450808 8:-1.027247 9:-0.643278 10:0.996619 11:-0.090545 12:-0.244375 13:2.081979 14:1.542665 15:1.005554 16:-0.155985 17:0.462725 18:0.618395 19:-0.653558 20:0.995813 21:-0.172904 22:-0.070625 23:6.391447 24:0.082744 25:-0.016532 26:-0.121588 27:-0.086714 28:8.331923 29:0.073961 30:0.022122 31:1.796406 32:-0.028156 33:-0.14649 34:6.107122 35:-0.066649 36:-0.078535 
1 1:-0.08928 2:-0.247422 3:7.414997 4:-0.638198 5:0.703943 6:-0.153766 7:2.020981 8:0.051725 9:-0.783114 10:0.971981 11:-0.090586 12:-0.216148 13:11.313457 14:0.235613 15:1.181781 16:-0.153837 17:2.057673 18:0.418219 19:-0.795268 20:0.98814 21:-0.173175 22:-0.112962 23:4.242797 24:-0.13159 25:-0.083713 26:-0.121788 27:-0.119125 28:4.602293 29:-0.036426 30:-0.058003 31:1.796406 32:-0.028156 33:-0.148131 34:4.641087 35:-0.071295 36:-0.083419 
1 1:-0.08923 2:-0.251596 3:6.14641 4:-0.638198 5:0.703943 6:-0.153002 7:1.214686 8:1.415852 9:-0.81669 10:0.993993 11:-0.090411 12:-0.218382 13:7.292434 14:-0.658887 15:0.949097 16:-0.153069 17:1.234649 18:1.199401 19:-0.824419 20:1.005532 21:-0.173133 22:-0.108735 23:2.581213 24:-0.260021 25:-0.173668 26:-0.121816 27:-0.123748 28:0.470219 29:-0.221907 30:-0.112387 31:1.796406 32:-0.028156 33:-0.148173 34:-0.060418 35:-0.074168 36:-0.085519 
1 1:-0.089093 2:-0.23682 3:8.167045 4:-0.638198 5:0.703943 6:-0.15264 7:0.832049 8:0.786609 9:-0.81669 10:1.015931 11:-0.090465 12:-0.223699 13:10.529006 14:-0.658887 15:0.874447 16:-0.152707 17:0.845899 18:0.882246 19:-0.824419 20:1.018738 21:-0.17296 22:-0.07965 23:3.183014 24:-0.260021 25:-0.155058 26:-0.121741 27:-0.107253 28:4.741717 29:-0.221907 30:-0.066635 31:1.796406 32:-0.028156 33:-0.147273 34:5.163237 35:-0.074168 36:-0.083225 
0.9290570063399727 1:-0.088933 2:-0.226708 3:6.763091 4:-0.638198 5:0.344934 6:-0.152173 7:0.337842 8:1.495139 9:-0.81669 10:0.981969 11:-0.090537 12:-0.237694 13:6.129934 14:-0.658887 15:1.030387 16:-0.152235 17:0.340936 18:1.290817 19:-0.824419 20:0.974098 21:-0.172453 22:0.002805 23:1.31215 24:-0.260021 25:0.048152 26:-0.121263 27:-0.033567 28:0.056046 29:-0.221907 30:0.027773 31:1.796406 32:-0.028156 33:-0.141952 34:-0.150407 35:-0.074168 36:-0.079086 
0.42787022511971 1:-0.088924 2:-0.28271 3:-0.429861 4:-0.638198 5:-0.373082 6:-0.160703 7:1.055919 8:1.648688 9:-0.81669 10:-1.340918 11:-0.090645 12:-0.285575 13:-0.366633 14:-0.658887 15:-0.203738 16:-0.160899 17:1.298159 18:1.601728 19:-0.824419 20:-1.110988 21:-0.135842 22:2.7323 23:0.472149 24:-0.260021 25:3.709108 26:-0.121422 27:-0.286474 28:-0.331336 29:-0.221907 30:0.618207 31:1.796406 32:-0.028156 33:-0.152574 34:-0.162954 35:-0.074168 36:-0.027196 
1 1:-0.089228 2:-0.257533 3:1.731637 4:-0.638198 5:1.780967 6:-0.161307 7:2.280057 8:1.443765 9:-0.81669 10:0.979674 11:-0.09042 12:-0.228156 13:5.774487 14:-0.658887 15:1.042196 16:-0.161377 17:2.319196 18:1.326973 19:-0.824419 20:0.971609 21:-0.172534 22:-0.01045 23:4.838559 24:-0.260021 25:-0.054404 26:-0.121399 27:-0.058844 28:10.968636 29:-0.221907 30:-0.046564 31:1.796406 32:-0.028156 33:-0.144298 34:17.672506 35:-0.074168 36:-0.083489 
1 1:-0.089252 2:-0.259732 3:10.489599 4:-0.638198 5:0.703943 6:-0.161083 7:2.043965 8:0.42038 9:-0.81669 10:0.965633 11:-0.09059 12:-0.250186 13:12.896782 14:-0.658887 15:1.162566 16:-0.161152 17:2.077883 18:0.496511 19:-0.824419 20:0.982119 21:-0.172984 22:-0.083552 23:7.604889 24:-0.260021 25:-0.137104 26:-0.121752 27:-0.110723 28:12.801653 29:-0.221907 30:-0.112496 31:1.796406 32:-0.028156 33:-0.147186 34:19.108545 35:-0.074168 36:-0.084889 
1 1:-0.089272 2:-0.261902 3:2.886227 4:-0.638198 5:-0.373082 6:-0.160829 7:1.77643 8:-1.113056 9:-0.81669 10:1.029979 11:-0.090604 12:-0.251975 13:-0.03036 14:-0.658887 15:0.707592 16:-0.160899 17:1.806319 18:0.351926 19:-0.824419 20:1.039367 21:-0.173162 22:-0.112531 23:7.960887 24:-0.260021 25:-0.168804 26:-0.121809 27:-0.119212 28:4.476557 29:-0.221907 30:-0.178661 31:1.796406 32:-0.028156 33:-0.148063 34:1.477892 35:-0.074168 36:-0.085934 
1 1:-0.089311 2:-0.26577 3:1.689757 4:-0.638198 5:-0.73209 6:-0.160559 7:1.491087 8:-1.105079 9:-0.81669 10:1.040979 11:-0.090597 12:-0.251043 13:0.185538 14:-0.658887 15:0.552446 16:-0.160628 17:1.515551 18:0.058899 19:-0.824419 20:1.045481 21:-0.173238 22:-0.124995 23:7.887943 24:-0.260021 25:-0.197993 26:-0.121949 27:-0.139886 28:6.260261 29:-0.221907 30:-0.13533 31:1.796406 32:-0.028156 33:-0.148892 34:4.775919 35:-0.074168 36:-0.085955 
1 1:-0.089321 2:-0.266742 3:0.906207 4:-0.638198 5:0.344934 6:-0.16027 7:1.186222 8:0.779048 9:-0.807648 10:1.010917 11:-0.090566 12:-0.247065 13:6.692591 14:-0.138639 15:0.851838 16:-0.160339 17:1.205469 18:-0.038923 19:-0.81886 20:1.014801 21:-0.173229 22:-0.12343 23:8.327084 24:-0.229772 25:-0.191641 26:-0.121862 27:-0.127006 28:12.954171 29:-0.217374 30:-0.143077 31:1.796406 32:-0.028156 33:-0.148453 34:25.355902 35:-0.074167 36:-0.085675 
1 1:-0.08927 2:-0.261666 3:1.478872 4:-0.638198 5:-0.73209 6:-0.15996 7:0.859509 8:1.685037 9:-0.77354 10:1.036586 11:-0.090585 12:-0.249472 13:0.547794 14:0.482626 15:0.554208 16:-0.160028 17:0.872661 18:-0.036691 19:-0.787769 20:1.026715 21:-0.173168 22:-0.113552 23:8.671456 24:-0.174008 25:-0.153133 26:-0.121854 27:-0.125826 28:12.585268 29:-0.175817 30:-0.099693 31:1.796406 32:-0.028156 33:-0.148315 34:21.339804 35:-0.074043 36:-0.084746 
1 1:-0.08909 2:-0.243791 3:-0.42986 4:3.125767 5:2.498984 6:-0.158813 7:-0.349993 8:1.720342 9:1.177276 10:0.288142 11:-0.090473 12:-0.235012 13:-0.219282 14:4.159091 15:3.245741 16:-0.158884 17:-0.353828 18:0.868312 19:1.155084 20:0.258087 21:-0.172438 22:0.005245 23:8.069215 24:0.731347 25:0.209493 26:-0.121387 27:-0.057033 28:3.642032 29:0.240846 30:0.235798 31:1.796406 32:-0.028156 33:-0.142915 34:2.167259 35:-0.059394 36:-0.077485 
1 1:-0.089215 2:-0.256185 3:3.51984 4:2.13454 5:2.139976 6:-0.157631 7:2.261965 8:1.54264 9:-0.655907 10:0.911643 11:-0.090619 12:-0.253829 13:4.642646 14:1.168673 15:1.462073 16:-0.157699 17:2.300241 18:1.322685 19:-0.655195 20:0.895973 21:-0.172896 22:-0.069264 23:2.041473 24:0.21952 25:0.09677 26:-0.121614 27:-0.090562 28:0.393419 29:0.120579 30:0.044875 31:1.796406 32:-0.028156 33:-0.146586 34:-0.08632 35:-0.064669 36:-0.079054 
1 1:-0.089308 2:-0.265539 3:1.063659 4:-0.638198 5:-0.014074 6:-0.156651 7:1.228342 8:1.660436 9:-0.81669 10:1.003355 11:-0.090599 12:-0.251352 13:2.082868 14:-0.658887 15:0.946611 16:-0.156721 17:1.251639 18:1.33288 19:-0.824419 20:0.993531 21:-0.173208 22:-0.120042 23:3.83341 24:-0.260021 25:-0.175028 26:-0.121815 27:-0.120173 28:0.100407 29:-0.221907 30:-0.094075 31:1.796406 32:-0.028156 33:-0.147961 34:-0.127335 35:-0.074168 36:-0.084843 
1 1:-0.089265 2:-0.261166 3:4.249604 4:-0.638198 5:0.344934 6:-0.156324 7:0.884269 8:1.638618 9:-0.800232 10:0.990307 11:-0.090627 12:-0.254957 13:2.405002 14:0.069633 15:1.063853 16:-0.15639 17:0.897091 18:1.060452 19:-0.80684 20:1.005322 21:-0.173098 22:-0.102219 23:6.279593 24:-0.181975 25:-0.182186 26:-0.121826 27:-0.121757 28:0.243089 29:-0.169238 30:-0.161157 31:1.796406 32:-0.028156 33:-0.148082 34:-0.099339 35:-0.073864 36:-0.08607 
1 1:-0.089227 2:-0.2575 3:3.999299 4:0.339252 5:-0.014074 6:-0.15594 7:0.479151 8:-1.056546 9:-0.650448 10:0.974958 11:-0.090522 12:-0.241379 13:1.603712 14:1.476279 15:1.187135 16:-0.156006 17:0.484829 18:0.715491 19:-0.65612 20:0.98537 21:-0.172908 22:-0.071216 23:6.839212 24:0.10963 25:0.036118 26:-0.121612 27:-0.090145 28:10.684903 29:0.140344 30:0.053736 31:1.796406 32:-0.028156 33:-0.146368 34:12.184793 35:-0.062103 36:-0.07712 
1 1:-0.089018 2:-0.236619 3:7.076714 4:2.983526 5:2.139976 6:-0.155456 7:-0.031261 8:0.973117 9:1.00686 10:0.491945 11:-0.090505 12:-0.239165 13:7.474857 14:3.733706 15:2.888077 16:-0.155522 17:-0.033689 18:1.009999 19:1.016945 20:0.462994 21:-0.172311 22:0.02589 23:2.054961 24:0.103554 25:0.25966 26:-0.121247 27:-0.036434 28:1.447578 29:0.250601 30:0.182924 31:1.796406 32:-0.028156 33:-0.142778 34:0.372307 35:-0.069236 36:-0.079865 
0.5945660582371387 1:-0.088962 2:-0.284404 3:-0.404086 4:-0.49992 5:-0.73209 6:-0.152254 7:1.057621 8:1.646503 9:-0.683344 10:-1.29304 11:-0.090461 12:0.218808 13:0.481001 14:1.129798 15:0.383242 16:-0.152456 17:1.157446 18:1.620797 19:-0.705842 20:-1.244935 21:-0.159728 22:1.586515 23:0.103571 24:0.349629 25:1.057356 26:-0.121519 27:-0.228579 28:-0.231637 29:0.174285 30:0.385449 31:1.796406 32:-0.028156 33:-0.152097 34:-0.160679 35:-0.060468 36:-0.045621 
1 1:-0.089035 2:-0.223302 3:7.205105 4:2.952378 5:3.576009 6:-0.154118 7:2.392115 8:1.144559 9:1.346512 10:-0.109434 11:-0.090203 12:-0.162085 13:10.378061 14:4.139808 15:2.946998 16:-0.154187 17:2.4336 18:1.1488 19:1.254359 20:0.005527 21:-0.172494 22:-0.005571 23:1.310343 24:0.820909 25:0.369561 26:-0.121498 27:-0.081666 28:0.726279 29:0.128286 30:0.447981 31:1.796406 32:-0.028156 33:-0.144994 34:0.07677 35:-0.07125 36:-0.074716 
0.7518002963121496 1:-0.08923 2:-0.251596 3:6.14641 4:-0.638198 5:0.703943 6:-0.153025 7:1.238581 8:1.408734 9:-0.81669 10:1.006873 11:-0.090446 12:-0.228234 13:7.278119 14:-0.658887 15:0.839997 16:-0.15309 17:1.257235 18:1.229155 19:-0.824419 20:1.003086 21:-0.17314 22:-0.108967 23:2.241711 24:-0.260021 25:-0.194127 26:-0.121803 27:-0.118636 28:0.332576 29:-0.221907 30:-0.12993 31:1.796406 32:-0.028156 33:-0.147973 34:-0.08547 35:-0.074168 36:-0.085759 
1 1:-0.088933 2:-0.226708 3:6.763091 4:-0.638198 5:0.344934 6:-0.152195 7:0.36476 8:1.465922 9:-0.81669 10:0.973044 11:-0.089927 12:-0.158555 13:6.577248 14:-0.658887 15:1.104339 16:-0.152257 17:0.364144 18:1.284207 19:-0.824419 20:0.972234 21:-0.172472 22:-0.000476 23:1.523403 24:-0.260021 25:0.029709 26:-0.121354 27:-0.049795 28:0.063495 29:-0.221907 30:0.039307 31:1.796406 32:-0.028156 33:-0.143911 34:-0.145323 35:-0.074168 36:-0.077739 
1 1:-0.089298 2:-0.264591 3:0.830049 4:-0.638198 5:-0.73209 6:-0.160574 7:1.507269 8:-1.105811 9:-0.81669 10:1.046013 11:-0.090573 12:-0.248013 13:0.202441 14:-0.658887 15:0.488054 16:-0.160647 17:1.535841 18:0.101145 19:-0.824419 20:1.043854 21:-0.173238 22:-0.124885 23:8.139716 24:-0.260021 25:-0.191135 26:-0.121921 27:-0.135705 28:7.836215 29:-0.221907 30:-0.090138 31:1.796406 32:-0.028156 33:-0.148742 34:8.183041 35:-0.074168 36:-0.08423 
1 1:-0.089281 2:-0.262788 3:1.097059 4:-0.638198 5:1.780967 6:-0.15964 7:0.522572 8:1.696746 9:-0.759274 10:1.005489 11:-0.090644 12:-0.257096 13:0.788407 14:0.698624 15:0.928545 16:-0.159713 17:0.535092 18:0.020677 19:-0.776799 20:0.998898 21:-0.173076 22:-0.09857 23:8.336619 24:-0.118254 25:-0.111768 26:-0.121738 27:-0.108752 28:12.940049 29:-0.085705 30:-0.150007 31:1.796406 32:-0.028156 33:-0.147354 34:18.922331 35:-0.072987 36:-0.085778 
0.424744716775769 1:-0.089099 2:-0.292341 3:-0.429861 4:-0.638198 5:-0.73209 6:-0.157204 7:1.055919 8:1.648687 9:-0.749957 10:-1.356117 11:-0.090633 12:-0.285575 13:-0.366633 14:0.475139 15:-0.454049 16:-0.157278 17:1.073663 18:1.661479 19:-0.73955 20:-1.343372 21:-0.172687 22:-0.356134 23:-0.241764 24:0.37842 25:0.261611 26:-0.12154 27:-0.286474 28:-0.355689 29:0.244574 30:-0.18208 31:1.796406 32:-0.028156 33:-0.152574 34:-0.163037 35:-0.053833 36:-0.085747 
1 1:-0.089304 2:-0.265137 3:2.535998 4:-0.638198 5:1.421959 6:-0.157225 7:1.834266 8:1.214002 9:-0.81669 10:1.012522 11:-0.090593 12:-0.250548 13:6.811082 14:-0.658887 15:0.857684 16:-0.157297 17:1.868587 18:0.721835 19:-0.824419 20:1.012208 21:-0.173183 22:-0.116031 23:6.484637 24:-0.260021 25:-0.190954 26:-0.12186 27:-0.126751 28:2.222208 29:-0.221907 30:-0.129848 31:1.796406 32:-0.028156 33:-0.148387 34:1.060605 35:-0.074168 36:-0.086089 
1 1:-0.089211 2:-0.255901 3:2.558742 4:0.742428 5:0.703943 6:-0.155956 7:0.495979 8:-1.040045 9:-0.671805 10:0.956565 11:-0.090524 12:-0.241577 13:1.910873 14:1.291995 15:1.303441 16:-0.156026 17:0.506556 18:0.794283 19:-0.659019 20:0.974033 21:-0.172898 22:-0.069613 23:7.26534 24:0.148681 25:0.060075 26:-0.121645 27:-0.09508 28:12.208225 29:0.150633 30:0.050734 31:1.796406 32:-0.028156 33:-0.146498 34:17.725138 35:-0.062546 36:-0.077051 
1 1:-0.089038 2:-0.221607 3:7.533904 4:2.952378 5:3.576009 6:-0.15414 7:2.414502 8:1.139439 9:1.346357 10:-0.049273 11:-0.090243 12:-0.165221 13:10.574356 14:4.159596 15:2.969924 16:-0.154209 17:2.457634 18:1.14083 19:1.304753 20:-0.004135 21:-0.172504 22:-0.005383 23:1.047092 24:0.486342 25:0.321932 26:-0.121403 27:-0.066011 28:0.491532 29:0.218357 30:0.880403 31:1.796406 32:-0.028156 33:-0.144211 34:-0.007293 35:-0.063997 36:-0.046672 
1 1:-0.08925 2:-0.248422 3:8.703582 4:3.11199 5:3.576009 6:-0.15411 7:2.383012 8:1.289723 9:-0.071422 10:0.513142 11:-0.090425 12:-0.192177 13:8.24326 14:2.944585 15:2.501601 16:-0.154174 17:2.418993 18:0.963137 19:0.017568 20:0.541949 21:-0.172914 22:-0.071521 23:3.643805 24:2.530491 25:1.205293 26:-0.12174 27:-0.109523 28:1.674446 29:1.582367 30:0.948849 31:1.796406 32:-0.028156 33:-0.147415 34:0.47681 35:0.197877 36:0.062741 
1 1:-0.089211 2:-0.248423 3:5.840965 4:-0.638198 5:0.344934 6:-0.153042 7:1.254521 8:1.402934 9:-0.81669 10:0.997618 11:-0.090531 12:-0.228774 13:7.240173 14:-0.658887 15:0.918749 16:-0.153109 17:1.278226 18:1.248589 19:-0.824419 20:1.001993 21:-0.173152 22:-0.110586 23:1.945715 24:-0.260021 25:-0.19598 26:-0.121839 27:-0.123936 28:0.373379 29:-0.221907 30:-0.103244 31:1.796406 32:-0.028156 33:-0.148354 34:-0.077573 35:-0.074168 36:-0.08558 
0.6410406987090719 1:-0.088222 2:-0.181977 3:-0.326764 4:-0.638198 5:-0.014074 6:-0.148757 7:1.041115 8:1.638561 9:-0.81669 10:-1.329257 11:-0.090406 12:0.648441 13:1.166025 14:-0.658887 15:0.047932 16:-0.149006 17:1.00568 18:1.615481 19:-0.824419 20:-1.257581 21:-0.158428 22:0.325176 23:0.15187 24:-0.260021 25:1.296994 26:-0.12148 27:-0.166337 28:-0.244632 29:-0.221907 30:0.149428 31:1.796406 32:-0.028156 33:-0.15041 34:-0.160945 35:-0.074168 36:-0.072834 
0.2445978531625733 1:-0.088924 2:-0.28271 3:-0.429861 4:-0.638198 5:-0.373082 6:-0.16075 7:1.055919 8:1.64869 9:-0.81669 10:-1.326129 11:-0.090677 12:-0.285575 13:-0.366633 14:-0.658887 15:-0.052642 16:-0.160986 17:1.378312 18:1.600642 19:-0.824419 20:-1.04702 21:-0.130112 22:3.193773 23:0.457149 24:-0.260021 25:4.22089 26:-0.121503 27:-0.286474 28:-0.28148 29:-0.221907 30:1.195973 31:1.796406 32:-0.028156 33:-0.152574 34:-0.162312 35:-0.074168 36:0.078773 
1 1:-0.089231 2:-0.25791 3:1.494452 4:-0.638198 5:0.703943 6:-0.161352 7:2.32717 8:1.518777 9:-0.81669 10:0.963127 11:-0.090478 12:-0.235659 13:4.766687 14:-0.658887 15:1.135609 16:-0.161417 17:2.361101 18:1.323179 19:-0.824419 20:0.971259 21:-0.172546 22:-0.012326 23:4.825024 24:-0.260021 25:-0.069917 26:-0.121407 27:-0.059945 28:10.550137 29:-0.221907 30:-0.047963 31:1.796406 32:-0.028156 33:-0.144042 34:16.63349 35:-0.074168 36:-0.081896 
1 1:-0.089255 2:-0.260267 3:2.85954 4:-0.638198 5:-0.373082 6:-0.160867 7:1.815699 8:-1.10902 9:-0.81669 10:1.036709 11:-0.090572 12:-0.247692 13:0.235845 14:-0.658887 15:0.630782 16:-0.160938 17:1.847748 18:0.368132 19:-0.824419 20:1.034044 21:-0.173166 22:-0.113263 23:7.914793 24:-0.260021 25:-0.170436 26:-0.121811 27:-0.119601 28:6.955642 29:-0.221907 30:-0.133189 31:1.796406 32:-0.028156 33:-0.147892 34:1.731868 35:-0.074168 36:-0.085031 
1 1:-0.089273 2:-0.262006 3:0.740241 4:-0.638198 5:-0.73209 6:-0.159993 7:0.894072 8:1.709673 9:-0.773522 10:1.017153 11:-0.090639 12:-0.256517 13:0.434681 14:0.483473 15:0.714566 16:-0.160067 17:0.914567 18:0.490972 19:-0.791278 20:1.019515 21:-0.173163 22:-0.112675 23:8.656628 24:-0.151224 25:-0.148527 26:-0.121794 27:-0.117033 28:7.101653 29:-0.17094 30:-0.031077 31:1.796406 32:-0.028156 33:-0.147987 34:6.778017 35:-0.074022 36:-0.082428 
1 1:-0.089281 2:-0.262788 3:1.097059 4:-0.638198 5:1.780967 6:-0.159668 7:0.552213 8:1.715202 9:-0.758594 10:1.000071 11:-0.090564 12:-0.246831 13:-0.007871 14:0.706899 15:0.975526 16:-0.159733 17:0.556105 18:0.290445 19:-0.77512 20:1.002524 21:-0.173088 22:-0.100475 23:8.366033 24:-0.113538 25:-0.130405 26:-0.121735 27:-0.10834 28:9.347554 29:-0.110004 30:-0.161273 31:1.796406 32:-0.028156 33:-0.147541 34:11.636547 35:-0.073451 36:-0.086038 
1 1:-0.089082 2:-0.24302 3:0.03309 4:3.125767 5:2.498984 6:-0.158857 7:-0.303389 8:-0.957107 9:1.247268 10:0.264837 11:-0.090492 12:-0.23745 13:2.836713 14:4.129952 15:3.337909 16:-0.158927 17:-0.307993 18:0.064105 19:1.190721 20:0.272339 21:-0.172454 22:0.002563 23:8.682483 24:0.224568 25:0.229875 26:-0.121311 27:-0.045912 28:10.802566 29:0.115585 30:0.121017 31:1.796406 32:-0.028156 33:-0.142251 34:18.169096 35:-0.068552 36:-0.07587 
0.205325331656743 1:-0.089099 2:-0.292341 3:-0.429861 4:-0.638198 5:-0.73209 6:-0.157231 7:1.055919 8:1.648685 9:-0.73388 10:-1.355119 11:-0.09066 12:-0.285575 13:-0.366633 14:0.616305 15:-0.424331 16:-0.157314 17:1.05504 18:1.654721 19:-0.729471 20:-1.334604 21:-0.168984 22:0.524518 23:-0.066784 24:0.429795 25:0.396452 26:-0.121533 27:-0.286475 28:-0.355684 29:0.258222 30:-0.161767 31:1.796406 32:-0.028156 33:-0.152574 34:-0.163037 35:-0.052728 36:-0.085486 
1 1:-0.089234 2:-0.258123 3:3.51984 4:2.13454 5:2.139976 6:-0.157672 7:2.304873 8:1.10102 9:-0.65981 10:0.864351 11:-0.090526 12:-0.241863 13:8.846475 14:1.148827 15:1.713326 16:-0.15774 17:2.343756 18:1.262407 19:-0.660444 20:0.871408 21:-0.172908 22:-0.071215 23:3.492827 24:0.231102 25:0.113868 26:-0.121638 27:-0.093991 28:1.682078 29:0.129703 30:-0.049809 31:1.796406 32:-0.028156 33:-0.146639 34:0.415311 35:-0.063357 36:-0.083833 
1 1:-0.089273 2:-0.262212 3:9.410425 4:-0.638198 5:1.062951 6:-0.15748 7:2.103037 8:1.4406 9:-0.790688 10:0.975242 11:-0.090609 12:-0.252428 13:6.711109 14:0.24536 15:1.216351 16:-0.157547 17:2.136934 18:0.807395 19:-0.798267 20:0.981529 21:-0.173103 22:-0.10297 23:6.464229 24:-0.218173 25:-0.179652 26:-0.121853 27:-0.125839 28:0.652025 29:-0.216261 30:-0.092543 31:1.796406 32:-0.028156 33:-0.148106 34:-0.112725 35:-0.074167 36:-0.085191 
1 1:-0.089258 2:-0.260516 3:3.243229 4:-0.638198 5:1.062951 6:-0.156983 7:1.578375 8:1.684905 9:-0.81669 10:0.989962 11:-0.090592 12:-0.2505 13:1.501789 14:-0.658887 15:1.062126 16:-0.157053 17:1.60775 18:1.199361 19:-0.824419 20:1.01339 21:-0.173236 22:-0.124697 23:6.239902 24:-0.260021 25:-0.202639 26:-0.12188 27:-0.1297 28:-0.120797 29:-0.221907 30:-0.095514 31:1.796406 32:-0.028156 33:-0.148305 34:-0.153016 35:-0.074168 36:-0.085175 
1 1:-0.089211 2:-0.255901 3:2.558742 4:0.742428 5:0.703943 6:-0.155977 7:0.518307 8:-0.959789 9:-0.675947 10:0.944521 11:-0.090534 12:-0.242972 13:3.13881 14:1.259793 15:1.387246 16:-0.156046 17:0.528384 18:0.851621 19:-0.661133 20:0.96245 21:-0.172898 22:-0.069691 23:7.61817 24:0.175343 25:0.033676 26:-0.121634 27:-0.093503 28:13.586134 29:0.091143 30:0.026607 31:1.796406 32:-0.028156 33:-0.146431 34:24.188313 35:-0.064412 36:-0.078294 
1 1:-0.089065 2:-0.241246 3:6.44365 4:3.250947 5:2.139976 6:-0.155504 7:0.019584 8:1.316432 9:0.953395 10:0.440135 11:-0.090491 12:-0.237373 13:5.770483 14:3.608848 15:2.950851 16:-0.155565 17:0.012589 18:1.309354 19:0.99611 20:0.450237 21:-0.172344 22:0.020479 23:1.968451 24:0.057341 25:0.149717 26:-0.121278 27:-0.040981 28:1.762051 29:0.463638 30:0.324469 31:1.796406 32:-0.028156 33:-0.143046 34:0.742353 35:-0.047088 36:-0.064808 
0.5914984488395062 1:-0.088763 2:-0.250726 3:-0.31089 4:-0.49992 5:-0.73209 6:-0.152307 7:1.05878 8:1.64458 9:-0.703881 10:-1.274265 11:-0.09044 12:0.373103 13:0.775766 14:0.979219 15:0.541762 16:-0.152596 17:1.211352 18:1.599959 19:-0.695857 20:-1.216363 21:-0.15489 22:2.363467 23:0.262538 24:0.374299 25:1.263716 26:-0.121466 27:-0.080905 28:-0.099142 29:0.126086 30:0.530351 31:1.796406 32:-0.028156 33:-0.147224 34:-0.153455 35:-0.063336 36:-0.026413 
1 1:-0.089257 2:-0.248858 3:7.394369 4:-0.638198 5:2.139976 6:-0.153616 7:1.860665 8:1.38513 9:-0.808417 10:0.999677 11:-0.090595 12:-0.239252 13:7.231694 14:-0.142364 15:0.987137 16:-0.153683 17:1.892563 18:1.027687 19:-0.819288 20:0.990983 21:-0.173237 22:-0.122634 23:2.991335 24:-0.224701 25:-0.160335 26:-0.121902 27:-0.128517 28:0.734125 29:-0.169649 30:-0.101943 31:1.796406 32:-0.028156 33:-0.148754 34:0.010167 35:-0.07401 36:-0.085676 
1 1:-0.089249 2:-0.251421 3:6.727425 4:-0.638198 5:1.062951 6:-0.153361 7:1.589527 8:1.394037 9:-0.81669 10:0.967872 11:-0.090592 12:-0.241491 13:7.774514 14:-0.658887 15:1.237337 16:-0.153428 17:1.619685 18:1.219334 19:-0.824419 20:0.986448 21:-0.17323 22:-0.124974 23:2.13392 24:-0.260021 25:-0.163183 26:-0.12185 27:-0.126506 28:0.022033 29:-0.221907 30:-0.085625 31:1.796406 32:-0.028156 33:-0.148315 34:-0.140924 35:-0.074168 36:-0.083572 
1 1:-0.089123 2:-0.23682 3:7.932379 4:-0.638198 5:0.703943 6:-0.152699 7:0.891324 8:0.892695 9:-0.81669 10:1.002547 11:-0.090528 12:-0.245239 13:10.412957 14:-0.658887 15:0.960453 16:-0.15277 17:0.914505 18:0.895673 19:-0.824419 20:0.999346 21:-0.172984 22:-0.084322 23:2.814287 24:-0.260021 25:-0.093002 26:-0.121745 27:-0.109518 28:3.589437 29:-0.221907 30:0.084357 31:1.796406 32:-0.028156 33:-0.147704 34:2.873043 35:-0.074168 36:-0.076202 
0.4264826176670888 1:-0.088989 2:-0.272191 3:-0.404087 4:-0.638198 5:-0.373082 6:-0.160783 7:1.055919 8:1.648687 9:-0.81669 10:-1.3163 11:-0.090674 12:-0.285575 13:-0.366633 14:-0.658887 15:0.056884 16:-0.161026 17:1.412777 18:1.602045 19:-0.824419 20:-1.02053 21:-0.128496 22:3.319402 23:0.446979 24:-0.260021 25:4.364573 26:-0.121513 27:-0.286261 28:-0.222697 29:-0.221907 30:1.528963 31:1.796406 32:-0.028156 33:-0.152574 34:-0.16043 35:-0.074168 36:0.167075 
1 1:-0.089219 2:-0.25643 3:2.849066 4:-0.638198 5:-0.014074 6:-0.161368 7:2.343897 8:1.717158 9:-0.81669 10:0.965304 11:-0.090459 12:-0.23318 13:0.101885 14:-0.658887 15:1.100585 16:-0.161436 17:2.382173 18:1.329533 19:-0.824419 20:0.966421 21:-0.172551 22:-0.013211 23:4.812035 24:-0.260021 25:-0.026912 26:-0.121419 27:-0.06179 28:2.170552 29:-0.221907 30:-0.044267 31:1.796406 32:-0.028156 33:-0.14422 34:0.839701 35:-0.074168 36:-0.082381 
1 1:-0.089227 2:-0.257098 3:7.276091 4:-0.638198 5:-0.373082 6:-0.161137 7:2.100575 8:1.041516 9:-0.81669 10:1.001033 11:-0.090537 12:-0.243249 13:11.468611 14:-0.658887 15:0.896246 16:-0.16121 17:2.139622 18:0.608631 19:-0.824419 20:0.995551 21:-0.172996 22:-0.085561 23:7.106233 24:-0.260021 25:-0.122643 26:-0.121727 27:-0.107082 28:10.129703 29:-0.221907 30:0.091684 31:1.796406 32:-0.028156 33:-0.147376 34:16.095917 35:-0.074168 36:-0.074867 
1 1:-0.089258 2:-0.260581 3:2.605148 4:-0.638198 5:-0.73209 6:-0.160886 7:1.835744 8:-1.105109 9:-0.81669 10:1.026499 11:-0.090578 12:-0.248706 13:0.450121 14:-0.658887 15:0.737018 16:-0.160957 17:1.868184 18:0.396714 19:-0.824419 20:1.030457 21:-0.173168 22:-0.113564 23:7.998433 24:-0.260021 25:-0.160404 26:-0.12178 27:-0.114936 28:7.322021 29:-0.221907 30:-0.123714 31:1.796406 32:-0.028156 33:-0.147669 34:2.634982 35:-0.074168 36:-0.084803 
1 1:-0.089291 2:-0.263825 3:0.354143 4:-0.638198 5:-0.73209 6:-0.160616 7:1.551261 8:-1.11049 9:-0.81669 10:1.06087 11:-0.090587 12:-0.249762 13:0.019198 14:-0.658887 15:0.328114 16:-0.160685 17:1.576487 18:0.577452 19:-0.824419 20:1.035976 21:-0.173232 22:-0.124016 23:7.930047 24:-0.260021 25:-0.133343 26:-0.121898 27:-0.132371 28:7.10002 29:-0.221907 30:-0.080361 31:1.796406 32:-0.028156 33:-0.148467 34:6.567833 35:-0.074168 36:-0.084285 
0.3788051191580644 1:-0.089111 2:-0.292341 3:-0.429861 4:-0.638198 5:-0.73209 6:-0.15726 7:1.055919 8:1.64869 9:-0.739526 10:-1.353 11:-0.090611 12:-0.285575 13:-0.366633 14:0.587276 15:-0.365395 16:-0.157351 17:1.035966 18:1.644661 19:-0.720426 20:-1.326478 21:-0.16708 22:0.903032 23:0.142507 24:0.469435 25:0.497738 26:-0.12149 27:-0.286475 28:-0.355684 29:0.263737 30:-0.131621 31:1.796406 32:-0.028156 33:-0.152574 34:-0.163037 35:-0.051028 36:-0.084873 
1 1:-0.089274 2:-0.262421 3:8.561694 4:-0.638198 5:1.062951 6:-0.157498 7:2.121586 8:1.270323 9:-0.791108 10:0.978717 11:-0.090579 12:-0.248895 13:8.356966 14:0.237832 15:1.184143 16:-0.157567 17:2.158007 18:0.879318 19:-0.797089 20:0.983351 21:-0.173109 22:-0.104004 23:6.287226 24:-0.21865 25:-0.172767 26:-0.121791 27:-0.116607 28:0.663283 29:-0.216232 30:-0.140267 31:1.796406 32:-0.028156 33:-0.147595 34:-0.084218 35:-0.074167 36:-0.085653 
1 1:-0.089279 2:-0.262642 3:0.009001 4:-0.638198 5:-0.014074 6:-0.156382 7:0.944638 8:1.711821 9:-0.78267 10:1.005905 11:-0.090561 12:-0.246356 13:0.545523 14:0.36922 15:0.916357 16:-0.15645 17:0.960714 18:1.213159 19:-0.792115 20:1.008993 21:-0.173105 22:-0.103381 23:6.484781 24:-0.157762 25:-0.192738 26:-0.121833 27:-0.122832 28:-0.267535 29:-0.160771 30:-0.156999 31:1.796406 32:-0.028156 33:-0.148097 34:-0.161749 35:-0.073813 36:-0.085695 
0.3621447555350666 1:-0.088292 2:-0.206483 3:-0.169632 4:-0.49992 5:-0.373082 6:-0.152334 7:1.059368 8:1.636431 9:-0.696906 10:-1.266815 11:-0.090453 12:0.429535 13:1.516008 14:1.032815 15:0.593273 16:-0.152657 17:1.240915 18:1.588444 19:-0.693059 20:-1.204124 21:-0.15299 22:2.693588 23:0.338808 24:0.380409 25:1.348161 26:-0.121497 27:0.049034 28:-0.011558 29:0.116599 30:0.580946 31:1.796406 32:-0.028156 33:-0.13866 34:-0.145042 35:-0.063421 36:-0.018936 
1 1:-0.089244 2:-0.246023 3:7.394369 4:-0.638198 5:1.421959 6:-0.153631 7:1.880044 8:1.311309 9:-0.808422 10:1.000469 11:-0.090523 12:-0.219096 13:7.7672 14:-0.142536 15:0.984351 16:-0.153702 17:1.91355 18:1.030858 19:-0.820143 20:0.99233 21:-0.17323 22:-0.121812 23:3.043592 24:-0.226288 25:-0.16305 26:-0.121869 27:-0.12518 28:0.571484 29:-0.169685 30:-0.092462 31:1.796406 32:-0.028156 33:-0.148551 34:-0.054407 35:-0.07401 36:-0.085087 
0.9173125348980462 1:-0.089261 2:-0.25045 3:5.871938 4:-0.638198 5:1.421959 6:-0.153384 7:1.615938 8:1.361326 9:-0.81669 10:0.982879 11:-0.090572 12:-0.23972 13:8.048186 14:-0.658887 15:1.117385 16:-0.153448 17:1.640902 18:1.226162 19:-0.824419 20:0.98957 21:-0.173226 22:-0.124038 23:1.809484 24:-0.260021 25:-0.141218 26:-0.121868 27:-0.12588 28:0.084839 29:-0.221907 30:-0.135649 31:1.796406 32:-0.028156 33:-0.14844 34:-0.131781 35:-0.074168 36:-0.085287 
0.4537667811630744 1:-0.088048 2:-0.163087 3:-0.326764 4:-0.638198 5:0.344934 6:-0.148814 7:1.039798 8:1.63131 9:-0.81669 10:-1.325985 11:-0.090427 12:0.699314 13:1.603539 14:-0.658887 15:0.088206 16:-0.149117 17:0.985574 18:1.603415 19:-0.824419 20:-1.225213 21:-0.156808 22:0.60529 23:0.217532 24:-0.260021 25:1.815856 26:-0.111995 27:-0.105946 28:-0.197075 29:-0.221907 30:0.232142 31:1.796406 32:-0.028154 33:-0.147974 34:-0.15846 35:-0.074168 36:-0.066964 
0.1653237190640182 1:-0.088989 2:-0.272191 3:-0.404087 4:-0.638198 5:-0.373082 6:-0.160801 7:1.055919 8:1.648686 9:-0.81669 10:-1.298341 11:-0.090672 12:-0.285575 13:-0.366633 14:-0.658887 15:0.211184 16:-0.161069 17:1.454418 18:1.606943 19:-0.824419 20:-0.998811 21:-0.127208 22:3.417582 23:0.408398 24:-0.260021 25:4.433968 26:-0.121517 27:-0.284147 28:-0.072825 29:-0.221907 30:1.923854 31:1.796406 32:-0.028156 33:-0.152573 34:-0.15101 35:-0.074168 36:0.308749 
1 1:-0.089219 2:-0.25643 3:2.849066 4:-0.638198 5:-0.014074 6:-0.161383 7:2.359887 8:1.714972 9:-0.81669 10:0.972441 11:-0.090495 12:-0.238004 13:0.360856 14:-0.658887 15:1.045446 16:-0.161456 17:2.403401 18:1.410311 19:-0.824419 20:0.958308 21:-0.172552 22:-0.013387 23:3.904042 24:-0.260021 25:-0.006912 26:-0.121358 27:-0.052636 28:-0.327834 29:-0.221907 30:-0.022304 31:1.796406 32:-0.028156 33:-0.143915 34:-0.162935 35:-0.074168 36:-0.081995 
1 1:-0.089291 2:-0.263825 3:0.354143 4:-0.638198 5:-0.73209 6:-0.160631 7:1.567481 8:-1.112795 9:-0.81669 10:1.042429 11:-0.090601 12:-0.251525 13:-0.169866 14:-0.658887 15:0.521995 16:-0.160703 17:1.596604 18:0.67247 19:-0.824419 20:1.030717 21:-0.173233 22:-0.124204 23:8.175782 24:-0.260021 25:-0.090226 26:-0.121855 27:-0.125951 28:6.524732 29:-0.221907 30:-0.017193 31:1.796406 32:-0.028156 33:-0.148167 34:5.31781 35:-0.074168 36:-0.081672 
1 1:-0.089303 2:-0.265041 3:1.026314 4:-0.638198 5:1.062951 6:-0.160345 7:1.26572 8:0.523618 9:-0.815277 10:0.995604 11:-0.090597 12:-0.251111 13:7.395732 14:-0.596616 15:0.983025 16:-0.160414 17:1.286759 18:0.694189 19:-0.822924 20:0.996991 21:-0.173222 22:-0.122413 23:8.089577 24:-0.23948 25:-0.184228 26:-0.121824 27:-0.121391 28:11.806994 29:-0.215961 30:-0.168217 31:1.796406 32:-0.028156 33:-0.148085 34:29.804914 35:-0.074166 36:-0.08602 
1 1:-0.089276 2:-0.262309 3:0.663482 4:5.906843 5:2.139976 6:-0.159328 7:0.193115 8:-1.114193 9:0.475638 10:0.651725 11:-0.090543 12:-0.244113 13:-0.366633 14:3.866443 15:2.511045 16:-0.159402 17:0.201658 18:0.359408 19:0.454878 20:0.676604 21:-0.172913 22:-0.072082 23:8.736041 24:2.143299 25:0.618942 26:-0.121566 27:-0.083392 28:12.218815 29:1.542434 30:0.585735 31:1.796406 32:-0.028156 33:-0.146146 34:15.643493 35:0.125155 36:-0.018399 
1 1:-0.089084 2:-0.243162 3:1.643755 4:3.022777 5:2.498984 6:-0.158899 7:-0.259077 8:-1.114193 9:1.16631 10:0.297284 11:-0.090497 12:-0.238173 13:-0.366633 14:4.065126 15:3.308912 16:-0.158969 17:-0.262494 18:-0.183012 19:1.184772 20:0.305873 21:-0.172493 22:-0.003709 23:7.688239 24:0.137859 25:0.168554 26:-0.121265 27:-0.039032 28:-0.218902 29:0.015135 30:0.081799 31:1.796406 32:-0.028156 33:-0.141794 34:-0.160003 35:-0.072192 36:-0.078994 
1 1:-0.08919 2:-0.253789 3:5.871242 4:2.260961 5:2.139976 6:-0.157839 7:2.481572 8:1.595396 9:1.219949 10:0.089289 11:-0.09035 12:-0.219171 13:2.921211 14:3.58319 15:2.977687 16:-0.157909 17:2.524563 18:1.06161 19:1.186929 20:0.122686 21:-0.172313 22:0.025488 23:4.624125 24:0.111289 25:0.207994 26:-0.121266 27:-0.039209 28:0.755711 29:0.097963 30:0.36966 31:1.796406 32:-0.028156 33:-0.141914 34:0.057599 35:-0.066974 36:-0.074069 
1 1:-0.089229 2:-0.257442 3:3.317236 4:1.159428 5:2.139976 6:-0.157711 7:2.346282 8:1.418038 9:-0.689656 10:0.847903 11:-0.09051 12:-0.239873 13:6.200752 14:0.967467 15:1.786348 16:-0.15778 17:2.386745 18:1.172866 19:-0.662849 20:0.85317 21:-0.172924 22:-0.073779 23:4.354033 24:0.228855 25:0.096647 26:-0.121608 27:-0.089612 28:2.181743 29:0.156151 30:0.034154 31:1.796406 32:-0.028156 33:-0.146424 34:0.906064 35:-0.060971 36:-0.080074 
1 1:-0.089308 2:-0.265514 3:2.535998 4:-0.638198 5:1.062951 6:-0.157286 7:1.898502 8:1.602677 9:-0.81669 10:1.021062 11:-0.090581 12:-0.249063 13:3.231089 14:-0.658887 15:0.806952 16:-0.157355 17:1.931199 18:0.925888 19:-0.824419 20:1.019595 21:-0.173206 22:-0.119732 23:6.665426 24:-0.260021 25:-0.208831 26:-0.121919 27:-0.135451 28:-0.037516 29:-0.221907 30:-0.140653 31:1.796406 32:-0.028156 33:-0.148662 34:-0.145512 35:-0.074168 36:-0.085491 
1 1:-0.089266 2:-0.261405 3:0.367612 4:-0.638198 5:1.062951 6:-0.157023 7:1.620768 8:1.707881 9:-0.81669 10:1.000761 11:-0.090581 12:-0.248995 13:0.772417 14:-0.658887 15:0.971139 16:-0.157092 17:1.64893 18:1.277597 19:-0.824419 20:1.012155 21:-0.173227 22:-0.123204 23:6.340476 24:-0.260021 25:-0.207181 26:-0.12187 27:-0.128179 28:-0.269846 29:-0.221907 30:-0.067518 31:1.796406 32:-0.028156 33:-0.148155 34:-0.161661 35:-0.074168 36:-0.084231 
0.4762082165138137 1:-0.089279 2:-0.262642 3:0.009001 4:-0.638198 5:-0.014074 6:-0.156403 7:0.96734 8:1.716247 9:-0.773882 10:1.006586 11:-0.090566 12:-0.247078 13:0.307136 14:0.490252 15:0.909109 16:-0.156469 17:0.981639 18:1.222713 19:-0.787322 20:1.010385 21:-0.173105 22:-0.103384 23:6.511793 24:-0.169609 25:-0.204816 26:-0.121839 27:-0.123725 28:-0.320252 29:-0.123739 30:-0.164096 31:1.796406 32:-0.028156 33:-0.148247 34:-0.162767 35:-0.073359 36:-0.085702 
1 1:-0.089197 2:-0.254438 3:1.548439 4:0.742428 5:0.703943 6:-0.156015 7:0.55823 8:-0.899713 9:-0.672626 10:0.933539 11:-0.090551 12:-0.245109 13:3.622823 14:1.245665 15:1.467137 16:-0.156087 17:0.571562 18:0.906779 19:-0.672172 20:0.945778 21:-0.172906 22:-0.07096 23:8.028703 24:0.190895 25:-0.007048 26:-0.121667 27:-0.098243 28:14.199091 29:0.114861 30:-0.068598 31:1.796406 32:-0.028156 33:-0.146652 34:27.797039 35:-0.064595 36:-0.08289 
1 1:-0.08918 2:-0.252706 3:2.293607 4:3.250947 5:2.857992 6:-0.155543 7:0.060823 8:1.631637 9:0.946711 10:0.443706 11:-0.09037 12:-0.221708 13:2.487352 14:3.532885 15:2.930986 16:-0.155608 17:0.058227 18:1.555117 19:0.987164 20:0.432599 21:-0.17234 22:0.021132 23:1.015634 24:0.027326 25:0.25458 26:-0.121435 27:-0.064141 28:0.206321 29:-0.002222 30:0.190837 31:1.796406 32:-0.028156 33:-0.144406 34:-0.108874 35:-0.070393 36:-0.074853 
0.2532975424298724 1:-0.08909 2:-0.292341 3:-0.429861 4:-0.638198 5:-0.73209 6:-0.153073 7:1.055919 8:1.645085 9:-0.793994 10:-1.359667 11:-0.090571 12:-0.285575 13:0.296505 14:-0.001846 15:-0.490396 16:-0.153135 17:1.074075 18:1.661147 19:-0.790674 20:-1.359848 21:-0.172706 22:-0.373072 23:-0.361977 24:0.021537 25:-0.091005 26:-0.121478 27:-0.286476 28:-0.326819 29:-0.053117 30:-0.195402 31:1.796406 32:-0.028156 33:-0.152574 34:-0.16286 35:-0.071503 36:-0.085909 
0.4390933823468297 1:-0.088292 2:-0.206483 3:-0.169632 4:-0.49992 5:-0.373082 6:-0.152363 7:1.062569 8:1.634509 9:-0.695336 10:-1.261262 11:-0.090471 12:0.718518 13:1.540175 14:1.044373 15:0.639736 16:-0.15272 17:1.271021 18:1.575665 19:-0.692206 20:-1.193644 21:-0.152058 22:2.968534 23:0.421907 24:0.374891 25:1.411989 26:-0.115647 27:0.271955 28:0.090288 29:0.129537 30:0.654664 31:1.796406 32:-0.028154 33:-0.11537 34:-0.132515 35:-0.062783 36:-0.004743 
1 1:-0.089244 2:-0.251087 3:7.450407 4:-0.638198 5:1.421959 6:-0.153868 7:2.129917 8:1.296226 9:-0.801293 10:0.95722 11:-0.090588 12:-0.211924 13:7.063715 14:-0.103888 15:1.257458 16:-0.153937 17:2.164482 18:0.671163 19:-0.796547 20:0.950617 21:-0.173185 22:-0.11683 23:5.024575 24:-0.124071 25:0.003022 26:-0.12187 27:-0.123967 28:5.716789 29:-0.034479 30:0.079977 31:1.796406 32:-0.028156 33:-0.148322 34:5.246064 35:-0.071066 36:-0.077509 
1 1:-0.089261 2:-0.25045 3:5.871938 4:-0.638198 5:1.421959 6:-0.153397 7:1.628493 8:1.338724 9:-0.81669 10:0.977302 11:-0.090611 12:-0.246321 13:8.203006 14:-0.658887 15:1.158115 16:-0.153468 17:1.662221 18:1.217925 19:-0.824419 20:0.992564 21:-0.17324 22:-0.12573 23:1.596325 24:-0.260021 25:-0.136629 26:-0.121903 27:-0.127323 28:0.09285 29:-0.221907 30:-0.169575 31:1.796406 32:-0.028156 33:-0.148652 34:-0.120143 35:-0.074168 36:-0.08591 
1 1:-0.089188 2:-0.243 3:6.581879 4:-0.638198 5:0.344934 6:-0.153099 7:1.312607 8:1.330182 9:-0.81669 10:1.011282 11:-0.090593 12:-0.245266 13:7.968159 14:-0.658887 15:0.831556 16:-0.153169 17:1.342719 18:1.231051 19:-0.824419 20:1.000821 21:-0.173185 22:-0.116472 23:1.509802 24:-0.260021 25:-0.167019 26:-0.121813 27:-0.110982 28:0.214989 29:-0.221907 30:-0.142464 31:1.796406 32:-0.028156 33:-0.147662 34:-0.094859 35:-0.074168 36:-0.085887 
1 1:-0.089163 2:-0.244268 3:7.059007 4:-0.638198 5:2.139976 6:-0.15275 7:0.950846 8:0.820312 9:-0.81669 10:0.977053 11:-0.090131 12:-0.186577 13:11.032132 14:-0.658887 15:1.174287 16:-0.15281 17:0.957501 18:0.886073 19:-0.824419 20:0.98688 21:-0.173018 22:-0.090521 23:2.501634 24:-0.260021 25:-0.083579 26:-0.121677 27:-0.100358 28:3.498782 29:-0.221907 30:-0.070419 31:1.796406 32:-0.028156 33:-0.146992 34:2.457839 35:-0.074168 36:-0.083302 
0.5208360936726166 1:-0.088048 2:-0.163087 3:-0.326764 4:-0.638198 5:0.344934 6:-0.148847 7:1.039025 8:1.627753 9:-0.81669 10:-1.328747 11:-0.090484 12:0.759141 13:1.781856 14:-0.658887 15:0.063142 16:-0.149134 17:0.975839 18:1.59805 19:-0.824419 20:-1.208214 21:-0.156798 22:0.765211 23:0.247203 24:-0.260021 25:2.15588 26:-0.103632 27:-0.059667 28:-0.140646 29:-0.221907 30:0.312502 31:1.796406 32:-0.02815 33:-0.145544 34:-0.155493 35:-0.074168 36:-0.060356 
0.7531298199878284 1:-0.088963 2:-0.267093 3:-0.404087 4:-0.638198 5:-0.73209 6:-0.160826 7:1.055919 8:1.648687 9:-0.81669 10:-1.26797 11:-0.090717 12:-0.285575 13:-0.366633 14:-0.658887 15:0.394555 16:-0.161107 17:1.491139 18:1.610522 19:-0.824419 20:-0.980225 21:-0.125949 22:3.519766 23:0.393703 24:-0.260021 25:4.462187 26:-0.121531 27:-0.250319 28:0.17494 29:-0.221907 30:2.333182 31:1.796406 32:-0.028156 33:-0.152398 34:-0.122889 35:-0.074168 36:0.480924 
1 1:-0.089213 2:-0.255838 3:2.849066 4:-0.638198 5:-0.014074 6:-0.161405 7:2.382963 8:1.712691 9:-0.81669 10:0.955528 11:-0.090475 12:-0.23533 13:0.480103 14:-0.658887 15:1.150039 16:-0.161476 17:2.424363 18:1.450027 19:-0.824419 20:0.950969 21:-0.172563 22:-0.015149 23:3.118671 24:-0.260021 25:-0.001761 26:-0.121357 27:-0.052572 28:-0.290004 29:-0.221907 30:0.048044 31:1.796406 32:-0.028156 33:-0.144039 34:-0.162253 35:-0.074168 36:-0.075906 
1 1:-0.089274 2:-0.26211 3:0.995124 4:-0.638198 5:-0.373082 6:-0.160922 7:1.873836 8:-1.110703 9:-0.81669 10:1.020481 11:-0.090608 12:-0.252447 13:0.110657 14:-0.658887 15:0.794157 16:-0.160994 17:1.908643 18:0.805134 19:-0.824419 20:1.022554 21:-0.173181 22:-0.115733 23:7.524848 24:-0.260021 25:-0.15782 26:-0.121768 27:-0.113204 28:6.424969 29:-0.221907 30:-0.083791 31:1.796406 32:-0.028156 33:-0.147501 34:0.529044 35:-0.074168 36:-0.08364 
1 1:-0.089294 2:-0.264158 3:-0.026194 4:-0.638198 5:0.703943 6:-0.160656 7:1.593896 8:-1.1137 9:-0.81669 10:1.02858 11:-0.090588 12:-0.249957 13:-0.24008 14:-0.658887 15:0.672104 16:-0.160722 17:1.616848 18:0.673603 19:-0.824419 20:1.021228 21:-0.173238 22:-0.124983 23:8.202971 24:-0.260021 25:-0.025223 26:-0.121866 27:-0.127626 28:5.624095 29:-0.221907 30:-0.032982 31:1.796406 32:-0.028156 33:-0.148163 34:3.639553 35:-0.074168 36:-0.081377 
0.9311671449895114 1:-0.08931 2:-0.265637 3:-0.046406 4:-0.638198 5:1.062951 6:-0.160366 7:1.28788 8:0.352426 9:-0.815985 10:0.997773 11:-0.090591 12:-0.250262 13:7.696574 14:-0.614885 15:0.965263 16:-0.160433 17:1.307102 18:0.690996 19:-0.823952 20:0.992991 21:-0.173222 22:-0.122373 23:8.113532 24:-0.256689 25:-0.185449 26:-0.121875 27:-0.128919 28:11.770474 29:-0.215966 30:-0.163749 31:1.796406 32:-0.028156 33:-0.148452 34:29.840014 35:-0.074166 36:-0.085711 
1 1:-0.089255 2:-0.260222 3:0.113768 4:-0.638198 5:-0.73209 6:-0.160057 7:0.962312 8:1.713474 9:-0.799148 10:1.00298 11:-0.09059 12:-0.250119 13:0.241028 14:0.048222 15:0.804703 16:-0.160125 17:0.976709 18:0.726045 19:-0.803408 20:1.008741 21:-0.17319 22:-0.117144 23:8.334694 24:-0.141823 25:-0.137507 26:-0.121796 27:-0.117229 28:7.465105 29:-0.138296 30:-0.115324 31:1.796406 32:-0.028156 33:-0.147928 34:7.436232 35:-0.073482 36:-0.084865 
0.1243906901348343 1:-0.08912 2:-0.292341 3:-0.429861 4:-0.638198 5:-0.73209 6:-0.157309 7:1.055919 8:1.648689 9:-0.721037 10:-1.347096 11:-0.090567 12:-0.285575 13:-0.366633 14:0.729482 15:-0.27749 16:-0.157423 17:0.997416 18:1.63349 19:-0.705611 20:-1.30989 21:-0.164487 22:1.427299 23:0.216984 24:0.535742 25:0.736568 26:-0.121402 27:-0.286472 28:-0.355687 29:0.288652 30:-0.078709 31:1.796406 32:-0.028156 33:-0.152574 34:-0.163037 35:-0.048838 36:-0.083769 
1 1:-0.089324 2:-0.267112 3:-0.299371 4:-0.638198 5:-0.014074 6:-0.156748 7:1.330591 8:1.720609 9:-0.808392 10:0.997635 11:-0.090591 12:-0.25031 13:-0.366632 14:-0.141583 15:0.916186 16:-0.156818 17:1.355471 18:1.494878 19:-0.818434 20:0.992404 21:-0.173205 22:-0.1196 23:3.690448 24:-0.231745 25:-0.127822 26:-0.121781 27:-0.115049 28:-0.329935 29:-0.221824 30:-0.015412 31:1.796406 32:-0.028156 33:-0.14771 34:-0.16295 35:-0.074168 36:-0.082156 
1 1:-0.089213 2:-0.256016 3:0.251113 4:0.299349 5:1.062951 6:-0.156034 7:0.577777 8:-0.905612 9:-0.66332 10:0.932528 11:-0.090606 12:-0.252252 13:3.559051 14:1.244923 15:1.474411 16:-0.156106 17:0.592796 18:0.915518 19:-0.67546 20:0.939884 21:-0.17291 22:-0.071533 23:8.064704 24:0.203915 25:-0.003118 26:-0.121614 27:-0.090558 28:14.41738 29:0.126825 30:-0.062392 31:1.796406 32:-0.028156 33:-0.146643 34:28.821142 35:-0.063812 36:-0.082954 
0.8816445754432696 1:-0.089197 2:-0.254425 3:0.308172 4:2.890965 5:3.217 6:-0.155565 7:0.083377 8:1.669093 9:0.953251 10:0.406352 11:-0.090487 12:-0.236838 13:1.789552 14:3.510856 15:3.000842 16:-0.155629 17:0.080883 18:1.637617 19:0.979523 20:0.423699 21:-0.17235 22:0.019569 23:0.457344 24:0.026657 25:0.450037 26:-0.121293 27:-0.043188 28:-0.096779 29:0.015826 30:0.497716 31:1.796406 32:-0.028156 33:-0.142915 34:-0.150493 35:-0.070847 36:-0.04922 
0.7688012079556218 1:-0.088003 2:-0.174214 3:0.007071 4:-0.598295 5:-0.014074 6:-0.152388 7:1.06412 8:1.625668 9:-0.707542 10:-1.244438 11:-0.09003 12:0.832931 13:2.230013 14:0.949395 15:0.733799 16:-0.152789 17:1.301263 18:1.564352 19:-0.690064 20:-1.183611 21:-0.150699 22:3.209166 23:0.47476 24:0.378559 25:1.482638 26:-0.115694 27:0.514103 28:0.185966 29:0.165025 30:0.702503 31:1.796406 32:-0.028155 33:-0.075705 34:-0.113923 35:-0.06089 36:0.003412 
1 1:-0.089244 2:-0.247021 3:6.570724 4:-0.638198 5:0.344934 6:-0.153675 7:1.92071 8:1.303923 9:-0.808429 10:1.006426 11:-0.090616 12:-0.245785 13:8.016726 14:-0.142736 15:0.936792 16:-0.153741 17:1.955248 18:1.006754 19:-0.821168 20:0.997236 21:-0.173235 22:-0.121722 23:3.367582 24:-0.229506 25:-0.17633 26:-0.121849 27:-0.113423 28:0.600388 29:-0.163923 30:-0.03985 31:1.796406 32:-0.028156 33:-0.147851 34:-0.044312 35:-0.074028 36:-0.083237 
1 1:-0.089185 2:-0.242714 3:6.581879 4:-0.638198 5:0.703943 6:-0.153122 7:1.341403 8:1.329712 9:-0.81669 10:1.000325 11:-0.090439 12:-0.231214 13:7.982904 14:-0.658887 15:0.93219 16:-0.153189 17:1.364064 18:1.216805 19:-0.824419 20:1.001358 21:-0.173177 22:-0.114648 23:1.422745 24:-0.260021 25:-0.159831 26:-0.121816 27:-0.119412 28:0.201274 29:-0.221907 30:-0.115224 31:1.796406 32:-0.028156 33:-0.147949 34:-0.109247 35:-0.074168 36:-0.08508 
0.8840887639218958 1:-0.088963 2:-0.267093 3:-0.404087 4:-0.638198 5:-0.73209 6:-0.160857 7:1.055919 8:1.648688 9:-0.81669 10:-1.242331 11:-0.090723 12:-0.285575 13:-0.366633 14:-0.658887 15:0.537632 16:-0.161146 17:1.528122 18:1.611604 19:-0.824419 20:-0.966978 21:-0.124877 22:3.618412 23:0.400304 24:-0.260021 25:4.445347 26:-0.112109 27:0.612702 28:0.415856 29:-0.221907 30:2.699441 31:1.796406 32:-0.028153 33:-0.046998 34:-0.08674 35:-0.074168 36:0.649402 
1 1:-0.089294 2:-0.264158 3:-0.026194 4:-0.638198 5:0.703943 6:-0.160675 7:1.613251 8:-1.114039 9:-0.81669 10:1.01283 11:-0.090598 12:-0.251144 13:-0.292292 14:-0.658887 15:0.821619 16:-0.160741 17:1.637118 18:0.675899 19:-0.824419 20:1.010366 21:-0.173241 22:-0.125519 23:8.212607 24:-0.260021 25:-0.024118 26:-0.121892 27:-0.131454 28:4.344515 29:-0.221907 30:-0.005486 31:1.796406 32:-0.028156 33:-0.148457 34:1.726211 35:-0.074168 36:-0.08109 
0.4729855936623189 1:-0.08912 2:-0.292341 3:-0.429861 4:-0.638198 5:-0.73209 6:-0.157338 7:1.055919 8:1.648686 9:-0.720076 10:-1.347032 11:-0.090555 12:-0.285575 13:-0.366633 14:0.750155 15:-0.271674 16:-0.157464 17:0.969098 18:1.622716 19:-0.699813 20:-1.298967 21:-0.162163 22:1.86841 23:0.381912 24:0.558759 25:0.939061 26:-0.121394 27:-0.286473 28:-0.355686 29:0.289376 30:-0.067236 31:1.796406 32:-0.028156 33:-0.152574 34:-0.163037 35:-0.048941 36:-0.083464 
1 1:-0.089304 2:-0.26515 3:2.550936 4:-0.638198 5:1.062951 6:-0.157326 7:1.939928 8:1.617487 9:-0.81669 10:1.010053 11:-0.090598 12:-0.251196 13:2.998894 14:-0.658887 15:0.912428 16:-0.157393 17:1.972106 18:0.831766 19:-0.824419 20:1.021058 21:-0.173213 22:-0.120953 23:6.748498 24:-0.260021 25:-0.207552 26:-0.121841 27:-0.124021 28:-0.010243 29:-0.221907 30:-0.146789 31:1.796406 32:-0.028156 33:-0.148155 34:-0.14724 35:-0.074168 36:-0.085518 
1 1:-0.089276 2:-0.262308 3:-0.311586 4:-0.598295 5:0.344934 6:-0.15644 7:1.006235 8:1.720608 9:-0.765344 10:1.006148 11:-0.090558 12:-0.246001 13:-0.366632 14:0.604121 15:0.908386 16:-0.156508 17:1.023437 18:1.224577 19:-0.781185 20:1.009208 21:-0.173122 22:-0.105997 23:6.536773 24:-0.185859 25:-0.196939 26:-0.121788 27:-0.116192 28:-0.355679 29:-0.177921 30:-0.135848 31:1.796406 32:-0.028156 33:-0.147833 34:-0.163037 35:-0.074068 36:-0.085143 
1 1:-0.089197 2:-0.254425 3:0.308172 4:2.890965 5:3.217 6:-0.155582 7:0.101722 8:1.69149 9:0.940079 10:0.367935 11:-0.090463 12:-0.233687 13:1.291439 14:3.485696 15:2.992435 16:-0.15565 17:0.103589 18:1.68924 19:0.975238 20:0.42072 21:-0.172346 22:0.020096 23:0.036249 24:0.082848 25:0.475031 26:-0.121197 27:-0.029092 28:-0.192866 29:0.07641 30:1.077611 31:1.796406 32:-0.028156 33:-0.142092 34:-0.157701 35:-0.07173 36:0.056494 
1 1:-0.088003 2:-0.174214 3:0.007071 4:-0.598295 5:-0.014074 6:-0.152415 7:1.072184 8:1.601125 9:-0.699843 10:-1.246371 11:-0.09044 12:1.226647 13:3.307063 14:1.010624 15:0.73079 16:-0.152848 17:1.330662 18:1.550633 19:-0.684784 20:-1.176368 21:-0.149477 22:3.409623 23:0.541831 24:0.393233 25:1.522629 26:-0.110532 27:0.886742 28:0.273645 29:0.196042 30:0.791478 31:1.796406 32:-0.028153 33:0.013461 34:-0.094602 35:-0.058348 36:0.019649 
1 1:-0.089244 2:-0.245264 3:7.776521 4:-0.638198 5:1.421959 6:-0.153912 7:2.170857 8:1.158902 9:-0.79311 10:0.91794 11:-0.090622 12:-0.238473 13:8.573853 14:0.084483 15:1.493153 16:-0.153976 17:2.206575 18:0.674504 19:-0.797942 20:0.934255 21:-0.173198 22:-0.119629 23:4.944139 24:-0.141582 25:-0.042414 26:-0.121778 27:-0.113598 28:5.974314 29:-0.058985 30:-0.116689 31:1.796406 32:-0.028156 33:-0.147565 34:5.893122 35:-0.071808 36:-0.085376 
1 1:-0.089244 2:-0.247021 3:6.570724 4:-0.638198 5:0.344934 6:-0.153694 7:1.944111 8:1.361502 9:-0.81669 10:1.006947 11:-0.09056 12:-0.234046 13:7.450952 14:-0.658887 15:0.933362 16:-0.153761 17:1.97601 18:0.979799 19:-0.821339 20:0.999881 21:-0.173239 22:-0.123588 23:3.586524 24:-0.229826 25:-0.179937 26:-0.121855 27:-0.115791 28:0.928326 29:-0.181324 30:-0.034454 31:1.796406 32:-0.028156 33:-0.147739 34:0.087268 35:-0.074081 36:-0.082865 
1 1:-0.089265 2:-0.251112 3:6.668764 4:-0.638198 5:1.421959 6:-0.153443 7:1.677603 8:1.272667 9:-0.81669 10:1.011526 11:-0.09062 12:-0.264151 13:8.934998 14:-0.658887 15:0.882705 16:-0.153507 17:1.704169 18:1.175526 19:-0.824419 20:0.999222 21:-0.173249 22:-0.125996 23:1.405519 24:-0.260021 25:-0.16505 26:-0.121914 27:-0.124814 28:0.133303 29:-0.221907 30:-0.064934 31:1.796406 32:-0.028156 33:-0.148428 34:-0.110512 35:-0.074168 36:-0.084372 
1 1:-0.089162 2:-0.245057 3:7.059007 4:-0.638198 5:2.139976 6:-0.152777 7:0.975105 8:0.926114 9:-0.81669 10:0.964068 11:-0.090536 12:-0.24434 13:10.71686 14:-0.658887 15:1.269906 16:-0.152851 17:1.000892 18:0.877718 19:-0.824419 20:0.971179 21:-0.173009 22:-0.087551 23:2.232167 24:-0.260021 25:-0.098106 26:-0.121713 27:-0.108948 28:2.99744 29:-0.221907 30:-0.077765 31:1.796406 32:-0.028156 33:-0.147459 34:1.88483 35:-0.074168 36:-0.083384 
0.2711757808020129 1:-0.088041 2:-0.163087 3:-0.326764 4:-0.638198 5:0.344934 6:-0.148909 7:1.040717 8:1.633549 9:-0.81669 10:-1.331516 11:-0.090492 12:0.725397 13:1.486526 14:-0.658887 15:0.027508 16:-0.149246 17:0.951367 18:1.59445 19:-0.824419 20:-1.164112 21:-0.153173 22:1.125214 23:0.25309 24:-0.260021 25:2.863048 26:-0.111906 27:-0.045136 28:-0.111325 29:-0.221907 30:0.447608 31:1.796406 32:-0.028153 33:-0.144602 34:-0.153556 35:-0.074168 36:-0.047746 
1 1:-0.088963 2:-0.26524 3:-0.429861 4:-0.638198 5:-0.73209 6:-0.160886 7:1.055919 8:1.648849 9:-0.81669 10:-1.223874 11:-0.090726 12:-0.285575 13:-0.340833 14:-0.658887 15:0.646344 16:-0.161185 17:1.565429 18:1.612858 19:-0.824419 20:-0.957614 21:-0.12389 22:3.697831 23:0.401699 24:-0.260021 25:4.398079 26:-0.094605 27:2.051185 28:0.67662 29:-0.221907 30:2.996618 31:1.796406 32:-0.028137 33:0.495175 34:-0.028985 35:-0.074168 36:0.819493 
1 1:-0.089279 2:-0.262601 3:-0.194056 4:-0.638198 5:0.703943 6:-0.160686 7:1.625671 8:-1.114193 9:-0.81669 10:0.998438 11:-0.0906 12:-0.251456 13:-0.366633 14:-0.658887 15:0.949416 16:-0.16076 17:1.657208 18:0.677682 19:-0.824419 20:0.998048 21:-0.173249 22:-0.126676 23:8.223516 24:-0.260021 25:-0.044859 26:-0.121916 27:-0.135072 28:3.404817 29:-0.221907 30:0.054421 31:1.796406 32:-0.028156 33:-0.148591 34:0.146262 35:-0.074168 36:-0.076333 
1 1:-0.089321 2:-0.266801 3:-0.046406 4:-0.638198 5:1.062951 6:-0.160405 7:1.328509 8:0.122508 9:-0.815984 10:0.975626 11:-0.090599 12:-0.251357 13:7.443985 14:-0.614872 15:1.14577 16:-0.160471 17:1.347713 18:0.679893 19:-0.821557 20:0.980129 21:-0.173241 22:-0.125465 23:8.101201 24:-0.231795 25:-0.120124 26:-0.121848 27:-0.125056 28:11.87878 29:-0.217451 30:-0.143412 31:1.796406 32:-0.028156 33:-0.14821 34:29.777094 35:-0.074167 36:-0.085318 
1 1:-0.089256 2:-0.260347 3:0.167961 4:-0.638198 5:0.703943 6:-0.160097 7:1.004378 8:1.714615 9:-0.808055 10:0.983513 11:-0.090604 12:-0.251943 13:0.179983 14:-0.175653 15:0.970698 16:-0.160163 17:1.017699 18:0.725172 19:-0.808706 20:0.996459 21:-0.173215 22:-0.121208 23:8.280339 24:-0.177599 25:-0.089014 26:-0.121884 27:-0.130237 28:7.677298 29:-0.215635 30:-0.093738 31:1.796406 32:-0.028156 33:-0.148589 34:7.850403 35:-0.074166 36:-0.084858 
1 1:-0.089297 2:-0.264365 3:0.323004 4:-0.638198 5:-0.014074 6:-0.159758 7:0.646563 8:1.720019 9:-0.758159 10:0.995992 11:-0.090571 12:-0.247749 13:-0.244507 14:0.695881 15:0.984247 16:-0.15983 17:0.659876 18:0.765559 19:-0.76361 20:1.007721 21:-0.173109 22:-0.10392 23:7.713887 24:-0.102244 25:-0.190215 26:-0.12177 27:-0.113489 28:10.793925 29:-0.101332 30:-0.149232 31:1.796406 32:-0.028156 33:-0.147722 34:15.258848 35:-0.072853 36:-0.086082 
0.5907632752596544 1:-0.089122 2:-0.289056 3:-0.429861 4:-0.638198 5:-0.73209 6:-0.157369 7:1.055919 8:1.648685 9:-0.716181 10:-1.347217 11:-0.09051 12:-0.285575 13:-0.366633 14:0.768466 15:-0.272079 16:-0.15751 17:0.932537 18:1.595839 19:-0.693538 20:-1.287134 21:-0.158849 22:2.469024 23:1.079017 24:0.578699 25:1.15371 26:-0.121496 27:-0.286474 28:-0.35569 29:0.320153 30:-0.057092 31:1.796406 32:-0.028156 33:-0.152574 34:-0.163037 35:-0.048096 36:-0.083127 
1 1:-0.089229 2:-0.257478 3:4.059428 4:0.021116 5:1.421959 6:-0.157771 7:2.408941 8:1.437127 9:-0.66822 10:0.844743 11:-0.090556 12:-0.245681 13:6.110498 14:1.119377 15:1.785877 16:-0.157839 17:2.450044 18:1.091926 19:-0.662953 20:0.838305 21:-0.172924 22:-0.073881 23:4.590516 24:0.230321 25:0.164909 26:-0.121619 27:-0.091297 28:1.328081 29:0.160895 30:0.028605 31:1.796406 32:-0.028156 33:-0.146597 34:0.310408 35:-0.062363 36:-0.082591 
1 1:-0.089283 2:-0.2631 3:7.643405 4:-0.638198 5:0.703943 6:-0.157573 7:2.201103 8:1.361031 9:-0.78334 10:0.996433 11:-0.090547 12:-0.244447 13:8.325284 14:0.378168 15:1.019464 16:-0.157644 17:2.240663 18:0.821246 19:-0.789457 20:0.996892 21:-0.173118 22:-0.105439 23:6.372881 24:-0.19612 25:-0.161079 26:-0.121797 27:-0.117581 28:1.011366 29:-0.144447 30:-0.126412 31:1.796406 32:-0.028156 33:-0.14779 34:0.017246 35:-0.073562 36:-0.085149 
1 1:-0.089262 2:-0.260931 3:1.9e-005 4:-0.638198 5:-0.73209 6:-0.15708 7:1.681154 8:1.716642 9:-0.81669 10:1.001846 11:-0.090617 12:-0.25367 13:0.214147 14:-0.658887 15:0.955227 16:-0.157149 17:1.710561 18:1.228843 19:-0.824419 20:1.018504 21:-0.173237 22:-0.124818 23:6.461865 24:-0.260021 25:-0.184439 26:-0.121859 27:-0.126614 28:-0.296483 29:-0.221907 30:-0.025854 31:1.796406 32:-0.028156 33:-0.148151 34:-0.162394 35:-0.074168 36:-0.082839 
1 1:-0.089275 2:-0.262197 3:-0.311586 4:-0.598295 5:0.344934 6:-0.156463 7:1.030624 8:1.720609 9:-0.765257 10:1.005844 11:-0.090564 12:-0.246815 13:-0.366632 14:0.605024 15:0.908812 16:-0.156527 17:1.044088 18:1.220525 19:-0.779143 20:1.006648 21:-0.173125 22:-0.106637 23:6.5451 24:-0.198901 25:-0.184424 26:-0.121806 27:-0.118767 28:-0.35563 29:-0.170491 30:-0.126367 31:1.796406 32:-0.028156 33:-0.147981 34:-0.163037 35:-0.07407 36:-0.084746 
1 1:-0.089201 2:-0.254813 3:-0.429861 4:2.890965 5:3.217 6:-0.155605 7:0.126161 8:1.708889 9:0.991705 10:0.493392 11:-0.090454 12:-0.232569 13:0.76216 14:3.505374 15:2.634625 16:-0.155671 17:0.125941 18:1.715478 19:0.975209 20:0.418039 21:-0.172357 22:0.018378 23:-0.20715 24:0.207316 25:0.475563 26:-0.121194 27:-0.028639 28:-0.236423 29:0.152218 30:1.044846 31:1.796406 32:-0.028156 33:-0.14178 34:-0.160272 35:-0.07334 36:-0.008049 
1 1:-0.087365 2:-0.106681 3:1.7758 4:-0.598295 5:0.344934 6:-0.15244 7:1.080777 8:1.600725 9:-0.692977 10:-1.235767 11:-0.089698 12:1.543468 13:3.319438 14:1.074541 15:0.813596 16:-0.152897 17:1.357554 18:1.536124 19:-0.678627 20:-1.169176 21:-0.149724 22:3.538151 23:0.620812 24:0.41207 25:1.548412 26:-0.110375 27:1.279278 28:0.409009 29:0.233002 30:0.816325 31:1.796406 32:-0.028152 33:0.143296 34:-0.056266 35:-0.056725 36:0.025564 
1 1:-0.089068 2:-0.220292 3:8.055738 4:2.992281 5:2.498984 6:-0.154275 7:2.556583 8:1.176569 9:1.193163 10:0.072834 11:-0.090346 12:-0.195189 13:10.264392 14:4.00385 15:2.912228 16:-0.15434 17:2.598207 18:1.143758 19:1.198005 20:-0.031634 21:-0.172524 22:-0.007845 23:0.543559 24:0.613857 25:0.305861 26:-0.121361 27:-0.04583 28:0.353621 29:0.270969 30:0.3386 31:1.796406 32:-0.028156 33:-0.14243 34:-0.071751 35:-0.073914 36:-0.07968 
1 1:-0.089267 2:-0.24635 3:7.776521 4:-0.638198 5:0.344934 6:-0.153931 7:2.190832 8:1.174996 9:-0.785796 10:0.928174 11:-0.090608 12:-0.249434 13:8.500112 14:0.207683 15:1.448685 16:-0.153995 17:2.227387 18:0.656898 19:-0.799338 20:0.926077 21:-0.173189 22:-0.118761 23:4.774903 24:-0.153402 25:-0.078412 26:-0.121852 27:-0.120908 28:6.19242 29:-0.068521 30:-0.080089 31:1.796406 32:-0.028156 33:-0.148112 34:7.09427 35:-0.072196 36:-0.08409 
1 1:-0.088968 2:-0.227884 3:6.453312 4:-0.638198 5:2.139976 6:-0.152338 7:0.511053 8:1.248359 9:-0.81669 10:0.950048 11:-0.090597 12:-0.24895 13:8.953449 14:-0.658887 15:1.286184 16:-0.152407 17:0.524447 18:1.111454 19:-0.824419 20:0.940243 21:-0.172525 22:-0.009372 23:1.832247 24:-0.260021 25:0.066053 26:-0.121364 27:-0.048137 28:0.550613 29:-0.221907 30:0.059068 31:1.796406 32:-0.028156 33:-0.143818 34:-0.000588 35:-0.074168 36:-0.077381 
0.6637455405845519 1:-0.08824 2:-0.181372 3:-0.326764 4:-0.638198 5:-0.014074 6:-0.148938 7:1.040551 8:1.623843 9:-0.81669 10:-1.334443 11:-0.090436 12:0.724912 13:1.944398 14:-0.658887 15:-0.01963 16:-0.149326 17:0.936249 18:1.593119 19:-0.824419 20:-1.13531 21:-0.150378 22:1.323229 23:0.26828 24:-0.260021 25:3.319633 26:-0.121492 27:-0.053341 28:-0.129434 29:-0.221907 30:0.505292 31:1.796406 32:-0.028156 33:-0.145263 34:-0.154984 35:-0.074168 36:-0.041362 
1 1:-0.088963 2:-0.26524 3:-0.429861 4:-0.638198 5:-0.73209 6:-0.160899 7:1.055927 8:1.649341 9:-0.81669 10:-1.19551 11:-0.090721 12:-0.276256 13:-0.320744 14:-0.658887 15:0.783985 16:-0.161216 17:1.588852 18:1.614162 19:-0.824419 20:-0.950408 21:-0.124044 22:3.675628 23:0.403239 24:-0.260021 25:4.344262 26:-0.082528 27:3.089108 28:0.88105 29:-0.221907 30:3.173865 31:1.796406 32:-0.028118 33:1.157744 34:0.029619 35:-0.074168 36:0.925257 
1 1:-0.08922 2:-0.256708 3:2.344919 4:-0.638198 5:-0.014074 6:-0.161464 7:2.445648 8:0.004143 9:-0.81669 10:0.93646 11:-0.090446 12:-0.231405 13:9.978413 14:-0.658887 15:1.302109 16:-0.161534 17:2.486799 18:1.379056 19:-0.824419 20:0.92208 21:-0.172589 22:-0.019283 23:3.850872 24:-0.260021 25:0.139325 26:-0.121393 27:-0.057881 28:6.992541 29:-0.221907 30:-0.062849 31:1.796406 32:-0.028156 33:-0.144173 34:1.490004 35:-0.074168 36:-0.083349 
0.389161175979298 1:-0.089256 2:-0.260347 3:0.167961 4:-0.638198 5:0.703943 6:-0.160109 7:1.017096 8:1.714725 9:-0.808082 10:0.972703 11:-0.09057 12:-0.247519 13:0.170758 14:-0.176405 15:1.057706 16:-0.160182 17:1.037785 18:0.733601 19:-0.810789 20:0.990208 21:-0.173222 22:-0.122292 23:8.17641 24:-0.194804 25:-0.084574 26:-0.12191 27:-0.134175 28:7.953504 29:-0.1693 30:0.016012 31:1.796406 32:-0.028156 33:-0.148722 34:8.406704 35:-0.074007 36:-0.081006 
1 1:-0.089297 2:-0.264365 3:0.323004 4:-0.638198 5:-0.014074 6:-0.159777 7:0.666696 8:1.702451 9:-0.748655 10:0.992814 11:-0.090578 12:-0.248585 13:0.281338 14:0.798042 15:0.985707 16:-0.159849 17:0.680462 18:0.766675 19:-0.760417 20:1.003146 21:-0.173102 22:-0.102887 23:7.708111 24:-0.099449 25:-0.176362 26:-0.121804 27:-0.118511 28:10.972728 29:-0.125292 30:-0.156348 31:1.796406 32:-0.028156 33:-0.148021 34:15.868064 35:-0.073267 36:-0.086055 
1 1:-0.089082 2:-0.242971 3:-0.058501 4:2.950122 5:2.498984 6:-0.158977 7:-0.176852 8:1.72061 9:1.166537 10:0.3733 11:-0.090484 12:-0.236463 13:-0.366632 14:3.829543 15:3.238774 16:-0.159052 17:-0.174169 18:1.093806 19:1.14991 20:0.360897 21:-0.172517 22:-0.007583 23:7.330162 24:0.140105 25:0.05968 26:-0.121339 27:-0.049985 28:-0.253902 29:0.062315 30:0.002637 31:1.796406 32:-0.028156 33:-0.14332 34:-0.161362 35:-0.071093 36:-0.08477 
1 1:-0.089122 2:-0.289056 3:-0.429861 4:-0.638198 5:-0.73209 6:-0.157395 7:1.055919 8:1.648688 9:-0.698677 10:-1.346352 11:-0.090512 12:-0.285575 13:-0.366633 14:0.871647 15:-0.258245 16:-0.157556 17:0.896094 18:1.556574 19:-0.690854 20:-1.273574 21:-0.156248 22:2.954209 23:1.951601 24:0.57639 25:1.409013 26:-0.1215 27:-0.286474 28:-0.355693 29:0.307971 30:-0.039799 31:1.796406 32:-0.028156 33:-0.152574 34:-0.163037 35:-0.048312 36:-0.082477 
1 1:-0.089262 2:-0.260931 3:1.9e-005 4:-0.638198 5:-0.73209 6:-0.157104 7:1.706601 8:1.709445 9:-0.81669 10:1.021533 11:-0.090604 12:-0.251998 13:0.579676 14:-0.658887 15:0.795078 16:-0.157168 17:1.731016 18:1.180887 19:-0.824419 20:1.019296 21:-0.173237 22:-0.124778 23:6.483804 24:-0.260021 25:-0.183709 26:-0.121874 27:-0.128876 28:-0.24629 29:-0.221907 30:-0.071665 31:1.796406 32:-0.028156 33:-0.148288 34:-0.160772 35:-0.074168 36:-0.084087 
1 1:-0.089299 2:-0.26461 3:-0.299371 4:-0.638198 5:-0.014074 6:-0.156811 7:1.397519 8:1.720609 9:-0.808376 10:1.00799 11:-0.090599 12:-0.25128 13:-0.366632 14:-0.141101 15:0.780603 16:-0.156875 17:1.416949 18:1.443615 19:-0.816028 20:0.993683 21:-0.173224 22:-0.122711 23:4.467676 24:-0.259635 25:-0.105327 26:-0.121903 27:-0.133135 28:-0.336612 29:-0.22092 30:-0.039325 31:1.796406 32:-0.028156 33:-0.148657 34:-0.162984 35:-0.074168 36:-0.082623 
1 1:-0.089275 2:-0.262197 3:-0.311586 4:-0.598295 5:0.344934 6:-0.156477 7:1.045675 8:1.72061 9:-0.773618 10:1.002017 11:-0.090585 12:-0.249459 13:-0.366632 14:0.493274 15:0.972588 16:-0.156547 17:1.064857 18:1.212377 19:-0.777726 20:1.003846 21:-0.173143 22:-0.109425 23:6.565441 24:-0.199465 25:-0.18823 26:-0.12178 27:-0.115024 28:-0.355561 29:-0.168535 30:-0.086611 31:1.796406 32:-0.028156 33:-0.147929 34:-0.163037 35:-0.074143 36:-0.084074 
1 1:-0.089201 2:-0.254813 3:-0.429861 4:2.890965 5:3.217 6:-0.15562 7:0.141455 8:1.720413 9:0.919041 10:0.388237 11:-0.090431 12:-0.229535 13:-0.209408 14:3.465679 15:2.879906 16:-0.155692 17:0.148268 18:1.727911 19:0.979124 20:0.420888 21:-0.172367 22:0.016804 23:-0.302578 24:0.227068 25:0.505389 26:-0.121205 27:-0.030276 28:-0.293961 29:0.433679 30:0.830264 31:1.796406 32:-0.028156 33:-0.142256 34:-0.162526 35:-0.06775 36:-0.030976 
1 1:-0.087365 2:-0.106681 3:1.7758 4:-0.598295 5:0.344934 6:-0.15247 7:1.091017 8:1.568684 9:-0.695358 10:-1.230405 11:-0.089493 12:1.804945 13:4.215521 14:1.06222 15:0.826462 16:-0.152961 17:1.384076 18:1.521322 19:-0.672298 20:-1.162181 21:-0.148293 22:3.663967 23:0.69983 24:0.430176 25:1.564802 26:-0.106642 27:1.773775 28:0.560551 29:0.245418 30:0.859064 31:1.796406 32:-0.028148 33:0.354039 34:-0.003826 35:-0.055613 36:0.033449 
1 1:-0.089246 2:-0.250302 3:7.618389 4:3.31288 5:3.217 6:-0.154248 7:2.530265 8:1.107146 9:0.371221 10:0.398738 11:-0.090512 12:-0.204458 13:8.692859 14:3.435732 15:2.752385 16:-0.154318 17:2.573353 18:0.938791 19:0.321417 20:0.406547 21:-0.17293 22:-0.075325 23:2.612865 24:2.54744 25:1.310991 26:-0.121696 27:-0.099717 28:3.057172 29:1.75147 30:1.089573 31:1.796406 32:-0.028156 33:-0.147183 34:1.875504 35:0.228175 36:0.088786 
1 1:-0.089267 2:-0.24635 3:7.776521 4:-0.638198 5:0.344934 6:-0.153946 7:2.208352 8:0.86698 9:-0.784417 10:0.922646 11:-0.090585 12:-0.237956 13:9.901279 14:0.209575 15:1.489616 16:-0.154015 17:2.248449 18:0.61755 19:-0.798832 20:0.92064 21:-0.173193 22:-0.119439 23:4.675016 24:-0.168118 25:-0.13652 26:-0.121917 27:-0.121263 28:6.538333 29:-0.086474 30:-0.054828 31:1.796406 32:-0.028156 33:-0.148249 34:7.941389 35:-0.072853 36:-0.08363 
1 1:-0.088968 2:-0.227884 3:6.453312 4:-0.638198 5:2.139976 6:-0.152368 7:0.545773 8:1.243158 9:-0.81669 10:0.930034 11:-0.090312 12:-0.205238 13:9.028687 14:-0.658887 15:1.405709 16:-0.152427 17:0.546582 18:1.095415 19:-0.824419 20:0.932107 21:-0.172543 22:-0.012251 23:1.733126 24:-0.260021 25:0.098372 26:-0.12142 27:-0.061725 28:0.484494 29:-0.221907 30:0.084813 31:1.796406 32:-0.028156 33:-0.144955 34:-0.040152 35:-0.074168 36:-0.076513 
0.217323411188939 1:-0.08824 2:-0.181372 3:-0.326764 4:-0.638198 5:-0.014074 6:-0.14897 7:1.043077 8:1.633055 9:-0.81669 10:-1.332631 11:-0.090446 12:0.653118 13:1.485848 14:-0.658887 15:0.002729 16:-0.149382 17:0.923252 18:1.588968 19:-0.824419 20:-1.106632 21:-0.148477 22:1.489475 23:0.313186 24:-0.260021 25:3.751687 26:-0.121546 27:-0.024266 28:-0.122924 29:-0.221907 30:0.66442 31:1.796406 32:-0.028156 33:-0.143595 34:-0.154106 35:-0.074168 36:-0.019923 
0.7684289177017561 1:-0.088853 2:-0.253964 3:-0.429861 4:-0.638198 5:-0.373082 6:-0.160927 7:1.055957 8:1.648265 9:-0.81669 10:-1.193236 11:-0.090641 12:-0.267059 13:0.075099 14:-0.658887 15:0.805796 16:-0.161247 17:1.612717 18:1.6131 19:-0.824419 20:-0.9442 21:-0.124264 22:3.657692 23:0.466292 24:-0.260021 25:4.316017 26:-0.07438 27:3.747171 28:1.139311 29:-0.221907 30:3.209887 31:1.796406 32:-0.028104 33:1.650307 34:0.119893 35:-0.074168 36:0.961735 
1 1:-0.089241 2:-0.258706 3:8.095616 4:-0.638198 5:-0.014074 6:-0.161253 7:2.222443 8:-0.590087 9:-0.81669 10:0.991749 11:-0.090526 12:-0.241663 13:8.46213 14:-0.658887 15:1.024446 16:-0.161324 17:2.261792 18:0.607287 19:-0.824419 20:0.989708 21:-0.173047 22:-0.093867 23:7.076635 24:-0.260021 25:-0.166244 26:-0.121769 27:-0.113538 28:11.210534 29:-0.221907 30:-0.148862 31:1.796406 32:-0.028156 33:-0.147658 34:20.388504 35:-0.074168 36:-0.085449 
1 1:-0.089287 2:-0.26336 3:-0.188305 4:-0.638198 5:1.780967 6:-0.16044 7:1.36565 8:-0.227589 9:-0.807677 10:0.955847 11:-0.090578 12:-0.248544 13:6.716292 14:-0.139474 15:1.294467 16:-0.160509 17:1.387969 18:0.673678 19:-0.819215 20:0.968544 21:-0.173242 22:-0.125679 23:8.070425 24:-0.228871 25:-0.108534 26:-0.121883 27:-0.13017 28:12.585438 29:-0.169482 30:-0.065377 31:1.796406 32:-0.028156 33:-0.148511 34:29.159172 35:-0.074008 36:-0.083189 
1 1:-0.089264 2:-0.261053 3:0.643756 4:-0.638198 5:0.703943 6:-0.160132 7:1.041022 8:1.715258 9:-0.79974 10:0.951684 11:-0.090576 12:-0.248306 13:0.136567 14:0.049549 15:1.212472 16:-0.160201 17:1.057626 18:0.744258 19:-0.812135 20:0.982998 21:-0.173205 22:-0.119544 23:8.058033 24:-0.205987 25:-0.091407 26:-0.121885 27:-0.130471 28:8.153462 29:-0.171575 30:-0.049685 31:1.796406 32:-0.028156 33:-0.148534 34:8.82066 35:-0.074033 36:-0.0836 
1 1:-0.089212 2:-0.255952 3:-0.42986 4:3.659131 5:2.498984 6:-0.159431 7:0.301517 8:-1.086842 9:0.549191 10:0.618167 11:-0.09057 12:-0.247597 13:0.693066 14:3.680304 15:2.543272 16:-0.159501 17:0.307276 18:0.90609 19:0.516599 20:0.609041 21:-0.17293 22:-0.074902 23:8.277603 24:2.340237 25:0.616182 26:-0.121699 27:-0.102994 28:13.617021 29:1.593756 30:0.52677 31:1.796406 32:-0.028156 33:-0.147128 34:23.287876 35:0.218822 36:-0.030004 
1 1:-0.089087 2:-0.243513 3:-0.058501 4:3.170612 5:2.139976 6:-0.159005 7:-0.147149 8:1.720609 9:1.167234 10:0.366423 11:-0.090492 12:-0.237488 13:-0.366632 14:3.81131 15:3.231953 16:-0.159072 17:-0.152373 18:1.488292 19:1.156228 20:0.368112 21:-0.172514 22:-0.007118 23:4.43998 24:0.164172 25:0.069153 26:-0.121365 27:-0.053733 28:-0.355701 29:0.081672 30:0.05729 31:1.796406 32:-0.028156 33:-0.143211 34:-0.163037 35:-0.070018 36:-0.08031 
1 1:-0.089129 2:-0.288677 3:0.00467 4:-0.638198 5:-0.73209 6:-0.157426 7:1.055919 8:1.648689 9:-0.692622 10:-1.345145 11:-0.090546 12:-0.285575 13:-0.366633 14:0.929927 15:-0.246424 16:-0.157592 17:0.877618 18:1.50519 19:-0.689247 20:-1.255686 21:-0.15432 22:3.28626 23:2.973179 24:0.570652 25:1.786358 26:-0.121501 27:-0.286473 28:-0.352857 29:0.265689 30:-0.007337 31:1.796406 32:-0.028156 33:-0.152574 34:-0.163036 35:-0.051322 36:-0.08123 
1 1:-0.089227 2:-0.257482 3:0.882103 4:3.522191 5:2.139976 6:-0.157945 7:2.59282 8:1.696767 9:1.042379 10:0.11994 11:-0.090452 12:-0.232324 13:1.117605 14:3.354713 15:3.12902 16:-0.158011 17:2.634425 18:1.246937 19:1.059348 20:0.084652 21:-0.172348 22:0.019884 23:5.966177 24:0.502639 25:0.182886 26:-0.121236 27:-0.03478 28:-0.237844 29:0.388156 30:0.567749 31:1.796406 32:-0.028156 33:-0.142606 34:-0.160097 35:-0.048153 36:-0.081325 
1 1:-0.089285 2:-0.263035 3:7.748719 4:-0.638198 5:0.703943 6:-0.157613 7:2.242659 8:1.460506 9:-0.783308 10:1.015798 11:-0.090567 12:-0.247343 13:5.698451 14:0.378662 15:0.831207 16:-0.157682 17:2.28153 18:0.636266 19:-0.790152 20:0.994742 21:-0.173119 22:-0.105678 23:6.768845 24:-0.187751 25:-0.120523 26:-0.121826 27:-0.121827 28:6.217658 29:-0.169453 30:-0.083457 31:1.796406 32:-0.028156 33:-0.148035 34:6.307664 35:-0.074009 36:-0.084901 
1 1:-0.087414 2:-0.107297 3:2.911599 4:-0.598295 5:0.703943 6:-0.1525 7:1.103917 8:1.557829 9:-0.677874 10:-1.233938 11:-0.089284 12:2.109488 13:4.355906 14:1.153491 15:0.850301 16:-0.152998 17:1.407252 18:1.506868 19:-0.661051 20:-1.159095 21:-0.148302 22:3.725625 23:0.773401 24:0.474152 25:1.544108 26:-0.100929 27:2.297471 28:0.756454 29:0.267251 30:0.861583 31:1.796406 32:-0.028142 33:0.644152 34:0.071972 35:-0.05343 36:0.035442 
0.9243002389763637 1:-0.089268 2:-0.252209 3:7.620555 4:-0.638198 5:0.344934 6:-0.153495 7:1.736129 8:1.148359 9:-0.81669 10:1.000087 11:-0.090486 12:-0.230962 13:9.913534 14:-0.658887 15:0.953003 16:-0.153564 17:1.765694 18:1.086773 19:-0.824419 20:1.00412 21:-0.173249 22:-0.125064 23:1.578706 24:-0.260021 25:-0.184402 26:-0.12184 27:-0.1281 28:0.304809 29:-0.221907 30:-0.177503 31:1.796406 32:-0.028156 33:-0.148107 34:-0.076742 35:-0.074168 36:-0.086079 
1 1:-0.089221 2:-0.252937 3:6.068634 4:-0.638198 5:1.780967 6:-0.1532 7:1.423852 8:1.271863 9:-0.81669 10:1.006406 11:-0.090468 12:-0.236864 13:8.825944 14:-0.658887 15:0.910445 16:-0.153266 17:1.447148 18:1.170643 19:-0.824419 20:1.002097 21:-0.173182 22:-0.114961 23:1.124531 24:-0.260021 25:-0.1622 26:-0.12182 27:-0.11542 28:0.054746 29:-0.221907 30:-0.170909 31:1.796406 32:-0.028156 33:-0.147417 34:-0.138618 35:-0.074168 36:-0.085949 
0.9310195246050428 1:-0.081379 2:0.122558 3:0.586028 4:-0.638198 5:-0.373082 6:-0.148994 7:1.046035 8:1.628144 9:-0.81669 10:-1.326275 11:-0.09046 12:0.506266 13:1.745946 14:-0.658887 15:0.07149 16:-0.149421 17:0.911119 18:1.582067 19:-0.824419 20:-1.077987 21:-0.146196 22:1.645793 23:0.389644 24:-0.260021 25:4.135316 26:-0.121556 27:0.008308 28:-0.130006 29:-0.221907 30:0.808195 31:1.796406 32:-0.028156 33:-0.141661 34:-0.154502 35:-0.074168 36:0.000192 
0.7463325682290301 1:-0.088853 2:-0.253964 3:-0.429861 4:-0.638198 5:-0.373082 6:-0.160956 7:1.056101 8:1.639791 9:-0.81669 10:-1.185554 11:-0.0906 12:-0.242615 13:0.790761 14:-0.658887 15:0.882309 16:-0.161285 17:1.650631 18:1.613884 19:-0.824419 20:-0.940888 21:-0.12357 22:3.717155 23:0.492234 24:-0.260021 25:4.303473 26:-0.074309 27:3.76982 28:1.378201 29:-0.221907 30:3.19367 31:1.796406 32:-0.028104 33:1.67466 34:0.228942 35:-0.074168 36:0.967221 
1 1:-0.089205 2:-0.255176 3:3.986668 4:-0.638198 5:1.780967 6:-0.1615 7:2.483343 8:1.697779 9:-0.81669 10:0.911851 11:-0.090491 12:-0.237275 13:1.330801 14:-0.658887 15:1.418113 16:-0.161572 17:2.528101 18:1.344908 19:-0.824419 20:0.888957 21:-0.172588 22:-0.019101 23:4.091767 24:-0.260021 25:0.30236 26:-0.12139 27:-0.057529 28:3.839975 29:-0.221907 30:0.270331 31:1.796406 32:-0.028156 33:-0.143986 34:2.320448 35:-0.074168 36:-0.05828 
1 1:-0.089284 2:-0.263062 3:-0.02145 4:-0.638198 5:0.703943 6:-0.160746 7:1.688435 8:-1.110741 9:-0.81669 10:0.967843 11:-0.090592 12:-0.25043 13:-0.03161 14:-0.658887 15:1.166515 16:-0.160816 17:1.717248 18:0.671835 19:-0.824419 20:0.970178 21:-0.173263 22:-0.129024 23:8.099876 24:-0.260021 25:-0.103533 26:-0.121932 27:-0.137302 28:6.261674 29:-0.221907 30:-0.021572 31:1.796406 32:-0.028156 33:-0.148564 34:4.809965 35:-0.074168 36:-0.081204 
0.7270708055804325 1:-0.089129 2:-0.288677 3:0.00467 4:-0.638198 5:-0.73209 6:-0.157445 7:1.055919 8:1.648277 9:-0.687432 10:-1.344701 11:-0.090515 12:-0.285575 13:-0.182103 14:0.98104 15:-0.228472 16:-0.157633 17:0.85477 18:1.450817 19:-0.688407 20:-1.227151 21:-0.152631 22:3.582271 23:3.724066 24:0.564303 25:2.406209 26:-0.121503 27:-0.286474 28:-0.35215 29:0.246963 30:0.046835 31:1.796406 32:-0.028156 33:-0.152574 34:-0.163035 35:-0.053948 36:-0.078833 
1 1:-0.089214 2:-0.256177 3:3.455827 4:-0.438684 5:1.062951 6:-0.157826 7:2.467889 8:1.09725 9:-0.671125 10:0.830078 11:-0.090485 12:-0.236648 13:8.4205 14:1.079103 15:1.831354 16:-0.157897 17:2.512311 18:1.19853 19:-0.640545 20:0.837509 21:-0.172922 22:-0.073524 23:3.289732 24:0.377246 25:0.216338 26:-0.121646 27:-0.09516 28:2.469769 29:0.12686 30:0.025717 31:1.796406 32:-0.028156 33:-0.146791 34:1.028929 35:-0.062088 36:-0.078734 
1 1:-0.089265 2:-0.261245 3:0.918362 4:-0.638198 5:-0.73209 6:-0.157136 7:1.740348 8:1.661909 9:-0.81669 10:0.996833 11:-0.090608 12:-0.252454 13:1.805386 14:-0.658887 15:1.011916 16:-0.157206 17:1.771628 18:0.939429 19:-0.824419 20:1.019571 21:-0.173261 22:-0.128614 23:6.553969 24:-0.260021 25:-0.172751 26:-0.12186 27:-0.12667 28:0.559361 29:-0.221907 30:-0.009195 31:1.796406 32:-0.028156 33:-0.14809 34:-0.020866 35:-0.074168 36:-0.082721 
0.2122455754791782 1:-0.087414 2:-0.107297 3:2.911599 4:-0.598295 5:0.703943 6:-0.152532 7:1.114633 8:1.532602 9:-0.667798 10:-1.219809 11:-0.088904 12:2.291047 13:4.897779 14:1.193191 15:0.914828 16:-0.153036 17:1.428155 18:1.497738 19:-0.649698 20:-1.154691 21:-0.148595 22:3.768415 23:0.801855 24:0.522982 25:1.527218 26:-0.095181 27:2.764797 28:0.888864 29:0.283883 30:0.861292 31:1.796406 32:-0.028134 33:0.936751 34:0.130181 35:-0.052823 36:0.036891 
1 1:-0.089244 2:-0.247959 3:6.592359 4:4.158759 5:2.857992 6:-0.154295 7:2.57646 8:0.99377 9:0.408624 10:0.400744 11:-0.090585 12:-0.230569 13:9.571163 14:3.426041 15:2.790418 16:-0.154357 17:2.616061 18:0.942549 19:0.349515 20:0.372561 21:-0.172934 22:-0.077506 23:2.635049 24:2.261965 25:1.295994 26:-0.1216 27:-0.091347 28:2.668625 29:1.31473 30:0.945084 31:1.796406 32:-0.028156 33:-0.146629 34:1.648308 35:0.133912 36:0.044971 
1 1:-0.089268 2:-0.252209 3:7.620555 4:-0.638198 5:0.344934 6:-0.153517 7:1.760039 8:1.14772 9:-0.81669 10:1.000957 11:-0.090561 12:-0.218948 13:9.930385 14:-0.658887 15:0.943084 16:-0.153583 17:1.785954 18:1.064202 19:-0.824419 20:1.003118 21:-0.173247 22:-0.123769 23:1.768367 24:-0.260021 25:-0.188924 26:-0.121869 27:-0.125002 28:0.277083 29:-0.221907 30:-0.188514 31:1.796406 32:-0.028156 33:-0.147995 34:-0.078028 35:-0.074168 36:-0.086069 
0.01394620883273575 1:-0.081379 2:0.122558 3:0.586028 4:-0.638198 5:-0.373082 6:-0.149023 7:1.047028 8:1.624252 9:-0.81669 10:-1.332616 11:-0.090459 12:0.555346 13:1.921653 14:-0.658887 15:0.039616 16:-0.149456 17:0.901499 18:1.572298 19:-0.824419 20:-1.052423 21:-0.145792 22:1.747974 23:0.475933 24:-0.260021 25:4.386137 26:-0.121483 27:0.052207 28:-0.100772 29:-0.221907 30:0.90002 31:1.796406 32:-0.028156 33:-0.138238 34:-0.15124 35:-0.074168 36:0.014017 
1 1:-0.08885 2:-0.253396 3:-0.429861 4:-0.638198 5:0.344934 6:-0.160983 7:1.056642 8:1.625092 9:-0.81669 10:-1.169766 11:-0.090647 12:-0.199713 13:1.463064 14:-0.658887 15:0.951946 16:-0.161312 17:1.66884 18:1.611542 19:-0.824419 20:-0.940004 21:-0.123556 22:3.721957 23:0.558889 24:-0.260021 25:4.284061 26:-0.074141 27:3.813538 28:1.786254 29:-0.221907 30:3.109869 31:1.796406 32:-0.028103 33:1.721458 34:0.462316 35:-0.074168 36:0.948679 
1 1:-0.089209 2:-0.255536 3:3.986668 4:-0.638198 5:2.139976 6:-0.161518 7:2.50246 8:1.712327 9:-0.81669 10:0.890276 11:-0.0905 12:-0.238546 13:0.536809 14:-0.658887 15:1.529346 16:-0.161591 17:2.548265 18:1.343599 19:-0.824419 20:0.86995 21:-0.172599 22:-0.020918 23:4.183507 24:-0.260021 25:0.39774 26:-0.121336 27:-0.049597 28:-0.281166 29:-0.221907 30:0.281775 31:1.796406 32:-0.028156 33:-0.143645 34:-0.162338 35:-0.074168 36:-0.056978 
1 1:-0.089174 2:-0.252126 3:2.269324 4:5.405893 5:2.139976 6:-0.157982 7:2.631856 8:1.641394 9:0.930642 10:0.077859 11:-0.090458 12:-0.233104 13:2.351244 14:3.222095 15:3.158285 16:-0.158051 17:2.677609 18:1.115423 19:0.981361 20:0.065774 21:-0.172356 22:0.018577 23:6.039161 24:0.429523 25:0.175988 26:-0.121271 27:-0.04002 28:0.253083 29:0.537624 30:0.302401 31:1.796406 32:-0.028156 33:-0.143266 34:-0.092039 35:-0.033645 36:-0.072449 
1 1:-0.089266 2:-0.261296 3:0.837503 4:-0.638198 5:-0.014074 6:-0.156861 7:1.450169 8:1.697006 9:-0.80838 10:0.986743 11:-0.090571 12:-0.247681 13:1.145016 14:-0.141203 15:0.966374 16:-0.156931 17:1.477098 18:1.281129 19:-0.81603 20:0.987255 21:-0.173223 22:-0.122517 23:5.399876 24:-0.259629 25:-0.120764 26:-0.12186 27:-0.126703 28:-0.13317 29:-0.221858 30:-0.057708 31:1.796406 32:-0.028156 33:-0.14815 34:-0.154056 35:-0.074168 36:-0.083045 
1 1:-0.089272 2:-0.261901 3:-0.42986 4:-0.638198 5:1.421959 6:-0.156539 7:1.110284 8:1.720609 9:-0.765311 10:0.999351 11:-0.090573 12:-0.247948 13:-0.366632 14:0.604148 15:0.988548 16:-0.156604 17:1.12566 18:1.163821 19:-0.775357 20:0.988842 21:-0.173144 22:-0.109669 23:6.715611 24:-0.198832 25:-0.132904 26:-0.121859 27:-0.126609 28:-0.318015 29:-0.162427 30:-0.131506 31:1.796406 32:-0.028156 33:-0.148219 34:-0.16278 35:-0.073978 36:-0.085836 
1 1:-0.089238 2:-0.258581 3:-0.348417 4:0.808025 5:1.780967 6:-0.156158 7:0.709414 8:-0.905667 9:-0.713781 10:0.96939 11:-0.090599 12:-0.251333 13:3.375967 14:0.841555 15:1.160942 16:-0.156224 17:0.718534 18:0.918266 19:-0.69527 20:0.953092 21:-0.172915 22:-0.072392 23:8.037543 24:0.126271 25:0.100995 26:-0.121594 27:-0.087591 28:13.790722 29:0.042899 30:0.064544 31:1.796406 32:-0.028156 33:-0.146349 34:25.74235 35:-0.06801 36:-0.077956 
0.7654424887009272 1:-0.087955 2:-0.158347 3:2.911599 4:-0.598295 5:0.703943 6:-0.152561 7:1.120295 8:1.519861 9:-0.670139 10:-1.206817 11:-0.088709 12:2.338788 13:5.184062 14:1.211722 15:0.992161 16:-0.153086 17:1.449443 18:1.488797 19:-0.638204 20:-1.151104 21:-0.147627 22:3.82822 23:0.833126 24:0.577885 25:1.502849 26:-0.089821 27:3.106921 28:1.026947 29:0.363395 30:0.840074 31:1.796406 32:-0.028126 33:1.196243 34:0.194221 35:-0.044516 36:0.033954 
1 1:-0.089214 2:-0.245723 3:5.049139 4:4.158759 5:2.139976 6:-0.154314 7:2.597385 8:1.06977 9:0.482279 10:0.343625 11:-0.090473 12:-0.194743 13:9.060014 14:3.483639 15:2.888453 16:-0.154377 17:2.63708 18:0.936969 19:0.345229 20:0.366063 21:-0.172941 22:-0.078125 23:2.681257 24:2.130737 25:1.210329 26:-0.121695 27:-0.109033 28:2.746476 29:1.441083 30:0.990461 31:1.796406 32:-0.028156 33:-0.147654 34:1.585414 35:0.161644 36:0.037934 
1 1:-0.089262 2:-0.254405 3:7.620555 4:-0.638198 5:0.344934 6:-0.153533 7:1.771987 8:1.139178 9:-0.81669 10:0.995946 11:-0.090576 12:-0.246442 13:9.939611 14:-0.658887 15:0.953393 16:-0.153602 17:1.806018 18:1.041247 19:-0.824419 20:1.003151 21:-0.173254 22:-0.125678 23:1.966336 24:-0.260021 25:-0.185473 26:-0.121853 27:-0.120921 28:0.42728 29:-0.221907 30:-0.179497 31:1.796406 32:-0.028156 33:-0.14772 34:-0.045205 35:-0.074168 36:-0.086002 
0.6692635226175541 1:-0.081379 2:0.122558 3:0.586028 4:-0.638198 5:-0.014074 6:-0.149053 7:1.045908 8:1.615176 9:-0.81669 10:-1.334895 11:-0.090433 12:0.723256 13:2.324243 14:-0.658887 15:0.05052 16:-0.149532 17:0.892502 18:1.566603 19:-0.824419 20:-1.028599 21:-0.143478 22:1.851395 23:0.522556 24:-0.260021 25:4.622105 26:-0.121429 27:0.102952 28:-0.060364 29:-0.221907 30:1.054806 31:1.796406 32:-0.028156 33:-0.132872 34:-0.146968 35:-0.074168 36:0.047338 
1 1:-0.08885 2:-0.253396 3:-0.429861 4:-0.638198 5:0.344934 6:-0.161005 7:1.05643 8:1.606194 9:-0.81669 10:-1.148396 11:-0.090598 12:-0.212361 13:2.0335 14:-0.658887 15:1.022835 16:-0.161342 17:1.693488 18:1.59462 19:-0.824419 20:-0.938688 21:-0.12272 22:3.80892 23:0.891346 24:-0.260021 25:4.300543 26:-0.057913 27:4.985539 28:1.854833 29:-0.221907 30:3.069425 31:1.796406 32:-0.028056 33:3.102146 34:0.508833 35:-0.074168 36:0.9336 
1 1:-0.089098 2:-0.244578 3:-0.429861 4:3.170612 5:2.139976 6:-0.159061 7:-0.087994 8:1.720609 9:1.249658 10:0.39708 11:-0.090536 12:-0.243194 13:-0.366632 14:3.829422 15:3.076828 16:-0.159133 17:-0.087276 18:1.740866 19:1.206518 20:0.35566 21:-0.172498 22:-0.004538 23:-0.432992 24:0.345251 25:0.189598 26:-0.121304 27:-0.044742 28:-0.355701 29:0.669825 30:0.014486 31:1.796406 32:-0.028156 33:-0.142879 34:-0.163037 35:-0.017202 36:-0.080176 
0.2868656397742727 1:-0.089094 2:-0.288795 3:0.00467 4:-0.638198 5:-0.73209 6:-0.157496 7:1.055919 8:1.648267 9:-0.70324 10:-1.344033 11:-0.090476 12:-0.285575 13:-0.171743 14:0.86627 15:-0.194395 16:-0.157718 17:0.802209 18:1.382562 19:-0.682608 20:-1.187583 21:-0.149557 22:4.113183 23:4.045033 24:0.568418 25:2.913465 26:-0.121513 27:-0.286475 28:-0.351445 29:0.232061 30:0.121838 31:1.796406 32:-0.028156 33:-0.152574 34:-0.163034 35:-0.055764 36:-0.075033 
1 1:-0.089174 2:-0.252126 3:2.269324 4:5.405893 5:2.139976 6:-0.158004 7:2.655613 8:1.537614 9:0.865538 10:0.120391 11:-0.090427 12:-0.229066 13:3.788096 14:3.099104 15:3.140173 16:-0.158072 17:2.699367 18:0.998157 19:0.966152 20:0.059124 21:-0.172365 22:0.017159 23:5.952625 24:0.360642 25:0.179736 26:-0.121292 27:-0.043095 28:1.04833 29:0.419766 30:0.236923 31:1.796406 32:-0.028156 33:-0.142915 34:0.212886 35:-0.045592 36:-0.070869 
0.09350714597873108 1:-0.089272 2:-0.261901 3:-0.42986 4:-0.638198 5:1.421959 6:-0.156559 7:1.131328 8:1.718231 9:-0.765206 10:0.986197 11:-0.090555 12:-0.24566 13:0.019454 14:0.605463 15:1.092293 16:-0.156622 17:1.145328 18:1.137296 19:-0.775106 20:0.98108 21:-0.173142 22:-0.109358 23:6.824635 24:-0.205139 25:-0.076614 26:-0.121794 27:-0.11706 28:-0.28884 29:-0.17042 30:-0.127734 31:1.796406 32:-0.028156 33:-0.14782 34:-0.16207 35:-0.073986 36:-0.085232 
0.26105564274558 1:-0.087955 2:-0.158347 3:2.911599 4:-0.598295 5:0.703943 6:-0.152592 7:1.140043 8:1.519089 9:-0.649749 10:-1.202096 11:-0.08858 12:2.718638 13:5.150917 14:1.340886 15:1.01028 16:-0.153129 17:1.468665 18:1.482468 19:-0.625583 20:-1.148886 21:-0.147161 22:3.871937 23:0.85999 24:0.629078 25:1.452942 26:-0.095598 27:3.219329 28:1.020405 29:0.412587 30:0.81693 31:1.796406 32:-0.028135 33:1.307867 34:0.192636 35:-0.038931 36:0.032282 
1 1:-0.089214 2:-0.245723 3:5.049139 4:4.158759 5:2.139976 6:-0.154335 7:2.615819 8:1.14714 9:0.432366 10:0.295306 11:-0.090518 12:-0.237024 13:8.558141 14:3.467582 15:2.955788 16:-0.154397 17:2.658192 18:0.938692 19:0.355438 20:0.36344 21:-0.172945 22:-0.078633 23:2.784716 24:2.089858 25:1.156937 26:-0.121711 27:-0.116674 28:2.730588 29:1.396032 30:0.878548 31:1.796406 32:-0.028156 33:-0.148245 34:1.462216 35:0.143804 36:0.026008 
1 1:-0.089236 2:-0.239423 3:7.986658 4:0.768123 5:2.139976 6:-0.154199 7:2.477105 8:0.574201 9:-0.649521 10:0.877076 11:-0.090599 12:-0.225983 13:11.264938 14:1.496141 15:1.710354 16:-0.154268 17:2.52023 18:0.719403 19:-0.664317 20:0.880561 21:-0.173096 22:-0.101497 23:4.150674 24:-0.074551 25:-0.130591 26:-0.121753 27:-0.10343 28:6.194268 29:-0.028006 30:0.040748 31:1.796406 32:-0.028156 33:-0.147497 34:7.351578 35:-0.071282 36:-0.079536 
1 1:-0.089276 2:-0.256538 3:7.218438 4:-0.638198 5:0.344934 6:-0.153804 7:2.057633 8:1.256556 9:-0.81669 10:1.0057 11:-0.090624 12:-0.258452 13:8.374181 14:-0.658887 15:0.931786 16:-0.153875 17:2.098258 18:0.738544 19:-0.820764 20:0.997624 21:-0.173264 22:-0.128983 23:4.814559 24:-0.228678 25:-0.12789 26:-0.121887 27:-0.121843 28:4.124008 29:-0.169611 30:-0.158377 31:1.796406 32:-0.028156 33:-0.147929 34:2.998301 35:-0.07401 36:-0.08568 
0.03050719603465431 1:-0.081379 2:0.122558 3:0.586028 4:-0.638198 5:-0.014074 6:-0.149086 7:1.039248 8:1.610101 9:-0.81669 10:-1.310297 11:-0.090449 12:1.056506 13:2.496634 14:-0.658887 15:0.351856 16:-0.149589 17:0.886111 18:1.559365 19:-0.824419 20:-1.006055 21:-0.142868 22:1.916245 23:0.571041 24:-0.260021 25:4.829273 26:-0.121553 27:0.167022 28:-0.019863 29:-0.221907 30:1.23602 31:1.796406 32:-0.028156 33:-0.12436 34:-0.142712 35:-0.074168 36:0.095393 
1 1:-0.088856 2:-0.255685 3:2.953827 4:-0.638198 5:0.344934 6:-0.16103 7:1.056222 8:1.585007 9:-0.81669 10:-1.167362 11:-0.090577 12:-0.220753 13:2.513841 14:-0.658887 15:0.9402 16:-0.161372 17:1.718724 18:1.506377 19:-0.824419 20:-0.936608 21:-0.121926 22:3.898607 23:2.765386 24:-0.260021 25:4.329134 26:-0.057837 27:5.145635 28:1.953023 29:-0.221907 30:2.898894 31:1.796406 32:-0.028062 33:3.150495 34:0.603804 35:-0.074168 36:0.852322 
1 1:-0.089216 2:-0.256582 3:3.447966 4:-0.638198 5:2.139976 6:-0.16156 7:2.546188 8:1.71963 9:-0.81669 10:0.834332 11:-0.09053 12:-0.242257 13:-0.038969 14:-0.658887 15:1.785719 16:-0.161629 17:2.588947 18:1.471677 19:-0.824419 20:0.811713 21:-0.17259 22:-0.019536 23:3.625922 24:-0.260021 25:0.613245 26:-0.121441 27:-0.064975 28:1.340567 29:-0.221907 30:0.146379 31:1.796406 32:-0.028156 33:-0.144909 34:0.29127 35:-0.074168 36:-0.069683 
1 1:-0.089252 2:-0.260022 3:7.280482 4:-0.638198 5:0.703943 6:-0.161075 7:2.035141 8:-1.114193 9:-0.81669 10:0.970006 11:-0.090595 12:-0.250771 13:-0.366633 14:-0.658887 15:1.227771 16:-0.161143 17:2.067816 18:0.193272 19:-0.824419 20:0.978261 21:-0.173205 22:-0.119538 23:8.054961 24:-0.260021 25:-0.066654 26:-0.121786 27:-0.115881 28:8.358816 29:-0.221907 30:0.093571 31:1.796406 32:-0.028156 33:-0.147475 34:5.77119 35:-0.074168 36:-0.075309 
1 1:-0.089272 2:-0.261931 3:0.130029 4:-0.638198 5:1.421959 6:-0.160515 7:1.444516 8:-0.979495 9:-0.807644 10:0.937212 11:-0.090629 12:-0.255168 13:2.747957 14:-0.138529 15:1.42305 16:-0.160584 17:1.468145 18:0.658784 19:-0.815507 20:0.952854 21:-0.173258 22:-0.12821 23:7.917188 24:-0.257339 25:-0.144033 26:-0.121868 27:-0.127986 28:11.819798 29:-0.217324 30:-0.153479 31:1.796406 32:-0.028156 33:-0.148207 34:19.625122 35:-0.074167 36:-0.085664 
0.9664700405667988 1:-0.089079 2:-0.285928 3:-0.429861 4:-0.638198 5:-0.73209 6:-0.157521 7:1.055919 8:1.648327 9:-0.709169 10:-1.345487 11:-0.09044 12:-0.285575 13:-0.167727 14:0.819188 15:-0.226833 16:-0.157753 17:0.787006 18:1.373773 19:-0.680885 20:-1.170687 21:-0.148845 22:4.251102 23:4.059646 24:0.568314 25:3.125508 26:-0.121533 27:-0.281202 28:-0.335692 29:0.259566 30:0.11896 31:1.796406 32:-0.028156 33:-0.152571 34:-0.16297 35:-0.054224 36:-0.075372 
1 1:-0.08914 2:-0.248764 3:4.781237 4:5.405893 5:2.139976 6:-0.158024 7:2.676428 8:1.267678 9:0.895272 10:0.081597 11:-0.090482 12:-0.236098 13:6.057448 14:3.219896 15:3.133129 16:-0.158091 17:2.720177 18:0.870794 19:0.965521 20:0.051389 21:-0.172377 22:0.015175 23:5.747833 24:0.395064 25:0.208535 26:-0.121285 27:-0.041953 28:2.113055 29:0.483743 30:0.424659 31:1.796406 32:-0.028156 33:-0.142199 34:0.954458 35:-0.067297 36:-0.055291 
1 1:-0.089207 2:-0.255428 3:5.017222 4:1.665767 5:1.421959 6:-0.157889 7:2.533789 8:1.537374 9:-0.654062 10:0.853741 11:-0.090501 12:-0.238651 13:4.593361 14:1.111556 15:1.713741 16:-0.157954 17:2.57337 18:1.302914 19:-0.619373 20:0.838821 21:-0.172927 22:-0.074445 23:2.105936 24:0.516375 25:0.213959 26:-0.121684 27:-0.100725 28:1.074207 29:0.244233 30:-0.110839 31:1.796406 32:-0.028156 33:-0.147177 34:0.228688 35:-0.054819 36:-0.084935 
1 1:-0.089263 2:-0.261177 3:8.130429 4:-0.638198 5:1.421959 6:-0.157685 7:2.319178 8:-1.114193 9:-0.799265 10:0.949608 11:-0.090607 12:-0.25247 13:-0.366568 14:0.076294 15:1.272227 16:-0.157757 17:2.361808 18:0.297466 19:-0.794991 20:0.952414 21:-0.173144 22:-0.109669 23:7.200983 24:-0.174329 25:0.036295 26:-0.121856 27:-0.126092 28:9.219673 29:-0.216589 30:0.030046 31:1.796406 32:-0.028156 33:-0.148106 34:0.202711 35:-0.074168 36:-0.077908 
1 1:-0.089251 2:-0.259787 3:5.093884 4:-0.638198 5:0.344934 6:-0.157196 7:1.803571 8:0.709959 9:-0.81669 10:1.005007 11:-0.090608 12:-0.252452 13:8.704411 14:-0.658887 15:0.929849 16:-0.157262 17:1.831363 18:0.474263 19:-0.824419 20:1.00879 21:-0.173268 22:-0.129889 23:6.08858 24:-0.260021 25:-0.144023 26:-0.121859 27:-0.126569 28:2.467612 29:-0.221907 30:-0.014527 31:1.796406 32:-0.028156 33:-0.147986 34:1.473871 35:-0.074168 36:-0.081935 
